{"learner":{"attributes":{},"feature_names":["views.sum.view.throughput_fps","views.sum.view.avg_inference_time_ms","views.sum.view.inference_count","views.sum.view.avg_wait_to_preprocess_ms","views.sum.view.dropped_frames_due_to_full_queue","views.sum.view.exec_cpu","views.sum.view.exec_npu0","views.sum.view.exec_npu1","views.sum.view.static_infer_sel","views.sum.view.static_load_sel","views.sum.x.view_throughput__static_infer_sel","views.sum.x.view_wait__static_load_sel","views.mean.view.throughput_fps","views.mean.view.avg_inference_time_ms","views.mean.view.inference_count","views.mean.view.avg_wait_to_preprocess_ms","views.mean.view.dropped_frames_due_to_full_queue","views.mean.view.exec_cpu","views.mean.view.exec_npu0","views.mean.view.exec_npu1","views.mean.view.static_infer_sel","views.mean.view.static_load_sel","views.mean.x.view_throughput__static_infer_sel","views.mean.x.view_wait__static_load_sel","views.max.view.throughput_fps","views.max.view.avg_inference_time_ms","views.max.view.inference_count","views.max.view.avg_wait_to_preprocess_ms","views.max.view.dropped_frames_due_to_full_queue","views.max.view.exec_cpu","views.max.view.exec_npu0","views.max.view.exec_npu1","views.max.view.static_infer_sel","views.max.view.static_load_sel","views.max.x.view_throughput__static_infer_sel","views.max.x.view_wait__static_load_sel","views.count.views"],"feature_types":[],"gradient_booster":{"model":{"gbtree_model_param":{"num_parallel_tree":"1","num_trees":"400"},"iteration_indptr":[0,1,2,3,4,5,6,7,8,9,10,11,12,13,14,15,16,17,18,19,20,21,22,23,24,25,26,27,28,29,30,31,32,33,34,35,36,37,38,39,40,41,42,43,44,45,46,47,48,49,50,51,52,53,54,55,56,57,58,59,60,61,62,63,64,65,66,67,68,69,70,71,72,73,74,75,76,77,78,79,80,81,82,83,84,85,86,87,88,89,90,91,92,93,94,95,96,97,98,99,100,101,102,103,104,105,106,107,108,109,110,111,112,113,114,115,116,117,118,119,120,121,122,123,124,125,126,127,128,129,130,131,132,133,134,135,136,137,138,139,140,141,142,143,144,145,146,147,148,149,150,151,152,153,154,155,156,157,158,159,160,161,162,163,164,165,166,167,168,169,170,171,172,173,174,175,176,177,178,179,180,181,182,183,184,185,186,187,188,189,190,191,192,193,194,195,196,197,198,199,200,201,202,203,204,205,206,207,208,209,210,211,212,213,214,215,216,217,218,219,220,221,222,223,224,225,226,227,228,229,230,231,232,233,234,235,236,237,238,239,240,241,242,243,244,245,246,247,248,249,250,251,252,253,254,255,256,257,258,259,260,261,262,263,264,265,266,267,268,269,270,271,272,273,274,275,276,277,278,279,280,281,282,283,284,285,286,287,288,289,290,291,292,293,294,295,296,297,298,299,300,301,302,303,304,305,306,307,308,309,310,311,312,313,314,315,316,317,318,319,320,321,322,323,324,325,326,327,328,329,330,331,332,333,334,335,336,337,338,339,340,341,342,343,344,345,346,347,348,349,350,351,352,353,354,355,356,357,358,359,360,361,362,363,364,365,366,367,368,369,370,371,372,373,374,375,376,377,378,379,380,381,382,383,384,385,386,387,388,389,390,391,392,393,394,395,396,397,398,399,400],"tree_info":[0,0,0,0,0,0,0,0,0,0,0,0,0,0,0,0,0,0,0,0,0,0,0,0,0,0,0,0,0,0,0,0,0,0,0,0,0,0,0,0,0,0,0,0,0,0,0,0,0,0,0,0,0,0,0,0,0,0,0,0,0,0,0,0,0,0,0,0,0,0,0,0,0,0,0,0,0,0,0,0,0,0,0,0,0,0,0,0,0,0,0,0,0,0,0,0,0,0,0,0,0,0,0,0,0,0,0,0,0,0,0,0,0,0,0,0,0,0,0,0,0,0,0,0,0,0,0,0,0,0,0,0,0,0,0,0,0,0,0,0,0,0,0,0,0,0,0,0,0,0,0,0,0,0,0,0,0,0,0,0,0,0,0,0,0,0,0,0,0,0,0,0,0,0,0,0,0,0,0,0,0,0,0,0,0,0,0,0,0,0,0,0,0,0,0,0,0,0,0,0,0,0,0,0,0,0,0,0,0,0,0,0,0,0,0,0,0,0,0,0,0,0,0,0,0,0,0,0,0,0,0,0,0,0,0,0,0,0,0,0,0,0,0,0,0,0,0,0,0,0,0,0,0,0,0,0,0,0,0,0,0,0,0,0,0,0,0,0,0,0,0,0,0,0,0,0,0,0,0,0,0,0,0,0,0,0,0,0,0,0,0,0,0,0,0,0,0,0,0,0,0,0,0,0,0,0,0,0,0,0,0,0,0,0,0,0,0,0,0,0,0,0,0,0,0,0,0,0,0,0,0,0,0,0,0,0,0,0,0,0,0,0,0,0,0,0,0,0,0,0,0,0,0,0,0,0,0,0,0,0,0,0,0,0,0,0,0,0,0,0,0,0,0,0,0,0,0,0,0,0,0,0,0,0,0,0,0,0,0,0,0,0,0,0,0,0,0,0,0,0],"trees":[{"base_weights":[2.5319937E-1,-1.4735184E1,1.1767923E1,-2.0535161E0,-8.536959E0,6.298718E0,1.5464357E1,-1.1443881E0,-5.180723E0,1.0838103E0,8.0008936E-1,1.3098291E0,1.8073351E0,-5.740646E-1,-1.6458511E-1,-6.5075554E-4,1.9934931E-1],"categories":[],"categories_nodes":[],"categories_segments":[],"categories_sizes":[],"default_left":[0,0,0,0,0,0,0,0,0,0,0,0,0,0,0,0,0],"id":0,"left_children":[1,3,5,-1,7,9,11,-1,13,15,-1,-1,-1,-1,-1,-1,-1],"loss_changes":[2.899545E4,2.4490088E3,1.823167E3,0E0,3.016963E2,3.4639624E2,1.0896094E2,0E0,2.8157623E1,1.0923248E1,0E0,0E0,0E0,0E0,0E0,0E0,0E0],"parents":[2147483647,0,0,1,1,2,2,4,4,5,5,6,6,8,8,9,9],"right_children":[2,4,6,-1,8,10,12,-1,14,16,-1,-1,-1,-1,-1,-1,-1],"split_conditions":[8.78E2,4.95E2,1.247E3,-2.0535161E0,6.89E2,1.071E3,1.383E3,-1.1443881E0,8.31E2,9.59E2,8.0008936E-1,1.3098291E0,1.8073351E0,-5.740646E-1,-1.6458511E-1,-6.5075554E-4,1.9934931E-1],"split_indices":[4,4,4,0,4,4,4,0,4,4,0,0,0,0,0,0,0],"split_type":[0,0,0,0,0,0,0,0,0,0,0,0,0,0,0,0,0],"sum_hessian":[1.66E2,7.2E1,9.4E1,3.6E1,3.6E1,3.9E1,5.5E1,1.8E1,1.8E1,1E1,2.9E1,3.2E1,2.3E1,1.5E1,3E0,5E0,5E0],"tree_param":{"num_deleted":"0","num_feature":"37","num_nodes":"17","size_leaf_vector":"1"}},{"base_weights":[7.903057E-2,-1.3861854E1,1.1199522E1,-1.9584855E0,-8.376489E0,6.0645914E0,1.4263577E1,-1.100353E0,-4.8462462E0,9.4707227E-1,7.3101473E0,1.2247607E0,1.6944312E0,-5.464183E-1,-2.146775E-1,-3.120389E-2,1.7649467E-1,5.5502826E-1,8.4653443E-1],"categories":[],"categories_nodes":[],"categories_segments":[],"categories_sizes":[],"default_left":[0,0,0,0,0,0,0,0,0,0,0,0,0,0,0,0,0,0,0],"id":1,"left_children":[1,3,5,-1,7,9,11,-1,13,15,17,-1,-1,-1,-1,-1,-1,-1,-1],"loss_changes":[2.4804934E4,2.064833E3,1.3137969E3,0E0,2.990896E2,2.1617224E2,8.970801E1,0E0,1.8295471E1,8.789091E0,9.938721E0,0E0,0E0,0E0,0E0,0E0,0E0,0E0,0E0],"parents":[2147483647,0,0,1,1,2,2,4,4,5,5,6,6,8,8,9,9,10,10],"right_children":[2,4,6,-1,8,10,12,-1,14,16,18,-1,-1,-1,-1,-1,-1,-1,-1],"split_conditions":[8.78E2,4.4E2,1.262E3,-1.9584855E0,6.45E2,1.03E3,1.431E3,-1.100353E0,7.88E2,9.26E2,1.155E3,1.2247607E0,1.6944312E0,-5.464183E-1,-2.146775E-1,-3.120389E-2,1.7649467E-1,5.5502826E-1,8.4653443E-1],"split_indices":[4,4,4,0,4,4,4,0,4,4,4,0,0,0,0,0,0,0,0],"split_type":[0,0,0,0,0,0,0,0,0,0,0,0,0,0,0,0,0,0,0],"sum_hessian":[1.58E2,7E1,8.8E1,3.3E1,3.7E1,3.4E1,5.4E1,2E1,1.7E1,7E0,2.7E1,3.4E1,2E1,1.3E1,4E0,3E0,4E0,1.3E1,1.4E1],"tree_param":{"num_deleted":"0","num_feature":"37","num_nodes":"19","size_leaf_vector":"1"}},{"base_weights":[1.7492066E-1,-1.2698753E1,9.719725E0,-1.7230104E1,-7.345752E0,5.9827256E0,1.2931879E1,-1.8990487E0,-1.2790191E0,-9.4538987E-1,-4.6467366E0,1.27351E0,7.022732E0,1.105717E0,1.5112653E0,-5.389917E-1,-2.9212305E-1,2.668087E-2,2.0255093E-1,5.180741E-1,7.875692E-1],"categories":[],"categories_nodes":[],"categories_segments":[],"categories_sizes":[],"default_left":[0,0,0,0,0,0,0,0,0,0,0,0,0,0,0,0,0,0,0,0,0],"id":2,"left_children":[1,3,5,7,9,11,13,-1,-1,-1,15,17,19,-1,-1,-1,-1,-1,-1,-1,-1],"loss_changes":[1.904644E4,1.4743506E3,9.909717E2,3.0666016E1,1.381477E2,2.0165381E2,2.5047363E1,0E0,0E0,0E0,4.7726135E0,6.2729244E0,1.418811E1,0E0,0E0,0E0,0E0,0E0,0E0,0E0,0E0],"parents":[2147483647,0,0,1,1,2,2,3,3,4,4,5,5,6,6,10,10,11,11,12,12],"right_children":[2,4,6,8,10,12,14,-1,-1,-1,16,18,20,-1,-1,-1,-1,-1,-1,-1,-1],"split_conditions":[8.56E2,4.95E2,1.282E3,3.28E2,6.89E2,1.087E3,1.397E3,-1.8990487E0,-1.2790191E0,-9.4538987E-1,7.52E2,9.59E2,1.156E3,1.105717E0,1.5112653E0,-5.389917E-1,-2.9212305E-1,2.668087E-2,2.0255093E-1,5.180741E-1,7.875692E-1],"split_indices":[4,4,4,4,4,4,4,0,0,0,4,4,4,0,0,0,0,0,0,0,0],"split_type":[0,0,0,0,0,0,0,0,0,0,0,0,0,0,0,0,0,0,0,0,0],"sum_hessian":[1.53E2,6.5E1,8.8E1,3.4E1,3.1E1,4.2E1,4.6E1,2.2E1,1.2E1,1.6E1,1.5E1,8E0,3.4E1,2.8E1,1.8E1,9E0,6E0,4E0,4E0,1.3E1,2.1E1],"tree_param":{"num_deleted":"0","num_feature":"37","num_nodes":"21","size_leaf_vector":"1"}},{"base_weights":[2.6434043E-1,-1.0956113E1,8.793806E0,-1.5354163E1,-6.5012193E0,4.1403E0,1.1055867E1,-1.7132664E0,-1.1722083E0,-8.8424504E-1,-3.6945972E0,7.20558E-1,5.39268E-1,8.591461E-1,1.2852334E0,-4.2511937E-1,-1.285889E-1,3.942919E-3,1.0068376E0,1.2286782E-1,5.3328753E-2],"categories":[],"categories_nodes":[],"categories_segments":[],"categories_sizes":[],"default_left":[0,0,0,0,0,0,0,0,0,0,0,0,0,0,0,0,0,0,0,0,0],"id":3,"left_children":[1,3,5,7,9,11,13,-1,-1,-1,15,17,-1,-1,-1,-1,-1,-1,19,-1,-1],"loss_changes":[1.6174696E4,1.330457E3,9.64771E2,3.1716797E1,2.1702673E2,1.3744714E2,1.7292188E2,0E0,0E0,0E0,2.0006317E1,1.910234E0,0E0,0E0,0E0,0E0,0E0,0E0,8.012962E-2,0E0,0E0],"parents":[2147483647,0,0,1,1,2,2,3,3,4,4,5,5,6,6,10,10,11,11,18,18],"right_children":[2,4,6,8,10,12,14,-1,-1,-1,16,18,-1,-1,-1,-1,-1,-1,20,-1,-1],"split_conditions":[9.07E2,4.95E2,1.221E3,3.28E2,6.06E2,1.03E3,1.355E3,-1.7132664E0,-1.1722083E0,-8.8424504E-1,8.31E2,9.39E2,5.39268E-1,8.591461E-1,1.2852334E0,-4.2511937E-1,-1.285889E-1,3.942919E-3,1.56532E3,1.2286782E-1,5.3328753E-2],"split_indices":[4,4,4,4,4,4,4,0,0,0,4,4,0,0,0,0,0,0,1,0,0],"split_type":[0,0,0,0,0,0,0,0,0,0,0,0,0,0,0,0,0,0,0,0,0],"sum_hessian":[1.67E2,7.2E1,9.5E1,3.5E1,3.7E1,3.2E1,6.3E1,2.1E1,1.4E1,1.9E1,1.8E1,9E0,2.3E1,2.9E1,3.4E1,1.4E1,4E0,3E0,6E0,3E0,3E0],"tree_param":{"num_deleted":"0","num_feature":"37","num_nodes":"21","size_leaf_vector":"1"}},{"base_weights":[-4.6043512E-1,-9.254286E0,6.6720586E0,-1.4205247E0,-4.560631E0,-4.40858E0,8.175578E0,-8.555406E-1,-1.0623113E0,-4.9110365E-1,-2.1759067E-1,2.0371795E0,8.707157E0,-4.4902306E0,1.4620819E0,2.0907403E-3,3.2427612E-1,8.017437E0,1.2526541E0,-5.972535E-1,-2.5066054E-1,2.0458269E-1,2.6903552E-1,6.250283E0,8.839287E-1,6.1548617E-2,-3.6019232E-2,7.243421E-1,4.5707646E-1],"categories":[],"categories_nodes":[],"categories_segments":[],"categories_sizes":[],"default_left":[0,0,0,0,0,0,0,0,0,0,0,0,0,0,0,0,0,0,0,0,0,0,0,0,0,0,0,0,0],"id":4,"left_children":[1,3,5,-1,7,9,11,-1,13,-1,-1,15,17,19,21,-1,-1,23,-1,-1,-1,25,-1,27,-1,-1,-1,-1,-1],"loss_changes":[1.0787223E4,1.7245488E3,1.6187383E3,0E0,5.638862E2,2.7759094E0,2.5635742E2,0E0,2.0559366E2,0E0,0E0,1.9378448E1,1.02410645E2,1.4432571E1,2.1073336E1,0E0,0E0,4.351123E1,0E0,0E0,0E0,2.0782373E0,0E0,8.591797E0,0E0,0E0,0E0,0E0,0E0],"parents":[2147483647,0,0,1,1,2,2,4,4,5,5,6,6,8,8,11,11,12,12,13,13,14,14,17,17,21,21,23,23],"right_children":[2,4,6,-1,8,10,12,-1,14,-1,-1,16,18,20,22,-1,-1,24,-1,-1,-1,26,-1,28,-1,-1,-1,-1,-1],"split_conditions":[2.8425E2,1.2925E2,3E0,-1.4205247E0,1.066173E4,5.2293E2,1.4139E2,-8.555406E-1,2.15E2,-4.9110365E-1,-2.1759067E-1,2.455E1,2.12136E3,1.8E2,2.46E2,2.0907403E-3,3.2427612E-1,6.86052E2,1.2526541E0,-5.972535E-1,-2.5066054E-1,3.191E1,2.6903552E-1,9.07E1,8.839287E-1,6.1548617E-2,-3.6019232E-2,7.243421E-1,4.5707646E-1],"split_indices":[16,16,36,0,3,1,25,0,16,0,0,0,1,16,16,0,0,34,0,0,0,0,0,20,0,0,0,0,0],"split_type":[0,0,0,0,0,0,0,0,0,0,0,0,0,0,0,0,0,0,0,0,0,0,0,0,0,0,0,0,0],"sum_hessian":[1.7E2,7.6E1,9.4E1,3.6E1,4E1,1.1E1,8.3E1,1.8E1,2.2E1,8E0,3E0,7E0,7.6E1,9E0,1.3E1,3E0,4E0,6.7E1,9E0,4E0,5E0,7E0,6E0,2.4E1,4.3E1,4E0,3E0,1.3E1,1.1E1],"tree_param":{"num_deleted":"0","num_feature":"37","num_nodes":"29","size_leaf_vector":"1"}},{"base_weights":[-1.5701573E-1,-8.309166E0,6.2674766E0,-1.2563582E1,-3.2552557E0,-4.255098E0,7.907576E0,-1.4739809E0,-9.6854603E-1,-7.578566E-1,3.693598E-2,-4.6836835E-1,-2.012714E-1,5.3037405E-1,9.676263E0,-1.5020193E0,1.7124385E0,7.8270763E-1,1.1673998E0,-2.6379716E-1,-3.1377167E-1,7.6697275E-2,2.143137E-1,-6.655984E-2,1.16497995E-2],"categories":[],"categories_nodes":[],"categories_segments":[],"categories_sizes":[],"default_left":[0,0,0,0,0,0,0,0,0,0,0,0,0,0,0,0,0,0,0,0,0,0,0,0,0],"id":5,"left_children":[1,3,5,7,9,11,13,-1,-1,-1,15,-1,-1,-1,17,19,21,-1,-1,-1,23,-1,-1,-1,-1],"loss_changes":[9.2698E3,1.6362148E3,1.7421963E3,1.20302734E2,5.269071E2,4.027817E0,3.447412E2,0E0,0E0,0E0,5.929963E1,0E0,0E0,0E0,9.333594E1,1.5369791E1,2.8355865E0,0E0,0E0,0E0,1.1372033E0,0E0,0E0,0E0,0E0],"parents":[2147483647,0,0,1,1,2,2,3,3,4,4,5,5,6,6,10,10,14,14,15,15,16,16,20,20],"right_children":[2,4,6,8,10,12,14,-1,-1,-1,16,-1,-1,-1,18,20,22,-1,-1,-1,24,-1,-1,-1,-1],"split_conditions":[5.61E2,3.51E2,3E0,1.89E2,3.6105E2,5.2293E2,7.16E2,-1.4739809E0,-9.6854603E-1,-7.578566E-1,4.99E2,-4.6836835E-1,-2.012714E-1,5.3037405E-1,3.579E2,4.54E2,6.81894E2,7.8270763E-1,1.1673998E0,-2.6379716E-1,2.46E1,7.6697275E-2,2.143137E-1,-6.655984E-2,1.16497995E-2],"split_indices":[28,28,36,28,1,1,28,0,0,0,28,0,0,0,8,28,34,0,0,0,0,0,0,0,0],"split_type":[0,0,0,0,0,0,0,0,0,0,0,0,0,0,0,0,0,0,0,0,0,0,0,0,0],"sum_hessian":[1.75E2,7.7E1,9.8E1,4.1E1,3.6E1,1.3E1,8.5E1,2.1E1,2E1,1.5E1,2.1E1,1E1,3E0,3.6E1,4.9E1,1.1E1,1E1,2.8E1,2.1E1,5E0,6E0,4E0,6E0,3E0,3E0],"tree_param":{"num_deleted":"0","num_feature":"37","num_nodes":"25","size_leaf_vector":"1"}},{"base_weights":[1.956655E-1,-8.541082E0,6.6551805E0,-1.2238206E0,-5.537377E0,3.2401836E0,8.561487E0,-6.812194E-1,-2.5922163E0,7.9692286E-1,4.2833414E0,7.312002E-1,1.0593268E0,-3.1205103E-1,-1.3677393E-1,1.967179E-2,1.1975381E0,2.4092217E-1,4.525592E-1,6.480294E-2,1.4476624E-1],"categories":[],"categories_nodes":[],"categories_segments":[],"categories_sizes":[],"default_left":[0,0,0,0,0,0,0,0,0,0,0,0,0,0,0,0,0,0,0,0,0],"id":6,"left_children":[1,3,5,-1,7,9,11,-1,13,15,17,-1,-1,-1,-1,-1,19,-1,-1,-1,-1],"loss_changes":[9.425078E3,7.206919E2,5.9722217E2,0E0,1.3627747E2,8.8339935E1,7.7401855E1,0E0,4.7883224E0,2.649837E0,4.4702148E-1,0E0,0E0,0E0,0E0,0E0,2.3991585E-2,0E0,0E0,0E0,0E0],"parents":[2147483647,0,0,1,1,2,2,4,4,5,5,6,6,8,8,9,9,10,10,16,16],"right_children":[2,4,6,-1,8,10,12,-1,14,16,18,-1,-1,-1,-1,-1,20,-1,-1,-1,-1],"split_conditions":[9.07E2,3.96E2,1.236E3,-1.2238206E0,6.89E2,1.071E3,1.431E3,-6.812194E-1,7.78E2,9.59E2,1.116E3,7.312002E-1,1.0593268E0,-3.1205103E-1,-1.3677393E-1,1.967179E-2,9.84E2,2.4092217E-1,4.525592E-1,6.480294E-2,1.4476624E-1],"split_indices":[4,4,4,0,4,4,4,0,4,4,4,0,0,0,0,0,4,0,0,0,0],"split_type":[0,0,0,0,0,0,0,0,0,0,0,0,0,0,0,0,0,0,0,0,0],"sum_hessian":[1.65E2,7E1,9.5E1,3E1,4E1,3.5E1,6E1,2.7E1,1.3E1,1.1E1,2.4E1,4E1,2E1,8E0,5E0,5E0,6E0,4E0,2E1,3E0,3E0],"tree_param":{"num_deleted":"0","num_feature":"37","num_nodes":"21","size_leaf_vector":"1"}},{"base_weights":[-9.671376E-2,-7.7906194E0,5.778168E0,-1.1214894E1,-4.6933966E0,3.6724296E0,8.4764606E-1,-1.212235E0,-7.91551E-1,-6.179424E-1,-2.616397E0,1.1493495E0,4.444398E0,-3.2556233E-1,-1.6154347E-1,4.32048E-1,1.6333197E-1,3.1634578E-1,5.137661E-1,1.5665626E-2,5.994277E-2],"categories":[],"categories_nodes":[],"categories_segments":[],"categories_sizes":[],"default_left":[0,0,0,0,0,0,0,0,0,0,0,0,0,0,0,0,0,0,0,0,0],"id":7,"left_children":[1,3,5,7,9,11,-1,-1,-1,-1,13,15,17,-1,-1,19,-1,-1,-1,-1,-1],"loss_changes":[7.412744E3,7.003716E2,4.972871E2,2.8486328E0,1.04204895E2,1.0006964E2,0E0,0E0,0E0,0E0,6.257904E0,4.154461E0,2.0156372E1,0E0,0E0,2.2876096E-1,0E0,0E0,0E0,0E0,0E0],"parents":[2147483647,0,0,1,1,2,2,3,3,4,4,5,5,10,10,11,11,12,12,15,15],"right_children":[2,4,6,8,10,12,-1,-1,-1,-1,14,16,18,-1,-1,20,-1,-1,-1,-1,-1],"split_conditions":[8.78E2,4.05E2,1.306E3,2.82E2,6.06E2,1.105E3,8.4764606E-1,-1.212235E0,-7.91551E-1,-6.179424E-1,7.68E2,9.84E2,1.185E3,-3.2556233E-1,-1.6154347E-1,9.59E2,1.6333197E-1,3.1634578E-1,5.137661E-1,1.5665626E-2,5.994277E-2],"split_indices":[4,4,4,4,4,4,0,0,0,0,4,4,4,0,0,4,0,0,0,0,0],"split_type":[0,0,0,0,0,0,0,0,0,0,0,0,0,0,0,0,0,0,0,0,0],"sum_hessian":[1.62E2,7E1,9.2E1,3.2E1,3.8E1,5.3E1,3.9E1,2.3E1,9E0,2.1E1,1.7E1,1.3E1,4E1,9E0,8E0,6E0,7E0,1.6E1,2.4E1,3E0,3E0],"tree_param":{"num_deleted":"0","num_feature":"37","num_nodes":"21","size_leaf_vector":"1"}},{"base_weights":[1.6978271E-1,-7.006231E0,5.147325E0,-1.0380604E0,-4.2309117E0,3.0317059E0,7.2879343E0,-5.4906607E-1,-2.615878E0,8.9213383E-1,3.8171618E0,6.209168E-1,8.8898516E-1,-3.136403E-1,-1.5081064E-1,3.579449E-1,1.4515005E-1,2.9092503E-1,4.4434243E-1,3.827095E-3,5.114034E-2],"categories":[],"categories_nodes":[],"categories_segments":[],"categories_sizes":[],"default_left":[0,0,0,0,0,0,0,0,0,0,0,0,0,0,0,0,0,0,0,0,0],"id":8,"left_children":[1,3,5,-1,7,9,11,-1,13,15,17,-1,-1,-1,-1,19,-1,-1,-1,-1,-1],"loss_changes":[5.929683E3,5.9289795E2,4.21719E2,0E0,6.498401E1,8.230209E1,2.775E1,0E0,6.2257996E0,3.962556E0,8.11084E0,0E0,0E0,0E0,0E0,4.219383E-1,0E0,0E0,0E0,0E0,0E0],"parents":[2147483647,0,0,1,1,2,2,4,4,5,5,6,6,8,8,9,9,10,10,15,15],"right_children":[2,4,6,-1,8,10,12,-1,14,16,18,-1,-1,-1,-1,20,-1,-1,-1,-1,-1],"split_conditions":[8.78E2,3.72E2,1.288E3,-1.0380604E0,6.45E2,1.102E3,1.468E3,-5.4906607E-1,7.62E2,9.84E2,1.185E3,6.209168E-1,8.8898516E-1,-3.136403E-1,-1.5081064E-1,9.39E2,1.4515005E-1,2.9092503E-1,4.4434243E-1,3.827095E-3,5.114034E-2],"split_indices":[4,4,4,0,4,4,4,0,4,4,4,0,0,0,0,4,0,0,0,0,0],"split_type":[0,0,0,0,0,0,0,0,0,0,0,0,0,0,0,0,0,0,0,0,0],"sum_hessian":[1.64E2,6.7E1,9.7E1,2.9E1,3.8E1,5E1,4.7E1,2E1,1.8E1,1.4E1,3.6E1,3.1E1,1.6E1,1.1E1,7E0,8E0,6E0,1.7E1,1.9E1,3E0,5E0],"tree_param":{"num_deleted":"0","num_feature":"37","num_nodes":"21","size_leaf_vector":"1"}},{"base_weights":[2.3366603E-1,-6.4676065E0,4.8063264E0,-9.177473E0,-4.0088067E0,3.0491745E0,6.8724647E0,-1.0575536E0,-7.031061E-1,-5.120884E-1,-2.5686786E0,1.1562157E0,3.8058596E0,5.7960063E-1,8.153772E-1,-3.0911228E-1,-1.6447268E-1,3.759613E-1,1.8946967E-1,2.7716044E-1,4.2394876E-1,3.540039E-3,5.1685877E-2],"categories":[],"categories_nodes":[],"categories_segments":[],"categories_sizes":[],"default_left":[0,0,0,0,0,0,0,0,0,0,0,0,0,0,0,0,0,0,0,0,0,0,0],"id":9,"left_children":[1,3,5,7,9,11,13,-1,-1,-1,15,17,19,-1,-1,-1,-1,21,-1,-1,-1,-1,-1],"loss_changes":[5.3629053E3,4.362837E2,3.5661865E2,2.4669922E1,4.930591E1,7.867731E1,1.7566406E1,0E0,0E0,0E0,4.087494E0,9.659319E0,6.637512E0,0E0,0E0,0E0,0E0,4.6154463E-1,0E0,0E0,0E0,0E0,0E0],"parents":[2147483647,0,0,1,1,2,2,3,3,4,4,5,5,6,6,10,10,11,11,12,12,17,17],"right_children":[2,4,6,8,10,12,14,-1,-1,-1,16,18,20,-1,-1,-1,-1,22,-1,-1,-1,-1,-1],"split_conditions":[8.56E2,4.05E2,1.307E3,2.39E2,5.96E2,1.123E3,1.47E3,-1.0575536E0,-7.031061E-1,-5.120884E-1,7.41E2,1.004E3,1.19E3,5.7960063E-1,8.153772E-1,-3.0911228E-1,-1.6447268E-1,9.39E2,1.8946967E-1,2.7716044E-1,4.2394876E-1,3.540039E-3,5.1685877E-2],"split_indices":[4,4,4,4,4,4,4,0,0,0,4,4,4,0,0,0,0,4,0,0,0,0,0],"split_type":[0,0,0,0,0,0,0,0,0,0,0,0,0,0,0,0,0,0,0,0,0,0,0],"sum_hessian":[1.73E2,7E1,1.03E2,3.2E1,3.8E1,5.7E1,4.6E1,1.7E1,1.5E1,2E1,1.8E1,1.7E1,4E1,2.8E1,1.8E1,1E1,8E0,9E0,8E0,1.4E1,2.6E1,3E0,6E0],"tree_param":{"num_deleted":"0","num_feature":"37","num_nodes":"23","size_leaf_vector":"1"}},{"base_weights":[6.7417957E-3,-5.731591E0,4.381444E0,-8.504507E-1,-3.780698E0,2.8473802E0,6.3844275E0,-4.7415566E-1,-2.2464614E0,1.1371464E0,3.512543E0,5.3061694E-1,7.467167E-1,-2.7441642E-1,-1.3332509E-1,3.126371E-1,1.6334125E-1,2.535983E-1,3.9102522E-1,3.2745362E-3,4.7402304E-2],"categories":[],"categories_nodes":[],"categories_segments":[],"categories_sizes":[],"default_left":[0,0,0,0,0,0,0,0,0,0,0,0,0,0,0,0,0,0,0,0,0],"id":10,"left_children":[1,3,5,-1,7,9,11,-1,13,15,17,-1,-1,-1,-1,19,-1,-1,-1,-1,-1],"loss_changes":[4.468432E3,3.8439087E2,2.921643E2,0E0,5.8634888E1,6.312314E1,1.0579102E1,0E0,5.431488E0,6.8545036E0,6.395935E0,0E0,0E0,0E0,0E0,3.4584266E-1,0E0,0E0,0E0,0E0,0E0],"parents":[2147483647,0,0,1,1,2,2,4,4,5,5,6,6,8,8,9,9,10,10,15,15],"right_children":[2,4,6,-1,8,10,12,-1,14,16,18,-1,-1,-1,-1,20,-1,-1,-1,-1,-1],"split_conditions":[9.07E2,3.96E2,1.323E3,-8.504507E-1,5.96E2,1.123E3,1.47E3,-4.7415566E-1,7.52E2,1.004E3,1.19E3,5.3061694E-1,7.467167E-1,-2.7441642E-1,-1.3332509E-1,9.39E2,1.6334125E-1,2.535983E-1,3.9102522E-1,3.2745362E-3,4.7402304E-2],"split_indices":[4,4,4,0,4,4,4,0,4,4,4,0,0,0,0,4,0,0,0,0,0],"split_type":[0,0,0,0,0,0,0,0,0,0,0,0,0,0,0,0,0,0,0,0,0],"sum_hessian":[1.76E2,7.6E1,1E2,3E1,4.6E1,5.8E1,4.2E1,2.7E1,1.9E1,1.7E1,4.1E1,2.4E1,1.8E1,1.1E1,8E0,7E0,1E1,1.4E1,2.7E1,3E0,4E0],"tree_param":{"num_deleted":"0","num_feature":"37","num_nodes":"21","size_leaf_vector":"1"}},{"base_weights":[-3.2027638E-1,-5.0952563E0,3.9983234E0,-7.810717E0,-3.4050865E0,2.65929E0,5.8498925E-1,-8.6727744E-1,-5.690014E-1,-4.3985954E-1,-2.0310035E0,9.841262E-1,3.2212632E0,-2.5792387E-1,-1.24829225E-1,3.8209862E-1,1.3878846E-1,2.3540878E-1,3.5928962E-1,1.7340517E-2,4.952674E-2],"categories":[],"categories_nodes":[],"categories_segments":[],"categories_sizes":[],"default_left":[0,0,0,0,0,0,0,0,0,0,0,0,0,0,0,0,0,0,0,0,0],"id":11,"left_children":[1,3,5,7,9,11,-1,-1,-1,-1,13,15,17,-1,-1,19,-1,-1,-1,-1,-1],"loss_changes":[3.2579055E3,3.1762317E2,1.9022632E2,1.8405762E0,5.65943E1,4.389972E1,0E0,0E0,0E0,0E0,6.220772E0,2.8727236E0,3.466034E0,0E0,0E0,7.944119E-2,0E0,0E0,0E0,0E0,0E0],"parents":[2147483647,0,0,1,1,2,2,3,3,4,4,5,5,10,10,11,11,12,12,15,15],"right_children":[2,4,6,8,10,12,-1,-1,-1,-1,14,16,18,-1,-1,20,-1,-1,-1,-1,-1],"split_conditions":[9.07E2,3.54E2,1.328E3,2.46E2,5.96E2,1.123E3,5.8498925E-1,-8.6727744E-1,-5.690014E-1,-4.3985954E-1,7.41E2,1.004E3,1.201E3,-2.5792387E-1,-1.24829225E-1,9.4E2,1.3878846E-1,2.3540878E-1,3.5928962E-1,1.7340517E-2,4.952674E-2],"split_indices":[4,4,4,4,4,4,0,0,0,0,4,4,4,0,0,4,0,0,0,0,0],"split_type":[0,0,0,0,0,0,0,0,0,0,0,0,0,0,0,0,0,0,0,0,0],"sum_hessian":[1.56E2,7.4E1,8.2E1,2.7E1,4.7E1,4.9E1,3.3E1,1.7E1,1E1,2.6E1,2.1E1,1.3E1,3.6E1,1.1E1,1E1,6E0,7E0,1.3E1,2.3E1,3E0,3E0],"tree_param":{"num_deleted":"0","num_feature":"37","num_nodes":"21","size_leaf_vector":"1"}},{"base_weights":[1.1213853E-1,-4.6315646E0,3.4651394E0,-6.508056E0,-2.6785438E0,2.02897E0,5.0109234E0,-7.8505754E-1,-5.357905E-1,-3.1534144E-1,-1.3126187E-1,4.739842E-1,2.472527E0,4.065814E-1,5.9874487E-1,9.205914E-3,7.0118E-2,1.8819904E-1,2.896991E-1],"categories":[],"categories_nodes":[],"categories_segments":[],"categories_sizes":[],"default_left":[0,0,0,0,0,0,0,0,0,0,0,0,0,0,0,0,0,0,0],"id":12,"left_children":[1,3,5,7,9,11,13,-1,-1,-1,-1,15,17,-1,-1,-1,-1,-1,-1],"loss_changes":[2.6881968E3,2.3910583E2,2.0961377E2,1.1980957E1,1.92117E1,3.53835E1,1.903357E1,0E0,0E0,0E0,0E0,1.0634828E0,4.824997E0,0E0,0E0,0E0,0E0,0E0,0E0],"parents":[2147483647,0,0,1,1,2,2,3,3,4,4,5,5,6,6,11,11,12,12],"right_children":[2,4,6,8,10,12,14,-1,-1,-1,-1,16,18,-1,-1,-1,-1,-1,-1],"split_conditions":[8.6E2,4.4E2,1.302E3,2.23E2,7.06E2,1.071E3,1.444E3,-7.8505754E-1,-5.357905E-1,-3.1534144E-1,-1.3126187E-1,9.59E2,1.168E3,4.065814E-1,5.9874487E-1,9.205914E-3,7.0118E-2,1.8819904E-1,2.896991E-1],"split_indices":[4,4,4,4,4,4,4,0,0,0,0,4,4,0,0,0,0,0,0],"split_type":[0,0,0,0,0,0,0,0,0,0,0,0,0,0,0,0,0,0,0],"sum_hessian":[1.67E2,6.9E1,9.8E1,3.4E1,3.5E1,5.2E1,4.6E1,1.3E1,2.1E1,2.5E1,1E1,1.2E1,4E1,2.6E1,2E1,5E0,7E0,1.9E1,2.1E1],"tree_param":{"num_deleted":"0","num_feature":"37","num_nodes":"19","size_leaf_vector":"1"}},{"base_weights":[-8.2977615E-2,-4.212966E0,3.1597335E0,-6.1479025E0,-2.462946E0,2.0516539E0,4.9373612E0,-7.2681934E-1,-4.7483E-1,-3.133268E-1,-1.261634E0,6.037688E-1,2.5315292E0,3.9087915E-1,5.6916326E-1,-1.5400948E-1,-6.835995E-2,1.6789794E-1,9.241242E-2,1.768022E-1,2.8654805E-1,2.6664773E-2,2.486229E-4],"categories":[],"categories_nodes":[],"categories_segments":[],"categories_sizes":[],"default_left":[0,0,0,0,0,0,0,0,0,0,0,0,0,0,0,0,0,0,0,0,0,0,0],"id":13,"left_children":[1,3,5,7,9,11,13,-1,-1,-1,15,17,19,-1,-1,-1,-1,21,-1,-1,-1,-1,-1],"loss_changes":[2.2230513E3,2.3204907E2,1.7305719E2,1.8799072E1,2.8257614E1,3.946498E1,4.906311E0,0E0,0E0,0E0,1.5225506E0,2.0789785E0,6.1526184E0,0E0,0E0,0E0,0E0,1.3001204E-1,0E0,0E0,0E0,0E0,0E0],"parents":[2147483647,0,0,1,1,2,2,3,3,4,4,5,5,6,6,10,10,11,11,12,12,17,17],"right_children":[2,4,6,8,10,12,14,-1,-1,-1,16,18,20,-1,-1,-1,-1,22,-1,-1,-1,-1,-1],"split_conditions":[9.07E2,4.05E2,1.336E3,2.23E2,6.99E2,1.105E3,1.47E3,-7.2681934E-1,-4.7483E-1,-3.133268E-1,7.88E2,9.69E2,1.168E3,3.9087915E-1,5.6916326E-1,-1.5400948E-1,-6.835995E-2,2.564E1,9.241242E-2,1.768022E-1,2.8654805E-1,2.6664773E-2,2.486229E-4],"split_indices":[4,4,4,4,4,4,4,0,0,0,4,4,4,0,0,0,0,0,0,0,0,0,0],"split_type":[0,0,0,0,0,0,0,0,0,0,0,0,0,0,0,0,0,0,0,0,0,0,0],"sum_hessian":[1.64E2,7.2E1,9.2E1,3.3E1,3.9E1,5.8E1,3.4E1,1.6E1,1.7E1,2.4E1,1.5E1,1.5E1,4.3E1,1.7E1,1.7E1,9E0,6E0,7E0,8E0,1.5E1,2.8E1,4E0,3E0],"tree_param":{"num_deleted":"0","num_feature":"37","num_nodes":"23","size_leaf_vector":"1"}},{"base_weights":[-1.543338E-1,-3.957262E0,2.8474689E0,-6.088173E-1,-2.7396019E0,1.6065335E0,3.948611E0,-3.5398898E-1,-1.6692799E0,3.8063356E-1,2.0543513E0,3.28855E-1,5.021945E-1,-2.0007594E-1,-9.681695E-2,7.5374604E-3,5.619986E-2,1.3711074E-1,2.2249697E-1],"categories":[],"categories_nodes":[],"categories_segments":[],"categories_sizes":[],"default_left":[0,0,0,0,0,0,0,0,0,0,0,0,0,0,0,0,0,0,0],"id":14,"left_children":[1,3,5,-1,7,9,11,-1,13,15,17,-1,-1,-1,-1,-1,-1,-1,-1],"loss_changes":[1.8377705E3,1.6754626E2,1.16636536E2,0E0,3.4349518E1,2.3373154E1,1.6782959E1,0E0,3.1758118E0,6.773623E-1,6.7970276E-1,0E0,0E0,0E0,0E0,0E0,0E0,0E0,0E0],"parents":[2147483647,0,0,1,1,2,2,4,4,5,5,6,6,8,8,9,9,10,10],"right_children":[2,4,6,-1,8,10,12,-1,14,16,18,-1,-1,-1,-1,-1,-1,-1,-1],"split_conditions":[8.78E2,3.54E2,1.284E3,-6.088173E-1,5.5E2,1.071E3,1.468E3,-3.5398898E-1,7.41E2,9.59E2,1.142E3,3.28855E-1,5.021945E-1,-2.0007594E-1,-9.681695E-2,7.5374604E-3,5.619986E-2,1.3711074E-1,2.2249697E-1],"split_indices":[4,4,4,0,4,4,4,0,4,4,4,0,0,0,0,0,0,0,0],"split_type":[0,0,0,0,0,0,0,0,0,0,0,0,0,0,0,0,0,0,0],"sum_hessian":[1.59E2,7E1,8.9E1,2.4E1,4.6E1,4.3E1,4.6E1,2.5E1,2.1E1,1.2E1,3.1E1,3.1E1,1.5E1,1.3E1,8E0,5E0,7E0,8E0,2.3E1],"tree_param":{"num_deleted":"0","num_feature":"37","num_nodes":"19","size_leaf_vector":"1"}},{"base_weights":[-1.8923806E-1,-3.5454435E0,2.5123754E0,-4.759956E0,-1.8026471E0,1.4794602E0,3.5131283E0,-6.089559E-1,-3.7465042E-1,-2.1236329E-1,-8.8411465E-2,3.285127E-1,1.7816485E0,2.8123876E-1,4.2134205E-1,4.4381716E-3,4.8453305E-2,1.2756328E-1,2.002589E-1],"categories":[],"categories_nodes":[],"categories_segments":[],"categories_sizes":[],"default_left":[0,0,0,0,0,0,0,0,0,0,0,0,0,0,0,0,0,0,0],"id":15,"left_children":[1,3,5,7,9,11,13,-1,-1,-1,-1,15,17,-1,-1,-1,-1,-1,-1],"loss_changes":[1.5049906E3,1.4805133E2,8.990222E1,3.5127563E1,7.5572205E0,1.5761436E1,1.072345E1,0E0,0E0,0E0,0E0,4.66128E-1,1.5820007E0,0E0,0E0,0E0,0E0,0E0,0E0],"parents":[2147483647,0,0,1,1,2,2,3,3,4,4,5,5,6,6,11,11,12,12],"right_children":[2,4,6,8,10,12,14,-1,-1,-1,-1,16,18,-1,-1,-1,-1,-1,-1],"split_conditions":[9.07E2,5.21E2,1.284E3,2.23E2,7.41E2,1.03E3,1.374E3,-6.089559E-1,-3.7465042E-1,-2.1236329E-1,-8.8411465E-2,9.4E2,1.155E3,2.8123876E-1,4.2134205E-1,4.4381716E-3,4.8453305E-2,1.2756328E-1,2.002589E-1],"split_indices":[4,4,4,4,4,4,4,0,0,0,0,4,4,0,0,0,0,0,0],"split_type":[0,0,0,0,0,0,0,0,0,0,0,0,0,0,0,0,0,0,0],"sum_hessian":[1.64E2,7.3E1,9.1E1,4.2E1,3.1E1,4.6E1,4.5E1,1.6E1,2.6E1,2.2E1,9E0,1E1,3.6E1,2.5E1,2E1,4E0,6E0,1.3E1,2.3E1],"tree_param":{"num_deleted":"0","num_feature":"37","num_nodes":"19","size_leaf_vector":"1"}},{"base_weights":[-2.3108996E-1,-2.9303823E0,2.402791E0,-4.140396E0,-1.4373001E0,1.5934554E0,3.4826694E0,-5.175746E-1,-3.2293287E-1,-1.8046768E-1,-7.3108834E-1,3.2340539E-1,1.8456861E0,3.0253407E-1,4.5336547E-1,-8.984005E-2,-3.5827223E-2,1.609337E-2,4.21196E-2,1.3987264E-1,2.1274856E-1],"categories":[],"categories_nodes":[],"categories_segments":[],"categories_sizes":[],"default_left":[0,0,0,0,0,0,0,0,0,0,0,0,0,0,0,0,0,0,0,0,0],"id":16,"left_children":[1,3,5,7,9,11,13,-1,-1,-1,15,17,19,-1,-1,-1,-1,-1,-1,-1,-1],"loss_changes":[1.1090315E3,1.3316107E2,6.349524E1,2.290332E1,8.020668E0,1.4459328E1,2.1454773E0,0E0,0E0,0E0,5.5140066E-1,7.520926E-2,1.9364014E0,0E0,0E0,0E0,0E0,0E0,0E0,0E0,0E0],"parents":[2147483647,0,0,1,1,2,2,3,3,4,4,5,5,6,6,10,10,11,11,12,12],"right_children":[2,4,6,8,10,12,14,-1,-1,-1,16,18,20,-1,-1,-1,-1,-1,-1,-1,-1],"split_conditions":[9.22E2,5.27E2,1.328E3,2.4E2,7.41E2,1.03E3,1.496E3,-5.175746E-1,-3.2293287E-1,-1.8046768E-1,8.31E2,9.64E2,1.214E3,3.0253407E-1,4.5336547E-1,-8.984005E-2,-3.5827223E-2,1.609337E-2,4.21196E-2,1.3987264E-1,2.1274856E-1],"split_indices":[4,4,4,4,4,4,4,0,0,0,4,4,4,0,0,0,0,0,0,0,0],"split_type":[0,0,0,0,0,0,0,0,0,0,0,0,0,0,0,0,0,0,0,0,0],"sum_hessian":[1.54E2,7.6E1,7.8E1,4.1E1,3.5E1,4.6E1,3.2E1,1.7E1,2.4E1,2.2E1,1.3E1,8E0,3.8E1,2.5E1,7E0,8E0,5E0,4E0,4E0,1.7E1,2.1E1],"tree_param":{"num_deleted":"0","num_feature":"37","num_nodes":"21","size_leaf_vector":"1"}},{"base_weights":[-9.08035E-3,-2.7125611E0,2.07062E0,-3.5627577E0,-1.2265902E0,1.0973423E0,2.8124588E0,-4.4586405E-1,-2.8335488E-1,-1.4876579E-1,-5.3915954E-1,2.6579127E-1,1.3933846E0,2.360328E-1,3.6539742E-1,-6.2167674E-2,-2.8059388E-2,2.850609E-3,3.808706E-2,1.0141983E-1,1.5595345E-1],"categories":[],"categories_nodes":[],"categories_segments":[],"categories_sizes":[],"default_left":[0,0,0,0,0,0,0,0,0,0,0,0,0,0,0,0,0,0,0,0,0],"id":17,"left_children":[1,3,5,7,9,11,13,-1,-1,-1,15,17,19,-1,-1,-1,-1,-1,-1,-1,-1],"loss_changes":[9.0520544E2,8.4065674E1,6.2617157E1,1.611084E1,4.043499E0,9.722794E0,1.0779633E1,0E0,0E0,0E0,1.758647E-2,3.168223E-1,3.083763E-1,0E0,0E0,0E0,0E0,0E0,0E0,0E0,0E0],"parents":[2147483647,0,0,1,1,2,2,3,3,4,4,5,5,6,6,10,10,11,11,12,12],"right_children":[2,4,6,8,10,12,14,-1,-1,-1,16,18,20,-1,-1,-1,-1,-1,-1,-1,-1],"split_conditions":[9.07E2,5.42E2,1.257E3,2.59E2,7.68E2,1.071E3,1.444E3,-4.4586405E-1,-2.8335488E-1,-1.4876579E-1,2.46E1,9.59E2,1.155E3,2.360328E-1,3.6539742E-1,-6.2167674E-2,-2.8059388E-2,2.850609E-3,3.808706E-2,1.0141983E-1,1.5595345E-1],"split_indices":[4,4,4,4,4,4,4,0,0,0,0,4,4,0,0,0,0,0,0,0,0],"split_type":[0,0,0,0,0,0,0,0,0,0,0,0,0,0,0,0,0,0,0,0,0],"sum_hessian":[1.59E2,6.9E1,9E1,4.3E1,2.6E1,4E1,5E1,1.7E1,2.6E1,1.8E1,8E0,1.1E1,2.9E1,3.5E1,1.5E1,5E0,3E0,4E0,7E0,1.1E1,1.8E1],"tree_param":{"num_deleted":"0","num_feature":"37","num_nodes":"21","size_leaf_vector":"1"}},{"base_weights":[-7.970961E-2,-2.4550972E0,1.6597979E0,-3.4399467E0,-1.0733575E0,-1.09207846E-1,1.9886581E0,-4.7581902E-1,-2.7979845E-1,-2.0342295E-1,-2.663816E-1,1.7042361E0,3.624276E-1,-9.1371916E-2,2.2862591E-1,3.7899703E-1,1.8765967E0,2.268219E-2,4.712219E-2,-1.0873489E-2,7.222741E-2,1.0189749E-1,1.9293246E0,1.29807E-2,-9.011316E-3,1.9847731E-1,1.2101195E-1],"categories":[],"categories_nodes":[],"categories_segments":[],"categories_sizes":[],"default_left":[0,0,0,0,0,0,0,0,0,0,0,0,0,0,0,0,0,0,0,0,0,0,0,0,0,0,0],"id":18,"left_children":[1,3,5,7,9,-1,11,-1,-1,-1,13,15,-1,-1,17,19,21,23,-1,-1,-1,-1,25,-1,-1,-1,-1],"loss_changes":[6.9411975E2,9.29249E1,8.995508E1,2.1383362E1,2.349554E1,0E0,3.4296265E1,0E0,0E0,0E0,5.976765E0,1.664862E1,0E0,0E0,5.388839E-1,1.7528083E0,1.063858E0,9.6279584E-2,0E0,0E0,0E0,0E0,7.067871E-2,0E0,0E0,0E0,0E0],"parents":[2147483647,0,0,1,1,2,2,3,3,4,4,6,6,10,10,11,11,14,14,15,15,16,16,17,17,22,22],"right_children":[2,4,6,8,10,-1,12,-1,-1,-1,14,16,-1,-1,18,20,22,24,-1,-1,-1,-1,26,-1,-1,-1,-1],"split_conditions":[2.8075E2,1.375E2,3E0,4.85E1,1.01499E3,-1.09207846E-1,1.735819E4,-4.7581902E-1,-2.7979845E-1,-2.0342295E-1,1.995E2,4.6436E2,3.624276E-1,-9.1371916E-2,2.4225E2,2.46E1,2.98E2,3.143E1,4.712219E-2,-1.0873489E-2,7.222741E-2,1.0189749E-1,3.94245E3,1.29807E-2,-9.011316E-3,1.9847731E-1,1.2101195E-1],"split_indices":[16,16,36,16,1,0,3,0,0,0,16,1,0,0,16,0,16,0,0,0,0,0,15,0,0,0,0],"split_type":[0,0,0,0,0,0,0,0,0,0,0,0,0,0,0,0,0,0,0,0,0,0,0,0,0,0,0],"sum_hessian":[1.66E2,7E1,9.6E1,4E1,3E1,1E1,8.6E1,1.1E1,2.9E1,1.3E1,1.7E1,7.5E1,1.1E1,7E0,1E1,9E0,6.6E1,6E0,4E0,4E0,5E0,5E0,6.1E1,3E0,3E0,5.5E1,6E0],"tree_param":{"num_deleted":"0","num_feature":"37","num_nodes":"27","size_leaf_vector":"1"}},{"base_weights":[6.178497E-2,-2.3068159E0,1.831352E0,-3.522394E0,-1.5696018E0,1.2323418E0,2.7370346E0,-4.14636E-1,-2.788395E-1,-2.0246051E-1,-8.768672E-1,7.103535E-1,1.5699808E-1,2.341558E-1,3.4589282E-1,-9.771658E-2,-2.3138141E-2,2.1818233E-1,8.896321E-2,1.1373902E-2,2.5810052E-2],"categories":[],"categories_nodes":[],"categories_segments":[],"categories_sizes":[],"default_left":[0,0,0,0,0,0,0,0,0,0,0,0,0,0,0,0,0,0,0,0,0],"id":19,"left_children":[1,3,5,7,9,11,13,-1,-1,-1,15,17,-1,-1,-1,-1,-1,19,-1,-1,-1],"loss_changes":[6.9580524E2,5.809726E1,4.816577E1,3.4606934E-1,1.2723732E1,9.283134E0,2.4639282E0,0E0,0E0,0E0,1.0687275E0,2.0117922E0,0E0,0E0,0E0,0E0,0E0,3.9973855E-3,0E0,0E0,0E0],"parents":[2147483647,0,0,1,1,2,2,3,3,4,4,5,5,6,6,10,10,11,11,17,17],"right_children":[2,4,6,8,10,12,14,-1,-1,-1,16,18,-1,-1,-1,-1,-1,20,-1,-1,-1],"split_conditions":[9.07E2,3.54E2,1.342E3,1.94E2,5.57E2,1.185E3,1.498E3,-4.14636E-1,-2.788395E-1,-2.0246051E-1,8.31E2,1.011E3,1.5699808E-1,2.341558E-1,3.4589282E-1,-9.771658E-2,-2.3138141E-2,9.64E2,8.896321E-2,1.1373902E-2,2.5810052E-2],"split_indices":[4,4,4,4,4,4,4,0,0,0,4,4,0,0,0,0,0,4,0,0,0],"split_type":[0,0,0,0,0,0,0,0,0,0,0,0,0,0,0,0,0,0,0,0,0],"sum_hessian":[1.64E2,7E1,9.4E1,2.5E1,4.5E1,5.8E1,3.6E1,1.1E1,1.4E1,2.6E1,1.9E1,2.4E1,3.4E1,2.6E1,1E1,1.6E1,3E0,7E0,1.7E1,3E0,4E0],"tree_param":{"num_deleted":"0","num_feature":"37","num_nodes":"21","size_leaf_vector":"1"}},{"base_weights":[-1.6607583E-1,-2.2200937E0,1.4308325E0,-3.1703084E0,-1.3104116E0,6.13457E-1,2.0792232E0,-4.013486E-1,-2.5558904E-1,-1.6655074E-1,-8.036051E-1,7.792293E-2,9.279246E-1,1.7953087E-1,3.092133E-1,-8.83391E-2,-4.194836E-2,-2.7715493E-2,2.4896829E-1,4.5075037E-2,9.6879005E-1,1.0434647E-2,3.0823588E-2,4.5823384E-2,1.019906E-1],"categories":[],"categories_nodes":[],"categories_segments":[],"categories_sizes":[],"default_left":[0,0,0,0,0,0,0,0,0,0,0,0,0,0,0,0,0,0,0,0,0,0,0,0,0],"id":20,"left_children":[1,3,5,7,9,11,13,-1,-1,-1,15,17,19,-1,-1,-1,-1,-1,21,-1,23,-1,-1,-1,-1],"loss_changes":[5.4766956E2,5.894629E1,4.8542465E1,7.8742065E0,5.6802216E0,7.169239E0,9.4028015E0,0E0,0E0,0E0,1.810875E-1,1.101488E0,8.981705E-2,0E0,0E0,0E0,0E0,0E0,7.0693254E-2,0E0,1.5898705E-1,0E0,0E0,0E0,0E0],"parents":[2147483647,0,0,1,1,2,2,3,3,4,4,5,5,6,6,10,10,11,11,12,12,18,18,20,20],"right_children":[2,4,6,8,10,12,14,-1,-1,-1,16,18,20,-1,-1,-1,-1,-1,22,-1,24,-1,-1,-1,-1],"split_conditions":[8.31E2,4.05E2,1.236E3,1.8E2,6.03E2,1.071E3,1.492E3,-4.013486E-1,-2.5558904E-1,-1.6655074E-1,7.78E2,9.22E2,1.105E3,1.7953087E-1,3.092133E-1,-8.83391E-2,-4.194836E-2,-2.7715493E-2,9.64E2,4.5075037E-2,5.3128E2,1.0434647E-2,3.0823588E-2,4.5823384E-2,1.019906E-1],"split_indices":[4,4,4,4,4,4,4,0,0,0,4,4,4,0,0,0,0,0,4,0,1,0,0,0,0],"split_type":[0,0,0,0,0,0,0,0,0,0,0,0,0,0,0,0,0,0,0,0,0,0,0,0,0],"sum_hessian":[1.65E2,7.2E1,9.3E1,3.4E1,3.8E1,4.2E1,5.1E1,1.2E1,2.2E1,2.1E1,1.7E1,1.6E1,2.6E1,4.2E1,9E0,1.3E1,4E0,5E0,1.1E1,3E0,2.3E1,4E0,7E0,3E0,2E1],"tree_param":{"num_deleted":"0","num_feature":"37","num_nodes":"25","size_leaf_vector":"1"}},{"base_weights":[-7.1613775E-3,-1.8541358E0,1.4248431E0,-2.917435E0,-1.1011236E0,9.25561E-1,2.1687193E0,-3.792331E-1,-2.3778598E-1,-1.4615183E0,-6.3161355E-1,4.737358E-1,1.1906961E0,1.8546036E-1,2.8700978E-1,-1.6522208E-1,-1.0483831E-1,-7.3163174E-2,-2.7629916E-2,2.0668069E-1,6.427216E-2,8.2878195E-2,1.287834E-1,9.769936E-3,2.6305167E-2],"categories":[],"categories_nodes":[],"categories_segments":[],"categories_sizes":[],"default_left":[0,0,0,0,0,0,0,0,0,0,0,0,0,0,0,0,0,0,0,0,0,0,0,0,0],"id":21,"left_children":[1,3,5,7,9,11,13,-1,-1,15,17,19,21,-1,-1,-1,-1,-1,-1,23,-1,-1,-1,-1,-1],"loss_changes":[4.178873E2,5.203427E1,3.1047668E1,4.2003784E0,6.183666E0,6.0246353E0,2.388092E0,0E0,0E0,7.990646E-2,5.086088E-1,8.5998917E-1,1.2795258E-1,0E0,0E0,0E0,0E0,0E0,0E0,3.573388E-2,0E0,0E0,0E0,0E0,0E0],"parents":[2147483647,0,0,1,1,2,2,3,3,4,4,5,5,6,6,9,9,10,10,11,11,12,12,19,19],"right_children":[2,4,6,8,10,12,14,-1,-1,16,18,20,22,-1,-1,-1,-1,-1,-1,24,-1,-1,-1,-1,-1],"split_conditions":[9.22E2,4.06E2,1.34E3,1.71E2,6.45E2,1.155E3,1.498E3,-3.792331E-1,-2.3778598E-1,5.44E2,7.88E2,1.071E3,1.214E3,1.8546036E-1,2.8700978E-1,-1.6522208E-1,-1.0483831E-1,-7.3163174E-2,-2.7629916E-2,9.64E2,6.427216E-2,8.2878195E-2,1.287834E-1,9.769936E-3,2.6305167E-2],"split_indices":[4,4,4,4,4,4,4,0,0,4,4,4,4,0,0,0,0,0,0,4,0,0,0,0,0],"split_type":[0,0,0,0,0,0,0,0,0,0,0,0,0,0,0,0,0,0,0,0,0,0,0,0,0],"sum_hessian":[1.56E2,6.8E1,8.8E1,2.7E1,4.1E1,5.4E1,3.4E1,8E0,1.9E1,2.2E1,1.9E1,2.1E1,3.3E1,2.6E1,8E0,1.3E1,9E0,1.4E1,5E0,9E0,1.2E1,9E0,2.4E1,4E0,5E0],"tree_param":{"num_deleted":"0","num_feature":"37","num_nodes":"25","size_leaf_vector":"1"}},{"base_weights":[2.409729E-2,-1.6958891E0,1.3226167E0,-2.6986833E0,-1.0964864E0,8.4144783E-1,1.9710356E0,-3.2934085E-1,-2.2183536E-1,-1.4455967E0,-5.787924E-1,5.0811225E-1,1.1153817E-1,1.7119002E-1,2.6031652E-1,-1.572694E-1,-1.00253634E-1,-7.343961E-2,-2.8972116E-1,2.2209376E-1,6.546729E-2,-3.427267E-2,-1.3778257E-2,1.2870408E-2,3.0842056E-2],"categories":[],"categories_nodes":[],"categories_segments":[],"categories_sizes":[],"default_left":[0,0,0,0,0,0,0,0,0,0,0,0,0,0,0,0,0,0,0,0,0,0,0,0,0],"id":22,"left_children":[1,3,5,7,9,11,13,-1,-1,15,17,19,-1,-1,-1,-1,-1,-1,21,23,-1,-1,-1,-1,-1],"loss_changes":[3.8416052E2,4.152069E1,2.8917358E1,4.0698242E-1,7.8384514E0,4.729351E0,2.259735E0,0E0,0E0,4.196167E-5,7.31822E-1,1.0283346E0,0E0,0E0,0E0,0E0,0E0,0E0,2.5260508E-2,4.898739E-2,0E0,0E0,0E0,0E0,0E0],"parents":[2147483647,0,0,1,1,2,2,3,3,4,4,5,5,6,6,9,9,10,10,11,11,18,18,19,19],"right_children":[2,4,6,8,10,12,14,-1,-1,16,18,20,-1,-1,-1,-1,-1,-1,22,24,-1,-1,-1,-1,-1],"split_conditions":[9.22E2,3.54E2,1.34E3,1.75E2,6.03E2,1.168E3,1.498E3,-3.2934085E-1,-2.2183536E-1,5.42E2,7.68E2,1.071E3,1.1153817E-1,1.7119002E-1,2.6031652E-1,-1.572694E-1,-1.00253634E-1,-7.343961E-2,3.217E1,1.004E3,6.546729E-2,-3.427267E-2,-1.3778257E-2,1.2870408E-2,3.0842056E-2],"split_indices":[4,4,4,4,4,4,4,0,0,4,4,4,0,0,0,0,0,0,0,4,0,0,0,0,0],"split_type":[0,0,0,0,0,0,0,0,0,0,0,0,0,0,0,0,0,0,0,0,0,0,0,0,0],"sum_hessian":[1.7E2,7.3E1,9.7E1,2.6E1,4.7E1,5.7E1,4E1,9E0,1.7E1,2.7E1,2E1,2.7E1,3E1,3.1E1,9E0,1.9E1,8E0,1.2E1,8E0,1E1,1.7E1,5E0,3E0,6E0,4E0],"tree_param":{"num_deleted":"0","num_feature":"37","num_nodes":"25","size_leaf_vector":"1"}},{"base_weights":[4.159387E-2,-1.4485865E0,1.1705558E0,-1.9819658E0,-6.7921484E-1,7.8798693E-1,1.7756553E0,-2.4950151E-1,-1.5702812E-1,-8.7269776E-2,-3.4418488E-1,3.1396472E-1,9.390173E-1,1.5287104E-1,2.3466335E-1,-3.9646093E-2,-1.2744856E-2,1.1259683E-2,3.9525952E-2,6.9588315E-1,1.0491643E-1,7.465047E-2,3.4473706E-2],"categories":[],"categories_nodes":[],"categories_segments":[],"categories_sizes":[],"default_left":[0,0,0,0,0,0,0,0,0,0,0,0,0,0,0,0,0,0,0,0,0,0,0],"id":23,"left_children":[1,3,5,7,9,11,13,-1,-1,-1,15,17,19,-1,-1,-1,-1,-1,-1,21,-1,-1,-1],"loss_changes":[2.809669E2,2.8200241E1,2.0592575E1,4.9531403E0,1.7091312E0,4.0006866E0,1.488678E0,0E0,0E0,0E0,9.6763015E-2,2.1741748E-1,4.75029E-1,0E0,0E0,0E0,0E0,0E0,0E0,4.4836044E-2,0E0,0E0,0E0],"parents":[2147483647,0,0,1,1,2,2,3,3,4,4,5,5,6,6,10,10,11,11,12,12,19,19],"right_children":[2,4,6,8,10,12,14,-1,-1,-1,16,18,20,-1,-1,-1,-1,-1,-1,22,-1,-1,-1],"split_conditions":[9.22E2,5.3E2,1.34E3,2.59E2,7.41E2,1.134E3,1.52E3,-2.4950151E-1,-1.5702812E-1,-8.7269776E-2,1.91E1,1.004E3,1.214E3,1.5287104E-1,2.3466335E-1,-3.9646093E-2,-1.2744856E-2,1.1259683E-2,3.9525952E-2,6.56E2,1.0491643E-1,7.465047E-2,3.4473706E-2],"split_indices":[4,4,4,4,4,4,4,0,0,0,24,4,4,0,0,0,0,0,0,28,0,0,0],"split_type":[0,0,0,0,0,0,0,0,0,0,0,0,0,0,0,0,0,0,0,0,0,0,0],"sum_hessian":[1.65E2,7.1E1,9.4E1,4.1E1,3E1,5.9E1,3.5E1,1.6E1,2.5E1,1.8E1,1.2E1,1.5E1,4.4E1,2.7E1,8E0,9E0,3E0,5E0,1E1,1.6E1,2.8E1,1.3E1,3E0],"tree_param":{"num_deleted":"0","num_feature":"37","num_nodes":"23","size_leaf_vector":"1"}},{"base_weights":[1.2909393E-3,-1.4787519E0,1.0886562E0,-2.313036E0,-1.0134215E0,6.9536436E-1,1.7466763E0,-2.9184857E-1,-1.8564428E-1,-1.3167295E-1,-6.5525E-1,3.1731933E-1,9.1987103E-1,1.488263E-1,2.3565538E-1,-7.326563E-2,-3.6259815E-2,-2.8266907E-3,4.4197762E-1,6.224373E-2,9.883532E-2,8.891945E-3,-1.168027E-2,2.5212783E-2,4.7821127E-2],"categories":[],"categories_nodes":[],"categories_segments":[],"categories_sizes":[],"default_left":[0,0,0,0,0,0,0,0,0,0,0,0,0,0,0,0,0,0,0,0,0,0,0,0,0],"id":24,"left_children":[1,3,5,7,9,11,13,-1,-1,-1,15,17,19,-1,-1,-1,-1,21,23,-1,-1,-1,-1,-1,-1],"loss_changes":[2.735895E2,2.560759E1,2.414724E1,1.493103E0,4.351757E0,5.0551434E0,2.1664429E0,0E0,0E0,0E0,2.7801418E-1,9.9897075E-1,1.7920303E-1,0E0,0E0,0E0,0E0,9.404089E-2,3.2508373E-3,0E0,0E0,0E0,0E0,0E0,0E0],"parents":[2147483647,0,0,1,1,2,2,3,3,4,4,5,5,6,6,10,10,11,11,12,12,17,17,18,18],"right_children":[2,4,6,8,10,12,14,-1,-1,-1,16,18,20,-1,-1,-1,-1,22,24,-1,-1,-1,-1,-1,-1],"split_conditions":[8.31E2,2.93E2,1.356E3,1.63E2,5.44E2,1.155E3,1.535E3,-2.9184857E-1,-1.8564428E-1,-1.3167295E-1,7.41E2,9.84E2,1.214E3,1.488263E-1,2.3565538E-1,-7.326563E-2,-3.6259815E-2,3.191E1,1.071E3,6.224373E-2,9.883532E-2,8.891945E-3,-1.168027E-2,2.5212783E-2,4.7821127E-2],"split_indices":[4,4,4,4,4,4,4,0,0,0,4,4,4,0,0,0,0,0,4,0,0,0,0,0,0],"split_type":[0,0,0,0,0,0,0,0,0,0,0,0,0,0,0,0,0,0,0,0,0,0,0,0,0],"sum_hessian":[1.68E2,7.1E1,9.7E1,2.4E1,4.7E1,6.2E1,3.5E1,8E0,1.6E1,2.4E1,2.3E1,2.4E1,3.8E1,2.7E1,8E0,1.7E1,6E0,7E0,1.7E1,9E0,2.9E1,4E0,3E0,4E0,1.3E1],"tree_param":{"num_deleted":"0","num_feature":"37","num_nodes":"25","size_leaf_vector":"1"}},{"base_weights":[-8.229633E-2,-6.997922E-1,6.075041E-1,-1.411117E0,2.54577E-1,1.8456529E-1,3.766789E-1,-2.4671619E-1,-1.0499976E0,-1.2290217E-1,5.1660776E-1,-5.582419E-1,5.908115E-1,4.0623795E-2,-1.276098E0,9.313915E-2,1.1921067E-1,-6.1009865E-2,-2.8903961E-2,-2.200941E-1,8.222292E-1,-2.1233607E-2,-1.3721931E0,-7.4598216E-2,3.4198138E-1,4.9702454E-2,-5.940384E-1,9.0143144E-1,-1.753502E-2,-1.5438497E-1,-9.1974035E-2,-6.4060213E-3,4.9545653E-2,-8.348686E-2,-2.3440056E-2,3.5373155E-2,9.524611E-2],"categories":[],"categories_nodes":[],"categories_segments":[],"categories_sizes":[],"default_left":[0,0,0,0,0,0,0,0,0,0,0,0,0,0,0,0,0,0,0,0,0,0,0,0,0,0,0,0,0,0,0,0,0,0,0,0,0],"id":25,"left_children":[1,3,5,7,9,-1,11,-1,13,-1,15,17,19,-1,21,-1,23,-1,-1,25,27,-1,29,-1,31,-1,33,35,-1,-1,-1,-1,-1,-1,-1,-1,-1],"loss_changes":[7.0280754E1,5.9420616E1,2.1596863E1,1.647741E1,1.5407362E1,0E0,1.3743015E1,0E0,1.3359364E1,0E0,5.3284855E0,5.1369667E-3,1.05021515E1,0E0,3.1841965E0,0E0,3.7244253E0,0E0,0E0,3.7813635E0,3.5555172E0,0E0,9.877205E-1,0E0,9.664986E-1,0E0,5.838113E-1,7.810402E-1,0E0,0E0,0E0,0E0,0E0,0E0,0E0,0E0,0E0],"parents":[2147483647,0,0,1,1,2,2,3,3,4,4,6,6,8,8,10,10,11,11,12,12,14,14,16,16,19,19,20,20,22,22,24,24,26,26,27,27],"right_children":[2,4,6,8,10,-1,12,-1,14,-1,16,18,20,-1,22,-1,24,-1,-1,26,28,-1,30,-1,32,-1,34,36,-1,-1,-1,-1,-1,-1,-1,-1,-1],"split_conditions":[9.3566666E1,6.664192E5,7.62E0,8.936382E4,4.04E0,1.8456529E-1,2.695E2,-2.4671619E-1,6.25632E2,-1.2290217E-1,1.04E2,5.2293E2,9.8E1,4.0623795E-2,8.025E1,9.313915E-2,1.175E2,-6.1009865E-2,-2.8903961E-2,1.33068E3,5.075E2,-2.1233607E-2,2.39E2,-7.4598216E-2,8.04136E5,4.9702454E-2,1E0,1.85E2,-1.753502E-2,-1.5438497E-1,-9.1974035E-2,-6.4060213E-3,4.9545653E-2,-8.348686E-2,-2.3440056E-2,3.5373155E-2,9.524611E-2],"split_indices":[20,11,24,11,12,0,8,0,34,0,14,1,14,0,14,0,14,0,0,1,8,0,26,0,35,0,6,26,0,0,0,0,0,0,0,0,0],"split_type":[0,0,0,0,0,0,0,0,0,0,0,0,0,0,0,0,0,0,0,0,0,0,0,0,0,0,0,0,0,0,0,0,0,0,0,0,0],"sum_hessian":[1.63E2,8.6E1,7.7E1,4.9E1,3.7E1,1.1E1,6.6E1,1.1E1,3.8E1,5E0,3.2E1,1.2E1,5.4E1,5E0,3.3E1,1.5E1,1.7E1,9E0,3E0,1.2E1,4.2E1,3E0,3E1,3E0,1.4E1,4E0,8E0,3.9E1,3E0,2E1,1E1,4E0,1E1,4E0,4E0,4E0,3.5E1],"tree_param":{"num_deleted":"0","num_feature":"37","num_nodes":"37","size_leaf_vector":"1"}},{"base_weights":[-2.0933365E-2,-1.14188E0,8.861351E-1,-2.034703E0,-8.28922E-1,5.8127004E-1,1.4110113E0,-2.3704572E-1,-1.4355649E-1,-1.1499206E-1,-5.0147766E-1,2.649468E-1,7.407837E-1,1.2128314E-1,1.9455354E-1,-5.929139E-2,-2.3240682E-1,8.157611E-2,3.5080528E-1,4.681163E-2,7.872532E-2,-2.8648091E-2,-9.319401E-3,1.0842658E-2,4.378052E-3,3.8599465E-2,1.663332E-2],"categories":[],"categories_nodes":[],"categories_segments":[],"categories_sizes":[],"default_left":[0,0,0,0,0,0,0,0,0,0,0,0,0,0,0,0,0,0,0,0,0,0,0,0,0,0,0],"id":26,"left_children":[1,3,5,7,9,11,13,-1,-1,-1,15,17,19,-1,-1,-1,21,23,25,-1,-1,-1,-1,-1,-1,-1,-1],"loss_changes":[1.6369594E2,1.8431343E1,1.342128E1,2.1799469E-1,5.204342E0,2.7302895E0,1.03022E0,0E0,0E0,0E0,5.756841E-1,3.0200505E-1,1.1295891E-1,0E0,0E0,0E0,4.1051924E-2,3.3716597E-3,2.6676774E-2,0E0,0E0,0E0,0E0,0E0,0E0,0E0,0E0],"parents":[2147483647,0,0,1,1,2,2,3,3,4,4,5,5,6,6,10,10,11,11,12,12,16,16,17,17,18,18],"right_children":[2,4,6,8,10,12,14,-1,-1,-1,16,18,20,-1,-1,-1,22,24,26,-1,-1,-1,-1,-1,-1,-1,-1],"split_conditions":[9.07E2,2.59E2,1.356E3,1.87E2,5.42E2,1.155E3,1.535E3,-2.3704572E-1,-1.4355649E-1,-1.1499206E-1,7.62E2,9.84E2,1.19E3,1.2128314E-1,1.9455354E-1,-5.929139E-2,2.425E1,2.477E1,8.356667E0,4.681163E-2,7.872532E-2,-2.8648091E-2,-9.319401E-3,1.0842658E-2,4.378052E-3,3.8599465E-2,1.663332E-2],"split_indices":[4,4,4,4,4,4,4,0,0,0,4,4,4,0,0,0,0,0,12,0,0,0,0,0,0,0,0],"split_type":[0,0,0,0,0,0,0,0,0,0,0,0,0,0,0,0,0,0,0,0,0,0,0,0,0,0,0],"sum_hessian":[1.59E2,7.1E1,8.8E1,1.7E1,5.4E1,5.7E1,3.1E1,9E0,8E0,2.6E1,2.8E1,2E1,3.7E1,2.5E1,6E0,2E1,8E0,7E0,1.3E1,7E0,3E1,5E0,3E0,3E0,4E0,1E1,3E0],"tree_param":{"num_deleted":"0","num_feature":"37","num_nodes":"27","size_leaf_vector":"1"}},{"base_weights":[-1.9271113E-2,-1.017035E0,8.160234E-1,-1.4390897E0,-5.218655E-1,5.2717805E-1,1.2713665E0,-2.0760365E-1,-1.16665415E-1,-6.408018E-2,-2.5299835E-1,2.911829E-1,6.73941E-1,1.0063042E-1,1.5970811E-1,-2.9476052E-2,-8.534336E-3,8.361411E-2,3.7173393E-1,4.5722708E-2,7.212182E-2,3.638363E-3,1.04675675E-2,4.085571E-1,1.4991951E-2,2.6347732E-2,4.8443224E-2],"categories":[],"categories_nodes":[],"categories_segments":[],"categories_sizes":[],"default_left":[0,0,0,0,0,0,0,0,0,0,0,0,0,0,0,0,0,0,0,0,0,0,0,0,0,0,0],"id":27,"left_children":[1,3,5,7,9,11,13,-1,-1,-1,15,17,19,-1,-1,-1,-1,21,23,-1,-1,-1,-1,25,-1,-1,-1],"loss_changes":[1.4084561E2,1.534111E1,1.1429951E1,4.692581E0,1.0210667E0,1.8126106E0,1.414566E0,0E0,0E0,0E0,6.586546E-2,3.7019515E-1,2.883625E-2,0E0,0E0,0E0,0E0,4.149504E-3,7.760358E-2,0E0,0E0,0E0,0E0,2.6474237E-2,0E0,0E0,0E0],"parents":[2147483647,0,0,1,1,2,2,3,3,4,4,5,5,6,6,10,10,11,11,12,12,17,17,18,18,23,23],"right_children":[2,4,6,8,10,12,14,-1,-1,-1,16,18,20,-1,-1,-1,-1,22,24,-1,-1,-1,-1,26,-1,-1,-1],"split_conditions":[9.22E2,5.21E2,1.342E3,4.85E1,7.06E2,1.16E3,1.478E3,-2.0760365E-1,-1.16665415E-1,-6.408018E-2,1.02376E3,1.011E3,1.221E3,1.0063042E-1,1.5970811E-1,-2.9476052E-2,-8.534336E-3,9.64E2,3.036E1,4.5722708E-2,7.212182E-2,3.638363E-3,1.04675675E-2,1.23674E3,1.4991951E-2,2.6347732E-2,4.8443224E-2],"split_indices":[4,4,4,16,4,4,4,0,0,0,34,4,4,0,0,0,0,4,0,0,0,0,0,1,0,0,0],"split_type":[0,0,0,0,0,0,0,0,0,0,0,0,0,0,0,0,0,0,0,0,0,0,0,0,0,0,0],"sum_hessian":[1.67E2,7.6E1,9.1E1,4E1,3.6E1,5.7E1,3.4E1,1E1,3E1,2.4E1,1.2E1,2.3E1,3.4E1,2.1E1,1.3E1,9E0,3E0,7E0,1.6E1,8E0,2.6E1,3E0,4E0,1.3E1,3E0,6E0,7E0],"tree_param":{"num_deleted":"0","num_feature":"37","num_nodes":"27","size_leaf_vector":"1"}},{"base_weights":[1.5300605E-2,-8.9997077E-1,6.689097E-1,-1.5670992E0,-5.615556E-1,-3.8036425E-2,7.7928984E-1,-2.1238743E-1,-1.24565676E-1,-8.076201E-1,-3.569517E-1,1.4390174E0,6.577866E-1,-1.03104286E-1,-6.2226284E-2,-6.0384333E-1,2.2557417E-2,9.639222E-2,1.7085387E-1,5.1754385E-1,8.602488E-1,-6.826439E-2,-2.781933E-2,-8.247233E-3,6.6730924E-2,7.696215E-3,5.669845E-1,5.7991665E-2,9.35828E-2,1.5904427E-3,8.949343E-3,2.8460464E-2,5.88649E-2],"categories":[],"categories_nodes":[],"categories_segments":[],"categories_sizes":[],"default_left":[0,0,0,0,0,0,0,0,0,0,0,0,0,0,0,0,0,0,0,0,0,0,0,0,0,0,0,0,0,0,0,0,0],"id":28,"left_children":[1,3,5,7,9,-1,11,-1,-1,13,15,17,19,-1,-1,21,23,-1,-1,25,27,-1,-1,-1,29,-1,31,-1,-1,-1,-1,-1,-1],"loss_changes":[1.0050636E2,1.4923634E1,1.1646679E1,1.4707184E0,2.128315E0,0E0,6.187584E0,0E0,0E0,2.2809505E-1,2.6371548E0,1.7728806E-2,1.7411118E0,0E0,0E0,2.4633694E-1,6.117784E-2,0E0,0E0,1.0019293E0,9.291649E-2,0E0,0E0,0E0,8.989103E-3,0E0,9.552479E-2,0E0,0E0,0E0,0E0,0E0,0E0],"parents":[2147483647,0,0,1,1,2,2,3,3,4,4,6,6,9,9,10,10,11,11,12,12,15,15,16,16,19,19,20,20,24,24,26,26],"right_children":[2,4,6,8,10,-1,12,-1,-1,14,16,18,20,-1,-1,22,24,-1,-1,26,28,-1,-1,-1,30,-1,32,-1,-1,-1,-1,-1,-1],"split_conditions":[2.8075E2,2.1E2,3E0,4.075E1,1.43029E3,-3.8036425E-2,5E0,-2.1238743E-1,-1.24565676E-1,4.01E2,1.995E2,7.62E2,7.32E2,-1.03104286E-1,-6.2226284E-2,1.8E2,2.315E2,9.639222E-2,1.7085387E-1,5.36E2,1.19033E3,-6.826439E-2,-2.781933E-2,-8.247233E-3,2.565E1,7.696215E-3,1.73E1,5.7991665E-2,9.35828E-2,1.5904427E-3,8.949343E-3,2.8460464E-2,5.88649E-2],"split_indices":[16,28,36,16,1,0,21,0,0,28,16,28,28,0,0,16,16,0,0,28,1,0,0,0,0,0,0,0,0,0,0,0,0],"split_type":[0,0,0,0,0,0,0,0,0,0,0,0,0,0,0,0,0,0,0,0,0,0,0,0,0,0,0,0,0,0,0,0,0],"sum_hessian":[1.66E2,6.9E1,9.7E1,2.2E1,4.7E1,9E0,8.8E1,6E0,1.6E1,2E1,2.7E1,1.2E1,7.6E1,7E0,1.3E1,1.6E1,1.1E1,6E0,6E0,4.7E1,2.9E1,1.2E1,4E0,3E0,8E0,5E0,4.2E1,8E0,2.1E1,3E0,5E0,4E0,3.8E1],"tree_param":{"num_deleted":"0","num_feature":"37","num_nodes":"33","size_leaf_vector":"1"}},{"base_weights":[-3.1989824E-2,-8.5898924E-1,6.48895E-1,-1.5085843E0,-5.9778094E-1,3.6402875E-1,9.636539E-1,-1.9164798E-1,-1.1904677E-1,-7.8907974E-2,-3.6463663E-1,9.761532E-2,4.415124E-1,7.888363E-2,1.2607001E-1,-4.1934397E-2,-2.0254962E-1,1.4156887E-2,3.971672E-2,4.6274328E-1,1.3474846E-2,-2.3789724E-2,-9.889078E-3,1.471138E-3,5.4792883E-3,3.700461E-1,5.612805E-2,2.7456805E-2,4.2673048E-2],"categories":[],"categories_nodes":[],"categories_segments":[],"categories_sizes":[],"default_left":[0,0,0,0,0,0,0,0,0,0,0,0,0,0,0,0,0,0,0,0,0,0,0,0,0,0,0,0,0],"id":29,"left_children":[1,3,5,7,9,11,13,-1,-1,-1,15,17,19,-1,-1,-1,21,-1,23,25,-1,-1,-1,-1,-1,27,-1,-1,-1],"loss_changes":[9.8535286E1,1.2502884E1,8.256962E0,5.7317734E-1,2.2990837E0,1.0303211E0,1.3423157E0,0E0,0E0,0E0,1.6334772E-1,2.7460374E-2,1.9816065E-1,0E0,0E0,0E0,9.450972E-3,0E0,1.832813E-3,1.302638E-1,0E0,0E0,0E0,0E0,0E0,1.8999577E-3,0E0,0E0,0E0],"parents":[2147483647,0,0,1,1,2,2,3,3,4,4,5,5,6,6,10,10,11,11,12,12,16,16,18,18,19,19,25,25],"right_children":[2,4,6,8,10,12,14,-1,-1,-1,16,18,20,-1,-1,-1,22,-1,24,26,-1,-1,-1,-1,-1,28,-1,-1,-1],"split_conditions":[9.22E2,2.59E2,1.307E3,1.63E2,5.5E2,1.105E3,1.478E3,-1.9164798E-1,-1.1904677E-1,-7.8907974E-2,7.62E2,1.56532E3,2.089E1,7.888363E-2,1.2607001E-1,-4.1934397E-2,2.46E1,1.4156887E-2,2.565E1,1.221E3,1.3474846E-2,-2.3789724E-2,-9.889078E-3,1.471138E-3,5.4792883E-3,1.23674E3,5.612805E-2,2.7456805E-2,4.2673048E-2],"split_indices":[4,4,4,4,4,4,4,0,0,0,4,1,24,0,0,0,0,0,0,4,0,0,0,0,0,1,0,0,0],"split_type":[0,0,0,0,0,0,0,0,0,0,0,0,0,0,0,0,0,0,0,0,0,0,0,0,0,0,0,0,0],"sum_hessian":[1.73E2,7.8E1,9.5E1,2.1E1,5.7E1,5.1E1,4.4E1,7E0,1.4E1,3E1,2.7E1,1.2E1,3.9E1,3E1,1.4E1,1.9E1,8E0,6E0,6E0,3.6E1,3E0,5E0,3E0,3E0,3E0,2.1E1,1.5E1,1E1,1.1E1],"tree_param":{"num_deleted":"0","num_feature":"37","num_nodes":"29","size_leaf_vector":"1"}},{"base_weights":[-5.056326E-2,-8.27509E-1,5.9745336E-1,-1.449377E0,-5.750229E-1,3.391248E-1,8.979161E-1,-1.9489865E-1,-1.1196007E-1,-7.898981E-2,-3.396112E-1,1.2066571E-1,3.9764747E-1,7.599963E-2,1.3718358E-1,-4.3795284E-2,-2.0998724E-1,1.7723465E-1,6.0222624E-4,2.81682E-1,4.3314528E-2,-2.4370918E-2,-1.0054588E-2,8.8123325E-3,2.1307679E-2,1.2826665E-2,3.729406E-2],"categories":[],"categories_nodes":[],"categories_segments":[],"categories_sizes":[],"default_left":[0,0,0,0,0,0,0,0,0,0,0,0,0,0,0,0,0,0,0,0,0,0,0,0,0,0,0],"id":30,"left_children":[1,3,5,7,9,11,13,-1,-1,-1,15,17,19,-1,-1,-1,21,23,-1,25,-1,-1,-1,-1,-1,-1,-1],"loss_changes":[8.306409E1,1.0942551E1,6.6811256E0,1.2778625E0,2.5138702E0,5.9125805E-1,1.6372871E0,0E0,0E0,0E0,2.6496363E-1,7.675576E-2,3.8535118E-2,0E0,0E0,0E0,2.7164102E-2,6.774485E-3,0E0,1.2016982E-1,0E0,0E0,0E0,0E0,0E0,0E0,0E0],"parents":[2147483647,0,0,1,1,2,2,3,3,4,4,5,5,6,6,10,10,11,11,12,12,16,16,17,17,19,19],"right_children":[2,4,6,8,10,12,14,-1,-1,-1,16,18,20,-1,-1,-1,22,24,-1,26,-1,-1,-1,-1,-1,-1,-1],"split_conditions":[9.22E2,2.46E2,1.307E3,1.51E2,5.42E2,1.105E3,1.535E3,-1.9489865E-1,-1.1196007E-1,-7.898981E-2,6.99E2,1.47684E3,1.155E3,7.599963E-2,1.3718358E-1,-4.3795284E-2,2.638E1,2.455E1,6.0222624E-4,1.23674E3,4.3314528E-2,-2.4370918E-2,-1.0054588E-2,8.8123325E-3,2.1307679E-2,1.2826665E-2,3.729406E-2],"split_indices":[4,4,4,4,4,4,4,0,0,0,4,1,4,0,0,0,0,0,0,1,0,0,0,0,0,0,0],"split_type":[0,0,0,0,0,0,0,0,0,0,0,0,0,0,0,0,0,0,0,0,0,0,0,0,0,0,0],"sum_hessian":[1.63E2,7.4E1,8.9E1,2E1,5.4E1,4.9E1,4E1,6E0,1.4E1,2.7E1,2.7E1,1.1E1,3.8E1,3.3E1,7E0,1.4E1,1.3E1,7E0,4E0,1.1E1,2.7E1,9E0,4E0,3E0,4E0,5E0,6E0],"tree_param":{"num_deleted":"0","num_feature":"37","num_nodes":"27","size_leaf_vector":"1"}},{"base_weights":[-3.240671E-2,-7.982956E-1,5.32667E-1,-1.3311697E0,-5.57497E-1,3.5315964E-1,9.752335E-1,-1.7819306E-1,-1.0507637E-1,-7.115395E-2,-3.4813333E-1,1.6462071E-1,4.764854E-1,8.202591E-2,1.2601371E-1,-4.1081943E-2,-2.5121227E-2,3.7742616E-3,2.3337519E-1,5.107023E-1,2.9047692E-2,7.960844E-3,-4.0098734E-2,2.5381598E-1,8.304787E-3,2.845491E-2,5.3890955E-2,-7.204771E-3,1.8749238E-4,8.830833E-3,2.8103027E-2],"categories":[],"categories_nodes":[],"categories_segments":[],"categories_sizes":[],"default_left":[0,0,0,0,0,0,0,0,0,0,0,0,0,0,0,0,0,0,0,0,0,0,0,0,0,0,0,0,0,0,0],"id":31,"left_children":[1,3,5,7,9,11,13,-1,-1,-1,15,17,19,-1,-1,-1,-1,21,23,25,-1,-1,27,29,-1,-1,-1,-1,-1,-1,-1],"loss_changes":[7.443124E1,8.624893E0,7.5205364E0,9.083252E-1,1.4293346E0,1.595684E0,2.0264053E-1,0E0,0E0,0E0,4.26116E-2,3.3088654E-1,1.2533188E-1,0E0,0E0,0E0,0E0,3.6462925E-2,4.3450117E-2,6.992531E-2,0E0,0E0,9.522191E-3,5.6257844E-2,0E0,0E0,0E0,0E0,0E0,0E0,0E0],"parents":[2147483647,0,0,1,1,2,2,3,3,4,4,5,5,6,6,10,10,11,11,12,12,17,17,18,18,19,19,22,22,23,23],"right_children":[2,4,6,8,10,12,14,-1,-1,-1,16,18,20,-1,-1,-1,-1,22,24,26,-1,-1,28,30,-1,-1,-1,-1,-1,-1,-1],"split_conditions":[8.31E2,2.59E2,1.374E3,1.51E2,5.42E2,1.16E3,1.535E3,-1.7819306E-1,-1.0507637E-1,-7.115395E-2,6.92E2,1.004E3,2.039805E3,8.202591E-2,1.2601371E-1,-4.1081943E-2,-2.5121227E-2,3.9E2,1.14E3,1.214E3,2.9047692E-2,7.960844E-3,1.55049E3,5.21E2,8.304787E-3,2.845491E-2,5.3890955E-2,-7.204771E-3,1.8749238E-4,8.830833E-3,2.8103027E-2],"split_indices":[4,4,4,4,4,4,4,0,0,0,4,4,10,0,0,0,0,2,4,4,0,0,1,28,0,0,0,0,0,0,0],"split_type":[0,0,0,0,0,0,0,0,0,0,0,0,0,0,0,0,0,0,0,0,0,0,0,0,0,0,0,0,0,0,0],"sum_hessian":[1.7E2,7.2E1,9.8E1,2.1E1,5.1E1,7.1E1,2.7E1,6E0,1.5E1,2.8E1,2.3E1,2.9E1,4.2E1,2E1,7E0,1.2E1,1.1E1,9E0,2E1,3.4E1,8E0,3E0,6E0,1.7E1,3E0,5E0,2.9E1,3E0,3E0,3E0,1.4E1],"tree_param":{"num_deleted":"0","num_feature":"37","num_nodes":"31","size_leaf_vector":"1"}},{"base_weights":[-3.300811E-2,-6.7945474E-1,4.9434522E-1,-1.1100591E0,-4.419514E-1,3.524382E-1,9.0474284E-1,-1.4522076E-1,-8.77315E-2,-6.164846E-2,-2.704422E-1,1.8273003E-1,4.680189E-1,7.523986E-2,1.2109852E-1,-3.3853777E-2,-1.830293E-2,2.241662E-1,4.0759802E-2,4.981281E-2,2.5061307E-2,2.591548E-1,1.2616825E-2,6.9172666E-3,-4.946232E-4,1.2775421E-2,2.9230881E-2],"categories":[],"categories_nodes":[],"categories_segments":[],"categories_sizes":[],"default_left":[0,0,0,0,0,0,0,0,0,0,0,0,0,0,0,0,0,0,0,0,0,0,0,0,0,0,0],"id":32,"left_children":[1,3,5,7,9,11,13,-1,-1,-1,15,17,19,-1,-1,-1,-1,21,23,-1,-1,25,-1,-1,-1,-1,-1],"loss_changes":[5.6926247E1,7.179657E0,5.0390587E0,7.964134E-1,1.329979E0,1.2875271E0,1.6190529E-1,0E0,0E0,0E0,9.875333E-2,1.673441E-1,1.435461E-1,0E0,0E0,0E0,0E0,4.6165586E-2,1.0731259E-2,0E0,0E0,3.23596E-2,0E0,0E0,0E0,0E0,0E0],"parents":[2147483647,0,0,1,1,2,2,3,3,4,4,5,5,6,6,10,10,11,11,12,12,17,17,18,18,21,21],"right_children":[2,4,6,8,10,12,14,-1,-1,-1,16,18,20,-1,-1,-1,-1,22,24,-1,-1,26,-1,-1,-1,-1,-1],"split_conditions":[9.22E2,2.82E2,1.374E3,1.63E2,5.44E2,1.214E3,1.538E3,-1.4522076E-1,-8.77315E-2,-6.164846E-2,6.99E2,1.50932E3,1.0853333E1,7.523986E-2,1.2109852E-1,-3.3853777E-2,-1.830293E-2,4.68293E2,5.07E2,4.981281E-2,2.5061307E-2,1.123E3,1.2616825E-2,6.9172666E-3,-4.946232E-4,1.2775421E-2,2.9230881E-2],"split_indices":[4,4,4,4,4,4,4,0,0,0,4,1,12,0,0,0,0,22,28,0,0,4,0,0,0,0,0],"split_type":[0,0,0,0,0,0,0,0,0,0,0,0,0,0,0,0,0,0,0,0,0,0,0,0,0,0,0],"sum_hessian":[1.65E2,7.4E1,9.1E1,2.5E1,4.9E1,6.9E1,2.2E1,8E0,1.7E1,2.3E1,2.6E1,2.9E1,4E1,1.7E1,5E0,1.3E1,1.3E1,2.2E1,7E0,3.4E1,6E0,1.5E1,7E0,4E0,3E0,4E0,1.1E1],"tree_param":{"num_deleted":"0","num_feature":"37","num_nodes":"27","size_leaf_vector":"1"}},{"base_weights":[-1.3417156E-2,-5.6736475E-1,4.5035872E-1,-8.325889E-1,-3.1417793E-1,3.2000172E-1,7.869154E-1,-1.1133923E-1,-6.709647E-1,-4.2555906E-2,-1.8783596E-1,1.7105892E-1,4.199852E-1,6.331425E-2,1.03454016E-1,-2.8448213E-2,-7.090067E-2,-2.0740477E-2,-5.2817347E-3,2.6597977E-2,2.0758794E-1,4.528218E-1,2.7619323E-2,-2.9005052E-3,7.555151E-3,2.3023729E-1,4.244423E-3,2.1863556E-2,4.7941845E-2,1.2995124E-2,2.7424125E-2],"categories":[],"categories_nodes":[],"categories_segments":[],"categories_sizes":[],"default_left":[0,0,0,0,0,0,0,0,0,0,0,0,0,0,0,0,0,0,0,0,0,0,0,0,0,0,0,0,0,0,0],"id":33,"left_children":[1,3,5,7,9,11,13,-1,15,-1,17,19,21,-1,-1,-1,-1,-1,-1,23,25,27,-1,-1,-1,29,-1,-1,-1,-1,-1],"loss_changes":[4.3415985E1,4.9090633E0,3.7844582E0,9.321842E-1,4.970212E-1,9.4080067E-1,2.969389E-1,0E0,1.8056583E-1,0E0,4.453069E-2,1.4751214E-1,6.379938E-2,0E0,0E0,0E0,0E0,0E0,0E0,2.1245128E-2,7.625693E-2,8.826733E-2,0E0,0E0,0E0,5.2621603E-2,0E0,0E0,0E0,0E0,0E0],"parents":[2147483647,0,0,1,1,2,2,3,3,4,4,5,5,6,6,8,8,10,10,11,11,12,12,19,19,20,20,21,21,25,25],"right_children":[2,4,6,8,10,12,14,-1,16,-1,18,20,22,-1,-1,-1,-1,-1,-1,24,26,28,-1,-1,-1,30,-1,-1,-1,-1,-1],"split_conditions":[9.07E2,4.48E2,1.374E3,1.94E2,6.03E2,1.185E3,1.535E3,-1.1133923E-1,1.578E1,-4.2555906E-2,2.025521E3,2.605E2,1.999412E3,6.331425E-2,1.03454016E-1,-2.8448213E-2,-7.090067E-2,-2.0740477E-2,-5.2817347E-3,2.66E2,1.3275E2,1.65E1,2.7619323E-2,-2.9005052E-3,7.555151E-3,9.38E0,4.244423E-3,2.1863556E-2,4.7941845E-2,1.2995124E-2,2.7424125E-2],"split_indices":[4,4,4,4,4,4,4,0,0,0,10,16,10,0,0,0,0,0,0,26,14,0,0,0,0,24,0,0,0,0,0],"split_type":[0,0,0,0,0,0,0,0,0,0,0,0,0,0,0,0,0,0,0,0,0,0,0,0,0,0,0,0,0,0,0],"sum_hessian":[1.67E2,7.6E1,9.1E1,3.6E1,4E1,6.7E1,2.4E1,1.1E1,2.5E1,2E1,2E1,2.8E1,3.9E1,1.7E1,7E0,3E0,2.2E1,1.7E1,3E0,6E0,2.2E1,3E1,9E0,3E0,3E0,1.9E1,3E0,4E0,2.6E1,7E0,1.2E1],"tree_param":{"num_deleted":"0","num_feature":"37","num_nodes":"31","size_leaf_vector":"1"}},{"base_weights":[3.3283647E-2,-5.328245E-1,4.2146292E-1,-8.8492E-1,-3.5301155E-1,2.918521E-1,7.3766077E-1,-1.3664462E-1,-7.116278E-2,-4.6183187E-1,-2.2494824E-1,1.9157927E-1,4.0418547E-1,6.14801E-2,1.03596285E-1,-1.9311953E-2,-4.896963E-2,-2.6558697E-2,-1.2770738E-1,6.6970654E-2,2.2961524E-1,4.3340683E-2,2.7485868E-2,-1.5442371E-2,-5.5706026E-3,1.030728E-2,1.9706727E-3,2.4556296E-1,6.0577393E-3,2.6257325E-2,1.1480103E-2],"categories":[],"categories_nodes":[],"categories_segments":[],"categories_sizes":[],"default_left":[0,0,0,0,0,0,0,0,0,0,0,0,0,0,0,0,0,0,0,0,0,0,0,0,0,0,0,0,0,0,0],"id":34,"left_children":[1,3,5,7,9,11,13,-1,-1,15,17,19,21,-1,-1,-1,-1,-1,23,25,27,-1,-1,-1,-1,-1,-1,29,-1,-1,-1],"loss_changes":[3.7802067E1,4.1194057E0,3.964943E0,9.46825E-1,5.6503487E-1,7.5610113E-1,4.2591858E-1,0E0,0E0,9.261751E-2,6.092441E-2,1.7894661E-1,9.364605E-3,0E0,0E0,0E0,0E0,0E0,8.710191E-3,1.6738396E-2,6.869316E-2,0E0,0E0,0E0,0E0,0E0,0E0,3.213668E-2,0E0,0E0,0E0],"parents":[2147483647,0,0,1,1,2,2,3,3,4,4,5,5,6,6,9,9,10,10,11,11,12,12,18,18,19,19,20,20,27,27],"right_children":[2,4,6,8,10,12,14,-1,-1,16,18,20,22,-1,-1,-1,-1,-1,24,26,28,-1,-1,-1,-1,-1,-1,30,-1,-1,-1],"split_conditions":[9.22E2,2.93E2,1.374E3,1.51E2,5.44E2,1.257E3,1.538E3,-1.3664462E-1,-7.116278E-2,1.572E1,7.62E2,1.102E3,4.647E2,6.14801E-2,1.03596285E-1,-1.9311953E-2,-4.896963E-2,-2.6558697E-2,2.46E1,2.516E1,1.110592E3,4.3340683E-2,2.7485868E-2,-1.5442371E-2,-5.5706026E-3,1.030728E-2,1.9706727E-3,1.549E2,6.0577393E-3,2.6257325E-2,1.1480103E-2],"split_indices":[4,4,4,4,4,4,4,0,0,0,4,4,33,0,0,0,0,0,0,0,34,0,0,0,0,0,0,21,0,0,0],"split_type":[0,0,0,0,0,0,0,0,0,0,0,0,0,0,0,0,0,0,0,0,0,0,0,0,0,0,0,0,0,0,0],"sum_hessian":[1.7E2,6.9E1,1.01E2,2.2E1,4.7E1,7.3E1,2.8E1,4E0,1.8E1,2.4E1,2.3E1,4E1,3.3E1,2.2E1,6E0,3E0,2.1E1,1.5E1,8E0,1E1,3E1,2.5E1,8E0,5E0,3E0,5E0,5E0,2.7E1,3E0,2.3E1,4E0],"tree_param":{"num_deleted":"0","num_feature":"37","num_nodes":"31","size_leaf_vector":"1"}},{"base_weights":[-5.851013E-3,-5.1475275E-1,3.7859443E-1,-1.0128748E0,-3.7463722E-1,2.4936327E-1,6.211872E-1,-1.308115E-1,-7.344433E-2,-5.1839215E-1,-2.27978E-1,2.747239E-2,2.811388E-1,5.266599E-2,8.835477E-2,-1.9701874E-2,-5.4907626E-1,-2.7015531E-2,-9.9547066E-2,6.0292436E-3,-1.0842133E-3,2.1453445E-1,3.223065E-1,-6.654178E-2,-3.90498E-2,-1.3757897E-2,-1.7612458E-3,1.4204636E-1,2.4855753E-2,3.451883E-1,1.656208E-2,6.9519803E-3,1.7881077E-2,1.8868446E-2,3.7218075E-2],"categories":[],"categories_nodes":[],"categories_segments":[],"categories_sizes":[],"default_left":[0,0,0,0,0,0,0,0,0,0,0,0,0,0,0,0,0,0,0,0,0,0,0,0,0,0,0,0,0,0,0,0,0,0,0],"id":35,"left_children":[1,3,5,7,9,11,13,-1,-1,15,17,19,21,-1,-1,-1,23,-1,25,-1,-1,27,29,-1,-1,-1,-1,31,-1,33,-1,-1,-1,-1,-1],"loss_changes":[3.228065E1,4.57596E0,2.7920513E0,2.7232552E-1,1.0835485E0,4.3647075E-1,3.282776E-1,0E0,0E0,1.6793108E-1,1.3561285E-1,1.1971058E-2,8.1661224E-2,0E0,0E0,0E0,2.0138645E-1,0E0,2.5622055E-2,0E0,0E0,2.38837E-2,5.755782E-2,0E0,0E0,0E0,0E0,1.4233068E-2,0E0,4.3834448E-2,0E0,0E0,0E0,0E0,0E0],"parents":[2147483647,0,0,1,1,2,2,3,3,4,4,5,5,6,6,9,9,10,10,11,11,12,12,16,16,18,18,21,21,22,22,27,27,29,29],"right_children":[2,4,6,8,10,12,14,-1,-1,16,18,20,22,-1,-1,-1,24,-1,26,-1,-1,28,30,-1,-1,-1,-1,32,-1,34,-1,-1,-1,-1,-1],"split_conditions":[9.22E2,1.94E2,1.358E3,1.51E2,5.25E2,1.071E3,1.535E3,-1.308115E-1,-7.344433E-2,1.59E1,7.62E2,5.07E2,1.214E3,5.266599E-2,8.835477E-2,-1.9701874E-2,3.37E2,-2.7015531E-2,2.46E1,6.0292436E-3,-1.0842133E-3,1.23674E3,1.0893333E1,-6.654178E-2,-3.90498E-2,-1.3757897E-2,-1.7612458E-3,1.396933E3,2.4855753E-2,5.5E0,1.656208E-2,6.9519803E-3,1.7881077E-2,1.8868446E-2,3.7218075E-2],"split_indices":[4,4,4,4,4,4,4,0,0,0,4,28,4,0,0,0,2,0,0,0,0,1,12,0,0,0,0,10,0,12,0,0,0,0,0],"split_type":[0,0,0,0,0,0,0,0,0,0,0,0,0,0,0,0,0,0,0,0,0,0,0,0,0,0,0,0,0,0,0,0,0,0,0],"sum_hessian":[1.63E2,7E1,9.3E1,1.4E1,5.6E1,6.2E1,3.1E1,5E0,9E0,2.7E1,2.9E1,8E0,5.4E1,2.5E1,6E0,3E0,2.4E1,2.1E1,8E0,4E0,4E0,2.3E1,3.1E1,1.2E1,1.2E1,5E0,3E0,9E0,1.4E1,2.6E1,5E0,4E0,5E0,5E0,2.1E1],"tree_param":{"num_deleted":"0","num_feature":"37","num_nodes":"35","size_leaf_vector":"1"}},{"base_weights":[-3.8537893E-3,-4.562416E-1,3.5514802E-1,-8.973251E-2,-3.4571812E-1,2.2162326E-1,5.476409E-1,-4.6633592E-1,-2.0955576E-1,1.2236413E-1,2.776826E-1,4.6289766E-1,9.083316E-2,-1.8028868E-2,-4.9054497E-1,-2.5614684E-2,-1.2892532E-1,1.6656005E-1,3.8642883E-3,2.9771817E-1,1.3122432E-2,2.251196E-2,4.7973264E-2,-5.5539865E-2,-3.3982582E-2,-1.4324932E-2,-6.0884E-3,4.7574523E-3,1.9035867E-1,2.9039383E-3,-2.227688E-3,3.3310078E-2,2.1688588E-2,2.1862498E-2,1.0140763E-2],"categories":[],"categories_nodes":[],"categories_segments":[],"categories_sizes":[],"default_left":[0,0,0,0,0,0,0,0,0,0,0,0,0,0,0,0,0,0,0,0,0,0,0,0,0,0,0,0,0,0,0,0,0,0,0],"id":36,"left_children":[1,3,5,-1,7,9,11,13,15,17,19,21,-1,-1,23,-1,25,27,29,31,-1,-1,-1,-1,-1,-1,-1,-1,33,-1,-1,-1,-1,-1,-1],"loss_changes":[2.6796951E1,3.2485352E0,2.243267E0,0E0,8.876929E-1,2.7762842E-1,7.104807E-1,1.262331E-1,7.967603E-2,1.1457497E-1,6.363511E-2,2.0098686E-2,0E0,0E0,8.4952354E-2,0E0,3.9485246E-3,3.625083E-2,5.253651E-3,1.3556957E-2,0E0,0E0,0E0,0E0,0E0,0E0,0E0,0E0,1.0515869E-2,0E0,0E0,0E0,0E0,0E0,0E0],"parents":[2147483647,0,0,1,1,2,2,4,4,5,5,6,6,7,7,8,8,9,9,10,10,11,11,14,14,16,16,17,17,18,18,19,19,28,28],"right_children":[2,4,6,-1,8,10,12,14,16,18,20,22,-1,-1,24,-1,26,28,30,32,-1,-1,-1,-1,-1,-1,-1,-1,34,-1,-1,-1,-1,-1,-1],"split_conditions":[9.22E2,1.94E2,1.34E3,-8.973251E-2,5.22E2,1.155E3,1.546E3,3.935E0,6.92E2,4.52E2,2.039805E3,5.42784E3,9.083316E-2,-1.8028868E-2,3.88E2,-2.5614684E-2,4.03E2,9.69E2,7.8933334E0,8.0971356E5,1.3122432E-2,2.251196E-2,4.7973264E-2,-5.5539865E-2,-3.3982582E-2,-1.4324932E-2,-6.0884E-3,4.7574523E-3,4.647E2,2.9039383E-3,-2.227688E-3,3.3310078E-2,2.1688588E-2,2.1862498E-2,1.0140763E-2],"split_indices":[4,4,4,0,4,4,4,12,4,2,10,27,0,0,2,0,2,4,12,35,0,0,0,0,0,0,0,0,33,0,0,0,0,0,0],"split_type":[0,0,0,0,0,0,0,0,0,0,0,0,0,0,0,0,0,0,0,0,0,0,0,0,0,0,0,0,0,0,0,0,0,0,0],"sum_hessian":[1.63E2,7.2E1,9.1E1,1.3E1,5.9E1,5.5E1,3.6E1,3E1,2.9E1,2.1E1,3.4E1,3.1E1,5E0,3E0,2.7E1,1.7E1,1.2E1,1.5E1,6E0,2.9E1,5E0,3E0,2.8E1,1.7E1,1E1,9E0,3E0,3E0,1.2E1,3E0,3E0,1.8E1,1.1E1,8E0,4E0],"tree_param":{"num_deleted":"0","num_feature":"37","num_nodes":"35","size_leaf_vector":"1"}},{"base_weights":[7.5705503E-3,-3.8475776E-1,2.996494E-1,-5.754377E-1,-1.9913946E-1,1.5749122E-1,4.7190493E-1,-7.4296966E-2,-4.2101687E-1,-2.758334E-2,-1.4046346E-1,2.1962738E-2,1.847138E-1,3.836415E-1,6.6059333E-1,-4.6804484E-2,-2.332775E-2,-1.5255919E-1,-4.4868947E-3,4.787941E-3,-3.2949448E-4,1.5403725E-1,2.6274005E-1,2.5079394E-2,4.11939E-2,3.1991005E-2,7.386089E-2,-1.7092632E-2,-1.0364271E-2,8.647919E-2,1.7149822E-1,1.4914627E-2,3.0634418E-2,1.4978982E-2,2.9858907E-3,7.0479396E-3,1.8161027E-2],"categories":[],"categories_nodes":[],"categories_segments":[],"categories_sizes":[],"default_left":[0,0,0,0,0,0,0,0,0,0,0,0,0,0,0,0,0,0,0,0,0,0,0,0,0,0,0,0,0,0,0,0,0,0,0,0,0],"id":37,"left_children":[1,3,5,7,9,11,13,-1,15,-1,17,19,21,23,25,-1,-1,27,-1,-1,-1,29,31,-1,-1,-1,-1,-1,-1,33,35,-1,-1,-1,-1,-1,-1],"loss_changes":[1.879359E1,2.3629656E0,2.2275076E0,5.6679153E-1,1.2775874E-1,1.9148338E-1,4.4604778E-1,0E0,6.7395926E-2,0E0,1.9749403E-2,6.703711E-3,6.484544E-2,1.3225079E-2,8.265495E-2,0E0,0E0,2.5379658E-4,0E0,0E0,0E0,2.5276363E-2,8.794665E-3,0E0,0E0,0E0,0E0,0E0,0E0,2.7789421E-2,1.3759375E-2,0E0,0E0,0E0,0E0,0E0,0E0],"parents":[2147483647,0,0,1,1,2,2,3,3,4,4,5,5,6,6,8,8,10,10,11,11,12,12,13,13,14,14,17,17,21,21,22,22,29,29,30,30],"right_children":[2,4,6,8,10,12,14,-1,16,-1,18,20,22,24,26,-1,-1,28,-1,-1,-1,30,32,-1,-1,-1,-1,-1,-1,34,36,-1,-1,-1,-1,-1,-1],"split_conditions":[9.22E2,5.15E2,1.307E3,1.034452E4,6.03E2,2.72E2,1.488E3,-7.4296966E-2,4.93E2,-2.758334E-2,4.83E2,5.07E2,8.11486E3,5.42784E3,3.8066666E2,-4.6804484E-2,-2.332775E-2,3.465E2,-4.4868947E-3,4.787941E-3,-3.2949448E-4,1.155E3,1.73E1,2.5079394E-2,4.11939E-2,3.1991005E-2,7.386089E-2,-1.7092632E-2,-1.0364271E-2,3.6907E2,1.65E1,1.4914627E-2,3.0634418E-2,1.4978982E-2,2.9858907E-3,7.0479396E-3,1.8161027E-2],"split_indices":[4,4,4,3,4,16,4,0,2,0,2,28,27,27,16,0,0,16,0,0,0,4,0,0,0,0,0,0,0,1,0,0,0,0,0,0,0],"split_type":[0,0,0,0,0,0,0,0,0,0,0,0,0,0,0,0,0,0,0,0,0,0,0,0,0,0,0,0,0,0,0,0,0,0,0,0,0],"sum_hessian":[1.62E2,6.9E1,9.3E1,3.3E1,3.6E1,5.2E1,4.1E1,1.4E1,1.9E1,1.4E1,2.2E1,9E0,4.3E1,3E1,1.1E1,1.4E1,5E0,1.9E1,3E0,4E0,5E0,3.3E1,1E1,7E0,2.3E1,3E0,8E0,1.2E1,7E0,8E0,2.5E1,4E0,6E0,3E0,5E0,3E0,2.2E1],"tree_param":{"num_deleted":"0","num_feature":"37","num_nodes":"37","size_leaf_vector":"1"}},{"base_weights":[-2.0255726E-2,-3.8634002E-1,2.3004201E-1,-1.0433674E-1,-3.072046E-1,-1.5013225E-1,2.8298834E-1,-4.4386995E-1,-2.0561238E-1,-1.7767144E-2,-8.83913E-3,1.9501871E-1,4.2636052E-1,-1.2423933E-2,-4.801592E-2,-3.407561E-1,-1.2170742E-1,-3.7685395E-3,2.0864458E-1,3.6201E-1,6.5560274E-2,-5.2252173E-2,-2.4368165E-2,-2.0171565E-1,1.8476486E-2,2.18544E-1,6.7921444E-3,2.2112159E-2,4.1710865E-2,-2.200123E-2,-9.182262E-3,8.793878E-3,-2.3855756E-3,2.610836E-2,1.7873658E-2],"categories":[],"categories_nodes":[],"categories_segments":[],"categories_sizes":[],"default_left":[0,0,0,0,0,0,0,0,0,0,0,0,0,0,0,0,0,0,0,0,0,0,0,0,0,0,0,0,0,0,0,0,0,0,0],"id":38,"left_children":[1,3,5,-1,7,9,11,13,15,-1,-1,17,19,-1,-1,21,23,-1,25,27,-1,-1,-1,29,31,33,-1,-1,-1,-1,-1,-1,-1,-1,-1],"loss_changes":[1.5574357E1,3.267068E0,2.0754972E0,0E0,7.8343534E-1,6.3992143E-3,1.0393553E0,2.4192381E-1,3.8941813E-1,0E0,0E0,1.8859863E-1,2.4947691E-1,0E0,0E0,1.19698286E-1,2.8412363E-1,0E0,6.0382128E-2,1.2512541E-1,0E0,0E0,0E0,1.1968613E-2,3.1502794E-2,3.80044E-2,0E0,0E0,0E0,0E0,0E0,0E0,0E0,0E0,0E0],"parents":[2147483647,0,0,1,1,2,2,4,4,5,5,6,6,7,7,8,8,11,11,12,12,15,15,16,16,18,18,19,19,23,23,24,24,25,25],"right_children":[2,4,6,-1,8,10,12,14,16,-1,-1,18,20,-1,-1,22,24,-1,26,28,-1,-1,-1,30,32,34,-1,-1,-1,-1,-1,-1,-1,-1,-1],"split_conditions":[2.7625E2,3.775E1,3E0,-1.0433674E-1,2.47E2,3.465E2,7.44E2,1.59E1,3.6105E2,-1.7767144E-2,-8.83913E-3,5E2,7.62E2,-1.2423933E-2,-4.801592E-2,2.51E2,1.97E2,-3.7685395E-3,2.092E1,1.758E1,6.5560274E-2,-5.2252173E-2,-2.4368165E-2,3.72E2,2.71E2,6.561188E5,6.7921444E-3,2.2112159E-2,4.1710865E-2,-2.200123E-2,-9.182262E-3,8.793878E-3,-2.3855756E-3,2.610836E-2,1.7873658E-2],"split_indices":[16,16,36,0,28,16,28,0,1,0,0,28,28,0,0,16,16,0,24,0,0,0,0,28,2,35,0,0,0,0,0,0,0,0,0],"split_type":[0,0,0,0,0,0,0,0,0,0,0,0,0,0,0,0,0,0,0,0,0,0,0,0,0,0,0,0,0,0,0,0,0,0,0],"sum_hessian":[1.68E2,6.8E1,1E2,6E0,6.2E1,1.2E1,8.8E1,2.5E1,3.7E1,7E0,5E0,5.6E1,3.2E1,3E0,2.2E1,1.3E1,2.4E1,3E0,5.3E1,2.7E1,5E0,3E0,1E1,1.5E1,9E0,4.9E1,4E0,9E0,1.8E1,1.2E1,3E0,3E0,6E0,2.1E1,2.8E1],"tree_param":{"num_deleted":"0","num_feature":"37","num_nodes":"35","size_leaf_vector":"1"}},{"base_weights":[-7.520788E-3,-2.8741014E-1,2.5147086E-1,-4.6894428E-1,-1.9089487E-1,1.2174136E-1,3.7815684E-1,-5.8933128E-2,-3.4939755E-2,-3.799985E-2,-1.5647168E-1,5.0905228E-2,1.5658583E-1,5.216754E-1,3.0572996E-1,-1.9556856E-1,-8.2872614E-2,2.3452412E-2,1.0112038E-2,1.977373E-2,1.0424968E-1,2.7102185E-2,5.7511307E-2,3.2951072E-1,1.8391745E-2,-1.4831066E-3,-2.1666383E-2,-1.0034384E-2,-1.00517274E-4,-2.0754677E-3,5.450096E-3,4.7311406E-3,1.2229385E-1,3.5827797E-2,2.1257456E-2,3.6695004E-3,-4.0327073E-3,1.3948877E-2,6.16293E-3],"categories":[],"categories_nodes":[],"categories_segments":[],"categories_sizes":[],"default_left":[0,0,0,0,0,0,0,0,0,0,0,0,0,0,0,0,0,0,0,0,0,0,0,0,0,0,0,0,0,0,0,0,0,0,0,0,0,0,0],"id":39,"left_children":[1,3,5,7,9,11,13,-1,-1,-1,15,17,19,21,23,25,27,29,-1,-1,31,-1,-1,33,-1,-1,-1,-1,-1,35,-1,-1,37,-1,-1,-1,-1,-1,-1],"loss_changes":[1.1163094E1,1.2070212E0,1.2687554E0,1.5388584E-1,2.6601827E-1,9.322715E-2,2.5629234E-1,0E0,0E0,0E0,1.10402465E-1,1.8306691E-2,3.7536085E-2,4.8639774E-3,2.340436E-2,1.0354245E-1,2.4214648E-2,8.831755E-3,0E0,0E0,8.597761E-3,0E0,0E0,1.2097359E-3,0E0,0E0,0E0,0E0,0E0,1.1861032E-2,0E0,0E0,1.834631E-3,0E0,0E0,0E0,0E0,0E0,0E0],"parents":[2147483647,0,0,1,1,2,2,3,3,4,4,5,5,6,6,10,10,11,11,12,12,13,13,14,14,15,15,16,16,17,17,20,20,23,23,29,29,32,32],"right_children":[2,4,6,8,10,12,14,-1,-1,-1,16,18,20,22,24,26,28,30,-1,-1,32,-1,-1,34,-1,-1,-1,-1,-1,36,-1,-1,38,-1,-1,-1,-1,-1,-1],"split_conditions":[9.22E2,3.54E2,1.291E3,2.4186174E3,7.676E1,1.134E3,8.525E1,-5.8933128E-2,-3.4939755E-2,-3.799985E-2,6.92E2,4.68926E2,3.8533334E2,1.383E3,1.41525E2,3.99E2,3.217E1,2.51E2,1.0112038E-2,1.977373E-2,2.07E1,2.7102185E-2,5.7511307E-2,4.1029E2,1.8391745E-2,-1.4831066E-3,-2.1666383E-2,-1.0034384E-2,-1.00517274E-4,2.477E1,5.450096E-3,4.7311406E-3,2.235336E3,3.5827797E-2,2.1257456E-2,3.6695004E-3,-4.0327073E-3,1.3948877E-2,6.16293E-3],"split_indices":[4,4,4,15,25,4,14,0,0,0,4,22,16,4,21,4,0,26,0,0,0,0,0,13,0,0,0,0,0,0,0,0,10,0,0,0,0,0,0],"split_type":[0,0,0,0,0,0,0,0,0,0,0,0,0,0,0,0,0,0,0,0,0,0,0,0,0,0,0,0,0,0,0,0,0,0,0,0,0,0,0],"sum_hessian":[1.52E2,7.3E1,7.9E1,2.4E1,4.9E1,4E1,3.9E1,1E1,1.4E1,6E0,4.3E1,1.4E1,2.6E1,1.1E1,2.8E1,2.7E1,1.6E1,1E1,4E0,1.3E1,1.3E1,3E0,8E0,2.2E1,6E0,3E0,2.4E1,1.3E1,3E0,6E0,4E0,4E0,9E0,1.6E1,6E0,3E0,3E0,6E0,3E0],"tree_param":{"num_deleted":"0","num_feature":"37","num_nodes":"39","size_leaf_vector":"1"}},{"base_weights":[-3.1190661E-3,-3.0535457E-1,2.5265294E-1,-9.10277E-2,-2.4141355E-1,1.834326E-1,4.0993696E-1,-3.4649184E-1,-1.3549046E-1,1.0695535E-1,2.3167498E-1,3.4142154E-1,6.431206E-2,-1.4942789E-2,-3.670992E-1,-1.6025613E-1,-6.238469E-2,1.2215614E-1,-1.0988236E-3,2.4098969E-1,8.992386E-3,2.5782952E-1,4.0917378E-2,-3.9608437E-1,-1.8031359E-2,-1.6977344E-2,-8.442535E-3,-8.531428E-3,-9.293557E-5,7.1284555E-2,1.5340124E-1,1.50504215E-2,2.6146752E-1,2.8955346E-2,1.1406231E-2,-4.1744824E-2,-2.2286663E-2,1.75148E-3,9.950801E-3,7.84584E-3,1.7553253E-2,3.2641526E-2,2.1352306E-2],"categories":[],"categories_nodes":[],"categories_segments":[],"categories_sizes":[],"default_left":[0,0,0,0,0,0,0,0,0,0,0,0,0,0,0,0,0,0,0,0,0,0,0,0,0,0,0,0,0,0,0,0,0,0,0,0,0,0,0,0,0,0,0],"id":40,"left_children":[1,3,5,-1,7,9,11,13,15,17,19,21,-1,-1,23,25,27,29,-1,31,-1,33,-1,35,-1,-1,-1,-1,-1,37,39,-1,41,-1,-1,-1,-1,-1,-1,-1,-1,-1,-1],"loss_changes":[1.2986813E1,2.7585564E0,9.1554403E-1,0E0,7.43299E-1,2.150352E-1,2.1179533E-1,8.727884E-2,5.69914E-2,4.9748838E-2,2.982378E-2,2.4764538E-2,0E0,0E0,9.641504E-2,5.1528215E-3,1.5421309E-2,2.721259E-2,0E0,2.7354002E-2,0E0,2.6264012E-2,0E0,3.180027E-3,0E0,0E0,0E0,0E0,0E0,1.4950395E-2,9.448141E-3,0E0,1.7491579E-2,0E0,0E0,0E0,0E0,0E0,0E0,0E0,0E0,0E0,0E0],"parents":[2147483647,0,0,1,1,2,2,4,4,5,5,6,6,7,7,8,8,9,9,10,10,11,11,14,14,15,15,16,16,17,17,19,19,21,21,23,23,29,29,30,30,32,32],"right_children":[2,4,6,-1,8,10,12,14,16,18,20,22,-1,-1,24,26,28,30,-1,32,-1,34,-1,36,-1,-1,-1,-1,-1,38,40,-1,42,-1,-1,-1,-1,-1,-1,-1,-1,-1,-1],"split_conditions":[9.22E2,1.51E2,1.374E3,-9.10277E-2,5.25E2,1.214E3,1.546E3,1.59E1,7.62E2,1.26503E3,2.092E1,6.015E0,6.431206E-2,-1.4942789E-2,2.46E2,3.46E2,3.217E1,9.98239E3,-1.0988236E-3,9.11E0,8.992386E-3,1.593E1,4.0917378E-2,1.446094E4,-1.8031359E-2,-1.6977344E-2,-8.442535E-3,-8.531428E-3,-9.293557E-5,8.7035475E5,1.105E3,1.50504215E-2,2.518E1,2.8955346E-2,1.1406231E-2,-4.1744824E-2,-2.2286663E-2,1.75148E-3,9.950801E-3,7.84584E-3,1.7553253E-2,3.2641526E-2,2.1352306E-2],"split_indices":[4,4,4,0,4,4,4,0,4,25,24,12,0,0,26,16,0,3,0,24,0,0,0,3,0,0,0,0,0,11,4,0,0,0,0,0,0,0,0,0,0,0,0],"split_type":[0,0,0,0,0,0,0,0,0,0,0,0,0,0,0,0,0,0,0,0,0,0,0,0,0,0,0,0,0,0,0,0,0,0,0,0,0,0,0,0,0,0,0],"sum_hessian":[1.66E2,7.6E1,9E1,6E0,7E1,6.4E1,2.6E1,3.4E1,3.6E1,2.6E1,3.8E1,2.2E1,4E0,4E0,3E1,2.6E1,1E1,2.3E1,3E0,3.5E1,3E0,1.2E1,1E1,2.5E1,5E0,2.2E1,4E0,7E0,3E0,1E1,1.3E1,8E0,2.7E1,9E0,3E0,2.1E1,4E0,4E0,6E0,4E0,9E0,9E0,1.8E1],"tree_param":{"num_deleted":"0","num_feature":"37","num_nodes":"43","size_leaf_vector":"1"}},{"base_weights":[-5.4226033E-3,-2.742646E-1,2.196454E-1,-8.322532E-2,-2.1538876E-1,1.4811943E-1,3.9551443E-1,-3.2017285E-1,-1.2617676E-1,8.081861E-2,2.0050338E-1,3.1398827E-1,6.1493684E-2,-4.0904056E-2,-2.3784018E-1,-1.5019551E-1,-5.761671E-2,9.839806E-2,-8.8287995E-4,3.2256316E-2,1.8024623E-1,2.1412277E-1,3.7104383E-2,-9.422171E-3,-2.5887978E-1,-1.6172938E-1,-7.90275E-3,-8.216943E-3,1.2031079E-3,2.8175354E-4,1.1564827E-1,1.0820144E-1,2.1969296E-2,2.433548E-2,1.0943604E-2,-2.8959576E-2,-1.3338546E-2,-1.7781286E-2,-1.0733581E-2,6.621742E-3,1.5905935E-2,1.2767583E-2,2.7596473E-3],"categories":[],"categories_nodes":[],"categories_segments":[],"categories_sizes":[],"default_left":[0,0,0,0,0,0,0,0,0,0,0,0,0,0,0,0,0,0,0,0,0,0,0,0,0,0,0,0,0,0,0,0,0,0,0,0,0,0,0,0,0,0,0],"id":41,"left_children":[1,3,5,-1,7,9,11,13,15,17,19,21,-1,-1,23,25,27,29,-1,-1,31,33,-1,-1,35,37,-1,-1,-1,-1,39,41,-1,-1,-1,-1,-1,-1,-1,-1,-1,-1,-1],"loss_changes":[1.022554E1,2.35035E0,1.0987029E0,0E0,6.233094E-1,2.2000289E-1,2.7202225E-1,1.3684869E-1,5.7215273E-2,4.9723253E-2,3.3344746E-2,4.020667E-2,0E0,0E0,3.3019662E-2,1.1023343E-2,2.1509096E-2,4.2542547E-2,0E0,0E0,7.285452E-2,3.970325E-3,0E0,0E0,2.304709E-2,1.9104481E-3,0E0,0E0,0E0,0E0,3.667611E-2,1.8452868E-2,0E0,0E0,0E0,0E0,0E0,0E0,0E0,0E0,0E0,0E0,0E0],"parents":[2147483647,0,0,1,1,2,2,4,4,5,5,6,6,7,7,8,8,9,9,10,10,11,11,14,14,15,15,16,16,17,17,20,20,21,21,24,24,25,25,30,30,31,31],"right_children":[2,4,6,-1,8,10,12,14,16,18,20,22,-1,-1,24,26,28,30,-1,-1,32,34,-1,-1,36,38,-1,-1,-1,-1,40,42,-1,-1,-1,-1,-1,-1,-1,-1,-1,-1,-1],"split_conditions":[9.07E2,1.51E2,1.369E3,-8.322532E-2,4.49E2,1.214E3,1.546E3,9.10211E3,7.52E2,1.3275E2,6.33E2,6.015E0,6.1493684E-2,-4.0904056E-2,1.572E1,6.91E2,2.46E1,1.004E3,-8.8287995E-4,3.2256316E-2,1.291E3,3E2,3.7104383E-2,-9.422171E-3,3.296E1,1.22069375E5,-7.90275E-3,-8.216943E-3,1.2031079E-3,2.8175354E-4,1.396933E3,1.0803333E2,2.1969296E-2,2.433548E-2,1.0943604E-2,-2.8959576E-2,-1.3338546E-2,-1.7781286E-2,-1.0733581E-2,6.621742E-3,1.5905935E-2,1.2767583E-2,2.7596473E-3],"split_indices":[4,4,4,0,4,4,4,27,4,14,28,12,0,0,0,28,0,4,0,0,4,2,0,0,0,35,0,0,0,0,10,20,0,0,0,0,0,0,0,0,0,0,0],"split_type":[0,0,0,0,0,0,0,0,0,0,0,0,0,0,0,0,0,0,0,0,0,0,0,0,0,0,0,0,0,0,0,0,0,0,0,0,0,0,0,0,0,0,0],"sum_hessian":[1.67E2,7.6E1,9.1E1,6E0,7E1,6.6E1,2.5E1,3.1E1,3.9E1,3E1,3.6E1,2E1,5E0,1.3E1,1.8E1,2.8E1,1.1E1,2.5E1,5E0,3E0,3.3E1,9E0,1.1E1,3E0,1.5E1,2.3E1,5E0,8E0,3E0,4E0,2.1E1,1.3E1,2E1,6E0,3E0,1.1E1,4E0,1.6E1,7E0,1.1E1,1E1,1E1,3E0],"tree_param":{"num_deleted":"0","num_feature":"37","num_nodes":"43","size_leaf_vector":"1"}},{"base_weights":[2.803774E-3,-2.4291211E-1,1.8079382E-1,-5.6457746E-1,-1.7453052E-1,1.4651027E-1,4.3862638E-1,-7.5635515E-2,-4.166121E-2,-3.315009E-1,-1.2838165E-1,-8.285928E-3,1.6735528E-1,1.7024517E-2,5.179887E-2,-4.0470384E-2,-1.3343545E-2,-2.1810451E-1,-6.727778E-2,6.095886E-3,1.8494405E-1,-1.0679285E-2,-2.502306E-1,-1.3642654E-2,-3.1146094E-2,-5.477047E-3,4.5657475E-3,1.5214124E-1,2.3519544E-1,-1.6663702E-2,-2.920962E-2,-9.336767E-3,3.3906938E-3,6.83196E-3,1.627415E-2,1.3332537E-2,2.71071E-2],"categories":[],"categories_nodes":[],"categories_segments":[],"categories_sizes":[],"default_left":[0,0,0,0,0,0,0,0,0,0,0,0,0,0,0,0,0,0,0,0,0,0,0,0,0,0,0,0,0,0,0,0,0,0,0,0,0],"id":42,"left_children":[1,3,5,7,9,11,13,-1,-1,15,17,-1,19,-1,-1,-1,-1,21,23,25,27,-1,29,-1,31,-1,-1,33,35,-1,-1,-1,-1,-1,-1,-1,-1],"loss_changes":[7.3913937E0,1.4631796E0,8.019991E-1,2.541089E-2,3.9208162E-1,4.346136E-1,1.4610791E-1,0E0,0E0,1.34485E-1,2.4848229E-1,0E0,2.2861719E-1,0E0,0E0,0E0,0E0,4.122138E-2,7.07047E-2,2.417241E-2,8.454943E-2,0E0,3.2174587E-4,0E0,8.816753E-2,0E0,0E0,3.0642629E-2,6.253481E-2,0E0,0E0,0E0,0E0,0E0,0E0,0E0,0E0],"parents":[2147483647,0,0,1,1,2,2,3,3,4,4,5,5,6,6,9,9,10,10,12,12,17,17,18,18,19,19,20,20,22,22,24,24,27,27,28,28],"right_children":[2,4,6,8,10,12,14,-1,-1,16,18,-1,20,-1,-1,-1,-1,22,24,26,28,-1,30,-1,32,-1,-1,34,36,-1,-1,-1,-1,-1,-1,-1,-1],"split_conditions":[2.8425E2,4.85E1,5.178775E3,3.325E1,1.01455E3,3E0,2.315E0,-7.5635515E-2,-4.166121E-2,2.51E2,1.1225E2,-8.285928E-3,5.68E2,1.7024517E-2,5.179887E-2,-4.0470384E-2,-1.3343545E-2,3.07E2,1.066173E4,3.09E2,7.44E2,-1.0679285E-2,1.06949E3,-1.3642654E-2,2.315E2,-5.477047E-3,4.5657475E-3,5.6E0,1.749E1,-1.6663702E-2,-2.920962E-2,-9.336767E-3,3.3906938E-3,6.83196E-3,1.627415E-2,1.3332537E-2,2.71071E-2],"split_indices":[16,16,15,16,3,36,12,0,0,16,16,0,28,0,0,0,0,2,3,16,28,0,25,0,16,0,0,12,0,0,0,0,0,0,0,0,0],"split_type":[0,0,0,0,0,0,0,0,0,0,0,0,0,0,0,0,0,0,0,0,0,0,0,0,0,0,0,0,0,0,0,0,0,0,0,0,0],"sum_hessian":[1.67E2,7E1,9.7E1,1.1E1,5.9E1,8.7E1,1E1,3E0,8E0,1.2E1,4.7E1,7E0,8E1,3E0,7E0,8E0,4E0,1.8E1,2.9E1,8E0,7.2E1,5E0,1.3E1,9E0,2E1,3E0,5E0,4.6E1,2.6E1,6E0,7E0,1E1,1E1,6E0,4E1,8E0,1.8E1],"tree_param":{"num_deleted":"0","num_feature":"37","num_nodes":"37","size_leaf_vector":"1"}},{"base_weights":[-1.4374186E-2,-2.0945044E-1,1.4318022E-1,-5.4743934E-2,-1.578417E-1,4.302617E-2,2.518483E-1,-2.0821282E-1,-7.294907E-2,-8.421183E-2,8.424367E-2,2.0588447E-1,4.933173E-2,-1.73361E-1,-3.427696E-2,-1.6795206E-1,1.369272E-2,-1.11936955E-2,-5.6357146E-3,6.1968707E-2,1.5445995E-2,9.5500596E-2,2.4323033E-1,-1.9962192E-1,-9.29987E-3,-1.892232E-2,-7.810402E-3,-3.87249E-3,4.6084593E-3,7.602985E-2,-4.4920924E-3,5.085039E-2,1.6092587E-2,1.6704826E-1,2.720409E-2,-2.1308709E-2,-7.902431E-3,-2.6808875E-3,3.7234307E-3,1.2211419E-2,5.2624354E-3,1.9434929E-3,6.5812687E-3,2.1701908E-2,1.1462947E-2],"categories":[],"categories_nodes":[],"categories_segments":[],"categories_sizes":[],"default_left":[0,0,0,0,0,0,0,0,0,0,0,0,0,0,0,0,0,0,0,0,0,0,0,0,0,0,0,0,0,0,0,0,0,0,0,0,0,0,0,0,0,0,0,0,0],"id":43,"left_children":[1,3,5,-1,7,9,11,13,15,17,19,21,-1,23,-1,25,27,-1,-1,29,-1,31,33,35,-1,-1,-1,37,-1,39,-1,41,-1,43,-1,-1,-1,-1,-1,-1,-1,-1,-1,-1,-1],"loss_changes":[4.8861384E0,1.1520569E0,9.469162E-1,0E0,2.5420773E-1,2.535826E-1,3.6458492E-1,1.2346947E-1,2.0808046E-1,2.958849E-3,4.673466E-2,1.292994E-1,0E0,5.107832E-2,0E0,8.154929E-3,8.144043E-3,0E0,0E0,4.7002055E-2,0E0,2.3950621E-2,1.3817191E-2,2.2133648E-2,0E0,0E0,0E0,1.0426624E-2,0E0,2.1618113E-2,0E0,2.4813134E-3,0E0,1.3172925E-3,0E0,0E0,0E0,0E0,0E0,0E0,0E0,0E0,0E0,0E0,0E0],"parents":[2147483647,0,0,1,1,2,2,4,4,5,5,6,6,7,7,8,8,9,9,10,10,11,11,13,13,15,15,16,16,19,19,21,21,22,22,23,23,27,27,29,29,31,31,33,33],"right_children":[2,4,6,-1,8,10,12,14,16,18,20,22,-1,24,-1,26,28,-1,-1,30,-1,32,34,36,-1,-1,-1,38,-1,40,-1,42,-1,44,-1,-1,-1,-1,-1,-1,-1,-1,-1,-1,-1],"split_conditions":[2.8425E2,1.42E2,1.19033E3,-5.4743934E-2,4.01E2,9.79E1,7.73E2,1.98E1,3.6105E2,3.465E2,4.32E2,6.4E2,4.933173E-2,1.1225E2,-3.427696E-2,2.7625E2,1.314984E4,-1.11936955E-2,-5.6357146E-3,1.113272E3,1.5445995E-2,1.200029E4,9.87E0,1.415301E4,-9.29987E-3,-1.892232E-2,-7.810402E-3,5.5E2,4.6084593E-3,1.67E2,-4.4920924E-3,1.31663E3,1.6092587E-2,1.15E2,2.720409E-2,-2.1308709E-2,-7.902431E-3,-2.6808875E-3,3.7234307E-3,1.2211419E-2,5.2624354E-3,1.9434929E-3,6.5812687E-3,2.1701908E-2,1.1462947E-2],"split_indices":[16,28,1,0,28,9,28,24,1,16,16,28,0,16,0,16,3,0,0,34,0,3,24,3,0,0,0,28,0,26,0,1,0,26,0,0,0,0,0,0,0,0,0,0,0],"split_type":[0,0,0,0,0,0,0,0,0,0,0,0,0,0,0,0,0,0,0,0,0,0,0,0,0,0,0,0,0,0,0,0,0,0,0,0,0,0,0,0,0,0,0,0,0],"sum_hessian":[1.57E2,7E1,8.7E1,8E0,6.2E1,4.6E1,4.1E1,3.8E1,2.4E1,1.1E1,3.5E1,3.6E1,5E0,3.2E1,6E0,1.1E1,1.3E1,4E0,7E0,2.8E1,7E0,1E1,2.6E1,2.3E1,9E0,8E0,3E0,9E0,4E0,2.5E1,3E0,7E0,3E0,9E0,1.7E1,2E1,3E0,6E0,3E0,7E0,1.8E1,3E0,4E0,3E0,6E0],"tree_param":{"num_deleted":"0","num_feature":"37","num_nodes":"45","size_leaf_vector":"1"}},{"base_weights":[-5.5425894E-3,-2.0714861E-1,1.3759226E-1,-3.2868096E-1,-1.431295E-1,3.9855164E-2,1.9588438E-1,-3.5744835E-2,-1.5938226E-2,-2.4223737E-1,-1.1162371E-1,-1.063474E-2,5.466066E-2,2.4294892E-1,1.1908674E-1,-3.31251E-2,-1.276865E-2,-5.5313114E-7,-1.2557581E-1,-2.918892E-3,1.0046387E-3,6.69989E-2,-3.6118508E-3,1.9395858E-1,3.3220433E-2,7.0147775E-2,1.490326E-1,-1.6540801E-2,-8.540588E-2,3.3007383E-2,1.1468544E-1,1.08319715E-1,2.4382986E-1,8.580685E-3,2.1292686E-3,5.6108474E-3,1.6927477E-2,-9.105644E-3,-4.28648E-3,-2.211925E-3,6.8295286E-3,1.3806643E-2,4.5097354E-3,2.8122903E-3,1.3487816E-2,1.8531209E-2,3.2380294E-2],"categories":[],"categories_nodes":[],"categories_segments":[],"categories_sizes":[],"default_left":[0,0,0,0,0,0,0,0,0,0,0,0,0,0,0,0,0,0,0,0,0,0,0,0,0,0,0,0,0,0,0,0,0,0,0,0,0,0,0,0,0,0,0,0,0,0,0],"id":44,"left_children":[1,3,5,7,9,11,13,-1,-1,15,17,19,21,23,25,-1,-1,-1,27,-1,-1,29,-1,31,-1,33,35,-1,37,39,41,43,45,-1,-1,-1,-1,-1,-1,-1,-1,-1,-1,-1,-1,-1,-1],"loss_changes":[4.587884E0,4.6646214E-1,5.220419E-1,5.017519E-2,1.13471866E-1,2.7492307E-2,1.8070579E-1,0E0,0E0,5.9669495E-2,5.606237E-2,3.746735E-3,3.3781447E-2,8.860922E-2,2.4718165E-2,0E0,0E0,0E0,3.7074983E-2,0E0,0E0,3.6737993E-2,0E0,8.0361366E-2,0E0,6.5882206E-3,1.6836017E-2,0E0,4.2374432E-4,3.2635495E-2,1.0043934E-2,1.9635767E-2,1.019305E-2,0E0,0E0,0E0,0E0,0E0,0E0,0E0,0E0,0E0,0E0,0E0,0E0,0E0,0E0],"parents":[2147483647,0,0,1,1,2,2,3,3,4,4,5,5,6,6,9,9,10,10,11,11,12,12,13,13,14,14,18,18,21,21,23,23,25,25,26,26,28,28,29,29,30,30,31,31,32,32],"right_children":[2,4,6,8,10,12,14,-1,-1,16,18,20,22,24,26,-1,-1,-1,28,-1,-1,30,-1,32,-1,34,36,-1,38,40,42,44,46,-1,-1,-1,-1,-1,-1,-1,-1,-1,-1,-1,-1,-1,-1],"split_conditions":[7.88E2,3.32E2,1.214E3,1.741119E3,1.3567E2,9.64E2,3.97E2,-3.5744835E-2,-1.5938226E-2,5.15E2,3.99E2,1.2075E2,1.38E2,4.359E2,1.296E3,-3.31251E-2,-1.276865E-2,-5.5313114E-7,5.52E2,-2.918892E-3,1.0046387E-3,1.426521E3,-3.6118508E-3,1.5E2,3.3220433E-2,1.110592E3,4.46E2,-1.6540801E-2,7.62E2,1.123E3,2.5204398E5,6.46065E2,7.550961E5,8.580685E-3,2.1292686E-3,5.6108474E-3,1.6927477E-2,-9.105644E-3,-4.28648E-3,-2.211925E-3,6.8295286E-3,1.3806643E-2,4.5097354E-3,2.8122903E-3,1.3487816E-2,1.8531209E-2,3.2380294E-2],"split_indices":[4,4,4,10,1,4,2,0,0,4,4,14,14,8,4,0,0,0,4,0,0,10,0,26,0,34,2,0,4,4,23,34,11,0,0,0,0,0,0,0,0,0,0,0,0,0,0],"split_type":[0,0,0,0,0,0,0,0,0,0,0,0,0,0,0,0,0,0,0,0,0,0,0,0,0,0,0,0,0,0,0,0,0,0,0,0,0,0,0,0,0,0,0,0,0,0,0],"sum_hessian":[1.57E2,6.5E1,9.2E1,2.1E1,4.4E1,3.5E1,5.7E1,1.7E1,4E0,9E0,3.5E1,8E0,2.7E1,3.4E1,2.3E1,4E0,5E0,4E0,3.1E1,4E0,4E0,2.4E1,3E0,2.4E1,1E1,1E1,1.3E1,1.4E1,1.7E1,1.5E1,9E0,1E1,1.4E1,7E0,3E0,3E0,1E1,1.4E1,3E0,6E0,9E0,6E0,3E0,3E0,7E0,1E1,4E0],"tree_param":{"num_deleted":"0","num_feature":"37","num_nodes":"47","size_leaf_vector":"1"}},{"base_weights":[-1.3691395E-2,-2.1845432E-1,1.3112688E-1,-6.282323E-2,-1.6613398E-1,8.115865E-2,2.6932192E-1,-2.112237E-1,-9.636299E-2,4.180613E-2,1.3728891E-1,2.1296883E-1,4.408699E-2,-9.0896726E-2,-2.3805915E-1,-1.0475741E-2,-5.232112E-3,-1.5276649E-2,6.0121894E-2,1.5481082E-1,6.2607355E-2,1.19582705E-1,2.6526102E-1,-1.3045959E-2,-1.8718959E-3,-2.567995E-1,-1.2654464E-2,7.830811E-4,-2.9599598E-2,7.250095E-2,-4.4656754E-3,1.6381275E-2,7.3349E-3,8.479404E-3,2.476883E-3,1.6949177E-2,6.6379546E-3,1.4726028E-2,3.0585384E-2,-3.0154208E-2,-1.9065695E-2,-3.6857605E-3,-1.4941692E-3,8.428513E-3,-9.20105E-5],"categories":[],"categories_nodes":[],"categories_segments":[],"categories_sizes":[],"default_left":[0,0,0,0,0,0,0,0,0,0,0,0,0,0,0,0,0,0,0,0,0,0,0,0,0,0,0,0,0,0,0,0,0,0,0,0,0,0,0,0,0,0,0,0,0],"id":45,"left_children":[1,3,5,-1,7,9,11,13,15,17,19,21,-1,23,25,-1,-1,27,29,31,33,35,37,-1,-1,39,-1,-1,41,43,-1,-1,-1,-1,-1,-1,-1,-1,-1,-1,-1,-1,-1,-1,-1],"loss_changes":[4.6545777E0,1.2892108E0,6.134354E-1,0E0,1.6525733E-1,1.4667234E-1,1.3812256E-1,9.137714E-2,3.7616193E-3,4.4830076E-2,2.6947439E-2,6.59467E-2,0E0,2.0402402E-2,2.6018381E-2,0E0,0E0,3.8724255E-3,4.4743612E-2,4.1174293E-3,3.7763324E-3,1.2647092E-2,1.2439668E-2,0E0,0E0,1.0574937E-2,0E0,0E0,1.9399542E-4,2.5168538E-2,0E0,0E0,0E0,0E0,0E0,0E0,0E0,0E0,0E0,0E0,0E0,0E0,0E0,0E0,0E0],"parents":[2147483647,0,0,1,1,2,2,4,4,5,5,6,6,7,7,8,8,9,9,10,10,11,11,13,13,14,14,17,17,18,18,19,19,20,20,21,21,22,22,25,25,28,28,29,29],"right_children":[2,4,6,-1,8,10,12,14,16,18,20,22,-1,24,26,-1,-1,28,30,32,34,36,38,-1,-1,40,-1,-1,42,44,-1,-1,-1,-1,-1,-1,-1,-1,-1,-1,-1,-1,-1,-1,-1],"split_conditions":[7.68E2,1.51E2,1.374E3,-6.282323E-2,5.21E2,1.257E3,1.538E3,7.8E1,3.46E2,1.004E3,4.647E2,6.015E0,4.408699E-2,2.11E2,1.02644E3,-1.0475741E-2,-5.232112E-3,3.046075E2,7.06E2,1.139178E4,1.302E3,1.136E2,1.086267E4,-1.3045959E-2,-1.8718959E-3,1.034452E4,-1.2654464E-2,7.830811E-4,9.22E2,4.4982333E2,-4.4656754E-3,1.6381275E-2,7.3349E-3,8.479404E-3,2.476883E-3,1.6949177E-2,6.6379546E-3,1.4726028E-2,3.0585384E-2,-3.0154208E-2,-1.9065695E-2,-3.6857605E-3,-1.4941692E-3,8.428513E-3,-9.20105E-5],"split_indices":[4,4,4,0,4,4,4,14,16,4,33,12,0,28,34,0,0,13,28,27,4,20,3,0,0,3,0,0,4,13,0,0,0,0,0,0,0,0,0,0,0,0,0,0,0],"split_type":[0,0,0,0,0,0,0,0,0,0,0,0,0,0,0,0,0,0,0,0,0,0,0,0,0,0,0,0,0,0,0,0,0,0,0,0,0,0,0,0,0,0,0,0,0],"sum_hessian":[1.55E2,6.4E1,9.1E1,6E0,5.8E1,6.8E1,2.3E1,3.4E1,2.4E1,4.1E1,2.7E1,1.9E1,4E0,7E0,2.7E1,1.9E1,5E0,1E1,3.1E1,2.1E1,6E0,8E0,1.1E1,4E0,3E0,2.2E1,5E0,4E0,6E0,2.8E1,3E0,1.8E1,3E0,3E0,3E0,3E0,5E0,4E0,7E0,1.1E1,1.1E1,3E0,3E0,2.4E1,4E0],"tree_param":{"num_deleted":"0","num_feature":"37","num_nodes":"45","size_leaf_vector":"1"}},{"base_weights":[-1.9920545E-2,-1.9036411E-1,1.2141359E-1,-6.5953985E-2,-1.5562105E-1,6.9332436E-2,1.917482E-1,-2.0827699E-1,-8.164698E-2,9.522805E-3,8.580203E-2,5.68779E-3,2.0553687E-1,-4.9246433E-3,-2.1924737E-1,-8.975975E-2,-3.9849966E-3,-4.3647005E-3,3.8003497E-2,9.558602E-2,-3.3488274E-3,2.2402743E-1,1.2722778E-1,-2.4660291E-1,-1.2719665E-1,-9.509261E-2,-3.6655904E-3,-3.3488273E-4,5.9237797E-3,1.4257135E-2,7.938433E-2,2.615199E-1,1.5536849E-1,4.7260285E-3,1.5933482E-2,-7.282257E-3,-2.6385361E-2,-5.6119156E-3,-1.5979536E-2,-4.9051284E-3,-1.051568E-2,4.6043103E-3,9.70869E-3,1.4225999E-2,2.8941823E-2,5.5627823E-3,1.824345E-2],"categories":[],"categories_nodes":[],"categories_segments":[],"categories_sizes":[],"default_left":[0,0,0,0,0,0,0,0,0,0,0,0,0,0,0,0,0,0,0,0,0,0,0,0,0,0,0,0,0,0,0,0,0,0,0,0,0,0,0,0,0,0,0,0,0,0,0],"id":46,"left_children":[1,3,5,-1,7,9,11,13,15,17,19,-1,21,-1,23,25,-1,-1,27,29,-1,31,33,35,37,39,-1,-1,-1,-1,41,43,45,-1,-1,-1,-1,-1,-1,-1,-1,-1,-1,-1,-1,-1,-1],"loss_changes":[4.094237E0,1.1525073E0,3.273747E-1,0E0,2.6734245E-1,5.3360194E-2,6.083715E-2,6.247735E-2,7.273957E-3,2.1344807E-2,5.338776E-2,0E0,2.2176743E-2,0E0,6.683862E-2,3.8773566E-3,0E0,0E0,8.101166E-3,1.913172E-2,0E0,2.8871298E-2,1.557748E-2,6.772268E-2,1.65198E-2,5.4993927E-3,0E0,0E0,0E0,0E0,1.4417037E-2,1.2061715E-2,2.224654E-2,0E0,0E0,0E0,0E0,0E0,0E0,0E0,0E0,0E0,0E0,0E0,0E0,0E0,0E0],"parents":[2147483647,0,0,1,1,2,2,4,4,5,5,6,6,7,7,8,8,9,9,10,10,12,12,14,14,15,15,18,18,19,19,21,21,22,22,23,23,24,24,25,25,30,30,31,31,32,32],"right_children":[2,4,6,-1,8,10,12,14,16,18,20,-1,22,-1,24,26,-1,-1,28,30,-1,32,34,36,38,40,-1,-1,-1,-1,42,44,46,-1,-1,-1,-1,-1,-1,-1,-1,-1,-1,-1,-1,-1,-1],"split_conditions":[9.22E2,1.33E2,1.336E3,-6.5953985E-2,5.25E2,1.116E3,5.42784E3,1.572E1,3.465E2,6.4275E0,2.089E1,5.68779E-3,3.82E2,-4.9246433E-3,9.4464E2,8.6E2,-3.9849966E-3,-4.3647005E-3,9.69E2,3.12E2,-3.3488274E-3,5.067465E4,2.406E1,7.475E1,4.8607025E2,8.55E1,-3.6655904E-3,-3.3488273E-4,5.9237797E-3,1.4257135E-2,2.17E2,2.315E0,7.52E2,4.7260285E-3,1.5933482E-2,-7.282257E-3,-2.6385361E-2,-5.6119156E-3,-1.5979536E-2,-4.9051284E-3,-1.051568E-2,4.6043103E-3,9.70869E-3,1.4225999E-2,2.8941823E-2,5.5627823E-3,1.824345E-2],"split_indices":[4,4,4,0,4,4,27,0,16,12,24,0,2,0,34,4,0,0,4,2,0,23,0,14,22,14,0,0,0,0,26,12,28,0,0,0,0,0,0,0,0,0,0,0,0,0,0],"split_type":[0,0,0,0,0,0,0,0,0,0,0,0,0,0,0,0,0,0,0,0,0,0,0,0,0,0,0,0,0,0,0,0,0,0,0,0,0,0,0,0,0,0,0,0,0,0,0],"sum_hessian":[1.68E2,7.6E1,9.2E1,4E0,7.2E1,5.4E1,3.8E1,4.1E1,3.1E1,1.2E1,4.2E1,4E0,3.4E1,3E0,3.8E1,2.5E1,6E0,4E0,8E0,3.9E1,3E0,2.6E1,8E0,2.8E1,1E1,2.2E1,3E0,3E0,5E0,8E0,3.1E1,1.5E1,1.1E1,3E0,5E0,3E0,2.5E1,4E0,6E0,5E0,1.7E1,1.2E1,1.9E1,4E0,1.1E1,3E0,8E0],"tree_param":{"num_deleted":"0","num_feature":"37","num_nodes":"47","size_leaf_vector":"1"}},{"base_weights":[8.396783E-3,-1.5666659E-1,1.3298298E-1,-5.2626323E-2,-1.3262169E-1,1.1360768E-1,3.9821945E-2,-1.94611E-1,-6.0978167E-2,8.2747184E-2,1.6867742E-1,-2.6493677E-1,-1.3781565E-1,-8.699541E-2,-3.1373978E-2,2.1990968E-2,7.1472235E-2,1.8931355E-1,1.0641022E-1,-1.4820595E-2,-2.9391108E-2,-1.8272607E-2,-6.565056E-2,-9.765497E-3,-5.1177028E-3,-4.9683254E-2,1.0473569E-3,1.3460541E-1,5.304845E-2,1.3020745E-1,2.202172E-1,2.8905869E-3,1.781334E-2,1.7829895E-3,-1.2427584E-2,-2.4069787E-3,-5.554666E-3,1.5494071E-2,5.5199624E-3,-3.3145482E-4,6.532463E-3,4.6678544E-3,1.5933719E-2,2.8621346E-2,1.2276132E-2],"categories":[],"categories_nodes":[],"categories_segments":[],"categories_sizes":[],"default_left":[0,0,0,0,0,0,0,0,0,0,0,0,0,0,0,0,0,0,0,0,0,0,0,0,0,0,0,0,0,0,0,0,0,0,0,0,0,0,0,0,0,0,0,0,0],"id":47,"left_children":[1,3,5,-1,7,9,-1,11,13,15,17,19,21,23,25,-1,27,29,31,-1,-1,-1,33,-1,-1,35,-1,37,39,41,43,-1,-1,-1,-1,-1,-1,-1,-1,-1,-1,-1,-1,-1,-1],"loss_changes":[3.3934314E0,5.6117713E-1,4.3782866E-1,0E0,2.901299E-1,1.3729608E-1,0E0,1.0727787E-1,2.2687845E-2,7.552606E-2,1.9688725E-2,7.1736574E-3,5.930513E-2,1.4930665E-3,1.3545731E-2,0E0,5.7995915E-2,1.1511087E-2,5.0439477E-2,0E0,0E0,0E0,5.1156487E-2,0E0,0E0,4.651863E-4,0E0,1.0824218E-2,3.135301E-2,1.6894132E-2,4.8476577E-2,0E0,0E0,0E0,0E0,0E0,0E0,0E0,0E0,0E0,0E0,0E0,0E0,0E0,0E0],"parents":[2147483647,0,0,1,1,2,2,4,4,5,5,7,7,8,8,9,9,10,10,11,11,12,12,13,13,14,14,16,16,17,17,18,18,22,22,25,25,27,27,28,28,29,29,30,30],"right_children":[2,4,6,-1,8,10,-1,12,14,16,18,20,22,24,26,-1,28,30,32,-1,-1,-1,34,-1,-1,36,-1,38,40,42,44,-1,-1,-1,-1,-1,-1,-1,-1,-1,-1,-1,-1,-1,-1],"split_conditions":[9.59E2,1.35E2,1.546E3,-5.2626323E-2,5.15E2,1.356E3,3.9821945E-2,1.034452E4,3.6805E2,3.6752E2,2.12136E3,8.936382E4,3.32E2,2.1317E2,8.153334E0,2.1990968E-2,3.5066666E1,2.37E1,1.498E3,-1.4820595E-2,-2.9391108E-2,-1.8272607E-2,3.99E2,-9.765497E-3,-5.1177028E-3,2.8112225E2,1.0473569E-3,2.77E2,1.123E3,1.8076938E5,3.55E1,2.8905869E-3,1.781334E-2,1.7829895E-3,-1.2427584E-2,-2.4069787E-3,-5.554666E-3,1.5494071E-2,5.5199624E-3,-3.3145482E-4,6.532463E-3,4.6678544E-3,1.5933719E-2,2.8621346E-2,1.2276132E-2],"split_indices":[4,4,4,0,4,4,0,3,1,1,1,11,4,25,12,0,21,0,4,0,0,0,4,0,0,22,0,26,4,11,0,0,0,0,0,0,0,0,0,0,0,0,0,0,0],"split_type":[0,0,0,0,0,0,0,0,0,0,0,0,0,0,0,0,0,0,0,0,0,0,0,0,0,0,0,0,0,0,0,0,0,0,0,0,0,0,0,0,0,0,0,0,0],"sum_hessian":[1.63E2,7E1,9.3E1,3E0,6.7E1,8.8E1,5E0,3.5E1,3.2E1,5.8E1,3E1,1.4E1,2.1E1,1.6E1,1.6E1,3E0,5.5E1,2.1E1,9E0,4E0,1E1,1.2E1,9E0,1.1E1,5E0,1.1E1,5E0,1.1E1,4.4E1,9E0,1.2E1,5E0,4E0,4E0,5E0,3E0,8E0,8E0,3E0,8E0,3.6E1,3E0,6E0,6E0,6E0],"tree_param":{"num_deleted":"0","num_feature":"37","num_nodes":"45","size_leaf_vector":"1"}},{"base_weights":[6.9964374E-4,-1.5947177E-1,9.901576E-2,-3.3850353E-2,-1.2667996E-1,7.817562E-2,3.033621E-1,-1.6415752E-1,-6.470542E-2,3.350117E-2,1.1935997E-1,1.888625E-2,3.9927103E-2,-2.0633827E-1,-1.0644433E-1,-9.442177E-3,-5.285613E-2,7.4939727E-4,5.6520957E-2,1.2890357E-1,1.1504365E-3,-1.5857095E-2,-2.7544443E-2,-5.4357886E-2,-1.4091624E-1,-2.232647E-3,-5.7473625E-3,2.3300596E-2,-1.622645E-2,6.694015E-2,-2.0124435E-3,1.4686656E-1,7.477129E-2,-8.861904E-3,2.0580292E-4,-1.809781E-2,-7.2671133E-3,-7.921601E-4,4.986267E-3,-4.2000134E-3,8.1833435E-4,4.6152016E-3,1.2161255E-2,1.56148365E-2,6.551514E-3,9.33485E-3,3.75398E-3],"categories":[],"categories_nodes":[],"categories_segments":[],"categories_sizes":[],"default_left":[0,0,0,0,0,0,0,0,0,0,0,0,0,0,0,0,0,0,0,0,0,0,0,0,0,0,0,0,0,0,0,0,0,0,0,0,0,0,0,0,0,0,0,0,0,0,0],"id":48,"left_children":[1,3,5,-1,7,9,11,13,15,17,19,-1,-1,21,23,-1,25,27,29,31,-1,-1,-1,33,35,-1,-1,37,39,41,-1,43,45,-1,-1,-1,-1,-1,-1,-1,-1,-1,-1,-1,-1,-1,-1],"loss_changes":[2.5668736E0,3.2110643E-1,4.0640372E-1,0E0,1.1480147E-1,1.6711092E-1,2.3426533E-2,5.8371186E-2,2.7558208E-3,3.4638833E-2,4.7924817E-2,0E0,0E0,1.5740812E-2,2.1068394E-2,0E0,1.2542903E-3,8.0346E-3,2.2908881E-2,3.180325E-2,0E0,0E0,0E0,1.5645375E-2,1.1454374E-2,0E0,0E0,7.858928E-3,7.893265E-3,2.1664225E-2,0E0,1.39327645E-2,5.4872558E-3,0E0,0E0,0E0,0E0,0E0,0E0,0E0,0E0,0E0,0E0,0E0,0E0,0E0,0E0],"parents":[2147483647,0,0,1,1,2,2,4,4,5,5,6,6,7,7,8,8,9,9,10,10,13,13,14,14,16,16,17,17,18,18,19,19,23,23,24,24,27,27,28,28,29,29,31,31,32,32],"right_children":[2,4,6,-1,8,10,12,14,16,18,20,-1,-1,22,24,-1,26,28,30,32,-1,-1,-1,34,36,-1,-1,38,40,42,-1,44,46,-1,-1,-1,-1,-1,-1,-1,-1,-1,-1,-1,-1,-1,-1],"split_conditions":[7.78E2,1.42E2,1.52E3,-3.3850353E-2,5.25E2,1.257E3,1.548E3,3.37E2,2.44E2,1.071E3,5.3034E2,1.888625E-2,3.9927103E-2,1.1225E2,3.58885E2,-9.442177E-3,2.7E2,2.23E2,6.92E2,1.16175E2,1.1504365E-3,-1.5857095E-2,-2.7544443E-2,4.5E2,3.8924E2,-2.232647E-3,-5.7473625E-3,2.455E1,2.66E2,6.85083E2,-2.0124435E-3,2.85E2,3.108E2,-8.861904E-3,2.0580292E-4,-1.809781E-2,-7.2671133E-3,-7.921601E-4,4.986267E-3,-4.2000134E-3,8.1833435E-4,4.6152016E-3,1.2161255E-2,1.56148365E-2,6.551514E-3,9.33485E-3,3.75398E-3],"split_indices":[4,28,4,0,4,4,4,2,2,4,13,0,0,16,13,0,2,26,28,21,0,0,0,2,13,0,0,0,26,34,0,26,8,0,0,0,0,0,0,0,0,0,0,0,0,0,0],"split_type":[0,0,0,0,0,0,0,0,0,0,0,0,0,0,0,0,0,0,0,0,0,0,0,0,0,0,0,0,0,0,0,0,0,0,0,0,0,0,0,0,0,0,0,0,0,0,0],"sum_hessian":[1.61E2,6.1E1,1E2,8E0,5.3E1,9.2E1,8E0,3.2E1,2.1E1,4.5E1,4.7E1,5E0,3E0,1.7E1,1.5E1,4E0,1.7E1,1.9E1,2.6E1,4.3E1,4E0,1.2E1,5E0,7E0,8E0,3E0,1.4E1,8E0,1.1E1,2.3E1,3E0,3.1E1,1.2E1,4E0,3E0,4E0,4E0,4E0,4E0,5E0,6E0,1.8E1,5E0,2.7E1,4E0,7E0,5E0],"tree_param":{"num_deleted":"0","num_feature":"37","num_nodes":"47","size_leaf_vector":"1"}},{"base_weights":[-1.563882E-3,-1.1759788E-1,9.6829765E-2,-4.7898397E-2,-9.159074E-2,6.7536734E-2,2.22091E-1,-1.2804203E-1,-3.689889E-2,8.053271E-2,-5.299568E-2,3.6038082E-2,1.3443851E-1,-9.585172E-2,-1.9743031E-1,-5.0679795E-2,2.8968176E-3,-3.1124498E-3,8.788276E-2,-2.920265E-3,-6.948805E-3,4.2477925E-3,1.9405639E-2,-1.1142131E-1,1.0508347E-3,-9.992659E-3,-2.166888E-2,-2.9267311E-2,-8.787367E-3,1.9217491E-2,7.973677E-2,-1.2398186E-2,-5.0625805E-4,-6.473084E-3,-1.4511244E-3,5.1641664E-3,1.0135504E-2],"categories":[],"categories_nodes":[],"categories_segments":[],"categories_sizes":[],"default_left":[0,0,0,0,0,0,0,0,0,0,0,0,0,0,0,0,0,0,0,0,0,0,0,0,0,0,0,0,0,0,0,0,0,0,0,0,0],"id":49,"left_children":[1,3,5,-1,7,9,11,13,15,17,19,-1,21,23,25,27,-1,-1,29,-1,-1,-1,-1,31,-1,-1,-1,33,-1,-1,35,-1,-1,-1,-1,-1,-1],"loss_changes":[1.9408613E0,6.8922174E-1,3.2257462E-1,0E0,1.4280093E-1,1.2331709E-1,1.5761548E-1,7.935566E-2,2.9607039E-2,5.936265E-2,1.1099931E-3,0E0,5.754684E-2,5.4162294E-2,2.7580857E-3,1.8134914E-2,0E0,0E0,3.9898157E-2,0E0,0E0,0E0,0E0,3.677821E-2,0E0,0E0,0E0,8.480112E-3,0E0,0E0,3.242272E-2,0E0,0E0,0E0,0E0,0E0,0E0],"parents":[2147483647,0,0,1,1,2,2,4,4,5,5,6,6,7,7,8,8,9,9,10,10,12,12,13,13,14,14,15,15,18,18,23,23,27,27,30,30],"right_children":[2,4,6,-1,8,10,12,14,16,18,20,-1,22,24,26,28,-1,-1,30,-1,-1,-1,-1,32,-1,-1,-1,34,-1,-1,36,-1,-1,-1,-1,-1,-1],"split_conditions":[5.98E2,1.27E2,1.492974E4,-4.7898397E-2,4.01E2,8.30318E2,1.773006E4,4.274E2,2.139673E3,1.494E1,2.025521E3,3.6038082E-2,2.07151E4,2.191316E5,1.59E1,1.949E1,2.8968176E-3,-3.1124498E-3,3.35818E3,-2.920265E-3,-6.948805E-3,4.2477925E-3,1.9405639E-2,2.029167E4,1.0508347E-3,-9.992659E-3,-2.166888E-2,1.22683334E2,-8.787367E-3,1.9217491E-2,5.42784E3,-1.2398186E-2,-5.0625805E-4,-6.473084E-3,-1.4511244E-3,5.1641664E-3,1.0135504E-2],"split_indices":[28,28,3,0,28,22,3,9,10,0,10,0,3,11,0,24,0,0,3,0,0,0,0,3,0,0,0,13,0,0,27,0,0,0,0,0,0],"split_type":[0,0,0,0,0,0,0,0,0,0,0,0,0,0,0,0,0,0,0,0,0,0,0,0,0,0,0,0,0,0,0,0,0,0,0,0,0],"sum_hessian":[1.68E2,7.7E1,9.1E1,4E0,7.3E1,7.5E1,1.6E1,4.3E1,3E1,6.8E1,7E0,5E0,1.1E1,3.1E1,1.2E1,2.5E1,5E0,4E0,6.4E1,4E0,3E0,5E0,6E0,2.7E1,4E0,3E0,9E0,1.7E1,8E0,3E0,6.1E1,2.4E1,3E0,4E0,1.3E1,2.8E1,3.3E1],"tree_param":{"num_deleted":"0","num_feature":"37","num_nodes":"37","size_leaf_vector":"1"}},{"base_weights":[-1.567203E-2,-1.4280713E-1,7.2704084E-2,-4.9927674E-2,-1.12726584E-1,1.6431369E-2,1.0806961E-1,-1.4882877E-1,-6.6849805E-2,-3.8155295E-2,3.6570057E-2,2.0834256E-2,9.9136956E-2,-5.9515655E-2,-1.690315E-1,-7.603168E-5,-7.416492E-2,1.347208E-3,-5.919957E-2,1.593113E-3,7.393156E-2,2.627945E-2,1.17981635E-1,-1.0215597E-2,8.6636544E-4,-1.2563153E-1,-2.0345781E-2,-9.084646E-2,-4.1642103E-2,-8.568345E-3,-1.1294842E-3,6.1364174E-3,-1.692053E-2,4.5010652E-2,1.3498115E-2,4.6769716E-2,-3.1516075E-3,1.2416413E-1,2.357006E-3,-1.488576E-2,-6.598282E-3,-1.40392305E-2,-6.480217E-3,-2.3596191E-3,-4.858317E-3,-5.0381473E-3,3.54894E-4,8.3389285E-4,6.477465E-3,3.0661447E-3,6.3266754E-3,1.3222896E-2,7.3359967E-3],"categories":[],"categories_nodes":[],"categories_segments":[],"categories_sizes":[],"default_left":[0,0,0,0,0,0,0,0,0,0,0,0,0,0,0,0,0,0,0,0,0,0,0,0,0,0,0,0,0,0,0,0,0,0,0,0,0,0,0,0,0,0,0,0,0,0,0,0,0,0,0,0,0],"id":50,"left_children":[1,3,5,-1,7,9,11,13,15,17,19,-1,21,23,25,-1,27,-1,29,31,33,35,37,-1,-1,39,-1,41,43,-1,-1,-1,45,47,-1,49,-1,51,-1,-1,-1,-1,-1,-1,-1,-1,-1,-1,-1,-1,-1,-1,-1],"loss_changes":[1.8642741E0,6.728687E-1,1.9325548E-1,0E0,9.605098E-2,4.426819E-2,3.308773E-2,5.3092897E-2,1.4447197E-2,1.274861E-2,3.7779156E-2,0E0,7.515919E-2,2.4142541E-2,1.6274035E-2,0E0,1.0865271E-2,0E0,9.1818385E-3,1.8743597E-2,1.8642947E-2,1.686919E-2,2.3339868E-2,0E0,0E0,1.0959029E-2,0E0,1.28388405E-2,2.314616E-4,0E0,0E0,0E0,9.082861E-3,7.4324273E-3,0E0,7.1753934E-4,0E0,7.508278E-3,0E0,0E0,0E0,0E0,0E0,0E0,0E0,0E0,0E0,0E0,0E0,0E0,0E0,0E0,0E0],"parents":[2147483647,0,0,1,1,2,2,4,4,5,5,6,6,7,7,8,8,9,9,10,10,12,12,13,13,14,14,16,16,18,18,19,19,20,20,21,21,22,22,25,25,27,27,28,28,32,32,33,33,35,35,37,37],"right_children":[2,4,6,-1,8,10,12,14,16,18,20,-1,22,24,26,-1,28,-1,30,32,34,36,38,-1,-1,40,-1,42,44,-1,-1,-1,46,48,-1,50,-1,52,-1,-1,-1,-1,-1,-1,-1,-1,-1,-1,-1,-1,-1,-1,-1],"split_conditions":[7.78E2,1.33E2,1.192E3,-4.9927674E-2,4.49E2,7.1527E2,6.33E2,7.75E1,1.375E2,3.30505E3,1.105E3,2.0834256E-2,1.288E3,2.4E2,1.89E2,-7.603168E-5,1.685E2,1.347208E-3,6.0266E2,2.71E2,1.03944E3,3.123E2,1.599E2,-1.0215597E-2,8.6636544E-4,1.96E2,-2.0345781E-2,1.126618E3,3.63E2,-8.568345E-3,-1.1294842E-3,6.1364174E-3,1.426521E3,3.72E2,1.3498115E-2,4.69E2,-3.1516075E-3,2.17032E3,2.357006E-3,-1.488576E-2,-6.598282E-3,-1.40392305E-2,-6.480217E-3,-2.3596191E-3,-4.858317E-3,-5.0381473E-3,3.54894E-4,8.3389285E-4,6.477465E-3,3.0661447E-3,6.3266754E-3,1.3222896E-2,7.3359967E-3],"split_indices":[4,4,4,0,4,1,28,14,16,3,4,0,4,4,28,0,14,0,1,2,25,8,21,0,0,4,0,10,2,0,0,0,10,16,0,2,0,1,0,0,0,0,0,0,0,0,0,0,0,0,0,0,0],"split_type":[0,0,0,0,0,0,0,0,0,0,0,0,0,0,0,0,0,0,0,0,0,0,0,0,0,0,0,0,0,0,0,0,0,0,0,0,0,0,0,0,0,0,0,0,0,0,0,0,0,0,0,0,0],"sum_hessian":[1.64E2,6.7E1,9.7E1,4E0,6.3E1,3.8E1,5.9E1,3.4E1,2.9E1,1E1,2.8E1,3E0,5.6E1,7E0,2.7E1,3E0,2.6E1,3E0,7E0,1.5E1,1.3E1,1.2E1,4.4E1,4E0,3E0,1.4E1,1.3E1,1.6E1,1E1,4E0,3E0,3E0,1.2E1,1E1,3E0,9E0,3E0,4.1E1,3E0,9E0,5E0,4E0,1.2E1,4E0,6E0,4E0,8E0,4E0,6E0,6E0,3E0,3.4E1,7E0],"tree_param":{"num_deleted":"0","num_feature":"37","num_nodes":"53","size_leaf_vector":"1"}},