{"learner":{"attributes":{},"feature_names":["views.sum.view.throughput_fps","views.sum.view.avg_inference_time_ms","views.sum.view.inference_count","views.sum.view.avg_wait_to_preprocess_ms","views.sum.view.dropped_frames_due_to_full_queue","views.sum.view.exec_cpu","views.sum.view.exec_npu0","views.sum.view.exec_npu1","views.sum.view.static_infer_sel","views.sum.view.static_load_sel","views.sum.x.view_throughput__static_infer_sel","views.sum.x.view_wait__static_load_sel","views.mean.view.throughput_fps","views.mean.view.avg_inference_time_ms","views.mean.view.inference_count","views.mean.view.avg_wait_to_preprocess_ms","views.mean.view.dropped_frames_due_to_full_queue","views.mean.view.exec_cpu","views.mean.view.exec_npu0","views.mean.view.exec_npu1","views.mean.view.static_infer_sel","views.mean.view.static_load_sel","views.mean.x.view_throughput__static_infer_sel","views.mean.x.view_wait__static_load_sel","views.max.view.throughput_fps","views.max.view.avg_inference_time_ms","views.max.view.inference_count","views.max.view.avg_wait_to_preprocess_ms","views.max.view.dropped_frames_due_to_full_queue","views.max.view.exec_cpu","views.max.view.exec_npu0","views.max.view.exec_npu1","views.max.view.static_infer_sel","views.max.view.static_load_sel","views.max.x.view_throughput__static_infer_sel","views.max.x.view_wait__static_load_sel","views.count.views"],"feature_types":[],"gradient_booster":{"model":{"gbtree_model_param":{"num_parallel_tree":"1","num_trees":"400"},"iteration_indptr":[0,1,2,3,4,5,6,7,8,9,10,11,12,13,14,15,16,17,18,19,20,21,22,23,24,25,26,27,28,29,30,31,32,33,34,35,36,37,38,39,40,41,42,43,44,45,46,47,48,49,50,51,52,53,54,55,56,57,58,59,60,61,62,63,64,65,66,67,68,69,70,71,72,73,74,75,76,77,78,79,80,81,82,83,84,85,86,87,88,89,90,91,92,93,94,95,96,97,98,99,100,101,102,103,104,105,106,107,108,109,110,111,112,113,114,115,116,117,118,119,120,121,122,123,124,125,126,127,128,129,130,131,132,133,134,135,136,137,138,139,140,141,142,143,144,145,146,147,148,149,150,151,152,153,154,155,156,157,158,159,160,161,162,163,164,165,166,167,168,169,170,171,172,173,174,175,176,177,178,179,180,181,182,183,184,185,186,187,188,189,190,191,192,193,194,195,196,197,198,199,200,201,202,203,204,205,206,207,208,209,210,211,212,213,214,215,216,217,218,219,220,221,222,223,224,225,226,227,228,229,230,231,232,233,234,235,236,237,238,239,240,241,242,243,244,245,246,247,248,249,250,251,252,253,254,255,256,257,258,259,260,261,262,263,264,265,266,267,268,269,270,271,272,273,274,275,276,277,278,279,280,281,282,283,284,285,286,287,288,289,290,291,292,293,294,295,296,297,298,299,300,301,302,303,304,305,306,307,308,309,310,311,312,313,314,315,316,317,318,319,320,321,322,323,324,325,326,327,328,329,330,331,332,333,334,335,336,337,338,339,340,341,342,343,344,345,346,347,348,349,350,351,352,353,354,355,356,357,358,359,360,361,362,363,364,365,366,367,368,369,370,371,372,373,374,375,376,377,378,379,380,381,382,383,384,385,386,387,388,389,390,391,392,393,394,395,396,397,398,399,400],"tree_info":[0,0,0,0,0,0,0,0,0,0,0,0,0,0,0,0,0,0,0,0,0,0,0,0,0,0,0,0,0,0,0,0,0,0,0,0,0,0,0,0,0,0,0,0,0,0,0,0,0,0,0,0,0,0,0,0,0,0,0,0,0,0,0,0,0,0,0,0,0,0,0,0,0,0,0,0,0,0,0,0,0,0,0,0,0,0,0,0,0,0,0,0,0,0,0,0,0,0,0,0,0,0,0,0,0,0,0,0,0,0,0,0,0,0,0,0,0,0,0,0,0,0,0,0,0,0,0,0,0,0,0,0,0,0,0,0,0,0,0,0,0,0,0,0,0,0,0,0,0,0,0,0,0,0,0,0,0,0,0,0,0,0,0,0,0,0,0,0,0,0,0,0,0,0,0,0,0,0,0,0,0,0,0,0,0,0,0,0,0,0,0,0,0,0,0,0,0,0,0,0,0,0,0,0,0,0,0,0,0,0,0,0,0,0,0,0,0,0,0,0,0,0,0,0,0,0,0,0,0,0,0,0,0,0,0,0,0,0,0,0,0,0,0,0,0,0,0,0,0,0,0,0,0,0,0,0,0,0,0,0,0,0,0,0,0,0,0,0,0,0,0,0,0,0,0,0,0,0,0,0,0,0,0,0,0,0,0,0,0,0,0,0,0,0,0,0,0,0,0,0,0,0,0,0,0,0,0,0,0,0,0,0,0,0,0,0,0,0,0,0,0,0,0,0,0,0,0,0,0,0,0,0,0,0,0,0,0,0,0,0,0,0,0,0,0,0,0,0,0,0,0,0,0,0,0,0,0,0,0,0,0,0,0,0,0,0,0,0,0,0,0,0,0,0,0,0,0,0,0,0,0,0,0,0,0,0,0,0,0,0,0,0,0,0,0,0,0,0,0,0],"trees":[{"base_weights":[-3.4497225E-1,-1.0208991E1,3.9576766E0,-1.4816519E0,-8.723825E0,-5.1418555E-1,7.932945E0,-9.102112E-1,-4.1797367E-1,-1.5503718E0,5.773711E-1,6.008501E-1,9.785401E-1,-1.8593122E-1,-7.774538E-2,1.3179164E-1,1.8952821E-1,-1.3584988E-1,4.6654645E-1,-2.5597572E-2,-2.877426E-3,2.7402464E-2,6.0426332E-2],"categories":[],"categories_nodes":[],"categories_segments":[],"categories_sizes":[],"default_left":[0,0,0,0,0,0,0,0,0,0,0,0,0,0,0,0,0,0,0,0,0,0,0],"id":0,"left_children":[1,3,5,-1,7,9,11,-1,-1,13,15,-1,-1,-1,-1,17,-1,19,21,-1,-1,-1,-1],"loss_changes":[7.128119E3,2.197334E2,2.0839705E3,0E0,3.243335E1,6.4234276E1,1.6223145E2,0E0,0E0,5.479248E0,1.6192774E1,0E0,0E0,0E0,0E0,2.0344546E0,0E0,1.5984762E-1,9.9551916E-2,0E0,0E0,0E0,0E0],"parents":[2147483647,0,0,1,1,2,2,4,4,5,5,6,6,9,9,10,10,15,15,17,17,18,18],"right_children":[2,4,6,-1,8,10,12,-1,-1,14,16,-1,-1,-1,-1,18,-1,20,22,-1,-1,-1,-1],"split_conditions":[2.349E1,1.494E1,3.021E1,-1.4816519E0,2.063E1,2.542E1,3.383E1,-9.102112E-1,-4.1797367E-1,2.472E1,2.744E1,6.008501E-1,9.785401E-1,-1.8593122E-1,-7.774538E-2,2.616E1,1.8952821E-1,2.584E1,2.648E1,-2.5597572E-2,-2.877426E-3,2.7402464E-2,6.0426332E-2],"split_indices":[0,0,0,0,0,0,0,0,0,0,0,0,0,0,0,0,0,0,0,0,0,0,0],"split_type":[0,0,0,0,0,0,0,0,0,0,0,0,0,0,0,0,0,0,0,0,0,0,0],"sum_hessian":[1.66E2,5E1,1.16E2,1E1,4E1,5.5E1,6.1E1,3.6E1,4E0,2.8E1,2.7E1,3.2E1,2.9E1,1.9E1,9E0,2.1E1,6E0,1.2E1,9E0,5E0,7E0,5E0,4E0],"tree_param":{"num_deleted":"0","num_feature":"37","num_nodes":"23","size_leaf_vector":"1"}},{"base_weights":[-3.9263916E-1,-9.479911E0,3.5054116E0,-1.3498393E0,-7.9204054E0,-5.102914E-1,7.252968E0,-8.160578E-1,-3.8988382E-1,-1.3849978E0,5.186119E-1,5.799245E0,9.3681854E-1,-1.7001766E-1,-6.860367E-2,1.3474989E-1,1.5412731E-1,3.8873157E-1,6.192629E-1,-7.952447E-2,3.569767E-1,-1.2773657E-2,3.6780834E-3,1.3907003E-2,4.3049812E-2],"categories":[],"categories_nodes":[],"categories_segments":[],"categories_sizes":[],"default_left":[0,0,0,0,0,0,0,0,0,0,0,0,0,0,0,0,0,0,0,0,0,0,0,0,0],"id":1,"left_children":[1,3,5,-1,7,9,11,-1,-1,13,15,17,-1,-1,-1,19,-1,-1,-1,21,23,-1,-1,-1,-1],"loss_changes":[5.665432E3,1.9389551E2,1.6891971E3,0E0,3.9204102E0,5.0217636E1,1.2401782E2,0E0,0E0,5.442547E0,9.998896E0,3.7557373E0,0E0,0E0,0E0,9.807386E-1,0E0,0E0,0E0,6.63788E-2,1.003387E-1,0E0,0E0,0E0,0E0],"parents":[2147483647,0,0,1,1,2,2,4,4,5,5,6,6,9,9,10,10,11,11,15,15,19,19,20,20],"right_children":[2,4,6,-1,8,10,12,-1,-1,14,16,18,-1,-1,-1,20,-1,-1,-1,22,24,-1,-1,-1,-1],"split_conditions":[2.083E1,1.494E1,2.896E1,-1.3498393E0,1.918E1,2.55E1,3.472E1,-8.160578E-1,-3.8988382E-1,2.46E1,2.692E1,3.191E1,9.3681854E-1,-1.7001766E-1,-6.860367E-2,2.616E1,1.5412731E-1,3.8873157E-1,6.192629E-1,2.596E1,2.636E1,-1.2773657E-2,3.6780834E-3,1.3907003E-2,4.3049812E-2],"split_indices":[0,0,0,0,0,0,0,0,0,0,0,0,0,0,0,0,0,0,0,0,0,0,0,0,0],"split_type":[0,0,0,0,0,0,0,0,0,0,0,0,0,0,0,0,0,0,0,0,0,0,0,0,0],"sum_hessian":[1.58E2,4.7E1,1.11E2,1.1E1,3.6E1,5.4E1,5.7E1,3.3E1,3E0,2.9E1,2.5E1,3.6E1,2.1E1,1.9E1,1E1,1.9E1,6E0,8E0,2.8E1,1E1,9E0,7E0,3E0,3E0,6E0],"tree_param":{"num_deleted":"0","num_feature":"37","num_nodes":"25","size_leaf_vector":"1"}},{"base_weights":[1.948874E-1,-8.540354E0,3.546856E0,-1.2144254E0,-7.080255E0,-3.7780365E-1,6.6053658E0,-7.5830907E-1,-4.1292807E-1,-1.2301018E0,5.2369857E-1,5.334076E0,8.73213E-1,-1.4680313E0,-5.1125646E-2,1.1828503E-1,1.5492927E-1,3.4095547E-1,5.6866235E-1,-1.636512E-1,-9.454202E-2,-9.043232E-2,4.1657543E-1,-1.5974863E-2,5.508741E-4,2.090683E-2,4.9926605E-2],"categories":[],"categories_nodes":[],"categories_segments":[],"categories_sizes":[],"default_left":[0,0,0,0,0,0,0,0,0,0,0,0,0,0,0,0,0,0,0,0,0,0,0,0,0,0,0],"id":2,"left_children":[1,3,5,-1,7,9,11,-1,-1,13,15,17,-1,19,-1,21,-1,-1,-1,-1,-1,23,25,-1,-1,-1,-1],"loss_changes":[4.5394507E3,1.4028394E2,1.3468998E3,0E0,1.7654541E1,3.9061638E1,1.23757324E2,0E0,0E0,3.6963577E0,1.0211487E1,9.107666E0,0E0,1.2575531E-1,0E0,1.2205812E0,0E0,0E0,0E0,0E0,0E0,8.0683365E-2,3.289032E-2,0E0,0E0,0E0,0E0],"parents":[2147483647,0,0,1,1,2,2,4,4,5,5,6,6,9,9,10,10,11,11,13,13,15,15,21,21,22,22],"right_children":[2,4,6,-1,8,10,12,-1,-1,14,16,18,-1,20,-1,22,-1,-1,-1,-1,-1,24,26,-1,-1,-1,-1],"split_conditions":[2.349E1,1.243E1,2.896E1,-1.2144254E0,1.833E1,2.55E1,3.517E1,-7.5830907E-1,-4.1292807E-1,2.501E1,2.744E1,3.143E1,8.73213E-1,2.446E1,-5.1125646E-2,2.616E1,1.5492927E-1,3.4095547E-1,5.6866235E-1,-1.636512E-1,-9.454202E-2,2.589E1,2.638E1,-1.5974863E-2,5.508741E-4,2.090683E-2,4.9926605E-2],"split_indices":[0,0,0,0,0,0,0,0,0,0,0,0,0,0,0,0,0,0,0,0,0,0,0,0,0,0,0],"split_type":[0,0,0,0,0,0,0,0,0,0,0,0,0,0,0,0,0,0,0,0,0,0,0,0,0,0,0],"sum_hessian":[1.53E2,4.2E1,1.11E2,1E1,3.2E1,4.9E1,6.2E1,2.6E1,6E0,2.5E1,2.4E1,4.1E1,2.1E1,1.8E1,7E0,1.8E1,6E0,8E0,3.3E1,1.2E1,6E0,1.1E1,7E0,6E0,5E0,3E0,4E0],"tree_param":{"num_deleted":"0","num_feature":"37","num_nodes":"27","size_leaf_vector":"1"}},{"base_weights":[-8.372466E-2,-7.839818E0,3.2691948E0,-1.1476244E0,-6.426656E0,-4.562411E-1,6.111784E0,-7.026987E-1,-4.2597222E-1,-1.1554272E0,4.7557738E-1,4.941742E0,8.280427E-1,-1.3157173E0,-4.4080026E-2,1.19316E-1,1.4650987E-1,3.4840998E-1,5.4103863E-1,-1.5106015E-1,-9.480723E-2,-6.772022E-2,3.138767E-1,-1.1594854E-2,3.360939E-3,1.5567446E-2,3.6703207E-2],"categories":[],"categories_nodes":[],"categories_segments":[],"categories_sizes":[],"default_left":[0,0,0,0,0,0,0,0,0,0,0,0,0,0,0,0,0,0,0,0,0,0,0,0,0,0,0],"id":3,"left_children":[1,3,5,-1,7,9,11,-1,-1,13,15,17,-1,19,-1,21,-1,-1,-1,-1,-1,23,25,-1,-1,-1,-1],"loss_changes":[4.3945635E3,1.8832812E2,1.2523948E3,0E0,2.080127E1,3.4428253E1,1.2908643E2,0E0,0E0,2.8564606E0,7.93334E0,1.2572998E1,0E0,2.873993E-1,0E0,6.7627394E-1,0E0,0E0,0E0,0E0,0E0,5.276653E-2,1.8546164E-2,0E0,0E0,0E0,0E0],"parents":[2147483647,0,0,1,1,2,2,4,4,5,5,6,6,9,9,10,10,11,11,13,13,15,15,21,21,22,22],"right_children":[2,4,6,-1,8,10,12,-1,-1,14,16,18,-1,20,-1,22,-1,-1,-1,-1,-1,24,26,-1,-1,-1,-1],"split_conditions":[2.349E1,1.494E1,3.021E1,-1.1476244E0,1.777E1,2.564E1,3.55E1,-7.026987E-1,-4.2597222E-1,2.501E1,2.692E1,3.226E1,8.280427E-1,2.424E1,-4.4080026E-2,2.616E1,1.4650987E-1,3.4840998E-1,5.4103863E-1,-1.5106015E-1,-9.480723E-2,2.591E1,1.318E1,-1.1594854E-2,3.360939E-3,1.5567446E-2,3.6703207E-2],"split_indices":[0,0,0,0,0,0,0,0,0,0,0,0,0,0,0,0,0,0,0,0,0,0,12,0,0,0,0],"split_type":[0,0,0,0,0,0,0,0,0,0,0,0,0,0,0,0,0,0,0,0,0,0,0,0,0,0,0],"sum_hessian":[1.67E2,5E1,1.17E2,1.2E1,3.8E1,5.1E1,6.6E1,2.8E1,1E1,2.9E1,2.2E1,4.5E1,2.1E1,2.3E1,6E0,1.7E1,5E0,1.3E1,3.2E1,1.3E1,1E1,9E0,8E0,6E0,3E0,3E0,5E0],"tree_param":{"num_deleted":"0","num_feature":"37","num_nodes":"27","size_leaf_vector":"1"}},{"base_weights":[-6.069024E-2,-7.007879E0,3.0339458E0,-1.0048002E0,-5.972418E0,-2.4335392E-1,5.495499E0,-6.6684186E-1,-4.424641E-1,-9.470395E-1,5.5450803E-1,4.207099E0,6.987237E-1,-1.2137728E0,-4.244723E-1,1.1350197E-1,1.4774583E-1,2.39657E-1,4.402866E-1,-1.3648225E-1,-7.814342E-2,-5.1134586E-2,-2.6685333E-2,-5.21293E-4,3.416354E-2,-6.726909E-3,8.856265E-3],"categories":[],"categories_nodes":[],"categories_segments":[],"categories_sizes":[],"default_left":[0,0,0,0,0,0,0,0,0,0,0,0,0,0,0,0,0,0,0,0,0,0,0,0,0,0,0],"id":4,"left_children":[1,3,5,-1,7,9,11,-1,-1,13,15,17,-1,19,21,23,-1,-1,-1,-1,-1,-1,-1,25,-1,-1,-1],"loss_changes":[3.6975938E3,1.06829346E2,9.6133997E2,0E0,1.5739258E1,2.9720226E1,1.01296875E2,0E0,0E0,3.3875961E0,1.0007971E1,3.2714844E0,0E0,1.0896683E-1,1.4167786E-2,4.6840343E-1,0E0,0E0,0E0,0E0,0E0,0E0,0E0,8.325757E-2,0E0,0E0,0E0],"parents":[2147483647,0,0,1,1,2,2,4,4,5,5,6,6,9,9,10,10,11,11,13,13,14,14,15,15,23,23],"right_children":[2,4,6,-1,8,10,12,-1,-1,14,16,18,-1,20,22,24,-1,-1,-1,-1,-1,-1,-1,26,-1,-1,-1],"split_conditions":[2.349E1,1.494E1,3.036E1,-1.0048002E0,1.73E1,2.571E1,3.438E1,-6.6684186E-1,-4.424641E-1,2.501E1,2.692E1,3.117E1,6.987237E-1,2.425E1,2.541E1,2.636E1,1.4774583E-1,2.39657E-1,4.402866E-1,-1.3648225E-1,-7.814342E-2,-5.1134586E-2,-2.6685333E-2,2.603E1,3.416354E-2,-6.726909E-3,8.856265E-3],"split_indices":[0,0,0,0,0,0,0,0,0,0,0,0,0,0,0,0,0,0,0,0,0,0,0,0,0,0,0],"split_type":[0,0,0,0,0,0,0,0,0,0,0,0,0,0,0,0,0,0,0,0,0,0,0,0,0,0,0],"sum_hessian":[1.7E2,5.2E1,1.18E2,1.1E1,4.1E1,5.1E1,6.7E1,2.6E1,1.5E1,2.7E1,2.4E1,3.8E1,2.9E1,1.7E1,1E1,1.7E1,7E0,5E0,3.3E1,1.1E1,6E0,5E0,5E0,1.2E1,5E0,7E0,5E0],"tree_param":{"num_deleted":"0","num_feature":"37","num_nodes":"27","size_leaf_vector":"1"}},{"base_weights":[-1.3150062E-1,-6.531147E0,2.6048925E0,-9.5026463E-1,-5.220797E0,-3.3518693E-1,4.953292E0,-5.599574E-1,-3.053091E-1,-9.814801E-1,2.5764987E-1,4.0472965E0,6.9706166E-1,-1.1900828E-1,-6.652863E-2,4.5581743E-2,1.0983254E-1,3.055794E-1,4.6064383E-1,-1.1618093E-1,2.6202342E-1,-2.1924047E-2,-2.3114523E-3,9.464264E-3,3.1296086E-2],"categories":[],"categories_nodes":[],"categories_segments":[],"categories_sizes":[],"default_left":[0,0,0,0,0,0,0,0,0,0,0,0,0,0,0,0,0,0,0,0,0,0,0,0,0],"id":5,"left_children":[1,3,5,-1,7,9,11,-1,-1,13,15,17,-1,-1,-1,19,-1,-1,-1,21,23,-1,-1,-1,-1],"loss_changes":[3.099116E3,1.5675488E2,8.578159E2,0E0,1.4926025E1,2.1709076E1,9.7898315E1,0E0,0E0,9.8914146E-1,5.2983513E0,1.36432495E1,0E0,0E0,0E0,9.057467E-1,0E0,0E0,0E0,1.3880306E-1,6.416601E-2,0E0,0E0,0E0,0E0],"parents":[2147483647,0,0,1,1,2,2,4,4,5,5,6,6,9,9,10,10,11,11,15,15,19,19,20,20],"right_children":[2,4,6,-1,8,10,12,-1,-1,14,16,18,-1,-1,-1,20,-1,-1,-1,22,24,-1,-1,-1,-1],"split_conditions":[2.349E1,1.494E1,2.896E1,-9.5026463E-1,1.889E1,2.541E1,3.567E1,-5.599574E-1,-3.053091E-1,2.446E1,2.744E1,3.268E1,6.9706166E-1,-1.1900828E-1,-6.652863E-2,2.616E1,1.0983254E-1,3.055794E-1,4.6064383E-1,2.579E1,2.636E1,-2.1924047E-2,-2.3114523E-3,9.464264E-3,3.1296086E-2],"split_indices":[0,0,0,0,0,0,0,0,0,0,0,0,0,0,0,0,0,0,0,0,0,0,0,0,0],"split_type":[0,0,0,0,0,0,0,0,0,0,0,0,0,0,0,0,0,0,0,0,0,0,0,0,0],"sum_hessian":[1.75E2,5.2E1,1.23E2,1.4E1,3.8E1,5.5E1,6.8E1,3.1E1,7E0,2.6E1,2.9E1,4.9E1,1.9E1,1.4E1,1.2E1,2.4E1,5E0,2E1,2.9E1,1.4E1,1E1,6E0,8E0,3E0,7E0],"tree_param":{"num_deleted":"0","num_feature":"37","num_nodes":"25","size_leaf_vector":"1"}},{"base_weights":[6.654723E-2,-3.222005E0,4.3002095E0,-6.043334E0,-7.247406E-1,2.7670355E0,5.3055167E0,-8.938694E-1,-4.928855E-1,-1.2690803E0,-5.948027E-2,1.5046957E-1,3.1406888E-1,4.2830998E-1,6.086773E-1,-2.3360582E-1,-9.9391484E-1,-3.134613E-1,1.4432485E-1,-1.1416608E-1,-7.155186E-2,-3.600314E-2,-1.4195586E-2,2.1388795E-2,3.0467479E-2,-3.2820513E-3,7.1320343E-3],"categories":[],"categories_nodes":[],"categories_segments":[],"categories_sizes":[],"default_left":[0,0,0,0,0,0,0,0,0,0,0,0,0,0,0,0,0,0,0,0,0,0,0,0,0,0,0],"id":6,"left_children":[1,3,5,7,9,11,13,-1,-1,15,17,-1,-1,-1,-1,-1,19,21,23,-1,-1,-1,-1,25,-1,-1,-1],"loss_changes":[2.3250103E3,6.57907E2,9.7835205E1,9.7922485E1,1.8393019E1,9.89621E0,8.276855E0,0E0,0E0,5.8988304E0,1.2875434E0,0E0,0E0,0E0,0E0,0E0,1.7028618E-1,3.6748648E-2,2.694624E-1,0E0,0E0,0E0,0E0,2.670156E-2,0E0,0E0,0E0],"parents":[2147483647,0,0,1,1,2,2,3,3,4,4,5,5,6,6,9,9,10,10,16,16,17,17,18,18,23,23],"right_children":[2,4,6,8,10,12,14,-1,-1,16,18,-1,-1,-1,-1,-1,20,22,24,-1,-1,-1,-1,26,-1,-1,-1],"split_conditions":[2.744E1,2.063E1,3.328E1,1.154E1,2.501E1,3.066E1,3.622E1,-8.938694E-1,-4.928855E-1,2.349E1,2.579E1,1.5046957E-1,3.1406888E-1,4.2830998E-1,6.086773E-1,-2.3360582E-1,2.424E1,2.564E1,2.636E1,-1.1416608E-1,-7.155186E-2,-3.600314E-2,-1.4195586E-2,2.603E1,3.0467479E-2,-3.2820513E-3,7.1320343E-3],"split_indices":[0,0,0,0,0,0,0,0,0,0,0,0,0,0,0,0,0,0,0,0,0,0,0,0,0,0,0],"split_type":[0,0,0,0,0,0,0,0,0,0,0,0,0,0,0,0,0,0,0,0,0,0,0,0,0,0,0],"sum_hessian":[1.65E2,9.3E1,7.2E1,4.3E1,5E1,3E1,4.2E1,1E1,3.3E1,2.7E1,2.3E1,8E0,2.2E1,2.1E1,2.1E1,4E0,2.3E1,1E1,1.3E1,1.3E1,1E1,7E0,3E0,8E0,5E0,4E0,4E0],"tree_param":{"num_deleted":"0","num_feature":"37","num_nodes":"27","size_leaf_vector":"1"}},{"base_weights":[-1.6109979E-1,-5.31539E0,2.0364769E0,-7.488441E-1,-4.136443E0,-1.7069767E-1,3.9260085E0,-4.6551678E-1,-3.2619306E-1,-6.6509664E-1,4.2940903E-1,2.5543687E-1,4.616551E0,-8.898049E-2,-3.0280098E-1,1.2187682E-1,1.06768034E-1,3.9233658E-1,5.510302E-1,-3.9995767E-2,-1.9208336E-2,3.1894336E-3,2.6983738E-1,-4.8905057E-3,5.475235E-3,1.5108451E-2,3.508191E-2],"categories":[],"categories_nodes":[],"categories_segments":[],"categories_sizes":[],"default_left":[0,0,0,0,0,0,0,0,0,0,0,0,0,0,0,0,0,0,0,0,0,0,0,0,0,0,0],"id":7,"left_children":[1,3,5,-1,7,9,11,-1,-1,13,15,-1,17,-1,19,21,-1,-1,-1,-1,-1,23,25,-1,-1,-1,-1],"loss_changes":[1.8571172E3,9.455823E1,4.802806E2,0E0,2.3858643E-1,1.6306976E1,4.6932556E1,0E0,0E0,2.1728897E0,4.777099E0,0E0,3.1624756E0,0E0,6.30151E-2,3.152383E-1,0E0,0E0,0E0,0E0,0E0,3.2225247E-2,2.3931146E-2,0E0,0E0,0E0,0E0],"parents":[2147483647,0,0,1,1,2,2,4,4,5,5,6,6,9,9,10,10,12,12,14,14,15,15,21,21,22,22],"right_children":[2,4,6,-1,8,10,12,-1,-1,14,16,-1,18,-1,20,22,-1,-1,-1,-1,-1,24,26,-1,-1,-1,-1],"split_conditions":[2.085E1,1.517E1,3.021E1,-7.488441E-1,1.745E1,2.579E1,3.313E1,-4.6551678E-1,-3.2619306E-1,2.501E1,2.798E1,2.5543687E-1,3.634E1,-8.898049E-2,2.523E1,2.636E1,1.06768034E-1,3.9233658E-1,5.510302E-1,-3.9995767E-2,-1.9208336E-2,2.596E1,2.674E1,-4.8905057E-3,5.475235E-3,1.5108451E-2,3.508191E-2],"split_indices":[0,0,0,0,0,0,0,0,0,0,0,0,0,0,0,0,0,0,0,0,0,0,0,0,0,0,0],"split_type":[0,0,0,0,0,0,0,0,0,0,0,0,0,0,0,0,0,0,0,0,0,0,0,0,0,0,0],"sum_hessian":[1.62E2,4.8E1,1.14E2,1.5E1,3.3E1,5.3E1,6.1E1,1.8E1,1.5E1,2.9E1,2.4E1,2.2E1,3.9E1,1.7E1,1.2E1,1.7E1,7E0,2.5E1,1.4E1,5E0,7E0,1E1,7E0,5E0,5E0,4E0,3E0],"tree_param":{"num_deleted":"0","num_feature":"37","num_nodes":"27","size_leaf_vector":"1"}},{"base_weights":[-3.1112146E-1,2.365543E0,-3.5546594E0,3.0645194E0,-4.4450048E-1,-4.802318E0,-1.4100171E0,5.7770625E-2,3.433692E0,-1.4528236E-2,-5.146065E-2,-7.390363E-1,-3.9948767E-1,-4.167788E-1,-9.3151325E-1,-5.748749E-3,1.6147463E-2,5.735086E-1,3.0100737E0,-5.789618E-1,-2.0101912E-1,2.110782E0,3.5563365E-1,1.4805985E-3,-7.195428E-1,2.2542858E-1,8.296909E-2,-8.260972E-2,-3.8651023E-2],"categories":[],"categories_nodes":[],"categories_segments":[],"categories_sizes":[],"default_left":[0,0,0,0,0,0,0,0,0,0,0,0,0,0,0,0,0,0,0,0,0,0,0,0,0,0,0,0,0],"id":8,"left_children":[1,3,5,7,9,11,13,15,17,-1,-1,-1,-1,-1,19,-1,-1,-1,21,23,-1,25,-1,-1,27,-1,-1,-1,-1],"loss_changes":[1.440916E3,1.8010022E2,1.9391217E2,8.0832275E1,3.2379937E-1,6.869202E1,3.4386166E1,1.16857305E-1,4.6106262E1,0E0,0E0,0E0,0E0,0E0,8.723705E0,0E0,0E0,0E0,2.0494568E1,1.7635751E0,0E0,2.541832E0,0E0,0E0,2.8396797E-1,0E0,0E0,0E0,0E0],"parents":[2147483647,0,0,1,1,2,2,3,3,4,4,5,5,6,6,7,7,8,8,14,14,18,18,19,19,21,21,24,24],"right_children":[2,4,6,8,10,12,14,16,18,-1,-1,-1,-1,-1,20,-1,-1,-1,22,24,-1,26,-1,-1,28,-1,-1,-1,-1],"split_conditions":[6.666667E-1,5.326E2,5.9075E0,9.79E1,4.6125E1,2.7E2,7.1527E2,1.309E1,3.8138566E4,-1.4528236E-2,-5.146065E-2,-7.390363E-1,-3.9948767E-1,-4.167788E-1,3.3333334E-1,-5.748749E-3,1.6147463E-2,5.735086E-1,7.96936E2,5.27E2,-2.0101912E-1,1.036E2,3.5563365E-1,1.4805985E-3,1.050755E4,2.2542858E-1,8.296909E-2,-8.260972E-2,-3.8651023E-2],"split_indices":[17,9,12,9,20,2,1,12,11,0,0,0,0,0,18,0,0,0,34,4,0,20,0,0,27,0,0,0,0],"split_type":[0,0,0,0,0,0,0,0,0,0,0,0,0,0,0,0,0,0,0,0,0,0,0,0,0,0,0,0,0],"sum_hessian":[1.64E2,9E1,7.4E1,7.2E1,1.8E1,4.6E1,2.8E1,8E0,6.4E1,4E0,1.4E1,9E0,3.7E1,3E0,2.5E1,4E0,4E0,8E0,5.6E1,2E1,5E0,2.3E1,3.3E1,4E0,1.6E1,2E1,3E0,1.1E1,5E0],"tree_param":{"num_deleted":"0","num_feature":"37","num_nodes":"29","size_leaf_vector":"1"}},{"base_weights":[-1.3124962E-1,-4.2673492E0,1.8162532E0,-5.436162E0,-2.8106189E0,-8.68362E-2,3.5092666E0,-6.941132E-1,-4.4606447E-1,-1.648736E-1,-2.9997405E-1,-4.1330597E-1,9.4541425E-1,2.810544E0,4.772876E-1,-6.828295E-1,-2.2731379E-2,4.26404E-2,1.1863752E-1,2.173901E-1,3.1431994E-1,-8.481933E-2,-4.5222003E-2,-1.1886562E-1,9.729174E-2,-1.6930485E-2,-4.8615457E-3,3.534937E-3,1.2237135E-2],"categories":[],"categories_nodes":[],"categories_segments":[],"categories_sizes":[],"default_left":[0,0,0,0,0,0,0,0,0,0,0,0,0,0,0,0,0,0,0,0,0,0,0,0,0,0,0,0,0],"id":9,"left_children":[1,3,5,7,9,11,13,-1,-1,-1,-1,15,17,19,-1,21,23,-1,-1,-1,-1,-1,-1,25,27,-1,-1,-1,-1],"loss_changes":[1.4093319E3,8.006915E1,3.837175E2,1.3081848E1,9.8713684E-1,1.9599665E1,4.2209106E1,0E0,0E0,0E0,0E0,4.6163154E0,1.2449808E0,2.2736206E0,0E0,6.0792637E-1,2.3079294E-1,0E0,0E0,0E0,0E0,0E0,0E0,3.0746177E-2,9.655662E-3,0E0,0E0,0E0,0E0],"parents":[2147483647,0,0,1,1,2,2,3,3,4,4,5,5,6,6,11,11,12,12,13,13,15,15,16,16,23,23,24,24],"right_children":[2,4,6,8,10,12,14,-1,-1,-1,-1,16,18,20,-1,22,24,-1,-1,-1,-1,-1,-1,26,28,-1,-1,-1,-1],"split_conditions":[2.363E1,1.616E1,3.083E1,1.12E1,6.5129E2,2.648E1,3.622E1,-6.941132E-1,-4.4606447E-1,-1.648736E-1,-2.9997405E-1,2.541E1,2.812E1,3.274E1,4.772876E-1,2.446E1,2.596E1,4.26404E-2,1.1863752E-1,2.173901E-1,3.1431994E-1,-8.481933E-2,-4.5222003E-2,2.571E1,2.616E1,-1.6930485E-2,-4.8615457E-3,3.534937E-3,1.2237135E-2],"split_indices":[0,0,0,0,25,0,0,0,0,0,0,0,0,0,0,0,0,0,0,0,0,0,0,0,0,0,0,0,0],"split_type":[0,0,0,0,0,0,0,0,0,0,0,0,0,0,0,0,0,0,0,0,0,0,0,0,0,0,0,0,0],"sum_hessian":[1.73E2,5.5E1,1.18E2,2.9E1,2.6E1,5.6E1,6.2E1,9E0,2E1,5E0,2.1E1,4.3E1,1.3E1,4.2E1,2E1,2.5E1,1.8E1,5E0,8E0,1.7E1,2.5E1,1.3E1,1.2E1,1E1,8E0,5E0,5E0,3E0,5E0],"tree_param":{"num_deleted":"0","num_feature":"37","num_nodes":"29","size_leaf_vector":"1"}},{"base_weights":[-1.7023893E-1,-3.94446E0,1.4747463E0,-5.606242E-1,-2.9578402E0,-1.6558978E-1,2.9662144E0,-3.496896E-1,-2.2914802E-1,-5.664447E-1,3.453234E-1,2.1242116E-1,3.5854888E0,-7.779115E-2,-3.352569E-1,9.7023815E-2,8.311422E-2,3.0699617E-1,4.3607125E-1,-3.9633002E-2,-1.4705563E-2,-1.7687904E-2,1.8205851E-1,-4.540475E-3,2.8309345E-3,7.4166297E-3,2.132473E-2],"categories":[],"categories_nodes":[],"categories_segments":[],"categories_sizes":[],"default_left":[0,0,0,0,0,0,0,0,0,0,0,0,0,0,0,0,0,0,0,0,0,0,0,0,0,0,0],"id":10,"left_children":[1,3,5,-1,7,9,11,-1,-1,13,15,-1,17,-1,19,21,-1,-1,-1,-1,-1,23,25,-1,-1,-1,-1],"loss_changes":[1.1047284E3,7.1953125E1,3.038583E2,0E0,4.9183044E0,1.248373E1,2.6276672E1,0E0,0E0,1.4014101E0,3.176332E0,0E0,1.0001221E0,0E0,1.4861012E-1,1.8855527E-1,0E0,0E0,0E0,0E0,0E0,1.2759469E-2,2.1199524E-2,0E0,0E0,0E0,0E0],"parents":[2147483647,0,0,1,1,2,2,4,4,5,5,6,6,9,9,10,10,12,12,14,14,15,15,21,21,22,22],"right_children":[2,4,6,-1,8,10,12,-1,-1,14,16,-1,18,-1,20,22,-1,-1,-1,-1,-1,24,26,-1,-1,-1,-1],"split_conditions":[2.349E1,1.533E1,3.036E1,-5.606242E-1,1.73E1,2.571E1,3.363E1,-3.496896E-1,-2.2914802E-1,2.446E1,2.798E1,2.1242116E-1,3.691E1,-7.779115E-2,2.541E1,2.616E1,8.311422E-2,3.0699617E-1,4.3607125E-1,-3.9633002E-2,-1.4705563E-2,2.591E1,2.636E1,-4.540475E-3,2.8309345E-3,7.4166297E-3,2.132473E-2],"split_indices":[0,0,0,0,0,0,0,0,0,0,0,0,0,0,0,0,0,0,0,0,0,0,0,0,0,0,0],"split_type":[0,0,0,0,0,0,0,0,0,0,0,0,0,0,0,0,0,0,0,0,0,0,0,0,0,0,0],"sum_hessian":[1.76E2,5.3E1,1.23E2,1.8E1,3.5E1,5.9E1,6.4E1,1.7E1,1.8E1,3.3E1,2.6E1,2.9E1,3.5E1,1.6E1,1.7E1,1.8E1,8E0,2.4E1,1.1E1,1.2E1,5E0,8E0,1E1,5E0,3E0,3E0,7E0],"tree_param":{"num_deleted":"0","num_feature":"37","num_nodes":"27","size_leaf_vector":"1"}},{"base_weights":[-1.2608944E-1,-3.6127865E0,1.4892896E0,-5.354484E-1,-2.856123E0,-7.790375E-2,2.8416617E0,-3.339282E-1,-2.0912723E-1,-2.8183812E-1,9.0510535E-1,2.4069262E0,4.1613665E-1,-5.1814306E-1,4.3923028E-2,4.812765E-2,1.0368071E-1,1.7211853E-1,2.653151E-1,-6.302281E-2,-3.6620095E-2,-5.0849047E-2,1.5487522E-2,-9.692727E-3,-1.0671889E-3],"categories":[],"categories_nodes":[],"categories_segments":[],"categories_sizes":[],"default_left":[0,0,0,0,0,0,0,0,0,0,0,0,0,0,0,0,0,0,0,0,0,0,0,0,0],"id":11,"left_children":[1,3,5,-1,7,9,11,-1,-1,13,15,17,-1,19,21,-1,-1,-1,-1,-1,-1,23,-1,-1,-1],"loss_changes":[8.896575E2,5.060083E1,2.2911961E2,0E0,6.689789E0,1.0479031E1,2.3259796E1,0E0,0E0,3.3328538E0,3.3798218E-3,3.2003784E0,0E0,1.9497156E-1,2.0766348E-1,0E0,0E0,0E0,0E0,0E0,0E0,1.9329814E-2,0E0,0E0,0E0],"parents":[2147483647,0,0,1,1,2,2,4,4,5,5,6,6,9,9,10,10,11,11,13,13,14,14,21,21],"right_children":[2,4,6,-1,8,10,12,-1,-1,14,16,18,-1,20,22,-1,-1,-1,-1,-1,-1,24,-1,-1,-1],"split_conditions":[2.085E1,1.494E1,3.083E1,-5.354484E-1,1.675E1,2.744E1,3.691E1,-3.339282E-1,-2.0912723E-1,2.541E1,2.86E1,3.268E1,4.1613665E-1,2.45E1,2.616E1,4.812765E-2,1.0368071E-1,1.7211853E-1,2.653151E-1,-6.302281E-2,-3.6620095E-2,2.584E1,1.5487522E-2,-9.692727E-3,-1.0671889E-3],"split_indices":[0,0,0,0,0,0,0,0,0,0,0,0,0,0,0,0,0,0,0,0,0,0,0,0,0],"split_type":[0,0,0,0,0,0,0,0,0,0,0,0,0,0,0,0,0,0,0,0,0,0,0,0,0],"sum_hessian":[1.56E2,4.9E1,1.07E2,1.3E1,3.6E1,5E1,5.7E1,2E1,1.6E1,4.2E1,8E0,4.5E1,1.2E1,2.4E1,1.8E1,3E0,5E0,1.4E1,3.1E1,1.2E1,1.2E1,1E1,8E0,4E0,6E0],"tree_param":{"num_deleted":"0","num_feature":"37","num_nodes":"25","size_leaf_vector":"1"}},{"base_weights":[-6.7359164E-2,-3.2432578E0,1.2300274E0,-5.2659655E-1,-2.6564994E0,-1.0038991E-1,2.6072452E0,-3.0691212E-1,-1.845747E-1,-4.0972146E-1,4.4194278E-1,2.2253904E0,3.78724E-1,-6.053103E-1,-1.8386707E-1,1.1564255E-1,7.8739375E-2,1.7206407E-1,2.4793509E-1,-7.142493E-2,-4.1405257E-2,-2.5410944E-1,-4.6739817E-2,5.9212684E-3,1.4350963E-2,-3.0555343E-2,-1.43165905E-2,-7.0701125E-3,-1.8222809E-3],"categories":[],"categories_nodes":[],"categories_segments":[],"categories_sizes":[],"default_left":[0,0,0,0,0,0,0,0,0,0,0,0,0,0,0,0,0,0,0,0,0,0,0,0,0,0,0,0,0],"id":12,"left_children":[1,3,5,-1,7,9,11,-1,-1,13,15,17,-1,19,21,23,-1,-1,-1,-1,-1,25,27,-1,-1,-1,-1,-1,-1],"loss_changes":[6.962112E2,4.4166138E1,2.2013466E2,0E0,7.716522E0,1.0582232E1,1.8156555E1,0E0,0E0,1.6556873E0,2.5015206E0,1.7586823E0,0E0,1.418066E-1,1.8076587E-1,1.1945367E-2,0E0,0E0,0E0,0E0,0E0,3.045106E-2,4.178066E-3,0E0,0E0,0E0,0E0,0E0,0E0],"parents":[2147483647,0,0,1,1,2,2,4,4,5,5,6,6,9,9,10,10,11,11,13,13,14,14,15,15,21,21,22,22],"right_children":[2,4,6,-1,8,10,12,-1,-1,14,16,18,-1,20,22,24,-1,-1,-1,-1,-1,26,28,-1,-1,-1,-1,-1,-1],"split_conditions":[2.349E1,1.12E1,3.066E1,-5.2659655E-1,1.73E1,2.603E1,3.691E1,-3.0691212E-1,-1.845747E-1,2.474E1,2.798E1,3.313E1,3.78724E-1,2.402E1,2.564E1,2.636E1,7.8739375E-2,1.7206407E-1,2.4793509E-1,-7.142493E-2,-4.1405257E-2,1.201E3,2.579E1,5.9212684E-3,1.4350963E-2,-3.0555343E-2,-1.43165905E-2,-7.0701125E-3,-1.8222809E-3],"split_indices":[0,0,0,0,0,0,0,0,0,0,0,0,0,0,0,0,0,0,0,0,0,4,0,0,0,0,0,0,0],"split_type":[0,0,0,0,0,0,0,0,0,0,0,0,0,0,0,0,0,0,0,0,0,0,0,0,0,0,0,0,0],"sum_hessian":[1.67E2,4.8E1,1.19E2,9E0,3.9E1,6.1E1,5.8E1,2.4E1,1.5E1,3.9E1,2.2E1,4.6E1,1.2E1,2E1,1.9E1,1.2E1,1E1,1.8E1,2.8E1,1.1E1,9E0,1.2E1,7E0,5E0,7E0,7E0,5E0,3E0,4E0],"tree_param":{"num_deleted":"0","num_feature":"37","num_nodes":"29","size_leaf_vector":"1"}},{"base_weights":[-7.52469E-2,-2.9391625E0,1.1954917E0,-4.8691198E-1,-2.349682E0,1.8996302E-2,2.4346743E0,-2.8171784E-1,-1.7179523E-1,-2.1249804E-1,7.94799E-1,2.0328681E0,3.4948882E-1,-4.187099E-1,4.0865898E-2,5.047046E-2,9.492817E-2,1.4546786E-1,2.2097583E-1,-5.687874E-2,-3.0579904E-2,-6.4378045E-2,1.3393402E-1,-8.919007E-3,-1.6765594E-3,8.287239E-3,1.8884582E-2],"categories":[],"categories_nodes":[],"categories_segments":[],"categories_sizes":[],"default_left":[0,0,0,0,0,0,0,0,0,0,0,0,0,0,0,0,0,0,0,0,0,0,0,0,0,0,0],"id":13,"left_children":[1,3,5,-1,7,9,11,-1,-1,13,15,17,-1,19,21,-1,-1,-1,-1,-1,-1,23,25,-1,-1,-1,-1],"loss_changes":[6.039962E2,4.6580383E1,1.6761139E2,0E0,7.268799E0,1.094453E1,1.6751373E1,0E0,0E0,2.4727035E0,1.4829731E-1,1.1833801E0,0E0,2.6664543E-1,2.2410923E-1,0E0,0E0,0E0,0E0,0E0,0E0,1.1499651E-2,1.7996535E-2,0E0,0E0,0E0,0E0],"parents":[2147483647,0,0,1,1,2,2,4,4,5,5,6,6,9,9,10,10,11,11,13,13,14,14,21,21,22,22],"right_children":[2,4,6,-1,8,10,12,-1,-1,14,16,18,-1,20,22,-1,-1,-1,-1,-1,-1,24,26,-1,-1,-1,-1],"split_conditions":[2.363E1,1.12E1,3.133E1,-4.8691198E-1,1.672E1,2.798E1,3.714E1,-2.8171784E-1,-1.7179523E-1,2.547E1,3.021E1,3.25E1,3.4948882E-1,2.424E1,2.603E1,5.047046E-2,9.492817E-2,1.4546786E-1,2.2097583E-1,-5.687874E-2,-3.0579904E-2,2.584E1,2.674E1,-8.919007E-3,-1.6765594E-3,8.287239E-3,1.8884582E-2],"split_indices":[0,0,0,0,0,0,0,0,0,0,0,0,0,0,0,0,0,0,0,0,0,0,0,0,0,0,0],"split_type":[0,0,0,0,0,0,0,0,0,0,0,0,0,0,0,0,0,0,0,0,0,0,0,0,0,0,0],"sum_hessian":[1.64E2,5E1,1.14E2,1E1,4E1,5.9E1,5.5E1,2.1E1,1.9E1,4.6E1,1.3E1,4.2E1,1.3E1,2.5E1,2.1E1,6E0,7E0,1.2E1,3E1,9E0,1.6E1,1E1,1.1E1,6E0,4E0,7E0,4E0],"tree_param":{"num_deleted":"0","num_feature":"37","num_nodes":"27","size_leaf_vector":"1"}},{"base_weights":[-1.2624083E-1,-2.6636431E0,1.0178704E0,-3.5030537E0,-1.8188468E0,-1.14700206E-1,1.9148166E0,-4.52898E-1,-2.8142032E-1,-2.0548661E-1,-1.2887399E-1,-3.612029E-1,1.462506E-1,1.4958686E0,2.4750249E-1,-4.573437E-2,-2.109267E-1,4.2621136E-2,4.673071E-2,9.5820874E-2,1.6073042E-1,-2.5476694E-2,-9.859695E-3,-4.0583715E-2,1.0147301E-1,-5.6253118E-3,-6.933689E-4,4.7372817E-3,1.3334847E-2],"categories":[],"categories_nodes":[],"categories_segments":[],"categories_sizes":[],"default_left":[0,0,0,0,0,0,0,0,0,0,0,0,0,0,0,0,0,0,0,0,0,0,0,0,0,0,0,0,0],"id":14,"left_children":[1,3,5,7,9,11,13,-1,-1,-1,-1,15,17,19,-1,-1,21,23,-1,-1,-1,-1,-1,25,27,-1,-1,-1,-1],"loss_changes":[4.6720255E2,2.9085052E1,1.1297952E2,4.2155457E0,7.299347E-1,3.2690802E0,1.0848984E1,0E0,0E0,0E0,0E0,2.791736E-1,8.118557E-1,7.366104E-1,0E0,0E0,3.397554E-2,1.0205339E-1,0E0,0E0,0E0,0E0,0E0,4.355441E-3,1.4376529E-2,0E0,0E0,0E0,0E0],"parents":[2147483647,0,0,1,1,2,2,3,3,4,4,5,5,6,6,11,11,12,12,13,13,16,16,17,17,23,23,24,24],"right_children":[2,4,6,8,10,12,14,-1,-1,-1,-1,16,18,20,-1,-1,22,24,-1,-1,-1,-1,-1,26,28,-1,-1,-1,-1],"split_conditions":[2.349E1,1.587E1,2.86E1,9.26E0,1.817E1,2.564E1,3.408E1,-4.52898E-1,-2.8142032E-1,-2.0548661E-1,-1.2887399E-1,2.474E1,2.744E1,3.151E1,2.4750249E-1,-4.573437E-2,1.201E3,2.603E1,4.673071E-2,9.5820874E-2,1.6073042E-1,-2.5476694E-2,-9.859695E-3,2.585E1,2.636E1,-5.6253118E-3,-6.933689E-4,4.7372817E-3,1.3334847E-2],"split_indices":[0,0,0,0,0,0,0,0,0,0,0,0,0,0,0,0,4,0,0,0,0,0,0,0,0,0,0,0,0],"split_type":[0,0,0,0,0,0,0,0,0,0,0,0,0,0,0,0,0,0,0,0,0,0,0,0,0,0,0,0,0],"sum_hessian":[1.59E2,4.9E1,1.1E2,2.3E1,2.6E1,4.9E1,6.1E1,7E0,1.6E1,1.6E1,1E1,2.5E1,2.4E1,3.7E1,2.4E1,1.4E1,1.1E1,1.9E1,5E0,8E0,2.9E1,7E0,4E0,8E0,1.1E1,5E0,3E0,5E0,6E0],"tree_param":{"num_deleted":"0","num_feature":"37","num_nodes":"29","size_leaf_vector":"1"}},{"base_weights":[2.7385221E-3,-2.3599694E0,9.358859E-1,-4.0818295E-1,-2.008433E0,-4.348855E-2,1.932597E0,-2.3796816E-1,-1.4996383E-1,-2.3934683E-1,5.2232206E-1,1.5707448E0,2.7341884E-1,-3.7113932E-1,-1.3717439E-2,2.6492584E-1,7.466026E-2,8.382835E-2,1.6243745E-1,-5.2765142E-2,-2.7432634E-2,-6.6280745E-2,4.6210393E-2,1.5639154E-2,3.2047503E-2,-9.776725E-3,-2.8995196E-3,2.3703575E-3,5.3513213E-3],"categories":[],"categories_nodes":[],"categories_segments":[],"categories_sizes":[],"default_left":[0,0,0,0,0,0,0,0,0,0,0,0,0,0,0,0,0,0,0,0,0,0,0,0,0,0,0,0,0],"id":15,"left_children":[1,3,5,-1,7,9,11,-1,-1,13,15,17,-1,19,21,23,-1,-1,-1,-1,-1,25,27,-1,-1,-1,-1,-1,-1],"loss_changes":[3.659932E2,2.0250854E1,1.1624631E2,0E0,4.175812E0,6.8849564E0,1.281868E1,0E0,0E0,1.362777E0,7.258692E-1,3.274231E-1,0E0,2.946713E-1,5.9762947E-2,4.1413307E-3,0E0,0E0,0E0,0E0,0E0,8.905143E-3,2.1081418E-4,0E0,0E0,0E0,0E0,0E0,0E0],"parents":[2147483647,0,0,1,1,2,2,4,4,5,5,6,6,9,9,10,10,11,11,13,13,14,14,15,15,21,21,22,22],"right_children":[2,4,6,-1,8,10,12,-1,-1,14,16,18,-1,20,22,24,-1,-1,-1,-1,-1,26,28,-1,-1,-1,-1,-1,-1],"split_conditions":[2.349E1,1.019E1,3.117E1,-4.0818295E-1,1.65E1,2.674E1,3.635E1,-2.3796816E-1,-1.4996383E-1,2.541E1,5.73991E3,3.191E1,2.7341884E-1,2.402E1,2.596E1,2.798E1,7.466026E-2,8.382835E-2,1.6243745E-1,-5.2765142E-2,-2.7432634E-2,2.571E1,5.68E2,1.5639154E-2,3.2047503E-2,-9.776725E-3,-2.8995196E-3,2.3703575E-3,5.3513213E-3],"split_indices":[0,0,0,0,0,0,0,0,0,0,3,0,0,0,0,0,0,0,0,0,0,0,4,0,0,0,0,0,0],"split_type":[0,0,0,0,0,0,0,0,0,0,0,0,0,0,0,0,0,0,0,0,0,0,0,0,0,0,0,0,0],"sum_hessian":[1.64E2,4.6E1,1.18E2,6E0,4E1,6E1,5.8E1,2.1E1,1.9E1,4.5E1,1.5E1,4.2E1,1.6E1,2.8E1,1.7E1,8E0,7E0,4E0,3.8E1,9E0,1.9E1,9E0,8E0,4E0,4E0,4E0,5E0,3E0,5E0],"tree_param":{"num_deleted":"0","num_feature":"37","num_nodes":"29","size_leaf_vector":"1"}},{"base_weights":[-1.7803356E-2,-2.2949266E0,8.4887016E-1,-3.779754E-1,-1.8475447E0,-1.1077264E-1,1.6122497E0,-2.0918833E-1,-1.1242713E-1,-3.0145982E-1,1.3447522E-1,1.3112156E0,2.3496822E-1,-4.796202E-2,-2.1075013E-1,4.9052488E-2,4.3218654E-2,1.004473E-1,1.5203358E-1,-2.4341393E-1,-8.852164E-3,1.4172872E-2,1.4388084E-2,-2.6982054E-2,-1.3135529E-2,-2.117753E-3,4.7751665E-3],"categories":[],"categories_nodes":[],"categories_segments":[],"categories_sizes":[],"default_left":[0,0,0,0,0,0,0,0,0,0,0,0,0,0,0,0,0,0,0,0,0,0,0,0,0,0,0],"id":16,"left_children":[1,3,5,-1,7,9,11,-1,-1,13,15,17,-1,-1,19,21,-1,-1,-1,23,-1,25,-1,-1,-1,-1,-1],"loss_changes":[3.078441E2,2.1580978E1,8.295918E1,0E0,3.8334808E0,2.4255855E0,1.0904587E1,0E0,0E0,3.6758494E-1,5.6372035E-1,1.4877319E0,0E0,0E0,6.2294006E-2,6.080475E-2,0E0,0E0,0E0,1.1903048E-2,0E0,1.881662E-2,0E0,0E0,0E0,0E0,0E0],"parents":[2147483647,0,0,1,1,2,2,4,4,5,5,6,6,9,9,10,10,11,11,14,14,15,15,19,19,21,21],"right_children":[2,4,6,-1,8,10,12,-1,-1,14,16,18,-1,-1,20,22,-1,-1,-1,24,-1,26,-1,-1,-1,-1,-1],"split_conditions":[2.349E1,1.019E1,3.021E1,-3.779754E-1,1.749E1,2.571E1,3.622E1,-2.0918833E-1,-1.1242713E-1,2.39E1,2.798E1,3.274E1,2.3496822E-1,-4.796202E-2,2.541E1,2.674E1,4.3218654E-2,1.004473E-1,1.5203358E-1,3.6733334E2,-8.852164E-3,2.603E1,1.4388084E-2,-2.6982054E-2,-1.3135529E-2,-2.117753E-3,4.7751665E-3],"split_indices":[0,0,0,0,0,0,0,0,0,0,0,0,0,0,0,0,0,0,0,16,0,0,0,0,0,0,0],"split_type":[0,0,0,0,0,0,0,0,0,0,0,0,0,0,0,0,0,0,0,0,0,0,0,0,0,0,0],"sum_hessian":[1.54E2,4.2E1,1.12E2,8E0,3.4E1,5E1,6.2E1,2.4E1,1E1,2.8E1,2.2E1,4.6E1,1.6E1,8E0,2E1,1.8E1,4E0,2.1E1,2.5E1,1.5E1,5E0,1.4E1,4E0,1.1E1,4E0,7E0,7E0],"tree_param":{"num_deleted":"0","num_feature":"37","num_nodes":"27","size_leaf_vector":"1"}},{"base_weights":[1.1909968E-1,-1.8949348E0,9.4840246E-1,-2.5059144E0,-1.2049993E0,7.419552E-2,1.6062785E0,-3.2450497E-1,-2.0106795E-1,-1.4102526E-1,-6.182115E-2,-1.14623815E-1,5.6791836E-1,1.3518533E0,2.7323797E-1,-2.4978256E-1,2.656776E-2,2.9047698E-2,6.4984724E-2,1.02790415E-1,1.5366708E-1,-1.0763741E-2,-2.6970744E-1,-3.0721078E-2,1.2916592E-2,-2.9880334E-2,-1.4593582E-2,-5.0392365E-3,1.0831452E-3],"categories":[],"categories_nodes":[],"categories_segments":[],"categories_sizes":[],"default_left":[0,0,0,0,0,0,0,0,0,0,0,0,0,0,0,0,0,0,0,0,0,0,0,0,0,0,0,0,0],"id":17,"left_children":[1,3,5,7,9,11,13,-1,-1,-1,-1,15,17,19,-1,21,23,-1,-1,-1,-1,-1,25,27,-1,-1,-1,-1,-1],"loss_changes":[2.6903625E2,1.6792587E1,6.544448E1,2.2603302E0,2.0187263E0,4.7263174E0,1.4929291E1,0E0,0E0,0E0,0E0,7.127174E-1,1.2946081E-1,1.7133789E0,0E0,2.4781585E-2,1.1564498E-1,0E0,0E0,0E0,0E0,0E0,1.4013767E-2,1.1171914E-2,0E0,0E0,0E0,0E0,0E0],"parents":[2147483647,0,0,1,1,2,2,3,3,4,4,5,5,6,6,11,11,12,12,13,13,15,15,16,16,22,22,23,23],"right_children":[2,4,6,8,10,12,14,-1,-1,-1,-1,16,18,20,-1,22,24,-1,-1,-1,-1,-1,26,28,-1,-1,-1,-1,-1],"split_conditions":[2.381E1,1.598E1,3.133E1,1.12E1,2.063E1,2.798E1,3.787E1,-3.2450497E-1,-2.0106795E-1,-1.4102526E-1,-6.182115E-2,2.541E1,2.841E1,3.352E1,2.7323797E-1,2.71E2,2.616E1,2.9047698E-2,6.4984724E-2,1.02790415E-1,1.5366708E-1,-1.0763741E-2,5.661E2,2.589E1,1.2916592E-2,-2.9880334E-2,-1.4593582E-2,-5.0392365E-3,1.0831452E-3],"split_indices":[0,0,0,0,0,0,0,0,0,0,0,0,0,0,0,2,0,0,0,0,0,0,9,0,0,0,0,0,0],"split_type":[0,0,0,0,0,0,0,0,0,0,0,0,0,0,0,0,0,0,0,0,0,0,0,0,0,0,0,0,0],"sum_hessian":[1.59E2,4.6E1,1.13E2,2.3E1,2.3E1,4.9E1,6.4E1,7E0,1.6E1,1.6E1,7E0,3.6E1,1.3E1,5.4E1,1E1,1.8E1,1.8E1,4E0,9E0,2.2E1,3.2E1,3E0,1.5E1,1.2E1,6E0,1.1E1,4E0,8E0,4E0],"tree_param":{"num_deleted":"0","num_feature":"37","num_nodes":"29","size_leaf_vector":"1"}},{"base_weights":[-1.0856815E-1,-1.7606144E0,7.40758E-1,-2.5561495E0,-1.2955796E0,-2.5478546E-2,1.3924837E0,-3.0842158E-1,-1.9470875E-1,-1.424415E-1,-6.343949E-2,-1.2912273E-1,4.8405733E-2,1.1963466E0,2.5178313E-1,-2.5473562E-1,2.058356E-2,9.223345E-2,1.361054E-1,-9.956503E-3,-2.7216166E-1,-4.287033E-2,7.1746506E-2,-3.1818613E-2,-1.8971615E-2,-6.3666026E-3,-9.341431E-4,2.9655776E-3,9.757478E-3],"categories":[],"categories_nodes":[],"categories_segments":[],"categories_sizes":[],"default_left":[0,0,0,0,0,0,0,0,0,0,0,0,0,0,0,0,0,0,0,0,0,0,0,0,0,0,0,0,0],"id":18,"left_children":[1,3,5,7,9,11,13,-1,-1,-1,-1,15,-1,17,-1,19,21,-1,-1,-1,23,25,27,-1,-1,-1,-1,-1,-1],"loss_changes":[2.3562625E2,1.7775528E1,5.546622E1,4.2726135E-1,2.333355E0,2.8086455E0,1.023114E1,0E0,0E0,0E0,0E0,8.3266515E-1,0E0,1.1366348E0,0E0,3.7798524E-2,7.125205E-2,0E0,0E0,0E0,1.9319654E-2,6.3778367E-3,1.0151915E-2,0E0,0E0,0E0,0E0,0E0,0E0],"parents":[2147483647,0,0,1,1,2,2,3,3,4,4,5,5,6,6,11,11,13,13,15,15,16,16,20,20,21,21,22,22],"right_children":[2,4,6,8,10,12,14,-1,-1,-1,-1,16,-1,18,-1,20,22,-1,-1,-1,24,26,28,-1,-1,-1,-1,-1,-1],"split_conditions":[2.368E1,1.565E1,3.117E1,1.019E1,1.889E1,2.744E1,3.728E1,-3.0842158E-1,-1.9470875E-1,-1.424415E-1,-6.343949E-2,2.541E1,4.8405733E-2,3.328E1,2.5178313E-1,2.71E2,2.603E1,9.223345E-2,1.361054E-1,-9.956503E-3,3.3333334E-1,2.584E1,2.636E1,-3.1818613E-2,-1.8971615E-2,-6.3666026E-3,-9.341431E-4,2.9655776E-3,9.757478E-3],"split_indices":[0,0,0,0,0,0,0,0,0,0,0,0,0,0,0,2,0,0,0,0,18,0,0,0,0,0,0,0,0],"split_type":[0,0,0,0,0,0,0,0,0,0,0,0,0,0,0,0,0,0,0,0,0,0,0,0,0,0,0,0,0],"sum_hessian":[1.66E2,5.6E1,1.1E2,1.9E1,3.7E1,5.1E1,5.9E1,8E0,1.1E1,3E1,7E0,4.3E1,8E0,5.2E1,7E0,2.3E1,2E1,2.2E1,3E1,3E0,2E1,9E0,1.1E1,1.1E1,9E0,5E0,4E0,5E0,6E0],"tree_param":{"num_deleted":"0","num_feature":"37","num_nodes":"29","size_leaf_vector":"1"}},{"base_weights":[1.4135939E-3,-1.5488583E0,6.8891317E-1,-2.0116022E0,-9.444546E-1,5.0286673E-2,1.3608538E0,-2.582588E-1,-1.6540787E-1,-5.184054E-2,-1.0576707E-1,-9.974064E-2,4.690956E-1,1.150435E0,2.213737E-1,-2.646471E-2,3.6798674E-4,2.2851411E-2,5.3024657E-2,8.4280334E-2,1.2820254E-1,-5.2507963E-2,6.948515E-2,-7.723484E-3,-1.5035868E-3,3.522134E-3,1.0358938E-2],"categories":[],"categories_nodes":[],"categories_segments":[],"categories_sizes":[],"default_left":[0,0,0,0,0,0,0,0,0,0,0,0,0,0,0,0,0,0,0,0,0,0,0,0,0,0,0],"id":19,"left_children":[1,3,5,7,9,11,13,-1,-1,-1,-1,15,17,19,-1,-1,21,-1,-1,-1,-1,23,25,-1,-1,-1,-1],"loss_changes":[1.7692587E2,1.2364037E1,4.9280266E1,1.4441376E0,6.093521E-1,3.8167546E0,7.503151E0,0E0,0E0,0E0,0E0,7.429826E-1,1.14219904E-1,8.221283E-1,0E0,0E0,1.09632954E-1,0E0,0E0,0E0,0E0,1.45903565E-2,1.1542484E-2,0E0,0E0,0E0,0E0],"parents":[2147483647,0,0,1,1,2,2,3,3,4,4,5,5,6,6,11,11,12,12,13,13,16,16,21,21,22,22],"right_children":[2,4,6,8,10,12,14,-1,-1,-1,-1,16,18,20,-1,-1,22,-1,-1,-1,-1,24,26,-1,-1,-1,-1],"split_conditions":[2.372E1,1.621E1,3.191E1,1.12E1,6.5129E2,2.798E1,3.787E1,-2.582588E-1,-1.6540787E-1,-5.184054E-2,-1.0576707E-1,2.501E1,2.841E1,3.352E1,2.213737E-1,-2.646471E-2,2.603E1,2.2851411E-2,5.3024657E-2,8.4280334E-2,1.2820254E-1,2.571E1,5.98E2,-7.723484E-3,-1.5035868E-3,3.522134E-3,1.0358938E-2],"split_indices":[0,0,0,0,25,0,0,0,0,0,0,0,0,0,0,0,0,0,0,0,0,0,28,0,0,0,0],"split_type":[0,0,0,0,0,0,0,0,0,0,0,0,0,0,0,0,0,0,0,0,0,0,0,0,0,0,0],"sum_hessian":[1.64E2,5E1,1.14E2,2.7E1,2.3E1,5.9E1,5.5E1,8E0,1.9E1,6E0,1.7E1,4.4E1,1.5E1,4.6E1,9E0,1.6E1,2.8E1,4E0,1.1E1,1.6E1,3E1,1.6E1,1.2E1,9E0,7E0,7E0,5E0],"tree_param":{"num_deleted":"0","num_feature":"37","num_nodes":"27","size_leaf_vector":"1"}},{"base_weights":[7.22424E-2,-1.240489E0,7.1624225E-1,-1.7811765E-1,-7.6443493E-1,1.5453188E-1,1.2555324E0,-9.069521E-2,-3.1528726E-2,-3.7584666E-2,5.022209E-1,1.0675071E0,2.0325E-1,-1.4299923E-1,5.9167672E-2,3.0181948E-2,5.4890007E-2,7.9222105E-2,1.1575597E-1,-1.5927454E-2,-4.6216967E-3,1.7282758E-2,1.3448498E-2,-8.7668106E-4,3.2728834E-3],"categories":[],"categories_nodes":[],"categories_segments":[],"categories_sizes":[],"default_left":[0,0,0,0,0,0,0,0,0,0,0,0,0,0,0,0,0,0,0,0,0,0,0,0,0],"id":20,"left_children":[1,3,5,-1,7,9,11,-1,-1,13,15,17,-1,19,21,-1,-1,-1,-1,-1,-1,23,-1,-1,-1],"loss_changes":[1.4122469E2,1.2795204E1,3.3733566E1,0E0,1.6983986E0,3.7594976E0,6.1573944E0,0E0,0E0,3.8582784E-1,2.1422386E-2,2.7288437E-1,0E0,2.0991713E-2,6.0768902E-2,0E0,0E0,0E0,0E0,0E0,0E0,5.9200167E-3,0E0,0E0,0E0],"parents":[2147483647,0,0,1,1,2,2,4,4,5,5,6,6,9,9,10,10,11,11,13,13,14,14,21,21],"right_children":[2,4,6,-1,8,10,12,-1,-1,14,16,18,-1,20,22,-1,-1,-1,-1,-1,-1,24,-1,-1,-1],"split_conditions":[2.402E1,1.623E1,3.204E1,-1.7811765E-1,2.349E1,2.812E1,3.787E1,-9.069521E-2,-3.1528726E-2,2.571E1,3.021E1,3.352E1,2.0325E-1,2.547E1,2.648E1,3.0181948E-2,5.4890007E-2,7.9222105E-2,1.1575597E-1,-1.5927454E-2,-4.6216967E-3,2.603E1,1.3448498E-2,-8.7668106E-4,3.2728834E-3],"split_indices":[0,0,0,0,0,0,0,0,0,0,0,0,0,0,0,0,0,0,0,0,0,0,0,0,0],"split_type":[0,0,0,0,0,0,0,0,0,0,0,0,0,0,0,0,0,0,0,0,0,0,0,0,0],"sum_hessian":[1.65E2,5.4E1,1.11E2,2.4E1,3E1,5.5E1,5.6E1,2.2E1,8E0,3.6E1,1.9E1,4.7E1,9E0,1.7E1,1.9E1,5E0,1.4E1,1.4E1,3.3E1,1.4E1,3E0,1.3E1,6E0,5E0,8E0],"tree_param":{"num_deleted":"0","num_feature":"37","num_nodes":"25","size_leaf_vector":"1"}},{"base_weights":[-5.7874367E-2,6.7139846E-1,-1.0222373E0,8.9762914E-1,1.10281415E-1,-1.4450514E0,-2.3719497E-1,3.332901E-3,1.0439079E0,-9.316882E-2,4.1467894E-2,-1.1912829E0,-2.4381001E-1,-3.673296E-1,-5.260086E-3,-1.7940904E-3,2.0505588E-3,9.051487E-1,1.745975E-1,-4.061847E-2,-1.3536708E-1,-8.7590635E-2,-1.3664983E-1,-4.0100787E-2,-1.660428E-2,-4.459636E-3,4.299545E-3,9.4032675E-2,4.1455157E-2,1.7847061E-3,-9.096031E-3,-1.5940445E-2,-6.5469267E-3],"categories":[],"categories_nodes":[],"categories_segments":[],"categories_sizes":[],"default_left":[0,0,0,0,0,0,0,0,0,0,0,0,0,0,0,0,0,0,0,0,0,0,0,0,0,0,0,0,0,0,0,0,0],"id":21,"left_children":[1,3,5,7,9,11,13,15,17,19,-1,21,-1,23,25,-1,-1,27,-1,29,31,-1,-1,-1,-1,-1,-1,-1,-1,-1,-1,-1,-1],"loss_changes":[1.11101875E2,1.1325779E1,2.222828E1,8.368778E0,1.7107384E0,8.183739E0,7.526368E-1,4.0211724E-3,3.7776413E0,3.2199666E-2,0E0,8.4765244E-1,0E0,4.1879416E-2,2.089937E-2,0E0,0E0,4.3858337E-1,0E0,2.811274E-2,4.6853423E-3,0E0,0E0,0E0,0E0,0E0,0E0,0E0,0E0,0E0,0E0,0E0,0E0],"parents":[2147483647,0,0,1,1,2,2,3,3,4,4,5,5,6,6,7,7,8,8,9,9,11,11,13,13,14,14,17,17,19,19,20,20],"right_children":[2,4,6,8,10,12,14,16,18,20,-1,22,-1,24,26,-1,-1,28,-1,30,32,-1,-1,-1,-1,-1,-1,-1,-1,-1,-1,-1,-1],"split_conditions":[6.666667E-1,2.1824583E5,4.5E2,9.79E1,4.16E2,5.7340327E3,4.664E2,1.309E1,4.236E2,1.047875E3,4.1467894E-2,2.149E2,-2.4381001E-1,1.24606E3,6.4625E0,-1.7940904E-3,2.0505588E-3,4.647E2,1.745975E-1,4.09E2,8.35E0,-8.7590635E-2,-1.3664983E-1,-4.0100787E-2,-1.660428E-2,-4.459636E-3,4.299545E-3,9.4032675E-2,4.1455157E-2,1.7847061E-3,-9.096031E-3,-1.5940445E-2,-6.5469267E-3],"split_indices":[17,23,8,9,2,15,8,12,8,15,0,32,0,25,12,0,0,9,0,2,12,0,0,0,0,0,0,0,0,0,0,0,0],"split_type":[0,0,0,0,0,0,0,0,0,0,0,0,0,0,0,0,0,0,0,0,0,0,0,0,0,0,0,0,0,0,0,0,0],"sum_hessian":[1.56E2,8.9E1,6.7E1,6.3E1,2.6E1,4.3E1,2.4E1,9E0,5.4E1,1.6E1,1E1,3.6E1,7E0,1.5E1,9E0,4E0,5E0,4.7E1,7E0,8E0,8E0,1.5E1,2.1E1,1.2E1,3E0,5E0,4E0,4.3E1,4E0,4E0,4E0,5E0,3E0],"tree_param":{"num_deleted":"0","num_feature":"37","num_nodes":"33","size_leaf_vector":"1"}},{"base_weights":[-1.6165769E-2,-1.1862075E0,5.3399205E-1,-1.8012108E0,-8.115888E-1,6.368673E-3,9.5599276E-1,-2.2054537E-1,-1.3479277E-1,-9.4629966E-2,-5.004622E-1,-8.448814E-2,3.238368E-1,8.111324E-1,1.7672203E-1,-5.4673593E-2,-2.5966216E-2,-1.5852088E-1,-2.9067993E-3,1.4909324E-2,3.9257195E-2,6.0420632E-2,9.433147E-2,-1.1644694E-1,-2.175944E-2,-2.9369354E-2,3.5639867E-2,-1.3703887E-2,-2.5559426E-3,-5.329857E-3,-1.2812085E-3,6.1419676E-3,2.7320863E-4],"categories":[],"categories_nodes":[],"categories_segments":[],"categories_sizes":[],"default_left":[0,0,0,0,0,0,0,0,0,0,0,0,0,0,0,0,0,0,0,0,0,0,0,0,0,0,0,0,0,0,0,0,0],"id":22,"left_children":[1,3,5,7,9,11,13,-1,-1,-1,15,17,19,21,-1,-1,-1,23,25,-1,-1,-1,-1,27,-1,29,31,-1,-1,-1,-1,-1,-1],"loss_changes":[1.10707436E2,1.1209694E1,2.6044834E1,6.919403E-1,1.0352497E0,1.5560999E0,6.2050095E0,0E0,0E0,0E0,2.888918E-3,2.5320613E-1,8.56024E-2,9.8910904E-1,0E0,0E0,0E0,2.9341817E-2,2.246763E-2,0E0,0E0,0E0,0E0,2.4570584E-2,0E0,4.467765E-3,7.467404E-3,0E0,0E0,0E0,0E0,0E0,0E0],"parents":[2147483647,0,0,1,1,2,2,3,3,4,4,5,5,6,6,10,10,11,11,12,12,13,13,17,17,18,18,23,23,25,25,26,26],"right_children":[2,4,6,8,10,12,14,-1,-1,-1,16,18,20,22,-1,-1,-1,24,26,-1,-1,-1,-1,28,-1,30,32,-1,-1,-1,-1,-1,-1],"split_conditions":[2.377E1,1.565E1,3.117E1,1.019E1,1.817E1,2.798E1,3.797E1,-2.2054537E-1,-1.3479277E-1,-9.4629966E-2,2.349E1,2.541E1,2.841E1,3.328E1,1.7672203E-1,-5.4673593E-2,-2.5966216E-2,2.33E2,2.603E1,1.4909324E-2,3.9257195E-2,6.0420632E-2,9.433147E-2,2.507E1,-2.175944E-2,2.564E1,1.76E2,-1.3703887E-2,-2.5559426E-3,-5.329857E-3,-1.2812085E-3,6.1419676E-3,2.7320863E-4],"split_indices":[0,0,0,0,0,0,0,0,0,0,0,0,0,0,0,0,0,26,0,0,0,0,0,0,0,0,26,0,0,0,0,0,0],"split_type":[0,0,0,0,0,0,0,0,0,0,0,0,0,0,0,0,0,0,0,0,0,0,0,0,0,0,0,0,0,0,0,0,0],"sum_hessian":[1.7E2,5.4E1,1.16E2,1.9E1,3.5E1,5.2E1,6.4E1,8E0,1.1E1,2.3E1,1.2E1,4.1E1,1.1E1,5.6E1,8E0,9E0,3E0,2.1E1,2E1,4E0,7E0,2.4E1,3.2E1,1.4E1,7E0,1.2E1,8E0,1.1E1,3E0,4E0,8E0,4E0,4E0],"tree_param":{"num_deleted":"0","num_feature":"37","num_nodes":"33","size_leaf_vector":"1"}},{"base_weights":[1.3013716E-2,5.733584E-1,-8.446806E-1,-9.705534E-2,7.1991867E-1,-1.1735419E0,-2.2027588E-1,-2.3104097E-3,-1.15235396E-1,5.9906614E-1,1.3245811E0,-1.7547925E-1,-8.9193547E-1,-3.5980474E-2,-1.1257159E-1,-1.3270812E-2,-5.374832E-3,2.7546141E-2,6.7120284E-1,1.5616238E-1,4.008293E-2,-5.6140434E-2,-9.488068E-2,1.4005116E-2,-1.9851219E-2,-1.2553215E-3,8.080864E-3,7.3687065E-1,2.937851E-2,-1.591444E-3,4.0423395E-3,7.6701045E-2,3.729404E-2],"categories":[],"categories_nodes":[],"categories_segments":[],"categories_sizes":[],"default_left":[0,0,0,0,0,0,0,0,0,0,0,0,0,0,0,0,0,0,0,0,0,0,0,0,0,0,0,0,0,0,0,0,0],"id":23,"left_children":[1,3,5,7,9,11,13,-1,15,17,19,-1,21,-1,23,-1,-1,25,27,-1,-1,-1,-1,29,-1,-1,-1,31,-1,-1,-1,-1,-1],"loss_changes":[8.026464E1,9.993732E0,1.3294106E1,2.288191E-2,5.2717094E0,5.47324E0,3.2016468E-1,0E0,8.98236E-3,2.9086685E0,2.2206478E0,0E0,5.00679E-2,0E0,1.6595131E-1,0E0,0E0,2.0236535E-2,1.344923E0,0E0,0E0,0E0,0E0,6.176278E-3,0E0,0E0,0E0,2.9529572E-1,0E0,0E0,0E0,0E0,0E0],"parents":[2147483647,0,0,1,1,2,2,3,3,4,4,5,5,6,6,8,8,9,9,10,10,12,12,14,14,17,17,18,18,23,23,27,27],"right_children":[2,4,6,8,10,12,14,-1,16,18,20,-1,22,-1,24,-1,-1,26,28,-1,-1,-1,-1,30,-1,-1,-1,32,-1,-1,-1,-1,-1],"split_conditions":[6.666667E-1,1.579E1,1.398E1,9.2111E2,1.142768E4,7.8697E2,1.36005E3,-2.3104097E-3,6.93788E2,9.79E1,1.776E2,-1.7547925E-1,7.8075E1,-3.5980474E-2,1E0,-1.3270812E-2,-5.374832E-3,1.324E1,2.2594288E5,1.5616238E-1,4.008293E-2,-5.6140434E-2,-9.488068E-2,6.5075E0,-1.9851219E-2,-1.2553215E-3,8.080864E-3,4.647E2,2.937851E-2,-1.591444E-3,4.0423395E-3,7.6701045E-2,3.729404E-2],"split_indices":[17,24,24,15,3,10,1,0,34,9,9,0,20,0,6,0,0,12,23,0,0,0,0,12,0,0,0,9,0,0,0,0,0],"split_type":[0,0,0,0,0,0,0,0,0,0,0,0,0,0,0,0,0,0,0,0,0,0,0,0,0,0,0,0,0,0,0,0,0],"sum_hessian":[1.65E2,1E2,6.5E1,1.8E1,8.2E1,4.2E1,2.3E1,4E0,1.4E1,7E1,1.2E1,1.2E1,3E1,9E0,1.4E1,1E1,4E0,8E0,6.2E1,9E0,3E0,6E0,2.4E1,6E0,8E0,5E0,3E0,5.2E1,1E1,3E0,3E0,4.7E1,5E0],"tree_param":{"num_deleted":"0","num_feature":"37","num_nodes":"33","size_leaf_vector":"1"}},{"base_weights":[-4.9477305E-2,-1.0397457E0,3.8733146E-1,-1.8885814E-1,-8.1816196E-1,-7.888697E-3,7.695091E-1,-1.00106396E-1,-5.577715E-2,-1.03458226E-1,2.1554512E-1,6.2069076E-1,1.3130583E-1,-1.9257626E-1,-2.8595686E-2,2.7367275E-3,2.8581604E-1,4.4860955E-2,6.980898E-2,-2.3133349E-2,-1.2380897E-2,-5.7741545E-2,1.7982673E-2,1.48949055E-2,3.3009592E-2,-9.935188E-3,-3.3578526E-3,-3.3569337E-5,3.6368181E-3],"categories":[],"categories_nodes":[],"categories_segments":[],"categories_sizes":[],"default_left":[0,0,0,0,0,0,0,0,0,0,0,0,0,0,0,0,0,0,0,0,0,0,0,0,0,0,0,0,0],"id":24,"left_children":[1,3,5,-1,7,9,11,-1,-1,13,15,17,-1,19,21,-1,23,-1,-1,-1,-1,25,27,-1,-1,-1,-1,-1,-1],"loss_changes":[7.350501E1,8.23542E0,1.7829298E1,0E0,1.4895496E0,1.2821543E0,4.0384026E0,0E0,0E0,2.7470046E-1,2.301997E-1,3.3945847E-1,0E0,2.1998167E-2,3.361994E-2,0E0,2.9618502E-2,0E0,0E0,0E0,0E0,1.1745382E-2,3.380133E-3,0E0,0E0,0E0,0E0,0E0,0E0],"parents":[2147483647,0,0,1,1,2,2,4,4,5,5,6,6,9,9,10,10,11,11,13,13,14,14,16,16,21,21,22,22],"right_children":[2,4,6,-1,8,10,12,-1,-1,14,16,18,-1,20,22,-1,24,-1,-1,-1,-1,26,28,-1,-1,-1,-1,-1,-1],"split_conditions":[2.085E1,1.019E1,3.117E1,-1.8885814E-1,1.658E1,2.674E1,3.691E1,-1.00106396E-1,-5.577715E-2,2.504E1,1.0559E3,3.296E1,1.3130583E-1,2.402E1,2.584E1,2.7367275E-3,2.841E1,4.4860955E-2,6.980898E-2,-2.3133349E-2,-1.2380897E-2,1.722E2,2.947E2,1.48949055E-2,3.3009592E-2,-9.935188E-3,-3.3578526E-3,-3.3569337E-5,3.6368181E-3],"split_indices":[0,0,0,0,0,0,0,0,0,0,15,0,0,0,0,0,0,0,0,0,0,8,1,0,0,0,0,0,0],"split_type":[0,0,0,0,0,0,0,0,0,0,0,0,0,0,0,0,0,0,0,0,0,0,0,0,0,0,0,0,0],"sum_hessian":[1.68E2,5.1E1,1.17E2,9E0,4.2E1,5.8E1,5.9E1,2.3E1,1.9E1,4.1E1,1.7E1,4.8E1,1.1E1,1.8E1,2.3E1,5E0,1.2E1,1.7E1,3.1E1,1E1,8E0,1.4E1,9E0,4E0,8E0,4E0,1E1,5E0,4E0],"tree_param":{"num_deleted":"0","num_feature":"37","num_nodes":"29","size_leaf_vector":"1"}},{"base_weights":[-2.7753118E-2,-6.621228E-1,5.011966E-1,-1.5088266E0,-4.602522E-1,4.0943724E-1,1.2815382E0,-1.0121454E-1,-1.8609156E-1,-7.3040885E-1,-1.2764601E-1,-8.9868546E-2,4.9631634E-1,1.4776516E-1,6.6698365E-2,-8.228558E-2,-5.177749E-2,-2.3998848E-1,-3.4228493E-2,-4.9114227E-5,-1.946497E-2,-8.538119E-2,5.727512E-1,-2.99917E-2,-1.2008572E-2,-7.392841E-2,9.274589E-3,-1.3783646E-3,1.7131328E-3,-4.416008E-3,-1.0952606E-2,6.3336414E-1,3.1969506E-2,-9.109751E-3,-2.969265E-3,-9.994507E-4,2.6688767E-3,7.91231E-2,5.6077946E-2],"categories":[],"categories_nodes":[],"categories_segments":[],"categories_sizes":[],"default_left":[0,0,0,0,0,0,0,0,0,0,0,0,0,0,0,0,0,0,0,0,0,0,0,0,0,0,0,0,0,0,0,0,0,0,0,0,0,0,0],"id":25,"left_children":[1,3,5,7,9,11,13,-1,-1,15,17,19,21,-1,-1,-1,-1,23,25,27,-1,29,31,-1,-1,33,35,-1,-1,-1,-1,37,-1,-1,-1,-1,-1,-1,-1],"loss_changes":[5.5362E1,1.2124901E1,5.9196205E0,5.6474304E-1,5.4778233E0,3.6016998E0,9.913254E-2,0E0,0E0,2.4229813E-1,2.9613343E-1,1.2233842E-1,3.1612396E0,0E0,0E0,0E0,0E0,5.739695E-2,3.0045826E-2,2.1238548E-3,0E0,4.1208267E-3,7.4850273E-1,0E0,0E0,4.130468E-3,3.2867403E-3,0E0,0E0,0E0,0E0,1.1777115E-1,0E0,0E0,0E0,0E0,0E0,0E0,0E0],"parents":[2147483647,0,0,1,1,2,2,3,3,4,4,5,5,6,6,9,9,10,10,11,11,12,12,17,17,18,18,19,19,21,21,22,22,25,25,26,26,31,31],"right_children":[2,4,6,8,10,12,14,-1,-1,16,18,20,22,-1,-1,-1,-1,24,26,28,-1,30,32,-1,-1,34,36,-1,-1,-1,-1,38,-1,-1,-1,-1,-1,-1,-1],"split_conditions":[7.5525E0,1.5E1,4.662E2,5.7860635E3,5.9075E0,9.79E1,1.60931E3,-1.0121454E-1,-1.8609156E-1,9.38E0,1E0,3.0641E2,1.579E1,1.4776516E-1,6.6698365E-2,-8.228558E-2,-5.177749E-2,1.24606E3,6.41E0,1.309E1,-1.946497E-2,3.9E2,4.647E2,-2.99917E-2,-1.2008572E-2,4.01E2,6.5075E0,-1.3783646E-3,1.7131328E-3,-4.416008E-3,-1.0952606E-2,1.2048E2,3.1969506E-2,-9.109751E-3,-2.969265E-3,-9.994507E-4,2.6688767E-3,7.91231E-2,5.6077946E-2],"split_indices":[12,9,8,15,12,9,1,0,0,24,7,1,24,0,0,0,0,25,12,12,0,2,9,0,0,2,12,0,0,0,0,1,0,0,0,0,0,0,0],"split_type":[0,0,0,0,0,0,0,0,0,0,0,0,0,0,0,0,0,0,0,0,0,0,0,0,0,0,0,0,0,0,0,0,0,0,0,0,0,0,0],"sum_hessian":[1.63E2,7.4E1,8.9E1,1.3E1,6.1E1,8.1E1,8E0,7E0,6E0,3.3E1,2.8E1,1.2E1,6.9E1,5E0,3E0,2.1E1,1.2E1,1.2E1,1.6E1,7E0,5E0,8E0,6.1E1,7E0,5E0,8E0,8E0,4E0,3E0,4E0,4E0,4.8E1,1.3E1,5E0,3E0,4E0,4E0,1.2E1,3.6E1],"tree_param":{"num_deleted":"0","num_feature":"37","num_nodes":"39","size_leaf_vector":"1"}},{"base_weights":[-2.4095943E-2,-8.533956E-1,3.0783343E-1,-1.5912545E-1,-6.561817E-1,-5.289508E-2,5.861307E-1,-7.470593E-2,-3.6520403E-2,-1.4159717E-1,3.784143E-2,4.5257747E-1,8.2659476E-2,-1.666707E-2,-7.571708E-2,1.599869E-2,8.361036E-3,2.9524976E-2,4.901665E-2,-8.969625E-3,-3.5819055E-3,7.7677253E-3,-6.6719055E-3,-2.9979707E-3,1.542155E-4],"categories":[],"categories_nodes":[],"categories_segments":[],"categories_sizes":[],"default_left":[0,0,0,0,0,0,0,0,0,0,0,0,0,0,0,0,0,0,0,0,0,0,0,0,0],"id":26,"left_children":[1,3,5,-1,7,9,11,-1,-1,13,15,17,-1,-1,19,-1,21,-1,-1,-1,-1,-1,23,-1,-1],"loss_changes":[4.4305725E1,5.6495895E0,1.1575825E1,0E0,7.320175E-1,4.158326E-1,1.7133598E0,0E0,0E0,3.0328155E-2,9.228564E-2,1.15486145E-1,0E0,0E0,1.8068366E-3,0E0,2.344284E-2,0E0,0E0,0E0,0E0,0E0,3.6838152E-3,0E0,0E0],"parents":[2147483647,0,0,1,1,2,2,4,4,5,5,6,6,9,9,10,10,11,11,14,14,16,16,22,22],"right_children":[2,4,6,-1,8,10,12,-1,-1,14,16,18,-1,-1,20,-1,22,-1,-1,-1,-1,-1,24,-1,-1],"split_conditions":[2.349E1,1.019E1,3.021E1,-1.5912545E-1,1.792E1,2.541E1,3.517E1,-7.470593E-2,-3.6520403E-2,2.9011825E5,5E-1,3.208E1,8.2659476E-2,-1.666707E-2,2.504E1,1.599869E-2,2.49E2,2.9524976E-2,4.901665E-2,-8.969625E-3,-3.5819055E-3,7.7677253E-3,2.584E1,-2.9979707E-3,1.542155E-4],"split_indices":[0,0,0,0,0,0,0,0,0,23,17,0,0,0,0,0,2,0,0,0,0,0,0,0,0],"split_type":[0,0,0,0,0,0,0,0,0,0,0,0,0,0,0,0,0,0,0,0,0,0,0,0,0],"sum_hessian":[1.59E2,4.5E1,1.14E2,8E0,3.7E1,5E1,6.4E1,2.7E1,1E1,2.5E1,2.5E1,4.3E1,2.1E1,1.7E1,8E0,4E0,2.1E1,1E1,3.3E1,5E0,3E0,3E0,1.8E1,4E0,1.4E1],"tree_param":{"num_deleted":"0","num_feature":"37","num_nodes":"25","size_leaf_vector":"1"}},{"base_weights":[8.97449E-3,-6.2395215E-1,3.3100882E-1,-9.514224E-2,-3.9093024E-1,6.300226E-2,6.0761553E-1,-4.6820823E-2,-1.7975928E-2,-2.4225999E-2,2.4332479E-1,5.193016E-1,1.24229625E-1,-7.096191E-2,2.6058007E-2,1.0295582E-2,2.6320922E-1,4.096525E-2,6.302091E-2,-8.545618E-2,-7.4890134E-4,5.6027E-3,6.324605E-2,1.3137055E-2,2.8352812E-2,-1.1014438E-2,-5.7159998E-3,-4.863739E-4,3.2984733E-3,2.1776676E-3,8.89039E-3],"categories":[],"categories_nodes":[],"categories_segments":[],"categories_sizes":[],"default_left":[0,0,0,0,0,0,0,0,0,0,0,0,0,0,0,0,0,0,0,0,0,0,0,0,0,0,0,0,0,0,0],"id":27,"left_children":[1,3,5,-1,7,9,11,-1,-1,13,15,17,-1,19,21,-1,23,-1,-1,25,-1,27,29,-1,-1,-1,-1,-1,-1,-1,-1],"loss_changes":[3.4448982E1,3.977602E0,8.26455E0,0E0,4.8699522E-1,9.181895E-1,2.4376888E0,0E0,0E0,9.5851876E-2,2.5933146E-2,3.498783E-1,0E0,1.8679865E-2,1.4859504E-2,0E0,5.613804E-3,0E0,0E0,5.580038E-3,0E0,4.172723E-3,5.5120755E-3,0E0,0E0,0E0,0E0,0E0,0E0,0E0,0E0],"parents":[2147483647,0,0,1,1,2,2,4,4,5,5,6,6,9,9,10,10,11,11,13,13,14,14,16,16,19,19,21,21,22,22],"right_children":[2,4,6,-1,8,10,12,-1,-1,14,16,18,-1,20,22,-1,24,-1,-1,26,-1,28,30,-1,-1,-1,-1,-1,-1,-1,-1],"split_conditions":[2.39E1,1.591E1,3.208E1,-9.514224E-2,2.349E1,2.812E1,3.833E1,-4.6820823E-2,-1.7975928E-2,2.564E1,5.3749E2,3.424E1,1.24229625E-1,1.225E3,2.674E1,1.0295582E-2,2.86E1,4.096525E-2,6.302091E-2,9.69E1,-7.4890134E-4,7E2,2.5833E2,1.3137055E-2,2.8352812E-2,-1.1014438E-2,-5.7159998E-3,-4.863739E-4,3.2984733E-3,2.1776676E-3,8.89039E-3],"split_indices":[0,0,0,0,0,0,0,0,0,0,1,0,0,4,0,0,0,0,0,32,0,4,1,0,0,0,0,0,0,0,0],"split_type":[0,0,0,0,0,0,0,0,0,0,0,0,0,0,0,0,0,0,0,0,0,0,0,0,0,0,0,0,0,0,0],"sum_hessian":[1.67E2,5.6E1,1.11E2,2.2E1,3.4E1,5.7E1,5.4E1,2.4E1,1E1,3.9E1,1.8E1,4.9E1,5E0,2E1,1.9E1,3E0,1.5E1,2.7E1,2.2E1,1.6E1,4E0,1.3E1,6E0,3E0,1.2E1,7E0,9E0,1E1,3E0,3E0,3E0],"tree_param":{"num_deleted":"0","num_feature":"37","num_nodes":"31","size_leaf_vector":"1"}},{"base_weights":[-4.144685E-2,-6.29208E-1,2.6074988E-1,-1.039857E0,-4.1301474E-1,-3.9482117E-4,5.08157E-1,-1.5585671E-1,-7.9762995E-2,-4.956047E-2,-2.6331639E-2,-5.9127092E-2,1.4646053E-1,3.8000488E-1,6.947625E-2,-1.0867579E-2,-2.1566471E-2,-1.3816834E-3,1.8451045E-1,2.9487086E-2,4.2677343E-2,-7.2834017E-3,-7.6712607E-3,7.673607E-3,2.2388395E-2,-1.973648E-3,3.9945083E-4],"categories":[],"categories_nodes":[],"categories_segments":[],"categories_sizes":[],"default_left":[0,0,0,0,0,0,0,0,0,0,0,0,0,0,0,0,0,0,0,0,0,0,0,0,0,0,0],"id":28,"left_children":[1,3,5,7,9,11,13,-1,-1,-1,-1,15,17,19,-1,-1,21,-1,23,-1,-1,-1,25,-1,-1,-1,-1],"loss_changes":[2.9826525E1,4.6309605E0,7.1718073E0,1.1441059E0,3.5167885E-1,4.8304293E-1,1.0990791E0,0E0,0E0,0E0,0E0,7.209945E-2,1.0012603E-1,1.7494202E-2,0E0,0E0,1.6538229E-2,0E0,3.7984937E-2,0E0,0E0,0E0,2.893839E-3,0E0,0E0,0E0,0E0],"parents":[2147483647,0,0,1,1,2,2,3,3,4,4,5,5,6,6,11,11,12,12,13,13,16,16,18,18,22,22],"right_children":[2,4,6,8,10,12,14,-1,-1,-1,-1,16,18,20,-1,-1,22,-1,24,-1,-1,-1,26,-1,-1,-1,-1],"split_conditions":[2.377E1,1.572E1,3.133E1,8.54E0,1.817E1,2.638E1,3.517E1,-1.5585671E-1,-7.9762995E-2,-4.956047E-2,-2.6331639E-2,2.501E1,1.054437E3,3.274E1,6.947625E-2,-1.0867579E-2,1.722E2,-1.3816834E-3,2.808E1,2.9487086E-2,4.2677343E-2,-7.2834017E-3,2.584E1,7.673607E-3,2.2388395E-2,-1.973648E-3,3.9945083E-4],"split_indices":[0,0,0,0,0,0,0,0,0,0,0,0,10,0,0,0,8,0,0,0,0,0,0,0,0,0,0],"split_type":[0,0,0,0,0,0,0,0,0,0,0,0,0,0,0,0,0,0,0,0,0,0,0,0,0,0,0],"sum_hessian":[1.66E2,5.6E1,1.1E2,1.8E1,3.8E1,5.4E1,5.6E1,4E0,1.4E1,2.3E1,1.5E1,3.9E1,1.5E1,3.5E1,2.1E1,1.6E1,2.3E1,3E0,1.2E1,1.5E1,2E1,4E0,1.9E1,4E0,8E0,9E0,1E1],"tree_param":{"num_deleted":"0","num_feature":"37","num_nodes":"27","size_leaf_vector":"1"}},{"base_weights":[-2.4577605E-2,-6.023964E-1,2.2664352E-1,-1.3608922E-1,-4.9503455E-1,-1.4767581E-2,4.3856966E-1,-6.2355686E-2,-3.2822526E-1,-1.0021939E-1,4.0236846E-2,3.220275E-1,6.5171903E-1,-1.7338308E-2,-3.6160458E-2,-1.24148885E-2,-6.2828236E-3,-7.8781795E-6,1.0347911E-1,2.5311371E-2,3.7943613E-2,5.155785E-2,8.6979456E-2,-1.1472401E-2,4.3558883E-3,1.0019302E-3,1.5428798E-1,-2.5555373E-3,-1.1277199E-4,8.552055E-3,1.921978E-2],"categories":[],"categories_nodes":[],"categories_segments":[],"categories_sizes":[],"default_left":[0,0,0,0,0,0,0,0,0,0,0,0,0,0,0,0,0,0,0,0,0,0,0,0,0,0,0,0,0,0,0],"id":29,"left_children":[1,3,5,-1,7,9,11,-1,13,15,17,19,21,-1,-1,-1,-1,23,25,-1,-1,-1,-1,27,-1,-1,29,-1,-1,-1,-1],"loss_changes":[2.539442E1,3.6422882E0,6.2481585E0,0E0,8.2439137E-1,2.7664572E-1,1.4047861E0,0E0,5.6179762E-2,1.2779191E-2,9.162684E-2,7.8033924E-2,2.047081E-1,0E0,0E0,0E0,0E0,1.1987584E-2,6.493436E-2,0E0,0E0,0E0,0E0,2.7391738E-3,0E0,0E0,7.025793E-3,0E0,0E0,0E0,0E0],"parents":[2147483647,0,0,1,1,2,2,4,4,5,5,6,6,8,8,9,9,10,10,11,11,12,12,17,17,18,18,23,23,26,26],"right_children":[2,4,6,-1,8,10,12,-1,14,16,18,20,22,-1,-1,-1,-1,24,26,-1,-1,-1,-1,28,-1,-1,30,-1,-1,-1,-1],"split_conditions":[2.37E1,9.12E0,3.039E1,-1.3608922E-1,1.639E1,2.507E1,3.532E1,-6.2355686E-2,6.5129E2,2.45E1,2.674E1,3.296E1,3.811E1,-1.7338308E-2,-3.6160458E-2,-1.24148885E-2,-6.2828236E-3,1.224E3,2.14559E3,2.5311371E-2,3.7943613E-2,5.155785E-2,8.6979456E-2,2.584E1,4.3558883E-3,1.0019302E-3,2.841E1,-2.5555373E-3,-1.1277199E-4,8.552055E-3,1.921978E-2],"split_indices":[0,0,0,0,0,0,0,0,25,0,0,0,0,0,0,0,0,4,27,0,0,0,0,0,0,0,0,0,0,0,0],"split_type":[0,0,0,0,0,0,0,0,0,0,0,0,0,0,0,0,0,0,0,0,0,0,0,0,0,0,0,0,0,0,0],"sum_hessian":[1.73E2,5.2E1,1.21E2,5E0,4.7E1,5.7E1,6.4E1,2.5E1,2.2E1,2.2E1,3.5E1,4.3E1,2.1E1,5E0,1.7E1,1.2E1,1E1,2.2E1,1.3E1,2.2E1,2.1E1,1.5E1,6E0,1.8E1,4E0,5E0,8E0,7E0,1.1E1,4E0,4E0],"tree_param":{"num_deleted":"0","num_feature":"37","num_nodes":"31","size_leaf_vector":"1"}},{"base_weights":[-7.735316E-3,-4.9128637E-1,2.4754381E-1,-7.9351746E-2,-3.314485E-1,1.839161E-2,4.3754494E-1,-3.968483E-2,-1.5122826E-2,-2.5532436E-2,1.7644344E-2,3.7125224E-1,1.0792557E-1,-6.1254185E-2,2.6400173E-2,2.8683275E-2,4.370479E-2,-8.326492E-3,-4.2496745E-2,-2.3372173E-3,4.675007E-2,-9.799481E-4,-4.985444E-3,-9.7146037E-4,4.0321352E-4,7.221476E-3,6.8424223E-4],"categories":[],"categories_nodes":[],"categories_segments":[],"categories_sizes":[],"default_left":[0,0,0,0,0,0,0,0,0,0,0,0,0,0,0,0,0,0,0,0,0,0,0,0,0,0,0],"id":30,"left_children":[1,3,5,-1,7,9,11,-1,-1,13,-1,15,-1,17,19,-1,-1,-1,21,23,25,-1,-1,-1,-1,-1,-1],"loss_changes":[2.0365856E1,2.4905434E0,4.6941843E0,0E0,3.996539E-1,3.5161883E-1,2.1092272E0,0E0,0E0,7.582207E-2,0E0,1.8013477E-1,0E0,6.3702613E-3,1.0050915E-2,0E0,0E0,0E0,3.1200964E-3,4.1508395E-4,9.668235E-3,0E0,0E0,0E0,0E0,0E0,0E0],"parents":[2147483647,0,0,1,1,2,2,4,4,5,5,6,6,9,9,11,11,13,13,14,14,18,18,19,19,20,20],"right_children":[2,4,6,-1,8,10,12,-1,-1,14,-1,16,-1,18,20,-1,-1,-1,22,24,26,-1,-1,-1,-1,-1,-1],"split_conditions":[2.402E1,1.572E1,3.133E1,-7.9351746E-2,5.886667E0,2.812E1,3.811E1,-3.968483E-2,-1.5122826E-2,2.571E1,1.7644344E-2,3.404E1,1.0792557E-1,9.69E1,2.636E1,2.8683275E-2,4.370479E-2,-8.326492E-3,1.1060566E3,2.585E1,1.4375E2,-9.799481E-4,-4.985444E-3,-9.7146037E-4,4.0321352E-4,7.221476E-3,6.8424223E-4],"split_indices":[0,0,0,0,12,0,0,0,0,0,0,0,0,32,0,0,0,0,15,0,14,0,0,0,0,0,0],"split_type":[0,0,0,0,0,0,0,0,0,0,0,0,0,0,0,0,0,0,0,0,0,0,0,0,0,0,0],"sum_hessian":[1.63E2,5.6E1,1.07E2,1.8E1,3.8E1,4.9E1,5.8E1,2.7E1,1.1E1,3.9E1,1E1,5.4E1,4E0,2.3E1,1.6E1,2.6E1,2.8E1,9E0,1.4E1,7E0,9E0,3E0,1.1E1,3E0,4E0,5E0,4E0],"tree_param":{"num_deleted":"0","num_feature":"37","num_nodes":"27","size_leaf_vector":"1"}},{"base_weights":[-3.834822E-3,-5.490785E-1,1.9525282E-1,-4.324259E-1,-1.2546915E-1,1.4388576E-1,8.4703743E-1,-4.9955982E-1,-2.8275642E-1,-7.074512E-2,2.2457103E-1,4.456539E-2,9.734535E-2,-4.004304E-2,-6.0734536E-2,-3.271762E-2,-1.2848168E-2,-1.5394367E-1,-2.7878636E-2,-4.7934283E-2,2.974097E-1,-2.4438476E-2,-8.948016E-3,4.380544E-4,-1.0818227E-2,-7.316895E-2,-1.7906189E-2,3.2485548E-1,1.0573864E-1,-9.510627E-4,2.1920523E-3,-1.0612831E-2,-3.3507985E-3,-2.945682E-3,6.7839626E-4,3.6744017E-2,2.3653394E-2,3.5648725E-3,1.4652379E-2],"categories":[],"categories_nodes":[],"categories_segments":[],"categories_sizes":[],"default_left":[0,0,0,0,0,0,0,0,0,0,0,0,0,0,0,0,0,0,0,0,0,0,0,0,0,0,0,0,0,0,0,0,0,0,0,0,0,0,0],"id":31,"left_children":[1,3,5,7,-1,9,11,13,15,17,19,-1,-1,-1,-1,-1,-1,21,23,25,27,-1,-1,29,-1,31,33,35,37,-1,-1,-1,-1,-1,-1,-1,-1,-1,-1],"loss_changes":[1.866948E1,3.2437716E0,4.096637E0,2.7071047E-1,0E0,2.0593581E0,2.2849083E-2,4.528761E-2,6.0756445E-2,1.13400415E-1,1.7212644E0,0E0,0E0,0E0,0E0,0E0,0E0,4.2264074E-2,5.2347854E-2,1.3087049E-2,3.2336807E-1,0E0,0E0,4.055478E-3,0E0,9.515852E-3,3.051702E-3,1.3499498E-1,2.3362897E-2,0E0,0E0,0E0,0E0,0E0,0E0,0E0,0E0,0E0,0E0],"parents":[2147483647,0,0,1,1,2,2,3,3,5,5,6,6,7,7,8,8,9,9,10,10,17,17,18,18,19,19,20,20,23,23,25,25,26,26,27,27,28,28],"right_children":[2,4,6,8,-1,10,12,14,16,18,20,-1,-1,-1,-1,-1,-1,22,24,26,28,-1,-1,30,-1,32,34,36,38,-1,-1,-1,-1,-1,-1,-1,-1,-1,-1],"split_conditions":[5.9525E0,1.166E2,4.928E2,9.38E0,-1.2546915E-1,9.534642E3,2.046907E3,1.0803333E2,2.93E2,1.776E1,1.579E1,4.456539E-2,9.734535E-2,-4.004304E-2,-6.0734536E-2,-3.271762E-2,-1.2848168E-2,1.3521E3,1.412E2,5.661E2,2.2213972E5,-2.4438476E-2,-8.948016E-3,1E0,-1.0818227E-2,3.3333334E-1,1.398463E3,8.9833336E1,5.76458E3,-9.510627E-4,2.1920523E-3,-1.0612831E-2,-3.3507985E-3,-2.945682E-3,6.7839626E-4,3.6744017E-2,2.3653394E-2,3.5648725E-3,1.4652379E-2],"split_indices":[12,20,8,24,0,23,10,20,8,24,24,0,0,0,0,0,0,1,20,9,23,0,0,6,0,18,10,20,3,0,0,0,0,0,0,0,0,0,0],"split_type":[0,0,0,0,0,0,0,0,0,0,0,0,0,0,0,0,0,0,0,0,0,0,0,0,0,0,0,0,0,0,0,0,0,0,0,0,0,0,0],"sum_hessian":[1.7E2,4.5E1,1.25E2,4E1,5E0,1.17E2,8E0,2.6E1,1.4E1,3.2E1,8.5E1,3E0,5E0,1.6E1,1E1,1E1,4E0,1E1,2.2E1,1.8E1,6.7E1,3E0,7E0,1.7E1,5E0,9E0,9E0,5.8E1,9E0,1.2E1,5E0,4E0,5E0,6E0,3E0,3.7E1,2.1E1,4E0,5E0],"tree_param":{"num_deleted":"0","num_feature":"37","num_nodes":"39","size_leaf_vector":"1"}},{"base_weights":[2.310658E-2,-3.2918495E-1,2.3629178E-1,-2.1365924E-1,-6.5518804E-2,1.841929E-1,7.076019E-1,-3.073731E-2,-4.0393192E-2,-3.743744E-2,2.6388142E-1,8.8613E-2,3.5184782E-2,-5.3473063E-2,4.309082E-4,-7.5702667E-3,-1.0369229E-2,1.9428954E-1,3.3185253E-1,-2.5703113E-3,-6.6044913E-3,-5.64706E-2,1.934301E-2,-1.7501354E-3,2.1349172E-1,3.5291545E-2,1.3910445E-2,-7.2715282E-3,-2.6108266E-3,5.5213547E-3,-2.7342903E-4,2.2646664E-2,5.956316E-3],"categories":[],"categories_nodes":[],"categories_segments":[],"categories_sizes":[],"default_left":[0,0,0,0,0,0,0,0,0,0,0,0,0,0,0,0,0,0,0,0,0,0,0,0,0,0,0,0,0,0,0,0,0],"id":32,"left_children":[1,3,5,7,-1,9,11,-1,13,15,17,-1,-1,19,-1,21,-1,23,25,-1,-1,27,29,-1,31,-1,-1,-1,-1,-1,-1,-1,-1],"loss_changes":[1.2544938E1,2.2327027E0,2.423356E0,7.669809E-1,0E0,1.687711E0,3.233385E-1,0E0,1.0755023E-2,5.0665002E-2,2.6664114E-1,0E0,0E0,3.1901114E-3,0E0,2.6097607E-2,0E0,1.5420973E-1,8.894253E-2,0E0,0E0,1.5541147E-3,1.044599E-2,0E0,5.441606E-2,0E0,0E0,0E0,0E0,0E0,0E0,0E0,0E0],"parents":[2147483647,0,0,1,1,2,2,3,3,5,5,6,6,8,8,9,9,10,10,13,13,15,15,17,17,18,18,21,21,22,22,24,24],"right_children":[2,4,6,8,-1,10,12,-1,14,16,18,-1,-1,20,-1,22,-1,24,26,-1,-1,28,30,-1,32,-1,-1,-1,-1,-1,-1,-1,-1],"split_conditions":[1.444E1,1.0803333E2,4.928E2,1.048728E3,-6.5518804E-2,3.8138566E4,1.56499E3,-3.073731E-2,4.01E2,3.6733334E2,1.943E1,8.8613E-2,3.5184782E-2,3.6907E2,4.309082E-4,6.41E0,-1.0369229E-2,1.054437E3,2.289387E3,-2.5703113E-3,-6.6044913E-3,1.148072E3,2.49E2,-1.7501354E-3,2.5274489E5,3.5291545E-2,1.3910445E-2,-7.2715282E-3,-2.6108266E-3,5.5213547E-3,-2.7342903E-4,2.2646664E-2,5.956316E-3],"split_indices":[24,20,8,10,0,11,1,0,2,16,24,0,0,1,0,12,0,10,10,0,0,10,2,0,23,0,0,0,0,0,0,0,0],"split_type":[0,0,0,0,0,0,0,0,0,0,0,0,0,0,0,0,0,0,0,0,0,0,0,0,0,0,0,0,0,0,0,0,0],"sum_hessian":[1.65E2,6.2E1,1.03E2,4.7E1,1.5E1,9.4E1,9E0,3E1,1.7E1,2.5E1,6.9E1,5E0,4E0,1.3E1,4E0,1.8E1,7E0,3.6E1,3.3E1,5E0,8E0,6E0,1.2E1,3E0,3.3E1,2.9E1,4E0,3E0,3E0,4E0,8E0,3E1,3E0],"tree_param":{"num_deleted":"0","num_feature":"37","num_nodes":"33","size_leaf_vector":"1"}},{"base_weights":[-1.1058404E-2,-3.6852562E-1,1.8077455E-1,-5.554411E-1,-2.4237481E-1,9.090551E-2,4.9901757E-1,-6.8156265E-2,-4.4273872E-2,-2.834828E-2,-1.4467679E-2,-1.1988972E-2,1.8720677E-1,3.757511E-2,8.061918E-2,-4.0022507E-2,2.5528256E-2,1.346452E-1,2.2387024E-2,-6.260338E-3,-2.3408055E-2,2.146403E-3,4.233811E-2,1.9097805E-3,1.528421E-2,-2.9884817E-3,-1.5050041E-3,1.5465164E-3,-1.1601639E-3,6.6998005E-3,2.4715902E-3],"categories":[],"categories_nodes":[],"categories_segments":[],"categories_sizes":[],"default_left":[0,0,0,0,0,0,0,0,0,0,0,0,0,0,0,0,0,0,0,0,0,0,0,0,0,0,0,0,0,0,0],"id":33,"left_children":[1,3,5,7,9,11,13,-1,-1,-1,-1,15,17,-1,-1,19,21,23,-1,-1,25,27,29,-1,-1,-1,-1,-1,-1,-1,-1],"loss_changes":[1.1587051E1,1.256568E0,3.1006577E0,2.517271E-2,1.0758495E-1,8.643161E-1,6.058154E-1,0E0,0E0,0E0,0E0,4.6246547E-2,5.6575894E-2,0E0,0E0,7.913798E-3,7.3769893E-3,4.1235775E-2,0E0,0E0,4.16358E-4,1.8273833E-3,3.124265E-3,0E0,0E0,0E0,0E0,0E0,0E0,0E0,0E0],"parents":[2147483647,0,0,1,1,2,2,3,3,4,4,5,5,6,6,11,11,12,12,15,15,16,16,17,17,20,20,21,21,22,22],"right_children":[2,4,6,8,10,12,14,-1,-1,-1,-1,16,18,-1,-1,20,22,24,-1,-1,26,28,30,-1,-1,-1,-1,-1,-1,-1,-1],"split_conditions":[2.382E1,1.578E1,3.481E1,1.12E1,5.8733335E0,2.841E1,3.854E1,-6.8156265E-2,-4.4273872E-2,-2.834828E-2,-1.4467679E-2,2.585E1,3.235E1,3.757511E-2,8.061918E-2,2.455E1,6.03E2,1.514902E3,2.2387024E-2,-6.260338E-3,7.15122E2,5.3E2,6.33E2,1.9097805E-3,1.528421E-2,-2.9884817E-3,-1.5050041E-3,1.5465164E-3,-1.1601639E-3,6.6998005E-3,2.4715902E-3],"split_indices":[0,0,0,0,12,0,0,0,0,0,0,0,0,0,0,0,4,10,0,0,34,4,28,0,0,0,0,0,0,0,0],"split_type":[0,0,0,0,0,0,0,0,0,0,0,0,0,0,0,0,0,0,0,0,0,0,0,0,0,0,0,0,0,0,0],"sum_hessian":[1.67E2,5.8E1,1.09E2,2.2E1,3.6E1,8.6E1,2.3E1,8E0,1.4E1,2.4E1,1.2E1,4.2E1,4.4E1,1.8E1,5E0,2.4E1,1.8E1,2E1,2.4E1,9E0,1.5E1,8E0,1E1,3E0,1.7E1,7E0,8E0,4E0,4E0,3E0,7E0],"tree_param":{"num_deleted":"0","num_feature":"37","num_nodes":"31","size_leaf_vector":"1"}},{"base_weights":[-3.399211E-2,-4.009254E-1,1.3421458E-1,-1.0387384E-1,-3.146437E-1,-5.916533E-3,2.792798E-1,-3.9778646E-2,-2.0336118E-1,-4.1257404E-2,9.605825E-2,2.0744959E-1,4.158024E-1,-2.1579381E-2,-9.035778E-3,-7.375617E-2,-8.393685E-3,2.0799637E-3,1.1182565E-1,1.617518E-2,2.311751E-2,3.406128E-2,5.5821072E-2,-9.156711E-3,-4.600178E-3,-5.632019E-3,4.0076254E-3,5.8653257E-3,1.2894079E-2,-8.6688995E-4,4.3770983E-3],"categories":[],"categories_nodes":[],"categories_segments":[],"categories_sizes":[],"default_left":[0,0,0,0,0,0,0,0,0,0,0,0,0,0,0,0,0,0,0,0,0,0,0,0,0,0,0,0,0,0,0],"id":34,"left_children":[1,3,5,-1,7,9,11,-1,13,15,17,19,21,-1,-1,23,25,-1,27,-1,-1,-1,-1,-1,-1,-1,29,-1,-1,-1,-1],"loss_changes":[1.0608038E1,2.6448727E0,2.4003747E0,0E0,3.7247038E-1,2.2379965E-1,4.825158E-1,0E0,1.2814701E-2,4.8510328E-2,1.6660184E-2,5.9752464E-3,1.3311148E-2,0E0,0E0,7.1573704E-3,1.4490146E-2,0E0,4.267901E-3,0E0,0E0,0E0,0E0,0E0,0E0,0E0,1.0460669E-2,0E0,0E0,0E0,0E0],"parents":[2147483647,0,0,1,1,2,2,4,4,5,5,6,6,8,8,9,9,10,10,11,11,12,12,15,15,16,16,18,18,26,26],"right_children":[2,4,6,-1,8,10,12,-1,14,16,18,20,22,-1,-1,24,26,-1,28,-1,-1,-1,-1,-1,-1,-1,30,-1,-1,-1,-1],"split_conditions":[2.349E1,8.96E0,3.133E1,-1.0387384E-1,1.639E1,2.674E1,3.517E1,-3.9778646E-2,3.9680134E3,2.501E1,1.426215E3,3.296E1,3.833E1,-2.1579381E-2,-9.035778E-3,2.405E1,2.2457E2,2.0799637E-3,2.841E1,1.617518E-2,2.311751E-2,3.406128E-2,5.5821072E-2,-9.156711E-3,-4.600178E-3,-5.632019E-3,1.224E3,5.8653257E-3,1.2894079E-2,-8.6688995E-4,4.3770983E-3],"split_indices":[0,0,0,0,0,0,0,0,15,0,10,0,0,0,0,0,25,0,0,0,0,0,0,0,0,0,4,0,0,0,0],"split_type":[0,0,0,0,0,0,0,0,0,0,0,0,0,0,0,0,0,0,0,0,0,0,0,0,0,0,0,0,0,0,0],"sum_hessian":[1.7E2,5.3E1,1.17E2,5E0,4.8E1,6E1,5.7E1,2.6E1,2.2E1,4.5E1,1.5E1,3.9E1,1.8E1,1.9E1,3E0,2.2E1,2.3E1,3E0,1.2E1,1.6E1,2.3E1,1.4E1,4E0,1.2E1,1E1,4E0,1.9E1,4E0,8E0,1.5E1,4E0],"tree_param":{"num_deleted":"0","num_feature":"37","num_nodes":"31","size_leaf_vector":"1"}},{"base_weights":[8.351076E-4,-2.0531741E-1,2.4820699E-1,-7.725971E-1,-1.4055113E-1,1.9995399E-1,6.883856E-2,-9.8233335E-2,-4.083414E-2,-2.8283095E-1,-6.15388E-2,1.2769477E-1,2.7058277E-2,-3.310589E-2,-1.9800743E-2,-1.18933454E-1,-2.4279201E-2,4.3624878E-2,1.4305457E-1,-1.3689014E-1,-7.2642565E-3,-7.186012E-3,-1.5539741E-2,8.320761E-3,-6.864071E-4,1.526427E-2,6.4585493E-3,-1.5412084E-2,-7.5050737E-3,-3.5418146E-3,-3.1979882E-5],"categories":[],"categories_nodes":[],"categories_segments":[],"categories_sizes":[],"default_left":[0,0,0,0,0,0,0,0,0,0,0,0,0,0,0,0,0,0,0,0,0,0,0,0,0,0,0,0,0,0,0],"id":35,"left_children":[1,3,5,7,9,11,-1,-1,-1,13,15,17,-1,-1,-1,19,21,23,25,27,-1,-1,29,-1,-1,-1,-1,-1,-1,-1,-1],"loss_changes":[8.41436E0,3.1980634E0,1.4553494E0,2.864504E-1,9.044273E-1,3.1759524E-1,0E0,0E0,0E0,5.308318E-2,1.12591475E-1,4.024601E-2,0E0,0E0,0E0,7.5117946E-3,1.3021585E-2,1.4560577E-2,1.2712598E-2,3.3506155E-3,0E0,0E0,9.065118E-3,0E0,0E0,0E0,0E0,0E0,0E0,0E0,0E0],"parents":[2147483647,0,0,1,1,2,2,3,3,4,4,5,5,9,9,10,10,11,11,15,15,16,16,17,17,18,18,19,19,22,22],"right_children":[2,4,6,8,10,12,-1,-1,-1,14,16,18,-1,-1,-1,20,22,24,26,28,-1,-1,30,-1,-1,-1,-1,-1,-1,-1,-1],"split_conditions":[2.692E1,1.12E1,3.833E1,8.96E0,1.817E1,3.352E1,6.883856E-2,-9.8233335E-2,-4.083414E-2,1.623E1,2.402E1,3.66106E3,2.7058277E-2,-3.310589E-2,-1.9800743E-2,1.336E3,1.082445E3,1.438E2,2.5274489E5,2.12162E3,-7.2642565E-3,-7.186012E-3,2.507E1,8.320761E-3,-6.864071E-4,1.526427E-2,6.4585493E-3,-1.5412084E-2,-7.5050737E-3,-3.5418146E-3,-3.1979882E-5],"split_indices":[0,0,0,0,0,0,0,0,0,0,0,3,0,0,0,4,10,1,23,1,0,0,0,0,0,0,0,0,0,0,0],"split_type":[0,0,0,0,0,0,0,0,0,0,0,0,0,0,0,0,0,0,0,0,0,0,0,0,0,0,0,0,0,0,0],"sum_hessian":[1.63E2,8.9E1,7.4E1,8E0,8.1E1,6.8E1,6E0,4E0,4E0,2.8E1,5.3E1,3.5E1,3.3E1,1.6E1,1.2E1,2E1,3.3E1,6E0,2.9E1,1.3E1,7E0,4E0,2.9E1,3E0,3E0,2.5E1,4E0,9E0,4E0,1.2E1,1.7E1],"tree_param":{"num_deleted":"0","num_feature":"37","num_nodes":"31","size_leaf_vector":"1"}},{"base_weights":[-1.4730264E-2,-3.458341E-1,1.1338325E-1,-2.6064578E-1,-8.703155E-2,-2.7294748E-2,2.0240355E-1,-2.071285E-1,-3.727185E-2,1.4320292E-1,-5.573838E-2,-1.6839687E-2,2.4580944E-1,-2.3476385E-2,-1.461118E-1,1.736374E-2,7.6967715E-3,-1.281745E-1,-3.136027E-2,5.993737E-3,-5.4571917E-3,5.059863E-1,1.8487306E-1,-1.6644621E-2,-8.43544E-3,-1.99856E-2,-4.7077495E-3,-7.996314E-3,-1.7068716E-2,2.335167E-3,-6.577174E-4,6.293798E-2,2.320381E-2,2.242262E-1,1.3497673E-1,-2.6315784E-3,1.1789867E-3,1.0950661E-2,2.4532128E-2,1.4105268E-2,6.7814826E-3],"categories":[],"categories_nodes":[],"categories_segments":[],"categories_sizes":[],"default_left":[0,0,0,0,0,0,0,0,0,0,0,0,0,0,0,0,0,0,0,0,0,0,0,0,0,0,0,0,0,0,0,0,0,0,0,0,0,0,0,0,0],"id":36,"left_children":[1,3,5,7,-1,9,11,13,-1,15,17,19,21,-1,23,-1,-1,25,27,29,-1,31,33,-1,-1,-1,-1,-1,35,-1,-1,-1,-1,37,39,-1,-1,-1,-1,-1,-1],"loss_changes":[6.9959073E0,1.8284221E0,1.495785E0,1.6871047E-1,0E0,2.359118E-1,6.988399E-1,1.6284823E-2,0E0,7.4636936E-4,6.8380505E-2,1.1527317E-2,8.7356496E-1,0E0,1.0291338E-3,0E0,0E0,4.872282E-2,2.0862669E-2,2.1174331E-3,0E0,2.2579765E-1,6.987703E-2,0E0,0E0,0E0,0E0,0E0,7.2485493E-3,0E0,0E0,0E0,0E0,3.847623E-2,6.363392E-4,0E0,0E0,0E0,0E0,0E0,0E0],"parents":[2147483647,0,0,1,1,2,2,3,3,5,5,6,6,7,7,9,9,10,10,11,11,12,12,14,14,17,17,18,18,19,19,21,21,22,22,28,28,33,33,34,34],"right_children":[2,4,6,8,-1,10,12,14,-1,16,18,20,22,-1,24,-1,-1,26,28,30,-1,32,34,-1,-1,-1,-1,-1,36,-1,-1,-1,-1,38,40,-1,-1,-1,-1,-1,-1],"split_conditions":[5.9075E0,4.7833334E2,1.471291E3,1.0803333E2,-8.703155E-2,1.438E2,9.79E1,9.52E0,-3.727185E-2,1.2491E2,2.17E1,3.53E2,1.776E2,-2.3476385E-2,8.94563E2,1.736374E-2,7.6967715E-3,1.34947E3,1.158268E3,1.98E2,-5.4571917E-3,5.25E2,8.9833336E1,-1.6644621E-2,-8.43544E-3,-1.99856E-2,-4.7077495E-3,-7.996314E-3,4.01E2,2.335167E-3,-6.577174E-4,6.293798E-2,2.320381E-2,1.585996E3,2.5274489E5,-2.6315784E-3,1.1789867E-3,1.0950661E-2,2.4532128E-2,1.4105268E-2,6.7814826E-3],"split_indices":[12,16,10,20,0,1,9,24,0,1,9,16,9,0,10,0,0,1,10,2,0,2,20,0,0,0,0,0,2,0,0,0,0,10,23,0,0,0,0,0,0],"split_type":[0,0,0,0,0,0,0,0,0,0,0,0,0,0,0,0,0,0,0,0,0,0,0,0,0,0,0,0,0,0,0,0,0,0,0,0,0,0,0,0,0],"sum_hessian":[1.63E2,4.5E1,1.18E2,4E1,5E0,4.6E1,7.2E1,2.9E1,1.1E1,6E0,4E1,1.2E1,6E1,1.8E1,1.1E1,3E0,3E0,9E0,3.1E1,8E0,4E0,1E1,5E1,7E0,4E0,4E0,5E0,6E0,2.5E1,3E0,5E0,6E0,4E0,2.6E1,2.4E1,1.9E1,6E0,5E0,2.1E1,2.1E1,3E0],"tree_param":{"num_deleted":"0","num_feature":"37","num_nodes":"41","size_leaf_vector":"1"}},{"base_weights":[-1.0677642E-4,-1.8905681E-1,1.5525332E-1,-3.111402E-1,-7.75074E-2,9.0833694E-2,2.8762448E-1,-4.185158E-2,-2.3692185E-2,-1.3711293E-2,-5.0170373E-2,1.619157E-2,1.2867011E-1,2.4187725E-2,4.226761E-2,-5.9845258E-2,-2.5803566E-2,4.7717574E-3,8.702328E-3,1.63591E-2,1.1373639E-2,-6.6800513E-3,-1.5324116E-3,-3.1035016E-3,-1.019764E-3,3.201621E-5,2.7482668E-3,-5.2274705E-4,1.0544587E-3],"categories":[],"categories_nodes":[],"categories_segments":[],"categories_sizes":[],"default_left":[0,0,0,0,0,0,0,0,0,0,0,0,0,0,0,0,0,0,0,0,0,0,0,0,0,0,0,0,0],"id":37,"left_children":[1,3,5,7,9,11,13,-1,-1,-1,15,17,19,-1,-1,21,23,-1,25,-1,-1,-1,-1,-1,-1,27,-1,-1,-1],"loss_changes":[4.814265E0,9.8364115E-1,7.413311E-1,1.7976761E-1,5.829853E-2,1.7301637E-1,7.6933384E-2,0E0,0E0,0E0,5.292408E-3,4.779074E-3,2.7751923E-3,0E0,0E0,5.169466E-3,4.999321E-4,0E0,3.0929171E-3,0E0,0E0,0E0,0E0,0E0,0E0,8.291916E-4,0E0,0E0,0E0],"parents":[2147483647,0,0,1,1,2,2,3,3,4,4,5,5,6,6,10,10,11,11,12,12,15,15,16,16,18,18,25,25],"right_children":[2,4,6,8,10,12,14,-1,-1,-1,16,18,20,-1,-1,22,24,-1,26,-1,-1,-1,-1,-1,-1,28,-1,-1,-1],"split_conditions":[2.571E1,1.758E1,3.424E1,1.499E1,2.349E1,2.841E1,3.854E1,-4.185158E-2,-2.3692185E-2,-1.3711293E-2,2.9011825E5,1.3E2,4.468191E4,2.4187725E-2,4.226761E-2,4.664E2,3.43378E3,4.7717574E-3,2.692E1,1.63591E-2,1.1373639E-2,-6.6800513E-3,-1.5324116E-3,-3.1035016E-3,-1.019764E-3,7E2,2.7482668E-3,-5.2274705E-4,1.0544587E-3],"split_indices":[0,0,0,0,0,0,0,0,0,0,23,26,23,0,0,8,3,0,0,0,0,0,0,0,0,4,0,0,0],"split_type":[0,0,0,0,0,0,0,0,0,0,0,0,0,0,0,0,0,0,0,0,0,0,0,0,0,0,0,0,0],"sum_hessian":[1.62E2,7.3E1,8.9E1,3.4E1,3.9E1,6.1E1,2.8E1,1.2E1,2.2E1,1.1E1,2.8E1,2.1E1,4E1,2.3E1,5E0,1.9E1,9E0,3E0,1.8E1,9E0,3.1E1,1.6E1,3E0,6E0,3E0,1.3E1,5E0,9E0,4E0],"tree_param":{"num_deleted":"0","num_feature":"37","num_nodes":"29","size_leaf_vector":"1"}},{"base_weights":[-4.8696557E-3,-2.3813277E-1,1.159708E-1,-8.5973084E-2,-1.8859597E-1,9.21897E-2,6.0644835E-2,-2.6797238E-1,-1.2317002E-1,4.087098E-3,1.6260366E-1,-1.6214864E-2,-2.8728662E-2,-1.4422573E-1,-6.9861324E-3,-1.7612185E-2,5.4446284E-2,1.3009286E-1,2.2112064E-2,-6.5536024E-3,-1.5320115E-2,4.3596746E-3,-2.471292E-2,-7.7676773E-4,7.064708E-2,8.585653E-2,1.4159307E-2,-3.6442005E-3,-7.02967E-4,2.5825882E-3,8.982944E-3,1.0513369E-2,5.2269935E-3],"categories":[],"categories_nodes":[],"categories_segments":[],"categories_sizes":[],"default_left":[0,0,0,0,0,0,0,0,0,0,0,0,0,0,0,0,0,0,0,0,0,0,0,0,0,0,0,0,0,0,0,0,0],"id":38,"left_children":[1,3,5,-1,7,9,-1,11,13,15,17,-1,-1,19,-1,21,23,25,-1,-1,-1,-1,27,-1,29,31,-1,-1,-1,-1,-1,-1,-1],"loss_changes":[4.791324E0,1.6237934E0,1.2504704E0,0E0,2.5262403E-1,6.6932994E-1,0E0,2.4707317E-3,2.5842667E-2,5.450407E-2,8.537996E-2,0E0,0E0,5.497843E-3,0E0,1.6289398E-2,1.5667498E-2,8.701146E-3,0E0,0E0,0E0,0E0,6.3808914E-3,0E0,7.997394E-3,1.6266704E-3,0E0,0E0,0E0,0E0,0E0,0E0,0E0],"parents":[2147483647,0,0,1,1,2,2,4,4,5,5,7,7,8,8,9,9,10,10,13,13,15,15,16,16,17,17,22,22,24,24,25,25],"right_children":[2,4,6,-1,8,10,-1,12,14,16,18,-1,-1,20,-1,22,24,26,-1,-1,-1,-1,28,-1,30,32,-1,-1,-1,-1,-1,-1,-1],"split_conditions":[2.39E1,8.96E0,3.833E1,-8.5973084E-2,1.639E1,3.083E1,6.0644835E-2,8.85E1,6.85083E2,2.692E1,3.481E1,-1.6214864E-2,-2.8728662E-2,6.5129E2,-6.9861324E-3,6.325E1,2.5833E2,3.235E1,2.2112064E-2,-6.5536024E-3,-1.5320115E-2,4.3596746E-3,2.564E1,-7.7676773E-4,2.841E1,7.45161E2,1.4159307E-2,-3.6442005E-3,-7.02967E-4,2.5825882E-3,8.982944E-3,1.0513369E-2,5.2269935E-3],"split_indices":[0,0,0,0,0,0,0,16,34,0,0,0,0,25,0,14,1,0,0,0,0,0,0,0,0,34,0,0,0,0,0,0,0],"split_type":[0,0,0,0,0,0,0,0,0,0,0,0,0,0,0,0,0,0,0,0,0,0,0,0,0,0,0,0,0,0,0,0,0],"sum_hessian":[1.68E2,5.7E1,1.11E2,3E0,5.4E1,1.07E2,4E0,2.3E1,3.1E1,4.8E1,5.9E1,5E0,1.8E1,2.1E1,1E1,3.4E1,1.4E1,4E1,1.9E1,3E0,1.8E1,3E0,3.1E1,3E0,1.1E1,1E1,3E1,1.8E1,1.3E1,4E0,7E0,5E0,5E0],"tree_param":{"num_deleted":"0","num_feature":"37","num_nodes":"33","size_leaf_vector":"1"}},{"base_weights":[9.736616E-3,-1.23222485E-1,1.7338571E-1,-2.466362E-1,-3.6110673E-2,1.4113778E-1,5.5793155E-2,-3.1390652E-2,-1.6566388E-2,-7.795849E-2,-8.827329E-3,9.842952E-2,2.1484723E-2,-8.960762E-2,-3.584258E-3,-3.317356E-2,9.576596E-3,9.0909004E-4,1.0490265E-1,-9.821447E-2,-4.1385177E-3,-1.3227463E-2,-4.64797E-3,-2.5964102E-3,4.41803E-3,6.516756E-2,1.0999803E-1,-1.08964285E-2,-4.9473764E-3,-6.081581E-4,-1.7066479E-3,-1.2016614E-3,3.3153532E-4,7.951498E-3,3.4528256E-3,1.1777526E-2,7.530848E-3],"categories":[],"categories_nodes":[],"categories_segments":[],"categories_sizes":[],"default_left":[0,0,0,0,0,0,0,0,0,0,0,0,0,0,0,0,0,0,0,0,0,0,0,0,0,0,0,0,0,0,0,0,0,0,0,0,0],"id":39,"left_children":[1,3,5,7,9,11,-1,-1,-1,13,15,17,-1,19,-1,21,23,-1,25,27,-1,29,-1,31,-1,33,35,-1,-1,-1,-1,-1,-1,-1,-1,-1,-1],"loss_changes":[3.3504364E0,9.0491116E-1,7.7691007E-1,1.3864326E-1,5.7540998E-2,1.8347287E-1,0E0,0E0,0E0,6.6005066E-3,1.465581E-2,2.3913205E-2,0E0,2.1610186E-3,0E0,3.1008692E-3,8.118101E-3,0E0,9.303093E-4,8.965805E-4,0E0,8.824107E-5,0E0,8.7518955E-4,0E0,3.3165142E-4,3.0332804E-4,0E0,0E0,0E0,0E0,0E0,0E0,0E0,0E0,0E0,0E0],"parents":[2147483647,0,0,1,1,2,2,3,3,4,4,5,5,9,9,10,10,11,11,13,13,15,15,16,16,18,18,19,19,21,21,23,23,25,25,26,26],"right_children":[2,4,6,8,10,12,-1,-1,-1,14,16,18,-1,20,-1,22,24,-1,26,28,-1,30,-1,32,-1,34,36,-1,-1,-1,-1,-1,-1,-1,-1,-1,-1],"split_conditions":[2.808E1,1.758E1,3.863E1,1.574E1,2.405E1,3.476E1,5.5793155E-2,-3.1390652E-2,-1.6566388E-2,1.356E3,2.2598E2,1.069248E3,2.1484723E-2,2.12162E3,-3.584258E-3,1.285E2,1.223E3,9.0909004E-4,7.8933334E0,3.9967334E3,-4.1385177E-3,1.845E2,-4.64797E-3,2.585E1,4.41803E-3,9.59E2,1.983E1,-1.08964285E-2,-4.9473764E-3,-6.081581E-4,-1.7066479E-3,-1.2016614E-3,3.3153532E-4,7.951498E-3,3.4528256E-3,1.1777526E-2,7.530848E-3],"split_indices":[0,0,0,0,0,0,0,0,0,4,25,10,0,1,0,14,4,0,12,15,0,8,0,0,0,4,24,0,0,0,0,0,0,0,0,0,0],"split_type":[0,0,0,0,0,0,0,0,0,0,0,0,0,0,0,0,0,0,0,0,0,0,0,0,0,0,0,0,0,0,0,0,0,0,0,0,0],"sum_hessian":[1.52E2,8.4E1,6.8E1,3.4E1,5E1,6.4E1,4E0,1.7E1,1.7E1,1.9E1,3.1E1,4.2E1,2.2E1,1.4E1,5E0,1.3E1,1.8E1,3E0,3.9E1,1.1E1,3E0,6E0,7E0,1.4E1,4E0,6E0,3.3E1,8E0,3E0,3E0,3E0,5E0,9E0,3E0,3E0,2.5E1,8E0],"tree_param":{"num_deleted":"0","num_feature":"37","num_nodes":"37","size_leaf_vector":"1"}},{"base_weights":[-2.2495655E-2,-2.3668659E-1,7.37149E-2,-7.067496E-2,-1.8279071E-1,2.1967607E-2,2.2819927E-1,-2.5732523E-2,-1.3748205E-1,-1.3564241E-2,8.773791E-2,1.7594455E-1,5.1080514E-2,-1.4889526E-2,-9.177102E-2,-4.2848587E-2,5.521986E-3,9.902642E-2,5.412941E-2,1.8429367E-2,8.3951E-3,-1.2715531E-2,-5.2886326E-3,-5.4151374E-3,-2.7975082E-2,-1.6450988E-2,2.6047857E-2,1.0762345E-2,3.3433915E-3,7.055501E-2,1.1852265E-3,-8.087158E-4,-3.3705817E-3,-9.9665325E-5,-7.0291995E-3,9.94433E-4,5.2233287E-3,3.8047791E-3,8.542347E-3],"categories":[],"categories_nodes":[],"categories_segments":[],"categories_sizes":[],"default_left":[0,0,0,0,0,0,0,0,0,0,0,0,0,0,0,0,0,0,0,0,0,0,0,0,0,0,0,0,0,0,0,0,0,0,0,0,0,0,0],"id":40,"left_children":[1,3,5,-1,7,9,11,-1,13,15,17,19,-1,-1,21,23,25,27,29,-1,-1,-1,-1,-1,31,33,35,-1,-1,37,-1,-1,-1,-1,-1,-1,-1,-1,-1],"loss_changes":[3.4588878E0,1.1882045E0,9.223081E-1,0E0,1.2672114E-1,2.0684087E-1,3.383839E-1,0E0,3.030479E-3,3.2654416E-2,6.4008534E-3,4.4980645E-3,0E0,0E0,5.658388E-3,2.35169E-3,1.6665032E-2,8.80754E-3,6.1080344E-3,0E0,0E0,0E0,0E0,0E0,1.0950845E-3,1.4907328E-2,7.492453E-3,0E0,0E0,1.3315305E-4,0E0,0E0,0E0,0E0,0E0,0E0,0E0,0E0,0E0],"parents":[2147483647,0,0,1,1,2,2,4,4,5,5,6,6,8,8,9,9,10,10,11,11,14,14,15,15,16,16,17,17,18,18,24,24,25,25,26,26,29,29],"right_children":[2,4,6,-1,8,10,12,-1,14,16,18,20,-1,-1,22,24,26,28,30,-1,-1,-1,-1,-1,32,34,36,-1,-1,38,-1,-1,-1,-1,-1,-1,-1,-1,-1],"split_conditions":[2.349E1,8.96E0,3.407E1,-7.067496E-2,1.578E1,3.021E1,3.863E1,-2.5732523E-2,1.817E1,2.501E1,5.459351E5,2.136592E3,5.1080514E-2,-1.4889526E-2,1.18768E4,2.405E1,1E0,3.371E1,2.69E2,1.8429367E-2,8.3951E-3,-1.2715531E-2,-5.2886326E-3,-5.4151374E-3,2.9625E2,1.765E2,1.809E1,1.0762345E-2,3.3433915E-3,7.9150206E5,1.1852265E-3,-8.087158E-4,-3.3705817E-3,-9.9665325E-5,-7.0291995E-3,9.94433E-4,5.2233287E-3,3.8047791E-3,8.542347E-3],"split_indices":[0,0,0,0,0,0,0,0,0,0,11,10,0,0,3,0,6,0,26,0,0,0,0,0,16,14,24,0,0,11,0,0,0,0,0,0,0,0,0],"split_type":[0,0,0,0,0,0,0,0,0,0,0,0,0,0,0,0,0,0,0,0,0,0,0,0,0,0,0,0,0,0,0,0,0,0,0,0,0,0,0],"sum_hessian":[1.66E2,5.1E1,1.15E2,4E0,4.7E1,8.7E1,2.8E1,1.6E1,3.1E1,5.7E1,3E1,2.5E1,3E0,2.3E1,8E0,2.2E1,3.5E1,2.1E1,9E0,2.2E1,3E0,3E0,5E0,1.1E1,1.1E1,1.7E1,1.8E1,1.8E1,3E0,6E0,3E0,3E0,8E0,1.4E1,3E0,1.2E1,6E0,3E0,3E0],"tree_param":{"num_deleted":"0","num_feature":"37","num_nodes":"39","size_leaf_vector":"1"}},{"base_weights":[-1.14717735E-2,-2.3884398E-1,6.1448008E-2,-7.046789E-2,-1.8352336E-1,3.2062896E-2,2.9843658E-1,-2.6045648E-2,-1.4253369E-1,-1.9866943E-2,9.535995E-2,1.9437548E-2,5.099955E-2,-1.5117748E-1,-5.50375E-3,-4.52161E-2,3.8298438E-3,6.2849045E-2,1.0568373E-1,-8.451786E-3,-1.6028352E-1,-5.6446817E-2,-2.7546883E-2,1.487623E-2,-4.090282E-2,7.356644E-2,1.4984608E-3,1.103611E-1,3.83358E-3,-1.701121E-2,-7.844115E-3,-2.5630475E-3,-6.090139E-3,-1.3645173E-3,-3.009779E-3,6.296997E-3,4.236857E-4,-6.775236E-3,-3.827572E-4,4.8592705E-3,9.044139E-3,1.2276865E-2,7.991997E-3],"categories":[],"categories_nodes":[],"categories_segments":[],"categories_sizes":[],"default_left":[0,0,0,0,0,0,0,0,0,0,0,0,0,0,0,0,0,0,0,0,0,0,0,0,0,0,0,0,0,0,0,0,0,0,0,0,0,0,0,0,0,0,0],"id":41,"left_children":[1,3,5,-1,7,9,11,-1,13,15,17,-1,-1,19,-1,21,23,25,27,-1,29,31,33,35,37,39,-1,41,-1,-1,-1,-1,-1,-1,-1,-1,-1,-1,-1,-1,-1,-1,-1],"loss_changes":[2.8001049E0,9.2725635E-1,8.8181496E-1,0E0,8.270764E-2,3.799002E-1,2.090801E-1,0E0,1.2099683E-2,3.861756E-2,1.0810912E-2,0E0,0E0,1.021266E-3,0E0,4.5966506E-3,1.7409043E-2,6.5923594E-3,7.7396333E-3,0E0,2.7441382E-3,9.0999156E-4,8.57776E-5,1.4060447E-2,6.7088455E-3,6.6237897E-4,0E0,3.407836E-3,0E0,0E0,0E0,0E0,0E0,0E0,0E0,0E0,0E0,0E0,0E0,0E0,0E0,0E0,0E0],"parents":[2147483647,0,0,1,1,2,2,4,4,5,5,6,6,8,8,9,9,10,10,13,13,15,15,16,16,17,17,18,18,20,20,21,21,22,22,23,23,24,24,25,25,27,27],"right_children":[2,4,6,-1,8,10,12,-1,14,16,18,-1,-1,20,-1,22,24,26,28,-1,30,32,34,36,38,40,-1,42,-1,-1,-1,-1,-1,-1,-1,-1,-1,-1,-1,-1,-1,-1,-1],"split_conditions":[1.817E1,8.53E0,3.645E1,-7.046789E-2,1.0544586E4,3.021E1,3.863E1,-2.6045648E-2,1.758E1,2.504E1,3.217E1,1.9437548E-2,5.099955E-2,3.28E2,-5.50375E-3,2.402E1,5E-1,2.77E2,1.121312E3,-8.451786E-3,1.95E2,9.68E0,3.86E2,2.49E2,2.28784E3,8.79735E3,1.4984608E-3,1.064342E4,3.83358E-3,-1.701121E-2,-7.844115E-3,-2.5630475E-3,-6.090139E-3,-1.3645173E-3,-3.009779E-3,6.296997E-3,4.236857E-4,-6.775236E-3,-3.827572E-4,4.8592705E-3,9.044139E-3,1.2276865E-2,7.991997E-3],"split_indices":[0,0,0,0,23,0,0,0,0,0,0,0,0,4,0,0,19,26,34,0,26,24,2,2,3,27,0,3,0,0,0,0,0,0,0,0,0,0,0,0,0,0,0],"split_type":[0,0,0,0,0,0,0,0,0,0,0,0,0,0,0,0,0,0,0,0,0,0,0,0,0,0,0,0,0,0,0,0,0,0,0,0,0,0,0,0,0,0,0],"sum_hessian":[1.67E2,4E1,1.27E2,3E0,3.7E1,1.14E2,1.3E1,1.1E1,2.6E1,6.3E1,5.1E1,1E1,3E0,2.3E1,3E0,3E1,3.3E1,1.4E1,3.7E1,4E0,1.9E1,1.7E1,1.3E1,2.7E1,6E0,1.1E1,3E0,3.4E1,3E0,1.6E1,3E0,3E0,1.4E1,3E0,1E1,4E0,2.3E1,3E0,3E0,6E0,5E0,2.2E1,1.2E1],"tree_param":{"num_deleted":"0","num_feature":"37","num_nodes":"43","size_leaf_vector":"1"}},{"base_weights":[-1.1402531E-2,-1.9505116E-1,6.806766E-2,-5.6229856E-2,-1.429091E-1,2.4894886E-3,1.5125363E-1,-2.033322E-2,-1.0711301E-1,-2.0102045E-2,4.9613174E-2,1.2455321E-1,4.405203E-2,-1.13271035E-1,-3.7228584E-3,3.2057574E-3,-2.5832903E-2,6.999334E-4,6.173493E-2,1.0299567E-1,1.5907355E-1,-1.3651031E-2,-7.595568E-2,-3.3882387E-2,-2.8856595E-3,1.0525704E-3,7.19565E-2,1.1469432E-1,7.61751E-2,1.7593442E-2,8.342057E-3,-9.937134E-3,-5.450747E-3,-2.38292E-3,-5.261116E-3,-8.873531E-4,4.5811335E-4,4.396224E-3,9.367044E-3,6.5203863E-3,1.2250362E-2,2.0531656E-3,9.081497E-3],"categories":[],"categories_nodes":[],"categories_segments":[],"categories_sizes":[],"default_left":[0,0,0,0,0,0,0,0,0,0,0,0,0,0,0,0,0,0,0,0,0,0,0,0,0,0,0,0,0,0,0,0,0,0,0,0,0,0,0,0,0,0,0],"id":42,"left_children":[1,3,5,-1,7,9,11,-1,13,15,17,19,-1,21,-1,-1,23,-1,25,27,29,-1,31,33,35,-1,37,39,41,-1,-1,-1,-1,-1,-1,-1,-1,-1,-1,-1,-1,-1,-1],"loss_changes":[2.4651682E0,8.962436E-1,6.4333504E-1,0E0,7.771444E-2,7.2325274E-2,3.4675586E-1,0E0,9.123921E-3,1.4578432E-2,1.0932095E-2,2.0080626E-2,0E0,1.391238E-2,0E0,0E0,7.6601934E-3,0E0,8.141056E-3,1.6173422E-3,7.0082545E-3,0E0,1.1124313E-3,4.5831166E-3,5.7717314E-4,0E0,4.3921545E-3,1.2850761E-4,8.725382E-3,0E0,0E0,0E0,0E0,0E0,0E0,0E0,0E0,0E0,0E0,0E0,0E0,0E0,0E0],"parents":[2147483647,0,0,1,1,2,2,4,4,5,5,6,6,8,8,9,9,10,10,11,11,13,13,16,16,18,18,19,19,20,20,22,22,23,23,24,24,26,26,27,27,28,28],"right_children":[2,4,6,-1,8,10,12,-1,14,16,18,20,-1,22,-1,-1,24,-1,26,28,30,-1,32,34,36,-1,38,40,42,-1,-1,-1,-1,-1,-1,-1,-1,-1,-1,-1,-1,-1,-1],"split_conditions":[2.349E1,8.96E0,3.217E1,-5.6229856E-2,1.574E1,2.744E1,3.854E1,-2.033322E-2,3.9967334E3,1.98E2,1.514902E3,3.532E1,4.405203E-2,6.4E2,-3.7228584E-3,3.2057574E-3,2.564E1,6.999334E-4,2.841E1,5.390711E4,2.0242839E5,-1.3651031E-2,8.94563E2,7.38684E2,2.50755E3,1.0525704E-3,1.684467E3,1.585996E3,1.2925E2,1.7593442E-2,8.342057E-3,-9.937134E-3,-5.450747E-3,-2.38292E-3,-5.261116E-3,-8.873531E-4,4.5811335E-4,4.396224E-3,9.367044E-3,6.5203863E-3,1.2250362E-2,2.0531656E-3,9.081497E-3],"split_indices":[0,0,0,0,0,0,0,0,15,2,10,0,0,28,0,0,0,0,0,23,23,0,10,34,3,0,10,10,16,0,0,0,0,0,0,0,0,0,0,0,0,0,0],"split_type":[0,0,0,0,0,0,0,0,0,0,0,0,0,0,0,0,0,0,0,0,0,0,0,0,0,0,0,0,0,0,0,0,0,0,0,0,0,0,0,0,0,0,0],"sum_hessian":[1.67E2,5E1,1.17E2,5E0,4.5E1,6.6E1,5.1E1,1.5E1,3E1,4.5E1,2.1E1,4.8E1,3E0,2.7E1,3E0,4E0,4.1E1,5E0,1.6E1,3.2E1,1.6E1,1.5E1,1.2E1,3E1,1.1E1,3E0,1.3E1,2E1,1.2E1,1.2E1,4E0,4E0,8E0,2.1E1,9E0,6E0,5E0,7E0,6E0,4E0,1.6E1,3E0,9E0],"tree_param":{"num_deleted":"0","num_feature":"37","num_nodes":"43","size_leaf_vector":"1"}},{"base_weights":[-1.755241E-2,-1.7382503E-1,5.429331E-2,-6.2160194E-2,-1.3201794E-1,-2.9731216E-4,1.11979574E-1,-2.1705264E-2,-1.03169315E-1,-1.5363512E-2,3.9270043E-2,8.7318994E-2,1.7443983E-2,-1.2552696E-2,-7.7888966E-2,2.949257E-3,-2.0861324E-2,-1.1811734E-3,5.196674E-2,9.324053E-2,2.7220154E-3,-8.668742E-2,-2.1023273E-3,-3.3053573E-2,-3.8559858E-3,1.9530107E-3,6.421301E-2,4.394341E-3,9.639046E-3,-9.542438E-3,-3.4436227E-3,-2.2454534E-3,-4.5868345E-3,-1.1452993E-3,2.6384989E-5,9.349442E-3,3.3989907E-3],"categories":[],"categories_nodes":[],"categories_segments":[],"categories_sizes":[],"default_left":[0,0,0,0,0,0,0,0,0,0,0,0,0,0,0,0,0,0,0,0,0,0,0,0,0,0,0,0,0,0,0,0,0,0,0,0,0],"id":43,"left_children":[1,3,5,-1,7,9,11,-1,13,15,17,19,-1,-1,21,-1,23,-1,25,27,-1,29,-1,31,33,-1,35,-1,-1,-1,-1,-1,-1,-1,-1,-1,-1],"loss_changes":[1.7833854E0,8.5394955E-1,3.432884E-1,0E0,9.290415E-2,3.4582715E-2,6.640434E-2,0E0,1.1135578E-2,1.0972888E-2,1.0990936E-2,1.1697084E-2,0E0,0E0,8.184157E-3,0E0,7.7512115E-3,0E0,3.909871E-3,1.354456E-3,0E0,4.4747293E-3,0E0,1.9581802E-3,5.35095E-4,0E0,4.7869086E-3,0E0,0E0,0E0,0E0,0E0,0E0,0E0,0E0,0E0,0E0],"parents":[2147483647,0,0,1,1,2,2,4,4,5,5,6,6,8,8,9,9,10,10,11,11,14,14,16,16,18,18,19,19,21,21,23,23,24,24,26,26],"right_children":[2,4,6,-1,8,10,12,-1,14,16,18,20,-1,-1,22,-1,24,-1,26,28,-1,30,-1,32,34,-1,36,-1,-1,-1,-1,-1,-1,-1,-1,-1,-1],"split_conditions":[2.349E1,6.725E1,3.204E1,-6.2160194E-2,1.499E1,2.744E1,3.651E1,-2.1705264E-2,1.658E1,1.98E2,5.09019E3,1.0503333E2,1.7443983E-2,-1.2552696E-2,6.83434E5,2.949257E-3,2.541E1,-1.1811734E-3,2.01034E5,1.711E1,2.7220154E-3,3.9967334E3,-2.1023273E-3,2.22E2,2.585E1,1.9530107E-3,2.5274489E5,4.394341E-3,9.639046E-3,-9.542438E-3,-3.4436227E-3,-2.2454534E-3,-4.5868345E-3,-1.1452993E-3,2.6384989E-5,9.349442E-3,3.3989907E-3],"split_indices":[0,14,0,0,0,0,0,0,0,2,3,20,0,0,11,0,0,0,23,24,0,15,0,26,0,0,23,0,0,0,0,0,0,0,0,0,0],"split_type":[0,0,0,0,0,0,0,0,0,0,0,0,0,0,0,0,0,0,0,0,0,0,0,0,0,0,0,0,0,0,0,0,0,0,0,0,0],"sum_hessian":[1.57E2,4.9E1,1.08E2,3E0,4.6E1,5.6E1,5.2E1,1E1,3.6E1,4.1E1,1.5E1,3.9E1,1.3E1,1.7E1,1.9E1,4E0,3.7E1,3E0,1.2E1,3.5E1,4E0,1.6E1,3E0,2.1E1,1.6E1,4E0,8E0,3E0,3.2E1,1.3E1,3E0,1.3E1,8E0,5E0,1.1E1,3E0,5E0],"tree_param":{"num_deleted":"0","num_feature":"37","num_nodes":"37","size_leaf_vector":"1"}},{"base_weights":[-4.7917515E-3,-1.5851152E-1,5.7826843E-2,-6.069974E-2,-1.13105595E-1,4.3594237E-2,4.347668E-2,-1.4171642E-1,-7.6383956E-2,-1.0554905E-3,1.01288795E-1,-6.7282678E-3,-1.4951735E-2,-2.321148E-3,-8.395651E-2,-1.9978574E-2,2.6641918E-2,6.1820745E-2,1.17355466E-1,-9.239413E-2,-3.1326294E-3,1.4197541E-3,-2.4416868E-2,4.2777896E-2,7.494146E-4,6.8631396E-3,2.4230957E-3,6.5101623E-3,1.2231801E-1,-1.245018E-2,-6.940027E-3,-2.9746585E-3,-3.3769608E-4,5.8870314E-4,5.0838324E-3,2.5712966E-3,-1.1826039E-3,1.51661625E-2,9.889181E-3],"categories":[],"categories_nodes":[],"categories_segments":[],"categories_sizes":[],"default_left":[0,0,0,0,0,0,0,0,0,0,0,0,0,0,0,0,0,0,0,0,0,0,0,0,0,0,0,0,0,0,0,0,0,0,0,0,0,0,0],"id":44,"left_children":[1,3,5,-1,7,9,-1,11,13,15,17,-1,-1,-1,19,21,23,25,27,29,-1,-1,31,33,35,-1,-1,-1,37,-1,-1,-1,-1,-1,-1,-1,-1,-1,-1],"loss_changes":[1.5300294E0,8.680854E-1,5.8727324E-1,0E0,3.435254E-2,2.8347197E-1,0E0,3.2950938E-3,6.5069348E-3,3.3551853E-2,2.318275E-2,0E0,0E0,0E0,5.0989687E-3,6.1106374E-3,1.0830764E-2,2.433166E-3,5.941987E-4,2.4337173E-3,0E0,0E0,3.712196E-3,4.4584107E-3,3.75729E-3,0E0,0E0,0E0,4.9367845E-3,0E0,0E0,0E0,0E0,0E0,0E0,0E0,0E0,0E0,0E0],"parents":[2147483647,0,0,1,1,2,2,4,4,5,5,7,7,8,8,9,9,10,10,14,14,15,15,16,16,17,17,18,18,19,19,22,22,23,23,24,24,28,28],"right_children":[2,4,6,-1,8,10,-1,12,14,16,18,-1,-1,-1,20,22,24,26,28,30,-1,-1,32,34,36,-1,-1,-1,38,-1,-1,-1,-1,-1,-1,-1,-1,-1,-1],"split_conditions":[2.349E1,8.96E0,3.872E1,-6.069974E-2,1.639E1,3.204E1,4.347668E-2,2.82E2,3.0321675E3,2.616E1,3.363E1,-6.7282678E-3,-1.4951735E-2,-2.321148E-3,3.64E2,2.98E2,1.2933333E2,1.121312E3,1.585996E3,1.4554347E5,-3.1326294E-3,1.4197541E-3,2.564E1,2.636E1,1.11893E3,6.8631396E-3,2.4230957E-3,6.5101623E-3,9.3528E2,-1.245018E-2,-6.940027E-3,-2.9746585E-3,-3.3769608E-4,5.8870314E-4,5.0838324E-3,2.5712966E-3,-1.1826039E-3,1.51661625E-2,9.889181E-3],"split_indices":[0,0,0,0,0,0,0,4,15,0,0,0,0,0,2,2,14,34,10,11,0,0,0,0,3,0,0,0,34,0,0,0,0,0,0,0,0,0,0],"split_type":[0,0,0,0,0,0,0,0,0,0,0,0,0,0,0,0,0,0,0,0,0,0,0,0,0,0,0,0,0,0,0,0,0,0,0,0,0,0,0],"sum_hessian":[1.57E2,4.5E1,1.12E2,3E0,4.2E1,1.09E2,3E0,2.2E1,2E1,6.2E1,4.7E1,3E0,1.9E1,3E0,1.7E1,3.7E1,2.5E1,1.5E1,3.2E1,1.4E1,3E0,4E0,3.3E1,1.5E1,1E1,1.2E1,3E0,4E0,2.8E1,4E0,1E1,2.6E1,7E0,3E0,1.2E1,3E0,7E0,1E1,1.8E1],"tree_param":{"num_deleted":"0","num_feature":"37","num_nodes":"39","size_leaf_vector":"1"}},{"base_weights":[-5.4702726E-3,-1.379982E-1,5.6509785E-2,-5.4659452E-2,-1.0028791E-1,4.3952648E-2,3.688679E-2,-1.3901806E-1,-6.3659005E-2,-5.8572944E-3,7.916059E-2,-1.0502486E-2,-1.6930742E-2,-7.1296215E-2,-3.274427E-2,-2.0379638E-2,1.2588501E-2,6.5888196E-2,1.1237121E-2,-9.2508316E-2,-4.944579E-2,-1.6578675E-3,-4.0723803E-3,-5.064106E-3,-1.3951215E-2,2.5703113E-3,2.4547365E-2,7.0942454E-2,-4.917145E-4,-1.2540817E-2,-5.5157025E-3,-2.230358E-3,-8.298417E-3,-2.1145463E-3,4.4858115E-4,-3.5110052E-4,1.5610695E-3,4.2470167E-3,1.715088E-4,8.693218E-3,4.8207664E-3],"categories":[],"categories_nodes":[],"categories_segments":[],"categories_sizes":[],"default_left":[0,0,0,0,0,0,0,0,0,0,0,0,0,0,0,0,0,0,0,0,0,0,0,0,0,0,0,0,0,0,0,0,0,0,0,0,0,0,0,0,0],"id":45,"left_children":[1,3,5,-1,7,9,-1,11,13,15,17,-1,-1,19,21,23,25,27,-1,29,31,-1,-1,-1,33,35,37,39,-1,-1,-1,-1,-1,-1,-1,-1,-1,-1,-1,-1,-1],"loss_changes":[1.2891959E0,7.1559733E-1,4.034758E-1,0E0,5.782646E-2,1.8284906E-1,0E0,4.8704445E-3,3.8041174E-3,1.2043103E-2,1.9483894E-2,0E0,0E0,4.6957135E-3,2.2781035E-4,4.156826E-3,2.333029E-3,1.681079E-2,0E0,4.142523E-3,9.07282E-3,0E0,0E0,0E0,3.0129463E-3,1.0064415E-3,3.6101253E-3,1.1440679E-2,0E0,0E0,0E0,0E0,0E0,0E0,0E0,0E0,0E0,0E0,0E0,0E0,0E0],"parents":[2147483647,0,0,1,1,2,2,4,4,5,5,7,7,8,8,9,9,10,10,13,13,14,14,15,15,16,16,17,17,19,19,20,20,24,24,25,25,26,26,27,27],"right_children":[2,4,6,-1,8,10,-1,12,14,16,18,-1,-1,20,22,24,26,28,-1,30,32,-1,-1,-1,34,36,38,40,-1,-1,-1,-1,-1,-1,-1,-1,-1,-1,-1,-1,-1],"split_conditions":[2.377E1,2.5475E0,3.854E1,-5.4659452E-2,1.639E1,2.841E1,3.688679E-2,3.4519424E3,6.85083E2,2.571E1,3.532E1,-1.0502486E-2,-1.6930742E-2,1.18768E4,2.363E1,7.41E2,2.674E1,1.59E2,1.1237121E-2,1.4554347E5,1.139178E4,-1.6578675E-3,-4.0723803E-3,-5.064106E-3,2.501E1,7E2,4.09E2,3.400125E2,-4.917145E-4,-1.2540817E-2,-5.5157025E-3,-2.230358E-3,-8.298417E-3,-2.1145463E-3,4.4858115E-4,-3.5110052E-4,1.5610695E-3,4.2470167E-3,1.715088E-4,8.693218E-3,4.8207664E-3],"split_indices":[0,12,0,0,0,0,0,15,34,0,0,0,0,3,0,4,0,14,0,11,27,0,0,0,0,4,2,13,0,0,0,0,0,0,0,0,0,0,0,0,0],"split_type":[0,0,0,0,0,0,0,0,0,0,0,0,0,0,0,0,0,0,0,0,0,0,0,0,0,0,0,0,0,0,0,0,0,0,0,0,0,0,0,0,0],"sum_hessian":[1.55E2,4.9E1,1.06E2,3E0,4.6E1,1.03E2,3E0,2.1E1,2.5E1,4.3E1,6E1,1.2E1,9E0,1.9E1,6E0,2.4E1,1.9E1,4.5E1,1.5E1,8E0,1.1E1,3E0,3E0,3E0,2.1E1,1.1E1,8E0,4.2E1,3E0,3E0,5E0,7E0,4E0,1.5E1,6E0,8E0,3E0,4E0,4E0,2.3E1,1.9E1],"tree_param":{"num_deleted":"0","num_feature":"37","num_nodes":"41","size_leaf_vector":"1"}},{"base_weights":[-1.006503E-2,-1.3327658E-1,4.7378834E-2,-5.3934254E-2,-9.8815E-2,3.538027E-2,3.744936E-2,-1.3610287E-1,-7.435183E-2,8.8726636E-4,9.151104E-2,-1.4499718E-2,-6.6499948E-3,-8.36417E-2,-4.0285323E-2,-1.233875E-2,3.2965343E-2,1.10196985E-1,6.668781E-2,-3.2332994E-3,-9.187512E-3,-5.1088016E-3,-1.4009953E-3,-5.880499E-3,-8.209507E-3,4.4506583E-2,3.5247803E-3,7.3803426E-3,1.2150645E-2,5.4980335E-3,9.315567E-3,-2.3998807E-3,3.925664E-4,2.509761E-3,5.8352235E-3,1.679182E-3,-1.0623456E-3],"categories":[],"categories_nodes":[],"categories_segments":[],"categories_sizes":[],"default_left":[0,0,0,0,0,0,0,0,0,0,0,0,0,0,0,0,0,0,0,0,0,0,0,0,0,0,0,0,0,0,0,0,0,0,0,0,0],"id":46,"left_children":[1,3,5,-1,7,9,-1,11,13,15,17,-1,-1,19,21,23,25,27,29,-1,-1,-1,-1,-1,31,33,35,-1,-1,-1,-1,-1,-1,-1,-1,-1,-1],"loss_changes":[1.2024539E0,7.0236325E-1,4.420396E-1,0E0,3.640163E-2,2.1870023E-1,0E0,2.120018E-3,7.074088E-3,3.0529577E-2,1.2596577E-2,0E0,0E0,7.590562E-3,1.838861E-3,9.302633E-3,6.9785174E-3,4.990101E-4,1.385577E-3,0E0,0E0,0E0,0E0,0E0,9.291291E-3,2.5664475E-3,1.4923236E-3,0E0,0E0,0E0,0E0,0E0,0E0,0E0,0E0,0E0,0E0],"parents":[2147483647,0,0,1,1,2,2,4,4,5,5,7,7,8,8,9,9,10,10,13,13,14,14,15,15,16,16,17,17,18,18,24,24,25,25,26,26],"right_children":[2,4,6,-1,8,10,-1,12,14,16,18,-1,-1,20,22,24,26,28,30,-1,-1,-1,-1,-1,32,34,36,-1,-1,-1,-1,-1,-1,-1,-1,-1,-1],"split_conditions":[2.349E1,8.96E0,3.863E1,-5.3934254E-2,1.587E1,3.242E1,3.744936E-2,3.02E2,1.329E3,3.021E1,4.52E2,-1.4499718E-2,-6.6499948E-3,6.5129E2,1.766E1,2.5146E2,2.77E2,2.7E2,3.797E1,-3.2332994E-3,-9.187512E-3,-5.1088016E-3,-1.4009953E-3,-5.880499E-3,2.504E1,8.86776E3,5.3751E2,7.3803426E-3,1.2150645E-2,5.4980335E-3,9.315567E-3,-2.3998807E-3,3.925664E-4,2.509761E-3,5.8352235E-3,1.679182E-3,-1.0623456E-3],"split_indices":[0,0,0,0,0,0,0,2,4,0,2,0,0,25,0,1,26,2,0,0,0,0,0,0,0,27,1,0,0,0,0,0,0,0,0,0,0],"split_type":[0,0,0,0,0,0,0,0,0,0,0,0,0,0,0,0,0,0,0,0,0,0,0,0,0,0,0,0,0,0,0,0,0,0,0,0,0],"sum_hessian":[1.68E2,5.3E1,1.15E2,3E0,5E1,1.12E2,3E0,1.8E1,3.2E1,7E1,4.2E1,1.5E1,3E0,2.4E1,8E0,5E1,2E1,2.2E1,2E1,4E0,2E1,5E0,3E0,3E0,4.7E1,1.4E1,6E0,7E0,1.5E1,1.6E1,4E0,2E1,2.7E1,7E0,7E0,3E0,3E0],"tree_param":{"num_deleted":"0","num_feature":"37","num_nodes":"37","size_leaf_vector":"1"}},{"base_weights":[-3.4329689E-3,-1.362416E-1,4.6398878E-2,-4.7922622E-2,-1.0033256E-1,3.574562E-2,3.4640696E-2,-1.2886782E-2,-7.1157E-2,-1.0459941E-2,6.582894E-2,-7.9511546E-2,-2.5178338E-3,-2.0725999E-2,4.4355392E-3,4.8016816E-2,1.0331882E-2,-8.630651E-3,-4.3224334E-3,-1.0612488E-2,-2.6645772E-2,2.9726983E-3,-1.7763026E-3,7.14255E-3,3.490022E-2,9.83286E-4,-1.8520143E-3,-3.3973695E-3,-1.1323929E-3,1.5712262E-3,-6.6461565E-4,5.9719087E-4,4.5075533E-3],"categories":[],"categories_nodes":[],"categories_segments":[],"categories_sizes":[],"default_left":[0,0,0,0,0,0,0,0,0,0,0,0,0,0,0,0,0,0,0,0,0,0,0,0,0,0,0,0,0,0,0,0,0],"id":47,"left_children":[1,3,5,-1,7,9,-1,-1,11,13,15,17,-1,19,21,23,-1,-1,-1,25,27,-1,29,-1,31,-1,-1,-1,-1,-1,-1,-1,-1],"loss_changes":[1.0916898E0,5.061494E-1,3.7114504E-1,0E0,2.5796503E-2,1.6332054E-1,0E0,0E0,6.8330467E-3,7.2790706E-3,4.2450964E-2,9.5430017E-4,0E0,1.3935734E-3,3.194933E-3,1.2859352E-2,0E0,0E0,0E0,2.1222034E-3,1.5239995E-3,0E0,1.552261E-3,0E0,9.73887E-3,0E0,0E0,0E0,0E0,0E0,0E0,0E0,0E0],"parents":[2147483647,0,0,1,1,2,2,4,4,5,5,8,8,9,9,10,10,11,11,13,13,14,14,15,15,19,19,20,20,22,22,24,24],"right_children":[2,4,6,-1,8,10,-1,-1,12,14,16,18,-1,20,22,24,-1,-1,-1,26,28,-1,30,-1,32,-1,-1,-1,-1,-1,-1,-1,-1],"split_conditions":[1.817E1,2.08E2,3.872E1,-4.7922622E-2,7.62E0,2.674E1,3.4640696E-2,-1.2886782E-2,3.194E2,2.504E1,3.532E1,1.758E1,-2.5178338E-3,9.68E0,1.94E2,4.548804E4,1.0331882E-2,-8.630651E-3,-4.3224334E-3,9.07E2,2.382E1,2.9726983E-3,9.56E0,7.14255E-3,4.31E2,9.83286E-4,-1.8520143E-3,-3.3973695E-3,-1.1323929E-3,1.5712262E-3,-6.6461565E-4,5.9719087E-4,4.5075533E-3],"split_indices":[0,2,0,0,24,0,0,0,8,0,0,0,0,24,2,23,0,0,0,4,0,0,24,0,2,0,0,0,0,0,0,0,0],"split_type":[0,0,0,0,0,0,0,0,0,0,0,0,0,0,0,0,0,0,0,0,0,0,0,0,0,0,0,0,0,0,0,0,0],"sum_hessian":[1.63E2,4.4E1,1.19E2,3E0,4.1E1,1.16E2,3E0,1.9E1,2.2E1,4.6E1,7E1,1.8E1,4E0,2.7E1,1.9E1,4.9E1,2.1E1,1.4E1,4E0,1.1E1,1.6E1,3E0,1.6E1,1.6E1,3.3E1,3E0,8E0,1E1,6E0,3E0,1.3E1,9E0,2.4E1],"tree_param":{"num_deleted":"0","num_feature":"37","num_nodes":"33","size_leaf_vector":"1"}},{"base_weights":[-3.7062522E-3,-4.567331E-2,7.7139596E-3,-4.5514937E-2,6.947033E-2,-8.284551E-2,-1.5635822E-2,5.4353528E-2,3.20426E-2,-1.012527E-1,-5.9109237E-2,-8.456278E-3,-4.2790413E-2,3.1003492E-2,6.883719E-2,-1.2315655E-2,-7.6387085E-2,-6.762062E-2,-2.9397807E-3,-1.3331617E-2,2.694937E-3,-7.005978E-3,-2.1095004E-2,-1.3299942E-3,3.662696E-2,8.123779E-2,4.027354E-2,-8.701388E-3,-3.3380033E-3,-3.3324005E-3,-7.3944787E-3,-1.707395E-4,-1.5784389E-3,-1.9573211E-4,1.3651848E-3,-8.6193084E-4,-2.829695E-3,2.562491E-3,5.4561403E-3,9.873609E-3,6.0849427E-3,5.2445414E-3,-6.310463E-4],"categories":[],"categories_nodes":[],"categories_segments":[],"categories_sizes":[],"default_left":[0,0,0,0,0,0,0,0,0,0,0,0,0,0,0,0,0,0,0,0,0,0,0,0,0,0,0,0,0,0,0,0,0,0,0,0,0,0,0,0,0,0,0],"id":48,"left_children":[1,-1,3,5,7,9,11,13,-1,15,17,19,21,23,25,-1,27,29,-1,31,33,-1,35,-1,37,39,41,-1,-1,-1,-1,-1,-1,-1,-1,-1,-1,-1,-1,-1,-1,-1,-1],"loss_changes":[8.4165657E-1,0E0,5.2583045E-1,9.462941E-2,2.6331362E-1,1.0617942E-2,9.191071E-3,2.1877587E-2,0E0,1.4854819E-3,2.816923E-3,2.2105658E-3,4.4382904E-3,7.7121705E-3,1.19591355E-2,0E0,2.5798008E-3,5.724281E-4,0E0,7.713735E-4,6.8938796E-4,0E0,3.850446E-4,0E0,3.732074E-3,4.338056E-3,8.836171E-3,0E0,0E0,0E0,0E0,0E0,0E0,0E0,0E0,0E0,0E0,0E0,0E0,0E0,0E0,0E0,0E0],"parents":[2147483647,0,0,2,2,3,3,4,4,5,5,6,6,7,7,9,9,10,10,11,11,12,12,13,13,14,14,16,16,17,17,19,19,20,20,22,22,24,24,25,25,26,26],"right_children":[2,-1,4,6,8,10,12,14,-1,16,18,20,22,24,26,-1,28,30,-1,32,34,-1,36,-1,38,40,42,-1,-1,-1,-1,-1,-1,-1,-1,-1,-1,-1,-1,-1,-1,-1,-1],"split_conditions":[8.53E0,-4.567331E-2,2.674E1,1.817E1,3.872E1,3.02E2,3.7833334E2,3.25E1,3.20426E-2,7.59E0,2.9818765E2,2.571E1,2.349E1,1.054437E3,1.00023E3,-1.2315655E-2,3.3436768E3,3.09E2,-2.9397807E-3,3.23E2,