{"learner":{"attributes":{},"feature_names":["views.sum.view.throughput_fps","views.sum.view.avg_inference_time_ms","views.sum.view.inference_count","views.sum.view.avg_wait_to_preprocess_ms","views.sum.view.dropped_frames_due_to_full_queue","views.sum.view.exec_cpu","views.sum.view.exec_npu0","views.sum.view.exec_npu1","views.sum.view.static_infer_sel","views.sum.view.static_load_sel","views.sum.view.infps","views.sum.x.view_throughput__static_infer_sel","views.sum.x.view_wait__static_load_sel","views.mean.view.throughput_fps","views.mean.view.avg_inference_time_ms","views.mean.view.inference_count","views.mean.view.avg_wait_to_preprocess_ms","views.mean.view.dropped_frames_due_to_full_queue","views.mean.view.exec_cpu","views.mean.view.exec_npu0","views.mean.view.exec_npu1","views.mean.view.static_infer_sel","views.mean.view.static_load_sel","views.mean.view.infps","views.mean.x.view_throughput__static_infer_sel","views.mean.x.view_wait__static_load_sel","views.max.view.throughput_fps","views.max.view.avg_inference_time_ms","views.max.view.inference_count","views.max.view.avg_wait_to_preprocess_ms","views.max.view.dropped_frames_due_to_full_queue","views.max.view.exec_cpu","views.max.view.exec_npu0","views.max.view.exec_npu1","views.max.view.static_infer_sel","views.max.view.static_load_sel","views.max.view.infps","views.max.x.view_throughput__static_infer_sel","views.max.x.view_wait__static_load_sel","views.count.views"],"feature_types":[],"gradient_booster":{"model":{"gbtree_model_param":{"num_parallel_tree":"1","num_trees":"400"},"iteration_indptr":[0,1,2,3,4,5,6,7,8,9,10,11,12,13,14,15,16,17,18,19,20,21,22,23,24,25,26,27,28,29,30,31,32,33,34,35,36,37,38,39,40,41,42,43,44,45,46,47,48,49,50,51,52,53,54,55,56,57,58,59,60,61,62,63,64,65,66,67,68,69,70,71,72,73,74,75,76,77,78,79,80,81,82,83,84,85,86,87,88,89,90,91,92,93,94,95,96,97,98,99,100,101,102,103,104,105,106,107,108,109,110,111,112,113,114,115,116,117,118,119,120,121,122,123,124,125,126,127,128,129,130,131,132,133,134,135,136,137,138,139,140,141,142,143,144,145,146,147,148,149,150,151,152,153,154,155,156,157,158,159,160,161,162,163,164,165,166,167,168,169,170,171,172,173,174,175,176,177,178,179,180,181,182,183,184,185,186,187,188,189,190,191,192,193,194,195,196,197,198,199,200,201,202,203,204,205,206,207,208,209,210,211,212,213,214,215,216,217,218,219,220,221,222,223,224,225,226,227,228,229,230,231,232,233,234,235,236,237,238,239,240,241,242,243,244,245,246,247,248,249,250,251,252,253,254,255,256,257,258,259,260,261,262,263,264,265,266,267,268,269,270,271,272,273,274,275,276,277,278,279,280,281,282,283,284,285,286,287,288,289,290,291,292,293,294,295,296,297,298,299,300,301,302,303,304,305,306,307,308,309,310,311,312,313,314,315,316,317,318,319,320,321,322,323,324,325,326,327,328,329,330,331,332,333,334,335,336,337,338,339,340,341,342,343,344,345,346,347,348,349,350,351,352,353,354,355,356,357,358,359,360,361,362,363,364,365,366,367,368,369,370,371,372,373,374,375,376,377,378,379,380,381,382,383,384,385,386,387,388,389,390,391,392,393,394,395,396,397,398,399,400],"tree_info":[0,0,0,0,0,0,0,0,0,0,0,0,0,0,0,0,0,0,0,0,0,0,0,0,0,0,0,0,0,0,0,0,0,0,0,0,0,0,0,0,0,0,0,0,0,0,0,0,0,0,0,0,0,0,0,0,0,0,0,0,0,0,0,0,0,0,0,0,0,0,0,0,0,0,0,0,0,0,0,0,0,0,0,0,0,0,0,0,0,0,0,0,0,0,0,0,0,0,0,0,0,0,0,0,0,0,0,0,0,0,0,0,0,0,0,0,0,0,0,0,0,0,0,0,0,0,0,0,0,0,0,0,0,0,0,0,0,0,0,0,0,0,0,0,0,0,0,0,0,0,0,0,0,0,0,0,0,0,0,0,0,0,0,0,0,0,0,0,0,0,0,0,0,0,0,0,0,0,0,0,0,0,0,0,0,0,0,0,0,0,0,0,0,0,0,0,0,0,0,0,0,0,0,0,0,0,0,0,0,0,0,0,0,0,0,0,0,0,0,0,0,0,0,0,0,0,0,0,0,0,0,0,0,0,0,0,0,0,0,0,0,0,0,0,0,0,0,0,0,0,0,0,0,0,0,0,0,0,0,0,0,0,0,0,0,0,0,0,0,0,0,0,0,0,0,0,0,0,0,0,0,0,0,0,0,0,0,0,0,0,0,0,0,0,0,0,0,0,0,0,0,0,0,0,0,0,0,0,0,0,0,0,0,0,0,0,0,0,0,0,0,0,0,0,0,0,0,0,0,0,0,0,0,0,0,0,0,0,0,0,0,0,0,0,0,0,0,0,0,0,0,0,0,0,0,0,0,0,0,0,0,0,0,0,0,0,0,0,0,0,0,0,0,0,0,0,0,0,0,0,0,0,0,0,0,0,0,0,0,0,0,0,0,0,0,0,0,0,0,0],"trees":[{"base_weights":[-3.4497225E-1,-1.0208991E1,3.9576766E0,-1.4816519E0,-8.723825E0,-5.1418555E-1,7.932945E0,-9.102112E-1,-4.1797367E-1,-1.5503718E0,5.773711E-1,6.008501E-1,9.785401E-1,-1.8593122E-1,-7.774538E-2,1.3179164E-1,1.8952821E-1,-1.3584988E-1,4.6654645E-1,-2.5597572E-2,-2.877426E-3,2.7402464E-2,6.0426332E-2],"categories":[],"categories_nodes":[],"categories_segments":[],"categories_sizes":[],"default_left":[0,0,0,0,0,0,0,0,0,0,0,0,0,0,0,0,0,0,0,0,0,0,0],"id":0,"left_children":[1,3,5,-1,7,9,11,-1,-1,13,15,-1,-1,-1,-1,17,-1,19,21,-1,-1,-1,-1],"loss_changes":[7.128119E3,2.197334E2,2.0839705E3,0E0,3.243335E1,6.4234276E1,1.6223145E2,0E0,0E0,5.479248E0,1.6192774E1,0E0,0E0,0E0,0E0,2.0344546E0,0E0,1.5984762E-1,9.9551916E-2,0E0,0E0,0E0,0E0],"parents":[2147483647,0,0,1,1,2,2,4,4,5,5,6,6,9,9,10,10,15,15,17,17,18,18],"right_children":[2,4,6,-1,8,10,12,-1,-1,14,16,-1,-1,-1,-1,18,-1,20,22,-1,-1,-1,-1],"split_conditions":[2.349E1,1.494E1,3.021E1,-1.4816519E0,2.063E1,2.542E1,3.383E1,-9.102112E-1,-4.1797367E-1,2.472E1,2.744E1,6.008501E-1,9.785401E-1,-1.8593122E-1,-7.774538E-2,2.616E1,1.8952821E-1,2.584E1,2.648E1,-2.5597572E-2,-2.877426E-3,2.7402464E-2,6.0426332E-2],"split_indices":[0,0,0,0,0,0,0,0,0,0,0,0,0,0,0,0,0,0,0,0,0,0,0],"split_type":[0,0,0,0,0,0,0,0,0,0,0,0,0,0,0,0,0,0,0,0,0,0,0],"sum_hessian":[1.66E2,5E1,1.16E2,1E1,4E1,5.5E1,6.1E1,3.6E1,4E0,2.8E1,2.7E1,3.2E1,2.9E1,1.9E1,9E0,2.1E1,6E0,1.2E1,9E0,5E0,7E0,5E0,4E0],"tree_param":{"num_deleted":"0","num_feature":"40","num_nodes":"23","size_leaf_vector":"1"}},{"base_weights":[-3.9263916E-1,4.5895085E0,-6.9576073E0,-5.802762E-1,6.0539584E0,-9.680812E0,-1.4482316E0,4.587138E-1,-1.0264531E0,6.5103087E0,2.5115332E-3,-8.0361664E-1,-1.3237513E0,-2.1482925E0,-4.276424E-2,8.15578E-2,-1.2828828E-3,-1.17154054E-1,-5.019703E-2,3.8472366E-2,7.0060987E0,-1.220628E-1,-2.3557952E-1,-3.031435E-2,1.3794931E-2,7.705926E-1,3.5063121E0,1.6749763E-1,3.9306492E-1],"categories":[],"categories_nodes":[],"categories_segments":[],"categories_sizes":[],"default_left":[0,0,0,0,0,0,0,0,0,0,0,0,0,0,0,0,0,0,0,0,0,0,0,0,0,0,0,0,0],"id":1,"left_children":[1,3,5,7,9,11,13,15,17,19,-1,-1,-1,21,23,-1,-1,-1,-1,-1,25,-1,-1,-1,-1,-1,27,-1,-1],"loss_changes":[5.232447E3,6.924641E2,1.02119775E3,1.020589E1,1.9517627E2,1.6269873E2,2.3522038E1,1.1883997E0,5.5335903E-1,1.9774683E2,0E0,0E0,0E0,2.0433044E-1,4.6530497E-1,0E0,0E0,0E0,0E0,0E0,1.22384766E2,0E0,0E0,0E0,0E0,0E0,2.7415009E0,0E0,0E0],"parents":[2147483647,0,0,1,1,2,2,3,3,4,4,5,5,6,6,7,7,8,8,9,9,13,13,14,14,20,20,26,26],"right_children":[2,4,6,8,10,12,14,16,18,20,-1,-1,-1,22,24,-1,-1,-1,-1,-1,26,-1,-1,-1,-1,-1,28,-1,-1],"split_conditions":[6.666667E-1,1.579E1,4.5E2,9.635975E2,1.3425E2,1E0,4.664E2,4.09E2,3.94E2,1.905E1,2.5115332E-3,-8.0361664E-1,-1.3237513E0,1.1655E2,6.4625E0,8.15578E-2,-1.2828828E-3,-1.17154054E-1,-5.019703E-2,3.8472366E-2,4.647E2,-1.220628E-1,-2.3557952E-1,-3.031435E-2,1.3794931E-2,7.705926E-1,6.097E2,1.6749763E-1,3.9306492E-1],"split_indices":[18,26,8,16,21,18,8,2,2,22,0,0,0,21,13,0,0,0,0,0,35,0,0,0,0,0,1,0,0],"split_type":[0,0,0,0,0,0,0,0,0,0,0,0,0,0,0,0,0,0,0,0,0,0,0,0,0,0,0,0,0],"sum_hessian":[1.58E2,9E1,6.8E1,2E1,7E1,4.5E1,2.3E1,6E0,1.4E1,6.5E1,5E0,3.3E1,1.2E1,1.5E1,8E0,3E0,3E0,1E1,4E0,5E0,6E1,4E0,1.1E1,3E0,5E0,4.9E1,1.1E1,3E0,8E0],"tree_param":{"num_deleted":"0","num_feature":"40","num_nodes":"29","size_leaf_vector":"1"}},{"base_weights":[1.8640563E-1,-8.536641E0,3.5337682E0,-1.2167971E0,-7.067512E0,-3.7516564E-1,6.580005E0,-7.575806E-1,-4.0973067E-1,-1.227133E0,5.258871E-1,5.1672926E0,8.812232E-1,-1.5217857E-1,-6.0351025E-2,8.0137886E-2,1.4630869E-1,3.321808E-1,5.514023E-1,-1.03273235E-1,3.8310867E-2,-1.633775E-2,-1.5939394E-3],"categories":[],"categories_nodes":[],"categories_segments":[],"categories_sizes":[],"default_left":[0,0,0,0,0,0,0,0,0,0,0,0,0,0,0,0,0,0,0,0,0,0,0],"id":2,"left_children":[1,3,5,-1,7,9,11,-1,-1,13,15,17,-1,-1,-1,19,-1,-1,-1,21,-1,-1,-1],"loss_changes":[4.5268438E3,1.4340283E2,1.3361129E3,0E0,1.8780884E1,3.9028706E1,1.5313477E2,0E0,0E0,3.8591423E0,1.0326652E1,7.918579E0,0E0,0E0,0E0,1.0397927E0,0E0,0E0,0E0,6.038548E-2,0E0,0E0,0E0],"parents":[2147483647,0,0,1,1,2,2,4,4,5,5,6,6,9,9,10,10,11,11,15,15,19,19],"right_children":[2,4,6,-1,8,10,12,-1,-1,14,16,18,-1,-1,-1,20,-1,-1,-1,22,-1,-1,-1],"split_conditions":[2.349E1,1.243E1,2.896E1,-1.2167971E0,1.833E1,2.55E1,3.443E1,-7.575806E-1,-4.0973067E-1,2.472E1,2.692E1,3.143E1,8.812232E-1,-1.5217857E-1,-6.0351025E-2,2.616E1,1.4630869E-1,3.321808E-1,5.514023E-1,2.589E1,3.8310867E-2,-1.633775E-2,-1.5939394E-3],"split_indices":[0,0,0,0,0,0,0,0,0,0,0,0,0,0,0,0,0,0,0,0,0,0,0],"split_type":[0,0,0,0,0,0,0,0,0,0,0,0,0,0,0,0,0,0,0,0,0,0,0],"sum_hessian":[1.53E2,4.2E1,1.11E2,1E1,3.2E1,4.9E1,6.2E1,2.6E1,6E0,2.5E1,2.4E1,4E1,2.2E1,1.6E1,9E0,1.7E1,7E0,8E0,3.2E1,1.1E1,6E0,6E0,5E0],"tree_param":{"num_deleted":"0","num_feature":"40","num_nodes":"23","size_leaf_vector":"1"}},{"base_weights":[-9.9237956E-2,4.119391E0,-5.920737E0,-5.8342874E-1,5.257834E0,-8.241792E0,-1.5865334E0,5.8913853E-2,-8.250076E-1,1.4441109E-1,5.8319607E0,-1.1498375E0,-6.7542225E-1,-3.4732378E-1,-9.7192585E-1,-2.9530296E-2,-9.652781E-2,2.9818092E-2,-1.223464E-2,3.4314237E0,6.5824933E0,-1.447095E-1,-1.8889189E-2,3.7561604E-1,1.2746215E-1,5.904543E0,8.907227E-1,-1.6869163E-2,1.047306E-2,7.4606E-1,5.1597786E-1],"categories":[],"categories_nodes":[],"categories_segments":[],"categories_sizes":[],"default_left":[0,0,0,0,0,0,0,0,0,0,0,0,0,0,0,0,0,0,0,0,0,0,0,0,0,0,0,0,0,0,0],"id":3,"left_children":[1,3,5,7,9,11,13,-1,15,17,19,-1,-1,-1,21,-1,-1,-1,-1,23,25,-1,27,-1,-1,29,-1,-1,-1,-1,-1],"loss_changes":[4.150259E3,5.27749E2,7.011787E2,6.1513934E0,2.3108228E2,1.4517944E2,2.6773422E1,0E0,9.780817E-1,4.0565467E-1,1.0533203E2,0E0,0E0,0E0,9.48259E0,0E0,0E0,0E0,0E0,8.519775E0,3.0937744E1,0E0,1.6581556E-1,0E0,0E0,1.2496338E1,0E0,0E0,0E0,0E0,0E0],"parents":[2147483647,0,0,1,1,2,2,3,3,4,4,5,5,6,6,8,8,9,9,10,10,14,14,19,19,20,20,22,22,25,25],"right_children":[2,4,6,8,10,12,14,-1,16,18,20,-1,-1,-1,22,-1,-1,-1,-1,24,26,-1,28,-1,-1,30,-1,-1,-1,-1,-1],"split_conditions":[6.666667E-1,1.579E1,4.5E2,2.1870628E5,9.79E1,7.8697E2,4.623E2,5.8913853E-2,4.6125E1,2.8726E2,7.70355E2,-1.1498375E0,-6.7542225E-1,-3.4732378E-1,4.664E2,-2.9530296E-2,-9.652781E-2,2.9818092E-2,-1.223464E-2,1.036E2,4.236E2,-1.447095E-1,6.4625E0,3.7561604E-1,1.2746215E-1,1.2048E2,8.907227E-1,-1.6869163E-2,1.047306E-2,7.4606E-1,5.1597786E-1],"split_indices":[18,26,8,25,9,11,8,0,21,1,37,0,0,0,8,0,0,0,0,21,8,0,13,0,0,1,0,0,0,0,0],"split_type":[0,0,0,0,0,0,0,0,0,0,0,0,0,0,0,0,0,0,0,0,0,0,0,0,0,0,0,0,0,0,0],"sum_hessian":[1.67E2,9.7E1,7E1,1.9E1,7.8E1,4.5E1,2.5E1,3E0,1.6E1,8E0,7E1,1.2E1,3.3E1,5E0,2E1,4E0,1.2E1,5E0,3E0,1.8E1,5.2E1,1.3E1,7E0,1.5E1,3E0,4.3E1,9E0,3E0,4E0,1.1E1,3.2E1],"tree_param":{"num_deleted":"0","num_feature":"40","num_nodes":"31","size_leaf_vector":"1"}},{"base_weights":[-5.432885E-2,-6.99585E0,3.0377295E0,-1.0067974E0,-5.9515324E0,-2.5083935E-1,5.507845E0,-6.646394E-1,-4.257689E-1,-9.329289E-1,5.231345E-1,4.2872977E0,7.435695E-1,-1.24260426E-1,-4.8002625E-1,1.0797914E-1,1.3918424E-1,3.4054723E-1,4.9443784E-1,-5.68054E-2,-2.8265158E-2,-2.0159207E-2,3.676157E-2,-6.2254905E-3,9.011984E-3],"categories":[],"categories_nodes":[],"categories_segments":[],"categories_sizes":[],"default_left":[0,0,0,0,0,0,0,0,0,0,0,0,0,0,0,0,0,0,0,0,0,0,0,0,0],"id":4,"left_children":[1,3,5,-1,7,9,11,-1,-1,13,15,17,-1,-1,19,21,-1,-1,-1,-1,-1,23,-1,-1,-1],"loss_changes":[3.6915251E3,1.1011865E2,9.68036E2,0E0,2.1135132E1,2.7939861E1,1.281272E2,0E0,0E0,3.330595E0,8.865929E0,8.656982E0,0E0,0E0,6.5306425E-2,6.0626006E-1,0E0,0E0,0E0,0E0,0E0,6.595996E-2,0E0,0E0,0E0],"parents":[2147483647,0,0,1,1,2,2,4,4,5,5,6,6,9,9,10,10,11,11,14,14,15,15,21,21],"right_children":[2,4,6,-1,8,10,12,-1,-1,14,16,18,-1,-1,20,22,-1,-1,-1,-1,-1,24,-1,-1,-1],"split_conditions":[2.349E1,1.494E1,3.036E1,-1.0067974E0,1.745E1,2.571E1,3.517E1,-6.646394E-1,-4.257689E-1,2.474E1,2.692E1,3.268E1,7.435695E-1,-1.24260426E-1,2.541E1,2.636E1,1.3918424E-1,3.4054723E-1,4.9443784E-1,-5.68054E-2,-2.8265158E-2,2.616E1,3.676157E-2,-6.2254905E-3,9.011984E-3],"split_indices":[0,0,0,0,0,0,0,0,0,0,0,0,0,0,0,0,0,0,0,0,0,0,0,0,0],"split_type":[0,0,0,0,0,0,0,0,0,0,0,0,0,0,0,0,0,0,0,0,0,0,0,0,0],"sum_hessian":[1.7E2,5.2E1,1.18E2,1.1E1,4.1E1,5.1E1,6.7E1,2.7E1,1.4E1,2.7E1,2.4E1,4.3E1,2.4E1,1.5E1,1.2E1,1.7E1,7E0,2.1E1,2.2E1,7E0,5E0,1.2E1,5E0,9E0,3E0],"tree_param":{"num_deleted":"0","num_feature":"40","num_nodes":"25","size_leaf_vector":"1"}},{"base_weights":[-1.349646E-1,3.2444537E0,-4.9476295E0,-3.895044E-1,4.2241683E0,-6.854295E0,-1.2373388E0,4.0740203E-2,-6.3350075E-1,1.392531E-1,4.789583E0,-9.521061E-1,-5.476183E-1,-7.236597E-1,-2.8289926E-1,-7.410394E-1,-2.056923E-2,-6.416607E-3,3.1946342E-2,6.3276873E0,3.8887045E0,-3.6128396E-1,-1.1666846E-1,-8.29628E-2,-4.1565437E-2,7.203733E-1,4.2932463E-1,4.2555366E0,1.8262626E-1,1.2091743E-2,-9.6110344E-2,2.611419E-1,4.4688684E-1,-9.083748E-3,1.1260262E-2],"categories":[],"categories_nodes":[],"categories_segments":[],"categories_sizes":[],"default_left":[0,0,0,0,0,0,0,0,0,0,0,0,0,0,0,0,0,0,0,0,0,0,0,0,0,0,0,0,0,0,0,0,0,0,0],"id":5,"left_children":[1,3,5,7,9,11,13,-1,15,17,19,-1,-1,21,-1,23,-1,-1,-1,25,27,29,-1,-1,-1,-1,-1,31,-1,33,-1,-1,-1,-1,-1],"loss_changes":[2.8785178E3,3.719104E2,5.0794165E2,4.730262E0,1.887262E2,1.2426587E2,1.921035E1,0E0,6.7568016E-1,4.2373925E-1,7.5160034E1,0E0,0E0,2.9498663E0,0E0,5.8717728E-2,0E0,0E0,0E0,1.362915E1,2.854358E1,2.9230757E0,0E0,0E0,0E0,0E0,0E0,2.3596191E0,0E0,1.0333809E-1,0E0,0E0,0E0,0E0,0E0],"parents":[2147483647,0,0,1,1,2,2,3,3,4,4,5,5,6,6,8,8,9,9,10,10,13,13,15,15,19,19,20,20,21,21,27,27,29,29],"right_children":[2,4,6,8,10,12,14,-1,16,18,20,-1,-1,22,-1,24,-1,-1,-1,26,28,30,-1,-1,-1,-1,-1,32,-1,34,-1,-1,-1,-1,-1],"split_conditions":[6.666667E-1,1.579E1,1.398E1,9.2111E2,9.79E1,7.8697E2,3.3333334E-1,4.0740203E-2,1.1223992E6,1.318E1,1.814E2,-9.521061E-1,-5.476183E-1,1.262E3,-2.8289926E-1,8.2825E0,-2.056923E-2,-6.416607E-3,3.1946342E-2,9.189679E4,2.2594288E5,1E0,-1.1666846E-1,-8.29628E-2,-4.1565437E-2,7.203733E-1,4.2932463E-1,7.8933334E0,1.8262626E-1,6.5075E0,-9.6110344E-2,2.611419E-1,4.4688684E-1,-9.083748E-3,1.1260262E-2],"split_indices":[18,26,26,16,9,11,19,0,12,13,9,0,0,4,0,13,0,0,0,12,25,6,0,0,0,0,0,13,0,13,0,0,0,0,0],"split_type":[0,0,0,0,0,0,0,0,0,0,0,0,0,0,0,0,0,0,0,0,0,0,0,0,0,0,0,0,0,0,0,0,0,0,0],"sum_hessian":[1.75E2,1.03E2,7.2E1,2.2E1,8.1E1,4.7E1,2.5E1,5E0,1.7E1,1E1,7.1E1,1.4E1,3.3E1,2E1,5E0,1.3E1,4E0,5E0,5E0,2.4E1,4.7E1,1.2E1,8E0,9E0,4E0,1.5E1,9E0,3.9E1,8E0,8E0,4E0,6E0,3.3E1,4E0,4E0],"tree_param":{"num_deleted":"0","num_feature":"40","num_nodes":"35","size_leaf_vector":"1"}},{"base_weights":[7.749501E-2,-3.3380322E0,4.1661196E0,-6.152839E0,-9.068338E-1,2.4747307E0,5.4066105E0,-8.954754E-1,-4.9974045E-1,-2.6658806E-1,-6.0637563E-1,8.604671E-1,2.9383323E-1,4.204788E-1,6.268857E-1,-9.808986E-1,-1.079032E-1,3.981805E-2,1.025247E-1,-1.13843076E-1,-6.3075736E-2,-2.4924573E-1,5.8363914E-2,-2.9369546E-2,-1.3716698E-2,-2.5337539E-3,1.4713287E-2],"categories":[],"categories_nodes":[],"categories_segments":[],"categories_sizes":[],"default_left":[0,0,0,0,0,0,0,0,0,0,0,0,0,0,0,0,0,0,0,0,0,0,0,0,0,0,0],"id":6,"left_children":[1,3,5,7,9,11,13,-1,-1,-1,15,17,-1,-1,-1,19,21,-1,-1,-1,-1,23,25,-1,-1,-1,-1],"loss_changes":[2.332065E3,6.1716565E2,1.4607983E2,9.1221436E1,2.4809475E1,2.2916428E1,1.8200195E1,0E0,0E0,0E0,8.10849E0,2.7734566E-1,0E0,0E0,0E0,6.608887E-1,4.8455924E-1,0E0,0E0,0E0,0E0,1.4515281E-2,7.802889E-2,0E0,0E0,0E0,0E0],"parents":[2147483647,0,0,1,1,2,2,3,3,4,4,5,5,6,6,10,10,11,11,15,15,16,16,21,21,22,22],"right_children":[2,4,6,8,10,12,14,-1,-1,-1,16,18,-1,-1,-1,20,22,-1,-1,-1,-1,24,26,-1,-1,-1,-1],"split_conditions":[2.648E1,1.889E1,3.328E1,1.154E1,2.349E1,3.021E1,3.567E1,-8.954754E-1,-4.9974045E-1,-2.6658806E-1,2.505E1,2.744E1,2.9383323E-1,4.204788E-1,6.268857E-1,2.446E1,2.585E1,3.981805E-2,1.025247E-1,-1.13843076E-1,-6.3075736E-2,2.564E1,2.616E1,-2.9369546E-2,-1.3716698E-2,-2.5337539E-3,1.4713287E-2],"split_indices":[0,0,0,0,0,0,0,0,0,0,0,0,0,0,0,0,0,0,0,0,0,0,0,0,0,0,0],"split_type":[0,0,0,0,0,0,0,0,0,0,0,0,0,0,0,0,0,0,0,0,0,0,0,0,0,0,0],"sum_hessian":[1.65E2,9E1,7.5E1,4.1E1,4.9E1,3.3E1,4.2E1,1E1,3.1E1,6E0,4.3E1,8E0,2.5E1,2E1,2.2E1,2.4E1,1.9E1,3E0,5E0,1.5E1,9E0,1E1,9E0,6E0,4E0,5E0,4E0],"tree_param":{"num_deleted":"0","num_feature":"40","num_nodes":"27","size_leaf_vector":"1"}},{"base_weights":[-1.529045E-1,-5.2976146E0,2.040519E0,-7.8399795E-1,-4.2611723E0,-2.8676165E-2,4.0745325E0,-4.904128E-1,-3.2162753E-1,-4.3032312E-1,1.1514E0,3.295546E0,5.5000556E-1,-8.903072E-1,-1.0772917E-1,4.5223236E-2,1.288506E-1,2.4628635E-1,3.6966413E-1,-9.9884E-2,-5.0676823E-2,-2.7788368E-1,4.6920013E-2,-3.0793572E-2,-1.3328266E-2,-4.0674633E-3,1.52838845E-2],"categories":[],"categories_nodes":[],"categories_segments":[],"categories_sizes":[],"default_left":[0,0,0,0,0,0,0,0,0,0,0,0,0,0,0,0,0,0,0,0,0,0,0,0,0,0,0],"id":7,"left_children":[1,3,5,-1,7,9,11,-1,-1,13,15,17,-1,19,21,-1,-1,-1,-1,-1,-1,23,25,-1,-1,-1,-1],"loss_changes":[1.8501879E3,9.570813E1,4.8412555E2,0E0,9.084412E0,2.7985966E1,4.6281128E1,0E0,0E0,6.4331636E0,8.551941E-1,4.2550964E0,0E0,2.4309826E-1,7.235232E-1,0E0,0E0,0E0,0E0,0E0,0E0,1.5449643E-2,1.453855E-1,0E0,0E0,0E0,0E0],"parents":[2147483647,0,0,1,1,2,2,4,4,5,5,6,6,9,9,10,10,11,11,13,13,14,14,21,21,22,22],"right_children":[2,4,6,-1,8,10,12,-1,-1,14,16,18,-1,20,22,-1,-1,-1,-1,-1,-1,24,26,-1,-1,-1,-1],"split_conditions":[2.085E1,1.494E1,3.066E1,-7.8399795E-1,1.73E1,2.674E1,3.517E1,-4.904128E-1,-3.2162753E-1,2.501E1,2.798E1,3.274E1,5.5000556E-1,2.446E1,2.579E1,4.5223236E-2,1.288506E-1,2.4628635E-1,3.6966413E-1,-9.9884E-2,-5.0676823E-2,2.564E1,2.616E1,-3.0793572E-2,-1.3328266E-2,-4.0674633E-3,1.52838845E-2],"split_indices":[0,0,0,0,0,0,0,0,0,0,0,0,0,0,0,0,0,0,0,0,0,0,0,0,0,0,0],"split_type":[0,0,0,0,0,0,0,0,0,0,0,0,0,0,0,0,0,0,0,0,0,0,0,0,0,0,0],"sum_hessian":[1.62E2,4.8E1,1.14E2,1.2E1,3.6E1,5.7E1,5.7E1,2E1,1.6E1,4.3E1,1.4E1,3.9E1,1.8E1,1.7E1,2.6E1,3E0,1.1E1,1.5E1,2.4E1,1.2E1,5E0,1.2E1,1.4E1,9E0,3E0,8E0,6E0],"tree_param":{"num_deleted":"0","num_feature":"40","num_nodes":"27","size_leaf_vector":"1"}},{"base_weights":[-3.1647173E-1,2.352083E0,-3.5500984E0,-3.705451E-1,3.0757008E0,-4.8307533E0,-9.507583E-1,7.6020877E-3,-5.244685E-1,6.808344E-2,3.450589E0,-3.8084538E0,-6.5911907E-1,-2.1400206E-1,-5.656948E-1,-6.1515745E-2,-3.3294436E-2,-8.141403E-3,2.0396424E-2,4.74282E0,2.6607819E0,-2.7577895E-1,-4.1313228E-1,-8.326708E-1,-1.1720785E-1,5.4115E-1,3.3323866E-1,2.044002E0,3.2998314E-1,-3.9886475E-2,-9.2292614E-2,1.7432785E-3,-2.2840692E-2,2.278333E-1,6.978779E-2],"categories":[],"categories_nodes":[],"categories_segments":[],"categories_sizes":[],"default_left":[0,0,0,0,0,0,0,0,0,0,0,0,0,0,0,0,0,0,0,0,0,0,0,0,0,0,0,0,0,0,0,0,0,0,0],"id":8,"left_children":[1,3,5,7,9,11,13,-1,15,17,19,21,-1,-1,23,-1,-1,-1,-1,25,27,-1,-1,29,31,-1,-1,33,-1,-1,-1,-1,-1,-1,-1],"loss_changes":[1.4321531E3,1.8042264E2,2.4507153E2,1.4146097E0,8.0946594E1,6.4882324E1,1.0695883E1,0E0,5.5723667E-2,1.9943008E-1,5.2699585E1,1.404419E-1,0E0,0E0,2.4168448E0,0E0,0E0,0E0,0E0,3.6587524E0,9.80954E0,0E0,0E0,1.4087105E-1,1.3872898E-1,0E0,0E0,5.980522E0,0E0,0E0,0E0,0E0,0E0,0E0,0E0],"parents":[2147483647,0,0,1,1,2,2,3,3,4,4,5,5,6,6,8,8,9,9,10,10,11,11,14,14,19,19,20,20,23,23,24,24,27,27],"right_children":[2,4,6,8,10,12,14,-1,16,18,20,22,-1,-1,24,-1,-1,-1,-1,26,28,-1,-1,30,32,-1,-1,34,-1,-1,-1,-1,-1,-1,-1],"split_conditions":[6.666667E-1,1.579E1,4.5E2,4.6125E1,9.79E1,1.0803333E2,4.623E2,7.6020877E-3,9.11E0,2.19E1,1.814E2,7.8075E1,-6.5911907E-1,-2.1400206E-1,4.664E2,-6.1515745E-2,-3.3294436E-2,-8.141403E-3,2.0396424E-2,9.097608E4,1.892E1,-2.7577895E-1,-4.1313228E-1,7.625E1,5.27E2,5.4115E-1,3.3323866E-1,1.549E2,3.2998314E-1,-3.9886475E-2,-9.2292614E-2,1.7432785E-3,-2.2840692E-2,2.278333E-1,6.978779E-2],"split_indices":[18,26,8,21,9,21,8,0,26,26,9,21,0,0,8,0,0,0,0,12,26,0,0,15,4,0,0,22,0,0,0,0,0,0,0],"split_type":[0,0,0,0,0,0,0,0,0,0,0,0,0,0,0,0,0,0,0,0,0,0,0,0,0,0,0,0,0,0,0,0,0,0,0],"sum_hessian":[1.64E2,9E1,7.4E1,1.9E1,7.1E1,4.9E1,2.5E1,5E0,1.4E1,8E0,6.3E1,3.3E1,1.6E1,5E0,2E1,8E0,6E0,4E0,4E0,2.2E1,4.1E1,1E1,2.3E1,1.2E1,8E0,1.3E1,9E0,2.3E1,1.8E1,3E0,9E0,4E0,4E0,1.9E1,4E0],"tree_param":{"num_deleted":"0","num_feature":"40","num_nodes":"35","size_leaf_vector":"1"}},{"base_weights":[-1.22511744E-1,2.3717775E0,-3.2228138E0,-1.8926309E-1,2.9577017E0,-4.525679E0,-8.653626E-1,3.827965E-2,-3.6733207E-1,2.5368228E0,5.3288776E-1,-3.8128104E0,-6.9958735E-1,-1.9616853E-1,-5.5522513E-1,-4.652687E-2,-1.42882345E-2,3.0195005E0,8.8277954E-1,-2.9109558E-1,-4.3303344E-1,-7.9771304E-1,-6.2443838E-2,2.3513608E0,3.6737627E-1,6.48098E-2,1.4488773E0,-3.689499E-2,-8.682776E-2,-2.2496318E-2,5.63097E-3,1.3361005E-1,2.5072023E-1,-8.472872E-3,1.7147867E-2,1.9423993E-1,7.9612955E-2],"categories":[],"categories_nodes":[],"categories_segments":[],"categories_sizes":[],"default_left":[0,0,0,0,0,0,0,0,0,0,0,0,0,0,0,0,0,0,0,0,0,0,0,0,0,0,0,0,0,0,0,0,0,0,0,0,0],"id":9,"left_children":[1,3,5,7,9,11,13,-1,15,17,-1,19,-1,-1,21,-1,-1,23,25,-1,-1,27,29,31,-1,33,35,-1,-1,-1,-1,-1,-1,-1,-1,-1,-1],"loss_changes":[1.3531946E3,1.461156E2,2.3565607E2,2.0760686E0,6.532184E1,6.1372314E1,8.771135E0,0E0,2.6324916E-1,5.2421936E1,0E0,6.5305786E0,0E0,0E0,2.8180318E0,0E0,0E0,1.4529999E1,7.7779636E0,0E0,0E0,1.6373634E-1,1.8636535E-1,1.2384949E0,0E0,1.4213799E-1,1.6750507E0,0E0,0E0,0E0,0E0,0E0,0E0,0E0,0E0,0E0,0E0],"parents":[2147483647,0,0,1,1,2,2,3,3,4,4,5,5,6,6,8,8,9,9,11,11,14,14,17,17,18,18,21,21,22,22,23,23,25,25,26,26],"right_children":[2,4,6,8,10,12,14,-1,16,18,-1,20,-1,-1,22,-1,-1,24,26,-1,-1,28,30,32,-1,34,36,-1,-1,-1,-1,-1,-1,-1,-1,-1,-1],"split_conditions":[6.666667E-1,1.579E1,4.5E2,9.15265E2,4.236E2,1.492974E4,4.623E2,3.827965E-2,2.09575E3,1.0503333E2,5.3288776E-1,2.149E2,-6.9958735E-1,-1.9616853E-1,4.664E2,-4.652687E-2,-1.42882345E-2,1.93E1,3.0641E2,-2.9109558E-1,-4.3303344E-1,7.625E1,6.4475E0,7.7925E0,3.6737627E-1,1.309E1,5.4385E2,-3.689499E-2,-8.682776E-2,-2.2496318E-2,5.63097E-3,1.3361005E-1,2.5072023E-1,-8.472872E-3,1.7147867E-2,1.9423993E-1,7.9612955E-2],"split_indices":[18,26,8,16,8,3,8,0,29,21,0,34,0,0,8,0,0,26,1,0,0,15,13,13,0,13,1,0,0,0,0,0,0,0,0,0,0],"split_type":[0,0,0,0,0,0,0,0,0,0,0,0,0,0,0,0,0,0,0,0,0,0,0,0,0,0,0,0,0,0,0,0,0,0,0,0,0],"sum_hessian":[1.73E2,9.6E1,7.7E1,1.8E1,7.8E1,4.9E1,2.8E1,4E0,1.4E1,6.8E1,1E1,4E1,9E0,5E0,2.3E1,9E0,5E0,5.2E1,1.6E1,1.7E1,2.3E1,1.5E1,8E0,2.8E1,2.4E1,7E0,9E0,3E0,1.2E1,3E0,5E0,5E0,2.3E1,3E0,4E0,4E0,5E0],"tree_param":{"num_deleted":"0","num_feature":"40","num_nodes":"37","size_leaf_vector":"1"}},{"base_weights":[-1.6158752E-1,-3.9434648E0,1.4866621E0,-6.163496E-1,-3.1624203E0,-1.10657506E-1,3.0350296E0,-3.689098E-1,-2.2552335E-1,-4.3345654E-1,7.024877E-1,2.4095273E0,4.1712952E-1,-7.4065554E-1,-1.5807113E-1,2.463526E-2,9.100259E-1,1.975182E-1,2.8102657E-1,-7.9205684E-2,-4.177601E-2,-2.7574894E-1,-7.607778E-3,4.522219E-2,1.01238035E-1,-1.6465379E-2,-3.191736E-2,-3.5496608E-3,5.704403E-3],"categories":[],"categories_nodes":[],"categories_segments":[],"categories_sizes":[],"default_left":[0,0,0,0,0,0,0,0,0,0,0,0,0,0,0,0,0,0,0,0,0,0,0,0,0,0,0,0,0],"id":10,"left_children":[1,3,5,-1,7,9,11,-1,-1,13,15,17,-1,19,21,-1,23,-1,-1,-1,-1,25,27,-1,-1,-1,-1,-1,-1],"loss_changes":[1.1091881E3,7.414142E1,3.0701736E2,0E0,1.1747589E1,1.6578413E1,3.4725586E1,0E0,0E0,3.6898394E0,1.4797916E0,1.9337311E0,0E0,1.7651558E-2,4.4055706E-1,0E0,1.04478836E-1,0E0,0E0,0E0,0E0,1.4986634E-2,2.3661627E-2,0E0,0E0,0E0,0E0,0E0,0E0],"parents":[2147483647,0,0,1,1,2,2,4,4,5,5,6,6,9,9,10,10,11,11,13,13,14,14,16,16,21,21,22,22],"right_children":[2,4,6,-1,8,10,12,-1,-1,14,16,18,-1,20,22,-1,24,-1,-1,-1,-1,26,28,-1,-1,-1,-1,-1,-1],"split_conditions":[2.349E1,1.188E1,3.066E1,-6.163496E-1,1.749E1,2.636E1,3.532E1,-3.689098E-1,-2.2552335E-1,2.472E1,3.63E2,3.313E1,4.1712952E-1,2.446E1,2.571E1,2.463526E-2,2.808E1,1.975182E-1,2.8102657E-1,-7.9205684E-2,-4.177601E-2,1.014E2,2.616E1,4.522219E-2,1.01238035E-1,-1.6465379E-2,-3.191736E-2,-3.5496608E-3,5.704403E-3],"split_indices":[0,0,0,0,0,0,0,0,0,0,2,0,0,0,0,0,0,0,0,0,0,35,0,0,0,0,0,0,0],"split_type":[0,0,0,0,0,0,0,0,0,0,0,0,0,0,0,0,0,0,0,0,0,0,0,0,0,0,0,0,0],"sum_hessian":[1.76E2,5.3E1,1.23E2,1.2E1,4.1E1,6.1E1,6.2E1,2.4E1,1.7E1,4.4E1,1.7E1,4.2E1,2E1,2E1,2.4E1,6E0,1.1E1,2.3E1,1.9E1,1.6E1,4E0,1.3E1,1.1E1,3E0,8E0,5E0,8E0,8E0,3E0],"tree_param":{"num_deleted":"0","num_feature":"40","num_nodes":"29","size_leaf_vector":"1"}},{"base_weights":[-1.2043866E-1,-3.5504723E0,1.5155628E0,-5.3478307E-1,-2.7948544E0,-4.6071358E-2,2.8356688E0,-3.3071777E-1,-2.041874E-1,-3.1198317E-1,8.2198125E-1,2.245217E0,4.0230495E-1,-5.097594E-1,4.180193E-3,2.8053379E-2,9.712934E-2,1.5966906E-1,2.4892938E-1,-6.474384E-2,-3.651717E-2,-6.904278E-2,1.0818726E-2,-1.166153E-2,-3.199523E-3],"categories":[],"categories_nodes":[],"categories_segments":[],"categories_sizes":[],"default_left":[0,0,0,0,0,0,0,0,0,0,0,0,0,0,0,0,0,0,0,0,0,0,0,0,0],"id":11,"left_children":[1,3,5,-1,7,9,11,-1,-1,13,15,17,-1,19,21,-1,-1,-1,-1,-1,-1,23,-1,-1,-1],"loss_changes":[8.863927E2,5.4317566E1,2.2071356E2,0E0,7.906433E0,1.1797716E1,3.1630676E1,0E0,0E0,2.4407852E0,6.976547E-1,2.5152893E0,0E0,2.4133444E-1,1.2932086E-1,0E0,0E0,0E0,0E0,0E0,0E0,1.3893321E-2,0E0,0E0,0E0],"parents":[2147483647,0,0,1,1,2,2,4,4,5,5,6,6,9,9,10,10,11,11,13,13,14,14,21,21],"right_children":[2,4,6,-1,8,10,12,-1,-1,14,16,18,-1,20,22,-1,-1,-1,-1,-1,-1,24,-1,-1,-1],"split_conditions":[2.363E1,1.494E1,3.083E1,-5.3478307E-1,1.675E1,2.674E1,3.622E1,-3.3071777E-1,-2.041874E-1,2.541E1,2.744E1,3.25E1,4.0230495E-1,2.446E1,2.603E1,2.8053379E-2,9.712934E-2,1.5966906E-1,2.4892938E-1,-6.474384E-2,-3.651717E-2,2.571E1,1.0818726E-2,-1.166153E-2,-3.199523E-3],"split_indices":[0,0,0,0,0,0,0,0,0,0,0,0,0,0,0,0,0,0,0,0,0,0,0,0,0],"split_type":[0,0,0,0,0,0,0,0,0,0,0,0,0,0,0,0,0,0,0,0,0,0,0,0,0],"sum_hessian":[1.56E2,5E1,1.06E2,1.3E1,3.7E1,4.9E1,5.7E1,2E1,1.7E1,3.8E1,1.1E1,4E1,1.7E1,2.3E1,1.5E1,3E0,8E0,1.3E1,2.7E1,1E1,1.3E1,9E0,6E0,3E0,6E0],"tree_param":{"num_deleted":"0","num_feature":"40","num_nodes":"25","size_leaf_vector":"1"}},{"base_weights":[-5.7668354E-2,-3.2433605E0,1.2436365E0,-4.570994E-1,-2.3952115E0,-9.144946E-2,2.6255295E0,-2.6632735E-1,-1.6413414E-1,-3.5635328E-1,5.7589066E-1,2.027372E0,3.5393688E-1,-5.8432287E-1,-1.1289008E-1,1.5946688E-2,7.7081364E-1,1.6213903E-1,2.3116861E-1,-6.787777E-2,-3.936539E-2,-1.9876026E-1,-1.1444092E-3,3.6272764E-2,8.6653925E-2,-2.3207389E-2,-9.904365E-3,-2.3899318E-3,4.465151E-3],"categories":[],"categories_nodes":[],"categories_segments":[],"categories_sizes":[],"default_left":[0,0,0,0,0,0,0,0,0,0,0,0,0,0,0,0,0,0,0,0,0,0,0,0,0,0,0,0,0],"id":12,"left_children":[1,3,5,-1,7,9,11,-1,-1,13,15,17,-1,19,21,-1,23,-1,-1,-1,-1,25,27,-1,-1,-1,-1,-1,-1],"loss_changes":[7.0048706E2,4.422699E1,2.2163364E2,0E0,2.095337E0,1.116564E1,2.5074951E1,0E0,0E0,2.431635E0,1.338151E0,6.38031E-1,0E0,1.4701748E-1,2.204718E-1,0E0,1.544528E-1,0E0,0E0,0E0,0E0,2.0199597E-2,1.2530041E-2,0E0,0E0,0E0,0E0,0E0,0E0],"parents":[2147483647,0,0,1,1,2,2,4,4,5,5,6,6,9,9,10,10,11,11,13,13,14,14,16,16,21,21,22,22],"right_children":[2,4,6,-1,8,10,12,-1,-1,14,16,18,-1,20,22,-1,24,-1,-1,-1,-1,26,28,-1,-1,-1,-1,-1,-1],"split_conditions":[2.349E1,1.517E1,3.066E1,-4.570994E-1,1.777E1,2.636E1,3.55E1,-2.6632735E-1,-1.6413414E-1,2.501E1,3.63E2,3.313E1,3.5393688E-1,2.406E1,2.571E1,1.5946688E-2,2.808E1,1.6213903E-1,2.3116861E-1,-6.787777E-2,-3.936539E-2,1.845E2,2.616E1,3.6272764E-2,8.6653925E-2,-2.3207389E-2,-9.904365E-3,-2.3899318E-3,4.465151E-3],"split_indices":[0,0,0,0,0,0,0,0,0,0,2,0,0,0,0,0,0,0,0,0,0,8,0,0,0,0,0,0,0],"split_type":[0,0,0,0,0,0,0,0,0,0,0,0,0,0,0,0,0,0,0,0,0,0,0,0,0,0,0,0,0],"sum_hessian":[1.67E2,4.8E1,1.19E2,1.7E1,3.1E1,6.1E1,5.8E1,2.1E1,1E1,4.4E1,1.7E1,3.7E1,2.1E1,2.2E1,2.2E1,6E0,1.1E1,1.8E1,1.9E1,1.3E1,9E0,1.2E1,1E1,3E0,8E0,8E0,4E0,7E0,3E0],"tree_param":{"num_deleted":"0","num_feature":"40","num_nodes":"29","size_leaf_vector":"1"}},{"base_weights":[-6.299171E-2,1.5169555E0,-2.2288766E0,-1.9929013E-1,1.9155672E0,-3.6536481E0,-1.1319981E0,5.3115846E-3,-2.9322911E-2,1.6235169E0,3.7391576E-1,-2.767563E-1,-4.9325624E-1,-1.8657355E-1,-3.443561E-1,1.9540445E0,4.0651655E-1,-5.1132977E-1,-6.491004E-2,1.463656E0,2.4258606E-1,8.0973625E-2,8.135041E-1,-2.4951125E-2,-5.6492426E-2,-1.8397951E-2,2.5287948E-3,4.743409E-2,1.5595639E-1,-1.8627485E-3,1.8430023E-2,4.024172E-2,1.02121495E-1],"categories":[],"categories_nodes":[],"categories_segments":[],"categories_sizes":[],"default_left":[0,0,0,0,0,0,0,0,0,0,0,0,0,0,0,0,0,0,0,0,0,0,0,0,0,0,0,0,0,0,0,0,0],"id":13,"left_children":[1,3,5,7,9,11,13,-1,-1,15,-1,-1,-1,-1,17,19,21,23,25,27,-1,29,31,-1,-1,-1,-1,-1,-1,-1,-1,-1,-1],"loss_changes":[5.680084E2,6.605684E1,1.0526013E2,4.660794E-1,3.5470673E1,2.0345642E1,2.3052334E1,0E0,0E0,2.696103E1,0E0,0E0,0E0,0E0,9.4667244E-1,8.9435425E0,2.0539982E0,4.1461468E-2,1.0131091E-1,2.0118446E0,0E0,1.06347494E-1,1.8675613E-1,0E0,0E0,0E0,0E0,0E0,0E0,0E0,0E0,0E0,0E0],"parents":[2147483647,0,0,1,1,2,2,3,3,4,4,5,5,6,6,9,9,14,14,15,15,16,16,17,17,18,18,19,19,21,21,22,22],"right_children":[2,4,6,8,10,12,14,-1,-1,16,-1,-1,-1,-1,18,20,22,24,26,28,-1,30,32,-1,-1,-1,-1,-1,-1,-1,-1,-1,-1],"split_conditions":[6.666667E-1,1.523E1,9.34E0,9.635975E2,4.236E2,1.461557E4,4.623E2,5.3115846E-3,-2.9322911E-2,1.0503333E2,3.7391576E-1,-2.767563E-1,-4.9325624E-1,-1.8657355E-1,4.664E2,1.943E1,3.0641E2,3.05E2,6.4275E0,1.5049E2,2.4258606E-1,1.319E1,1.969307E3,-2.4951125E-2,-5.6492426E-2,-1.8397951E-2,2.5287948E-3,4.743409E-2,1.5595639E-1,-1.8627485E-3,1.8430023E-2,4.024172E-2,1.02121495E-1],"split_indices":[18,26,26,16,8,3,8,0,0,21,0,0,0,0,8,26,1,2,13,1,0,13,11,0,0,0,0,0,0,0,0,0,0],"split_type":[0,0,0,0,0,0,0,0,0,0,0,0,0,0,0,0,0,0,0,0,0,0,0,0,0,0,0,0,0,0,0,0,0],"sum_hessian":[1.64E2,9.5E1,6.9E1,1.8E1,7.7E1,2.9E1,4E1,5E0,1.3E1,6.8E1,9E0,1.9E1,1E1,2E1,2E1,5.3E1,1.5E1,1.2E1,8E0,2.8E1,2.5E1,9E0,6E0,3E0,9E0,3E0,5E0,3E0,2.5E1,5E0,4E0,3E0,3E0],"tree_param":{"num_deleted":"0","num_feature":"40","num_nodes":"33","size_leaf_vector":"1"}},{"base_weights":[-1.1240666E-1,-2.6507025E0,1.0319824E0,-4.4647217E-1,-2.198872E0,-1.04900435E-1,1.9321786E0,-2.6214442E-1,-1.4898069E-1,-3.1253752E-1,2.2218208E-1,1.4328165E0,2.568495E-1,-4.463353E-1,-1.4006424E-1,3.899002E-2,4.4175127E-1,8.1936836E-2,1.5030625E-1,-5.545665E-2,-3.3688497E-2,-7.4177E-3,-2.0476723E-2,-1.2330691E-3,7.74092E-2,2.319088E-2,5.0802108E-2,4.050398E-3,9.496212E-3],"categories":[],"categories_nodes":[],"categories_segments":[],"categories_sizes":[],"default_left":[0,0,0,0,0,0,0,0,0,0,0,0,0,0,0,0,0,0,0,0,0,0,0,0,0,0,0,0,0],"id":14,"left_children":[1,3,5,-1,7,9,11,-1,-1,13,15,17,-1,19,21,23,25,-1,-1,-1,-1,-1,-1,-1,27,-1,-1,-1,-1],"loss_changes":[4.6750317E2,3.1164093E1,1.1380204E2,0E0,8.679047E0,3.4651635E0,1.6020447E1,0E0,0E0,6.5285707E-1,7.8724277E-1,3.62854E-1,0E0,1.4555931E-2,4.8757493E-2,2.46149E-2,7.341504E-3,0E0,0E0,0E0,0E0,0E0,0E0,0E0,6.882213E-4,0E0,0E0,0E0,0E0],"parents":[2147483647,0,0,1,1,2,2,4,4,5,5,6,6,9,9,10,10,11,11,13,13,14,14,15,15,16,16,24,24],"right_children":[2,4,6,-1,8,10,12,-1,-1,14,16,18,-1,20,22,24,26,-1,-1,-1,-1,-1,-1,-1,28,-1,-1,-1,-1],"split_conditions":[2.349E1,1.12E1,2.86E1,-4.4647217E-1,1.658E1,2.585E1,3.407E1,-2.6214442E-1,-1.4898069E-1,2.501E1,2.648E1,3.133E1,2.568495E-1,2.402E1,3.3333334E-1,2.616E1,2.744E1,8.1936836E-2,1.5030625E-1,-5.545665E-2,-3.3688497E-2,-7.4177E-3,-2.0476723E-2,-1.2330691E-3,2.636E1,2.319088E-2,5.0802108E-2,4.050398E-3,9.496212E-3],"split_indices":[0,0,0,0,0,0,0,0,0,0,0,0,0,0,20,0,0,0,0,0,0,0,0,0,0,0,0,0,0],"split_type":[0,0,0,0,0,0,0,0,0,0,0,0,0,0,0,0,0,0,0,0,0,0,0,0,0,0,0,0,0],"sum_hessian":[1.59E2,4.9E1,1.1E2,8E0,4.1E1,4.9E1,6.1E1,2.4E1,1.7E1,3E1,1.9E1,3.6E1,2.5E1,1.6E1,1.4E1,1.1E1,8E0,5E0,3.1E1,6E0,1E1,8E0,6E0,5E0,6E0,3E0,5E0,3E0,3E0],"tree_param":{"num_deleted":"0","num_feature":"40","num_nodes":"29","size_leaf_vector":"1"}},{"base_weights":[1.40740685E-2,-1.325582E0,1.6794022E0,-2.5271122E0,-3.9375564E-1,1.1888634E0,2.5933036E-1,-4.11722E-1,-2.1254103E0,-1.16099216E-1,-2.517633E-1,5.573784E-1,1.4435749E-1,-2.3618007E-1,-1.61901E-1,-4.1588676E-1,-5.381558E-2,1.5546274E-2,6.381695E-1,-5.3408395E-2,-3.1602062E-2,-1.4540206E-1,8.905411E-3,2.9160833E-2,7.1297705E-2,-1.7543985E-2,-6.3994885E-3,-3.491974E-3,5.7719094E-3],"categories":[],"categories_nodes":[],"categories_segments":[],"categories_sizes":[],"default_left":[0,0,0,0,0,0,0,0,0,0,0,0,0,0,0,0,0,0,0,0,0,0,0,0,0,0,0,0,0],"id":15,"left_children":[1,3,5,7,9,11,-1,-1,13,-1,15,17,-1,-1,-1,19,21,-1,23,-1,-1,25,27,-1,-1,-1,-1,-1,-1],"loss_changes":[3.7033572E2,1.0200975E2,3.009143E1,1.679918E1,5.481615E0,7.237709E0,0E0,0E0,2.4629211E-1,0E0,1.4720609E0,4.2032766E-1,0E0,0E0,0E0,1.2631607E-1,1.2767154E-1,0E0,1.2911987E-1,0E0,0E0,1.0780364E-2,3.1965274E-2,0E0,0E0,0E0,0E0,0E0,0E0],"parents":[2147483647,0,0,1,1,2,2,3,3,4,4,5,5,8,8,10,10,11,11,15,15,16,16,18,18,21,21,22,22],"right_children":[2,4,6,8,10,12,-1,-1,14,-1,16,18,-1,-1,-1,20,22,-1,24,-1,-1,26,28,-1,-1,-1,-1,-1,-1],"split_conditions":[2.674E1,1.792E1,3.472E1,1.019E1,2.349E1,3.117E1,2.5933036E-1,-4.11722E-1,1.639E1,-1.16099216E-1,2.507E1,3.63E2,1.4435749E-1,-2.3618007E-1,-1.61901E-1,2.402E1,2.571E1,1.5546274E-2,2.808E1,-5.3408395E-2,-3.1602062E-2,3.39E2,2.616E1,2.9160833E-2,7.1297705E-2,-1.7543985E-2,-6.3994885E-3,-3.491974E-3,5.7719094E-3],"split_indices":[0,0,0,0,0,0,0,0,0,0,0,2,0,0,0,0,0,0,0,0,0,17,0,0,0,0,0,0,0],"split_type":[0,0,0,0,0,0,0,0,0,0,0,0,0,0,0,0,0,0,0,0,0,0,0,0,0,0,0,0,0],"sum_hessian":[1.64E2,9.1E1,7.3E1,3.9E1,5.2E1,4.9E1,2.4E1,6E0,3.3E1,7E0,4.5E1,1.5E1,3.4E1,2E1,1.3E1,2.4E1,2.1E1,3E0,1.2E1,9E0,1.5E1,8E0,1.3E1,3E0,9E0,5E0,3E0,7E0,6E0],"tree_param":{"num_deleted":"0","num_feature":"40","num_nodes":"29","size_leaf_vector":"1"}},{"base_weights":[-1.8709222E-2,-2.292801E0,8.468187E-1,-3.81966E-1,-1.8346715E0,5.3050995E-2,1.776949E0,-2.0941317E-1,-1.16286196E-1,-2.0453785E-1,6.042145E-1,1.4090436E0,2.4515168E-1,-3.691421E-1,-4.5354098E-2,3.2878602E-1,7.6043464E-2,1.0732775E-1,1.5521602E-1,-4.303285E-2,-2.5880415E-2,-1.2736024E-1,6.8731946E-3,1.4380264E-2,3.973106E-2,-1.8053055E-2,-7.068666E-3,-2.9589548E-3,5.277198E-3],"categories":[],"categories_nodes":[],"categories_segments":[],"categories_sizes":[],"default_left":[0,0,0,0,0,0,0,0,0,0,0,0,0,0,0,0,0,0,0,0,0,0,0,0,0,0,0,0,0],"id":16,"left_children":[1,3,5,-1,7,9,11,-1,-1,13,15,17,-1,19,21,23,-1,-1,-1,-1,-1,25,27,-1,-1,-1,-1,-1,-1],"loss_changes":[3.0702652E2,2.3070648E1,8.3334465E1,0E0,3.6655884E0,8.925947E0,9.450928E0,0E0,0E0,1.1099576E0,6.1052895E-1,6.403351E-2,0E0,3.040409E-2,9.938341E-2,5.69489E-2,0E0,0E0,0E0,0E0,0E0,1.4359072E-2,2.6665432E-2,0E0,0E0,0E0,0E0,0E0,0E0],"parents":[2147483647,0,0,1,1,2,2,4,4,5,5,6,6,9,9,10,10,11,11,13,13,14,14,15,15,21,21,22,22],"right_children":[2,4,6,-1,8,10,12,-1,-1,14,16,18,-1,20,22,24,-1,-1,-1,-1,-1,26,28,-1,-1,-1,-1,-1,-1],"split_conditions":[2.349E1,1.019E1,3.204E1,-3.81966E-1,1.73E1,2.674E1,3.622E1,-2.0941317E-1,-1.16286196E-1,2.507E1,3.021E1,3.313E1,2.4515168E-1,2.446E1,2.571E1,3.63E2,7.6043464E-2,1.0732775E-1,1.5521602E-1,-4.303285E-2,-2.5880415E-2,3.06E2,2.616E1,1.4380264E-2,3.973106E-2,-1.8053055E-2,-7.068666E-3,-2.9589548E-3,5.277198E-3],"split_indices":[0,0,0,0,0,0,0,0,0,0,0,0,0,0,0,2,0,0,0,0,0,17,0,0,0,0,0,0,0],"split_type":[0,0,0,0,0,0,0,0,0,0,0,0,0,0,0,0,0,0,0,0,0,0,0,0,0,0,0,0,0],"sum_hessian":[1.54E2,4.2E1,1.12E2,8E0,3.4E1,6.1E1,5.1E1,2.3E1,1.1E1,4.2E1,1.9E1,3.5E1,1.6E1,2E1,2.2E1,8E0,1.1E1,1.3E1,2.2E1,1.1E1,9E0,8E0,1.4E1,3E0,5E0,3E0,5E0,8E0,6E0],"tree_param":{"num_deleted":"0","num_feature":"40","num_nodes":"29","size_leaf_vector":"1"}},{"base_weights":[1.195969E-1,1.0908406E0,-1.5173231E0,8.788166E-1,2.7456895E-1,-2.0903404E0,-3.5360846E-1,1.1251161E0,4.241126E-3,-1.7439607E0,-3.2578635E-1,-1.3675325E-1,-5.7847387E-1,4.9257517E-2,1.2420185E0,-2.1208204E-1,3.8227655E-2,-1.05438344E-1,-1.858149E-1,-3.27314E-2,-5.5861473E-4,-7.4204795E-2,-3.4574986E-2,1.4964962E-2,-4.090767E-3,8.248973E-1,1.4408702E-1,-2.7247954E-2,-1.1275891E-1,6.2975883E-3,-5.127449E-3,4.544675E-2,9.289038E-2,-1.3978767E-2,-5.754042E-3],"categories":[],"categories_nodes":[],"categories_segments":[],"categories_sizes":[],"default_left":[0,0,0,0,0,0,0,0,0,0,0,0,0,0,0,0,0,0,0,0,0,0,0,0,0,0,0,0,0,0,0,0,0,0,0],"id":17,"left_children":[1,3,5,7,-1,9,11,13,15,17,-1,19,21,23,25,27,-1,-1,-1,-1,29,-1,-1,-1,-1,31,-1,-1,33,-1,-1,-1,-1,-1,-1],"loss_changes":[2.5603085E2,3.3024666E1,3.9270554E1,1.959732E1,0E0,1.0494659E1,9.449198E-1,8.868523E0,1.7984082E0,6.392822E-1,0E0,3.1125736E-1,1.2411308E-1,7.85368E-2,4.1199265E0,5.325967E-2,0E0,0E0,0E0,0E0,2.9006718E-2,0E0,0E0,0E0,0E0,4.6396828E-1,0E0,0E0,2.403967E-3,0E0,0E0,0E0,0E0,0E0,0E0],"parents":[2147483647,0,0,1,1,2,2,3,3,5,5,6,6,7,7,8,8,9,9,11,11,12,12,13,13,14,14,15,15,20,20,25,25,28,28],"right_children":[2,4,6,8,-1,10,12,14,16,18,-1,20,22,24,26,28,-1,-1,-1,-1,30,-1,-1,-1,-1,32,-1,-1,34,-1,-1,-1,-1,-1,-1],"split_conditions":[6.666667E-1,4.236E2,4.5E2,2.5204398E5,2.7456895E-1,1.492974E4,3.7275E2,9.79E1,2.3696E2,7.8075E1,-3.2578635E-1,1.217112E3,3.8E2,2.773E2,8.21332E2,5.661E2,3.8227655E-2,-1.05438344E-1,-1.858149E-1,-3.27314E-2,2.6463E3,-7.4204795E-2,-3.4574986E-2,1.4964962E-2,-4.090767E-3,1.514902E3,1.4408702E-1,-2.7247954E-2,3.92E2,6.2975883E-3,-5.127449E-3,4.544675E-2,9.289038E-2,-1.3978767E-2,-5.754042E-3],"split_indices":[18,8,8,25,0,3,17,9,27,21,0,11,2,1,37,9,0,0,0,0,1,0,0,0,0,11,0,0,2,0,0,0,0,0,0],"split_type":[0,0,0,0,0,0,0,0,0,0,0,0,0,0,0,0,0,0,0,0,0,0,0,0,0,0,0,0,0,0,0,0,0,0,0],"sum_hessian":[1.59E2,1E2,5.9E1,9E1,1E1,3.9E1,2E1,7E1,2E1,3.2E1,7E0,1.1E1,9E0,7E0,6.3E1,1.3E1,7E0,6E0,2.6E1,4E0,7E0,4E0,5E0,3E0,4E0,2.2E1,4.1E1,7E0,6E0,3E0,4E0,6E0,1.6E1,3E0,3E0],"tree_param":{"num_deleted":"0","num_feature":"40","num_nodes":"35","size_leaf_vector":"1"}},{"base_weights":[-1.0540667E-1,-1.8076025E0,7.240285E-1,-2.5457692E0,-1.3130566E0,-1.1460051E-1,1.3450869E0,-3.119436E-1,-1.9527872E-1,-1.41205E-1,-8.7018125E-2,-2.6649576E-1,1.189724E-1,1.0422953E0,2.1387163E-1,-3.4598038E-1,-1.5094335E-1,1.9967487E-2,2.9998615E-2,8.195385E-2,1.2401861E-1,-1.6572047E-2,-3.727703E-2,-1.8628178E-2,-5.007782E-3,-1.7790318E-2,6.0266767E-2,3.4240723E-4,-3.9860727E-3,2.8000833E-3,7.746601E-3],"categories":[],"categories_nodes":[],"categories_segments":[],"categories_sizes":[],"default_left":[0,0,0,0,0,0,0,0,0,0,0,0,0,0,0,0,0,0,0,0,0,0,0,0,0,0,0,0,0,0,0],"id":18,"left_children":[1,3,5,7,9,11,13,-1,-1,-1,-1,15,17,19,-1,21,23,25,-1,-1,-1,-1,-1,-1,-1,27,29,-1,-1,-1,-1],"loss_changes":[2.3708955E2,1.6735413E1,5.9008793E1,1.052063E0,3.0572128E-1,1.7701578E0,1.3390617E1,0E0,0E0,0E0,0E0,2.2331572E-1,3.5243505E-1,1.1436119E0,0E0,2.0319939E-2,4.057342E-2,2.2374738E-2,0E0,0E0,0E0,0E0,0E0,0E0,0E0,3.8821676E-3,1.7155353E-3,0E0,0E0,0E0,0E0],"parents":[2147483647,0,0,1,1,2,2,3,3,4,4,5,5,6,6,11,11,12,12,13,13,15,15,16,16,17,17,25,25,26,26],"right_children":[2,4,6,8,10,12,14,-1,-1,-1,-1,16,18,20,-1,22,24,26,-1,-1,-1,-1,-1,-1,-1,28,30,-1,-1,-1,-1],"split_conditions":[2.349E1,1.572E1,2.86E1,1.019E1,1.817E1,2.571E1,3.622E1,-3.119436E-1,-1.9527872E-1,-1.41205E-1,-8.7018125E-2,2.472E1,2.674E1,3.313E1,2.1387163E-1,3.7288E2,6.35E2,2.616E1,2.9998615E-2,8.195385E-2,1.2401861E-1,-1.6572047E-2,-3.727703E-2,-1.8628178E-2,-5.007782E-3,1E0,2.636E1,3.4240723E-4,-3.9860727E-3,2.8000833E-3,7.746601E-3],"split_indices":[0,0,0,0,0,0,0,0,0,0,0,0,0,0,0,1,30,0,0,0,0,0,0,0,0,6,0,0,0,0,0],"split_type":[0,0,0,0,0,0,0,0,0,0,0,0,0,0,0,0,0,0,0,0,0,0,0,0,0,0,0,0,0,0,0],"sum_hessian":[1.66E2,5.4E1,1.12E2,2E1,3.4E1,4.8E1,6.4E1,8E0,1.2E1,2.6E1,8E0,2.9E1,1.9E1,4.8E1,1.6E1,1.6E1,1.3E1,1.3E1,6E0,2.5E1,2.3E1,3E0,1.3E1,9E0,4E0,7E0,6E0,4E0,3E0,3E0,3E0],"tree_param":{"num_deleted":"0","num_feature":"40","num_nodes":"31","size_leaf_vector":"1"}},{"base_weights":[-4.351587E-4,-1.4422281E0,7.5353396E-1,-2.0636034E0,-8.545068E-1,8.332528E-2,1.3863506E0,-2.6813373E-1,-1.7133296E-1,-1.00911215E-1,-3.6445893E-2,-9.7713195E-2,3.9597636E-1,1.1026272E0,2.0883529E-1,-2.4010595E-2,-2.244544E-2,2.1294993E-1,5.577078E-2,8.311921E-2,1.2539552E-1,-5.1606707E-2,5.574717E-2,5.402613E-3,2.657931E-2,9.197617E-4,-6.9636344E-3,2.5900842E-3,7.1656704E-3],"categories":[],"categories_nodes":[],"categories_segments":[],"categories_sizes":[],"default_left":[0,0,0,0,0,0,0,0,0,0,0,0,0,0,0,0,0,0,0,0,0,0,0,0,0,0,0,0,0],"id":19,"left_children":[1,3,5,7,9,11,13,-1,-1,-1,-1,15,17,19,-1,-1,21,23,-1,-1,-1,25,27,-1,-1,-1,-1,-1,-1],"loss_changes":[1.8045287E2,1.9052773E1,4.611347E1,1.2481384E0,1.9809055E0,3.0951934E0,8.851097E0,0E0,0E0,0E0,0E0,3.6972612E-1,4.732585E-1,6.829071E-1,0E0,0E0,5.760162E-2,7.8018636E-2,0E0,0E0,0E0,2.037353E-2,1.4679208E-3,0E0,0E0,0E0,0E0,0E0,0E0],"parents":[2147483647,0,0,1,1,2,2,3,3,4,4,5,5,6,6,11,11,12,12,13,13,16,16,17,17,21,21,22,22],"right_children":[2,4,6,8,10,12,14,-1,-1,-1,-1,16,18,20,-1,-1,22,24,-1,-1,-1,26,28,-1,-1,-1,-1,-1,-1],"split_conditions":[2.402E1,1.616E1,3.191E1,9.26E0,2.349E1,2.674E1,3.691E1,-2.6813373E-1,-1.7133296E-1,-1.00911215E-1,-3.6445893E-2,2.505E1,5.76458E3,3.363E1,2.0883529E-1,-2.4010595E-2,2.616E1,3.63E2,5.577078E-2,8.311921E-2,1.2539552E-1,1.315296E3,2.636E1,5.402613E-3,2.657931E-2,9.197617E-4,-6.9636344E-3,2.5900842E-3,7.1656704E-3],"split_indices":[0,0,0,0,0,0,0,0,0,0,0,0,3,0,0,0,0,2,0,0,0,11,0,0,0,0,0,0,0],"split_type":[0,0,0,0,0,0,0,0,0,0,0,0,0,0,0,0,0,0,0,0,0,0,0,0,0,0,0,0,0],"sum_hessian":[1.64E2,5.6E1,1.08E2,2.6E1,3E1,5.3E1,5.5E1,7E0,1.9E1,2.2E1,8E0,3.4E1,1.9E1,4.1E1,1.4E1,1.1E1,2.3E1,1E1,9E0,1.7E1,2.4E1,1.7E1,6E0,3E0,7E0,4E0,1.3E1,3E0,3E0],"tree_param":{"num_deleted":"0","num_feature":"40","num_nodes":"29","size_leaf_vector":"1"}},{"base_weights":[8.0378026E-2,7.833104E-1,-1.0521597E0,6.3598025E-1,2.0898831E-1,-1.4332043E0,-2.5956535E-1,-1.4557973E-1,7.9816663E-1,-1.1016343E-1,-1.9786927E-1,-4.2835104E-1,-1.4187431E-2,8.288336E-3,-2.0045635E-1,9.544092E-1,2.9734278E-1,-5.4081757E-2,-2.5469154E-2,-8.62236E-3,4.820728E-3,-2.4054317E-2,-1.0691675E-2,7.101945E-1,1.1668103E-1,1.1771609E-1,6.968524E-2,1.04152E-1,5.4237075E-2,1.8760797E-2,-1.8389702E-3],"categories":[],"categories_nodes":[],"categories_segments":[],"categories_sizes":[],"default_left":[0,0,0,0,0,0,0,0,0,0,0,0,0,0,0,0,0,0,0,0,0,0,0,0,0,0,0,0,0,0,0],"id":20,"left_children":[1,3,5,7,-1,9,11,13,15,-1,-1,17,19,-1,21,23,25,-1,-1,-1,-1,-1,-1,27,-1,29,-1,-1,-1,-1,-1],"loss_changes":[1.3297635E2,1.849812E1,1.8956871E1,1.203149E1,0E0,5.5975113E0,9.050808E-1,2.2974825E-1,5.81971E0,0E0,0E0,1.1615968E-1,4.910337E-2,0E0,2.6777744E-2,2.2317543E0,1.3532209E0,0E0,0E0,0E0,0E0,0E0,0E0,1.10324E0,0E0,1.4614038E-1,0E0,0E0,0E0,0E0,0E0],"parents":[2147483647,0,0,1,1,2,2,3,3,5,5,6,6,7,7,8,8,11,11,12,12,14,14,15,15,16,16,23,23,25,25],"right_children":[2,4,6,8,-1,10,12,14,16,-1,-1,18,20,-1,22,24,26,-1,-1,-1,-1,-1,-1,28,-1,30,-1,-1,-1,-1,-1],"split_conditions":[6.666667E-1,4.236E2,4.5E2,1.523E1,2.0898831E-1,1.0803333E2,4.664E2,9.2111E2,1.0503333E2,-1.1016343E-1,-1.9786927E-1,3.72E2,6.4475E0,8.288336E-3,8.183333E0,1.937E1,4.37E2,-5.4081757E-2,-2.5469154E-2,-8.62236E-3,4.820728E-3,-2.4054317E-2,-1.0691675E-2,4.392994E4,1.1668103E-1,1.48E2,6.968524E-2,1.04152E-1,5.4237075E-2,1.8760797E-2,-1.8389702E-3],"split_indices":[18,8,8,26,0,21,8,16,21,0,0,2,13,0,13,26,2,0,0,0,0,0,0,25,0,15,0,0,0,0,0],"split_type":[0,0,0,0,0,0,0,0,0,0,0,0,0,0,0,0,0,0,0,0,0,0,0,0,0,0,0,0,0,0,0],"sum_hessian":[1.65E2,1.02E2,6.3E1,9.3E1,9E0,4.2E1,2.1E1,1.6E1,7.7E1,2.8E1,1.4E1,1.2E1,9E0,3E0,1.3E1,5.8E1,1.9E1,6E0,6E0,4E0,5E0,8E0,5E0,2.9E1,2.9E1,1.4E1,5E0,8E0,2.1E1,9E0,5E0],"tree_param":{"num_deleted":"0","num_feature":"40","num_nodes":"31","size_leaf_vector":"1"}},{"base_weights":[-6.30983E-2,-1.2058579E0,6.003332E-1,-1.7952309E0,-7.049622E-1,3.722423E-2,1.060382E0,-2.4531844E-1,-1.4237121E-1,-8.504487E-2,-3.3667564E-2,-6.2064085E-2,2.686021E-1,8.472216E-1,1.6241215E-1,-1.3332844E-1,4.7300127E-3,3.356535E-2,1.706028E-3,6.537282E-2,9.52648E-2,-1.5313561E-2,-5.912552E-3,-2.4471803E-2,4.4291258E-2,-4.057471E-3,-4.290263E-4,1.6858102E-3,5.7379534E-3],"categories":[],"categories_nodes":[],"categories_segments":[],"categories_sizes":[],"default_left":[0,0,0,0,0,0,0,0,0,0,0,0,0,0,0,0,0,0,0,0,0,0,0,0,0,0,0,0,0],"id":21,"left_children":[1,3,5,7,9,11,13,-1,-1,-1,-1,15,17,19,-1,21,23,-1,-1,-1,-1,-1,-1,25,27,-1,-1,-1,-1],"loss_changes":[1.1975233E2,1.5856865E1,2.5866287E1,2.8628693E0,1.4818382E0,1.0734341E0,5.2331886E0,0E0,0E0,0E0,0E0,1.5771191E-1,2.304008E-1,2.3399734E-1,0E0,1.4461756E-2,2.187857E-2,0E0,0E0,0E0,0E0,0E0,0E0,3.4007202E-3,1.9051116E-3,0E0,0E0,0E0,0E0],"parents":[2147483647,0,0,1,1,2,2,3,3,4,4,5,5,6,6,11,11,12,12,13,13,15,15,16,16,23,23,24,24],"right_children":[2,4,6,8,10,12,14,-1,-1,-1,-1,16,18,20,-1,22,24,-1,-1,-1,-1,-1,-1,26,28,-1,-1,-1,-1],"split_conditions":[2.402E1,1.593E1,3.117E1,1.019E1,2.349E1,2.674E1,3.635E1,-2.4531844E-1,-1.4237121E-1,-8.504487E-2,-3.3667564E-2,2.564E1,9.4925E0,3.313E1,1.6241215E-1,1.0684745E6,2.616E1,3.356535E-2,1.706028E-3,6.537282E-2,9.52648E-2,-1.5313561E-2,-5.912552E-3,3.68444E3,2.636E1,-4.057471E-3,-4.290263E-4,1.6858102E-3,5.7379534E-3],"split_indices":[0,0,0,0,0,0,0,0,0,0,0,0,13,0,0,12,0,0,0,0,0,0,0,3,0,0,0,0,0],"split_type":[0,0,0,0,0,0,0,0,0,0,0,0,0,0,0,0,0,0,0,0,0,0,0,0,0,0,0,0,0],"sum_hessian":[1.56E2,5.7E1,9.9E1,2.5E1,3.2E1,4.5E1,5.4E1,7E0,1.8E1,2.2E1,1E1,3.2E1,1.3E1,4.1E1,1.3E1,1.5E1,1.7E1,1E1,3E0,1.7E1,2.4E1,1.1E1,4E0,1E1,7E0,5E0,5E0,3E0,4E0],"tree_param":{"num_deleted":"0","num_feature":"40","num_nodes":"29","size_leaf_vector":"1"}},{"base_weights":[-2.4160559E-3,-1.1678603E0,5.45463E-1,-1.7580812E0,-7.803604E-1,5.575623E-2,1.0259247E0,-2.2206219E-1,-1.3026236E-1,-8.954579E-2,-4.0307086E-2,-8.6722516E-2,3.379259E-1,8.4509045E-1,1.7381929E-1,-1.5352447E-1,1.2687459E-2,4.0726442E-2,1.830101E-2,6.248637E-2,9.329318E-2,-1.7888952E-2,-9.137281E-2,-1.652128E-2,5.677441E-2,-1.0623074E-2,-4.6242713E-3,-3.0428206E-3,6.2526704E-4,6.981659E-3,2.9538632E-3],"categories":[],"categories_nodes":[],"categories_segments":[],"categories_sizes":[],"default_left":[0,0,0,0,0,0,0,0,0,0,0,0,0,0,0,0,0,0,0,0,0,0,0,0,0,0,0,0,0,0,0],"id":22,"left_children":[1,3,5,7,9,11,13,-1,-1,-1,-1,15,17,19,-1,21,23,-1,-1,-1,-1,-1,25,27,29,-1,-1,-1,-1,-1,-1],"loss_changes":[1.0982437E2,1.1207146E1,2.7471184E1,1.5313797E0,1.1589432E0,2.4012938E0,6.130417E0,0E0,0E0,0E0,0E0,2.6757908E-1,1.4029884E-1,3.6494827E-1,0E0,2.1489859E-2,2.2829298E-2,0E0,0E0,0E0,0E0,0E0,1.1224523E-3,3.6741295E-3,4.2421184E-4,0E0,0E0,0E0,0E0,0E0,0E0],"parents":[2147483647,0,0,1,1,2,2,3,3,4,4,5,5,6,6,11,11,12,12,13,13,15,15,16,16,22,22,23,23,24,24],"right_children":[2,4,6,8,10,12,14,-1,-1,-1,-1,16,18,20,-1,22,24,-1,-1,-1,-1,-1,26,28,30,-1,-1,-1,-1,-1,-1],"split_conditions":[2.377E1,1.572E1,3.191E1,1.019E1,1.889E1,2.692E1,3.718E1,-2.2206219E-1,-1.3026236E-1,-8.954579E-2,-4.0307086E-2,2.547E1,4.8495926E2,3.313E1,1.7381929E-1,2.9390106E5,2.603E1,4.0726442E-2,1.830101E-2,6.248637E-2,9.329318E-2,-1.7888952E-2,6.86925E2,2.585E1,1.579935E3,-1.0623074E-2,-4.6242713E-3,-3.0428206E-3,6.2526704E-4,6.981659E-3,2.9538632E-3],"split_indices":[0,0,0,0,0,0,0,0,0,0,0,0,24,0,0,25,0,0,0,0,0,0,37,0,11,0,0,0,0,0,0],"split_type":[0,0,0,0,0,0,0,0,0,0,0,0,0,0,0,0,0,0,0,0,0,0,0,0,0,0,0,0,0,0,0],"sum_hessian":[1.7E2,5.4E1,1.16E2,2E1,3.4E1,5.8E1,5.8E1,8E0,1.2E1,2.5E1,9E0,3.9E1,1.9E1,4.8E1,1E1,2.3E1,1.6E1,1.2E1,7E0,1.6E1,3.2E1,1.5E1,8E0,1E1,6E0,5E0,3E0,6E0,4E0,3E0,3E0],"tree_param":{"num_deleted":"0","num_feature":"40","num_nodes":"31","size_leaf_vector":"1"}},{"base_weights":[1.08156465E-2,-9.693875E-1,5.1864076E-1,-1.4540364E0,-5.728538E-1,9.271591E-2,9.4287986E-1,-1.9867265E-1,-1.1365054E-1,-6.710073E-2,-2.3655469E-2,-7.602811E-2,3.0499962E-1,7.9141784E-1,1.7337918E-1,-1.3720794E-1,1.2432234E-2,3.653969E-1,9.749276E-2,6.260391E-2,9.3071155E-2,-1.6211113E-2,-8.270216E-3,-1.6254902E-2,4.34415E-2,1.464243E-2,3.9730277E-2,1.7705394E-2,-6.441593E-4,-3.4095384E-3,1.0109425E-3,2.170372E-3,5.4318905E-3],"categories":[],"categories_nodes":[],"categories_segments":[],"categories_sizes":[],"default_left":[0,0,0,0,0,0,0,0,0,0,0,0,0,0,0,0,0,0,0,0,0,0,0,0,0,0,0,0,0,0,0,0,0],"id":23,"left_children":[1,3,5,7,9,11,13,-1,-1,-1,-1,15,17,19,-1,21,23,25,27,-1,-1,-1,-1,29,31,-1,-1,-1,-1,-1,-1,-1,-1],"loss_changes":[8.313287E1,1.0121292E1,1.9788916E1,1.9707184E0,9.305649E-1,2.0291984E0,5.216465E0,0E0,0E0,0E0,0E0,1.7488945E-1,2.7769756E-1,5.23077E-1,0E0,1.2383044E-2,1.3160076E-2,7.456899E-2,5.9024476E-2,0E0,0E0,0E0,0E0,4.1075023E-3,4.7623273E-4,0E0,0E0,0E0,0E0,0E0,0E0,0E0,0E0],"parents":[2147483647,0,0,1,1,2,2,3,3,4,4,5,5,6,6,11,11,12,12,13,13,15,15,16,16,17,17,18,18,23,23,24,24],"right_children":[2,4,6,8,10,12,14,-1,-1,-1,-1,16,18,20,-1,22,24,26,28,-1,-1,-1,-1,30,32,-1,-1,-1,-1,-1,-1,-1,-1],"split_conditions":[2.402E1,1.616E1,3.226E1,1.019E1,4.623E2,2.674E1,3.811E1,-1.9867265E-1,-1.1365054E-1,-6.710073E-2,-2.3655469E-2,1.1655E2,1.549E2,3.413E1,1.7337918E-1,5.661E2,2.603E1,2.798E1,2.86E1,6.260391E-2,9.3071155E-2,-1.6211113E-2,-8.270216E-3,2.001026E4,5.98E2,1.464243E-2,3.9730277E-2,1.7705394E-2,-6.441593E-4,-3.4095384E-3,1.0109425E-3,2.170372E-3,5.4318905E-3],"split_indices":[0,0,0,0,8,0,0,0,0,0,0,21,22,0,0,9,0,0,0,0,0,0,0,3,30,0,0,0,0,0,0,0,0],"split_type":[0,0,0,0,0,0,0,0,0,0,0,0,0,0,0,0,0,0,0,0,0,0,0,0,0,0,0,0,0,0,0,0,0],"sum_hessian":[1.65E2,5.6E1,1.09E2,2.4E1,3.2E1,5.5E1,5.4E1,7E0,1.7E1,2.4E1,8E0,3.1E1,2.4E1,4.7E1,7E0,1.8E1,1.3E1,1.8E1,6E0,2.4E1,2.3E1,1.1E1,7E0,7E0,6E0,3E0,1.5E1,3E0,3E0,4E0,3E0,3E0,3E0],"tree_param":{"num_deleted":"0","num_feature":"40","num_nodes":"33","size_leaf_vector":"1"}},{"base_weights":[-4.946431E-2,-1.0699825E0,3.524565E-1,-1.798829E-1,-8.046815E-1,2.6219305E-1,1.4566316E-1,-9.2318095E-2,-5.148993E-1,-1.4019535E-1,4.3496057E-1,-5.8642693E-2,-2.073555E-2,-3.5781783E-1,-5.1102273E-2,6.198704E-1,2.707584E-2,-4.3538503E-2,-1.3262081E-2,1.0777223E-2,-1.916783E-2,3.63149E-2,6.757974E-1,-1.0268941E-1,2.4496917E-1,9.676012E-3,-2.684239E-3,3.4789372E-2,7.0891604E-2,-1.661346E-2,-4.1664313E-3,1.2842178E-2,3.0126382E-2],"categories":[],"categories_nodes":[],"categories_segments":[],"categories_sizes":[],"default_left":[0,0,0,0,0,0,0,0,0,0,0,0,0,0,0,0,0,0,0,0,0,0,0,0,0,0,0,0,0,0,0,0,0],"id":24,"left_children":[1,3,5,-1,7,9,-1,-1,11,13,15,-1,-1,17,19,21,23,-1,-1,25,-1,-1,27,29,31,-1,-1,-1,-1,-1,-1,-1,-1],"loss_changes":[6.969543E1,7.833973E0,1.1777412E1,0E0,7.9519844E-1,7.9862194E0,0E0,0E0,1.6437316E-1,6.603178E-1,6.0169687E0,0E0,0E0,1.1693776E-1,2.2823384E-1,5.442562E-1,7.603053E-1,0E0,0E0,6.405549E-2,0E0,0E0,2.3120117E-1,5.8897838E-2,2.6921093E-2,0E0,0E0,0E0,0E0,0E0,0E0,0E0,0E0],"parents":[2147483647,0,0,1,1,2,2,4,4,5,5,8,8,9,9,10,10,13,13,14,14,15,15,16,16,19,19,22,22,23,23,24,24],"right_children":[2,4,6,-1,8,10,-1,-1,12,14,16,-1,-1,18,20,22,24,-1,-1,26,-1,-1,28,30,32,-1,-1,-1,-1,-1,-1,-1,-1],"split_conditions":[5.9525E0,3.8825E0,4.928E2,-1.798829E-1,9.52E0,3.8138566E4,1.4566316E-1,-9.2318095E-2,2.10679E3,1.775E1,2.2594288E5,-5.8642693E-2,-2.073555E-2,2.62086E3,3.7275E2,8.24E0,4.14E2,-4.3538503E-2,-1.3262081E-2,2.49E2,-1.916783E-2,3.63149E-2,1E0,9.69E1,5.76458E3,9.676012E-3,-2.684239E-3,3.4789372E-2,7.0891604E-2,-1.661346E-2,-4.1664313E-3,1.2842178E-2,3.0126382E-2],"split_indices":[13,13,8,0,26,12,0,0,1,26,25,0,0,1,17,13,2,0,0,2,0,0,7,34,3,0,0,0,0,0,0,0,0],"split_type":[0,0,0,0,0,0,0,0,0,0,0,0,0,0,0,0,0,0,0,0,0,0,0,0,0,0,0,0,0,0,0,0,0],"sum_hessian":[1.68E2,4.7E1,1.21E2,1.1E1,3.6E1,1.13E2,8E0,2.4E1,1.2E1,3.4E1,7.9E1,9E0,3E0,9E0,2.5E1,5.4E1,2.5E1,6E0,3E0,1.8E1,7E0,1.1E1,4.3E1,1.6E1,9E0,5E0,1.3E1,5E0,3.8E1,7E0,9E0,4E0,5E0],"tree_param":{"num_deleted":"0","num_feature":"40","num_nodes":"33","size_leaf_vector":"1"}},{"base_weights":[-2.2329904E-2,-8.550047E-1,4.2923525E-1,-1.3605473E0,-5.5312586E-1,4.8462454E-2,7.883575E-1,-1.8700561E-1,-1.0320734E-1,-7.0586346E-2,-2.9899513E-2,-7.558665E-2,2.744233E-1,6.857212E-1,1.5122668E-1,-1.3875434E-1,-1.5089938E-2,3.0843422E-2,1.4932728E-2,5.336197E-1,8.055988E-2,-1.5103123E-1,-6.109667E-3,-6.462097E-4,-5.5403137E-3,6.283501E-2,4.143065E-2,-1.6804835E-2,-6.647635E-3,-3.3077877E-3,1.8877411E-3],"categories":[],"categories_nodes":[],"categories_segments":[],"categories_sizes":[],"default_left":[0,0,0,0,0,0,0,0,0,0,0,0,0,0,0,0,0,0,0,0,0,0,0,0,0,0,0,0,0,0,0],"id":25,"left_children":[1,3,5,7,9,11,13,-1,-1,-1,-1,15,17,19,-1,21,23,-1,-1,25,-1,27,-1,29,-1,-1,-1,-1,-1,-1,-1],"loss_changes":[6.203213E1,8.098984E0,1.4593397E1,1.5845299E0,1.2639322E0,1.5063454E0,3.0494728E0,0E0,0E0,0E0,0E0,1.3165653E-1,3.4780264E-2,4.8179436E-1,0E0,6.9801807E-3,1.1027383E-2,0E0,0E0,2.2234917E-2,0E0,8.973092E-3,0E0,1.0122178E-2,0E0,0E0,0E0,0E0,0E0,0E0,0E0],"parents":[2147483647,0,0,1,1,2,2,3,3,4,4,5,5,6,6,11,11,12,12,13,13,15,15,16,16,19,19,21,21,23,23],"right_children":[2,4,6,8,10,12,14,-1,-1,-1,-1,16,18,20,-1,22,24,-1,-1,26,-1,28,-1,30,-1,-1,-1,-1,-1,-1,-1],"split_conditions":[2.382E1,1.578E1,3.191E1,9.12E0,1.817E1,2.692E1,3.833E1,-1.8700561E-1,-1.0320734E-1,-7.0586346E-2,-2.9899513E-2,2.541E1,4.8495926E2,3.407E1,1.5122668E-1,1.032951E4,1.223E3,3.0843422E-2,1.4932728E-2,8.44758E2,8.055988E-2,1.406778E3,-6.109667E-3,2.585E1,-5.5403137E-3,6.283501E-2,4.143065E-2,-1.6804835E-2,-6.647635E-3,-3.3077877E-3,1.8877411E-3],"split_indices":[0,0,0,0,0,0,0,0,0,0,0,0,24,0,0,29,4,0,0,37,0,11,0,0,0,0,0,0,0,0,0],"split_type":[0,0,0,0,0,0,0,0,0,0,0,0,0,0,0,0,0,0,0,0,0,0,0,0,0,0,0,0,0,0,0],"sum_hessian":[1.63E2,5.7E1,1.06E2,2E1,3.7E1,5.2E1,5.4E1,6E0,1.4E1,2.2E1,1.5E1,3.4E1,1.8E1,4.9E1,5E0,1.6E1,1.8E1,1.3E1,5E0,2.4E1,2.5E1,1.3E1,3E0,1.4E1,4E0,1.1E1,1.3E1,1E1,3E0,5E0,9E0],"tree_param":{"num_deleted":"0","num_feature":"40","num_nodes":"31","size_leaf_vector":"1"}},{"base_weights":[-2.6257887E-2,-8.5012287E-1,3.0351645E-1,-1.5630785E-1,-6.3445586E-1,-2.2965662E-2,6.247655E-1,-8.242219E-2,-4.3194372E-2,-1.1379448E-1,1.3083579E-1,4.943078E-1,8.8721E-2,-1.7559232E-1,-5.2486707E-2,3.918784E-3,1.7818475E-1,2.6455474E-1,5.3382885E-2,-2.090027E-2,-1.18959425E-2,-1.19279865E-2,-3.3683214E-2,6.736088E-3,-6.050301E-3,6.9043483E-3,2.2151774E-1,1.5700417E-2,3.3285428E-2,-5.558205E-3,5.54112E-4,2.7114814E-2,1.0773162E-2],"categories":[],"categories_nodes":[],"categories_segments":[],"categories_sizes":[],"default_left":[0,0,0,0,0,0,0,0,0,0,0,0,0,0,0,0,0,0,0,0,0,0,0,0,0,0,0,0,0,0,0,0,0],"id":26,"left_children":[1,3,5,-1,7,9,11,-1,-1,13,15,17,-1,19,21,23,25,27,-1,-1,-1,-1,29,-1,-1,-1,31,-1,-1,-1,-1,-1,-1],"loss_changes":[4.3728348E1,6.081299E0,1.2075784E1,0E0,1.0658903E0,8.251254E-1,1.5472469E0,0E0,0E0,1.3096523E-1,1.3150829E-1,2.3105717E-1,0E0,9.195447E-3,2.1101166E-2,3.2684907E-2,6.0376287E-2,6.505728E-3,0E0,0E0,0E0,0E0,1.4910426E-2,0E0,0E0,0E0,3.290862E-2,0E0,0E0,0E0,0E0,0E0,0E0],"parents":[2147483647,0,0,1,1,2,2,4,4,5,5,6,6,9,9,10,10,11,11,13,13,14,14,15,15,16,16,17,17,22,22,26,26],"right_children":[2,4,6,-1,8,10,12,-1,-1,14,16,18,-1,20,22,24,26,28,-1,-1,-1,-1,30,-1,-1,-1,32,-1,-1,-1,-1,-1,-1],"split_conditions":[2.349E1,3.8825E0,3.191E1,-1.5630785E-1,1.639E1,2.616E1,3.622E1,-8.242219E-2,-4.3194372E-2,2.472E1,2.5E-1,3.108E2,8.8721E-2,2.402E1,9.69E1,3.15E2,2.808E1,1.972E1,5.3382885E-2,-2.090027E-2,-1.18959425E-2,-1.19279865E-2,2.584E1,6.736088E-3,-6.050301E-3,6.9043483E-3,2.77E2,1.5700417E-2,3.3285428E-2,-5.558205E-3,5.54112E-4,2.7114814E-2,1.0773162E-2],"split_indices":[0,13,0,0,0,0,0,0,0,0,19,8,0,0,34,2,0,26,0,0,0,0,0,0,0,0,28,0,0,0,0,0,0],"split_type":[0,0,0,0,0,0,0,0,0,0,0,0,0,0,0,0,0,0,0,0,0,0,0,0,0,0,0,0,0,0,0,0,0],"sum_hessian":[1.59E2,4.5E1,1.14E2,9E0,3.6E1,5.7E1,5.7E1,1.7E1,1.9E1,3.6E1,2.1E1,4E1,1.7E1,1.7E1,1.9E1,6E0,1.5E1,7E0,3.3E1,9E0,8E0,3E0,1.6E1,3E0,3E0,5E0,1E1,4E0,3E0,1E1,6E0,6E0,4E0],"tree_param":{"num_deleted":"0","num_feature":"40","num_nodes":"33","size_leaf_vector":"1"}},{"base_weights":[1.3305358E-2,-6.3903576E-1,3.1950635E-1,-9.57323E-2,-3.9029694E-1,6.070882E-2,6.318821E-1,-4.798092E-2,-2.2256294E-1,-4.9031436E-2,2.0355456E-1,5.371065E-1,1.2689768E-1,-1.1449861E-2,-2.4353238E-2,-8.346375E-2,1.34976255E-2,2.3294123E-1,2.1787644E-3,4.0507638E-1,6.2816635E-2,-1.0849476E-3,-9.332057E-2,-2.9765235E-3,3.5959245E-3,8.477593E-3,2.5007075E-1,4.3040495E-2,1.8349648E-2,-1.2456167E-2,-5.3595803E-3,-1.5991211E-3,1.0633469E-3,2.7002705E-2,1.3220521E-2],"categories":[],"categories_nodes":[],"categories_segments":[],"categories_sizes":[],"default_left":[0,0,0,0,0,0,0,0,0,0,0,0,0,0,0,0,0,0,0,0,0,0,0,0,0,0,0,0,0,0,0,0,0,0,0],"id":27,"left_children":[1,3,5,-1,7,9,11,-1,13,15,17,19,-1,-1,-1,21,23,25,-1,27,-1,-1,29,31,-1,-1,33,-1,-1,-1,-1,-1,-1,-1,-1],"loss_changes":[3.3761753E1,3.9015617E0,9.258476E0,0E0,3.736682E-1,1.0132399E0,2.4582367E0,0E0,1.5745163E-3,8.0788314E-2,1.444875E-1,3.106079E-1,0E0,0E0,0E0,1.616542E-2,5.287538E-3,3.9711952E-2,0E0,4.449296E-2,0E0,0E0,1.9385964E-2,1.7642102E-3,0E0,0E0,1.3696313E-2,0E0,0E0,0E0,0E0,0E0,0E0,0E0,0E0],"parents":[2147483647,0,0,1,1,2,2,4,4,5,5,6,6,8,8,9,9,10,10,11,11,15,15,16,16,17,17,19,19,22,22,23,23,26,26],"right_children":[2,4,6,-1,8,10,12,-1,14,16,18,20,-1,-1,-1,22,24,26,-1,28,-1,-1,30,32,-1,-1,34,-1,-1,-1,-1,-1,-1,-1,-1],"split_conditions":[2.382E1,1.591E1,3.229E1,-9.57323E-2,1.889E1,2.674E1,3.833E1,-4.798092E-2,7.78E2,2.564E1,7.96936E2,3.407E1,1.2689768E-1,-1.1449861E-2,-2.4353238E-2,2.71E2,2.62E1,2.808E1,2.1787644E-3,3.383E1,6.2816635E-2,-1.0849476E-3,2.9120116E5,2.001026E4,3.5959245E-3,8.477593E-3,1.036E2,4.3040495E-2,1.8349648E-2,-1.2456167E-2,-5.3595803E-3,-1.5991211E-3,1.0633469E-3,2.7002705E-2,1.3220521E-2],"split_indices":[0,0,0,0,0,0,0,0,4,0,37,0,0,0,0,2,0,0,0,0,0,0,25,3,0,0,21,0,0,0,0,0,0,0,0],"split_type":[0,0,0,0,0,0,0,0,0,0,0,0,0,0,0,0,0,0,0,0,0,0,0,0,0,0,0,0,0,0,0,0,0,0,0],"sum_hessian":[1.67E2,5.3E1,1.14E2,2.2E1,3.1E1,6.3E1,5.1E1,1.9E1,1.2E1,3.6E1,2.7E1,4.6E1,5E0,3E0,9E0,2.3E1,1.3E1,2.3E1,4E0,2.1E1,2.5E1,3E0,2E1,8E0,5E0,3E0,2E1,1.8E1,3E0,1E1,1E1,4E0,4E0,1.6E1,4E0],"tree_param":{"num_deleted":"0","num_feature":"40","num_nodes":"35","size_leaf_vector":"1"}},{"base_weights":[-3.9531443E-2,-6.4951247E-1,2.497537E-1,-1.3614991E-1,-5.1450384E-1,3.5977907E-2,5.767437E-1,-6.8415575E-2,-3.6349672E-1,-6.793617E-2,1.942753E-1,8.110765E-2,4.6695375E-1,-4.114255E-2,-2.4087524E-1,-1.1397275E-1,-1.8811572E-2,4.6207113E-3,2.2445504E-1,3.7255138E-1,5.4397177E-2,-2.823222E-2,-1.0812426E-2,-1.2382718E-1,-3.8671016E-3,-6.921387E-2,9.323756E-3,2.4122359E-1,1.1584358E-2,1.8327618E-2,3.9818805E-2,-5.1578144E-3,-1.3965505E-2,-1.1195946E-2,-2.1174622E-3,-6.803513E-4,3.4648578E-3,1.1406565E-2,2.579366E-2],"categories":[],"categories_nodes":[],"categories_segments":[],"categories_sizes":[],"default_left":[0,0,0,0,0,0,0,0,0,0,0,0,0,0,0,0,0,0,0,0,0,0,0,0,0,0,0,0,0,0,0,0,0,0,0,0,0,0,0],"id":28,"left_children":[1,3,5,-1,7,9,11,-1,13,15,17,-1,19,-1,21,23,25,-1,27,29,-1,-1,-1,31,-1,33,35,37,-1,-1,-1,-1,-1,-1,-1,-1,-1,-1,-1],"loss_changes":[2.9630777E1,4.490217E0,7.948141E0,0E0,9.5538807E-1,1.1646513E0,7.789974E-1,0E0,5.9579134E-2,9.510173E-2,1.147511E-1,0E0,3.7274837E-2,0E0,2.4495363E-2,1.1536717E-2,3.1843204E-2,0E0,1.3944507E-2,1.4364719E-2,0E0,0E0,0E0,1.4524251E-2,0E0,1.4057029E-2,6.3620354E-3,1.0957003E-2,0E0,0E0,0E0,0E0,0E0,0E0,0E0,0E0,0E0,0E0,0E0],"parents":[2147483647,0,0,1,1,2,2,4,4,5,5,6,6,8,8,9,9,10,10,12,12,14,14,15,15,16,16,18,18,19,19,23,23,25,25,26,26,27,27],"right_children":[2,4,6,-1,8,10,12,-1,14,16,18,-1,20,-1,22,24,26,-1,28,30,-1,-1,-1,32,-1,34,36,38,-1,-1,-1,-1,-1,-1,-1,-1,-1,-1,-1],"split_conditions":[2.368E1,1.019E1,3.25E1,-1.3614991E-1,1.623E1,2.638E1,8.902717E4,-6.8415575E-2,1.889E1,2.507E1,2.5833E2,8.110765E-2,3.472E1,-4.114255E-2,7.62E1,1.041897E4,2.33654E3,4.6207113E-3,4.3533334E2,1.2276498E5,5.4397177E-2,-2.823222E-2,-1.0812426E-2,3.6939E2,-3.8671016E-3,9.8136E2,9.64E2,1.514902E3,1.1584358E-2,1.8327618E-2,3.9818805E-2,-5.1578144E-3,-1.3965505E-2,-1.1195946E-2,-2.1174622E-3,-6.803513E-4,3.4648578E-3,1.1406565E-2,2.579366E-2],"split_indices":[0,0,0,0,0,0,38,0,0,0,1,0,0,0,9,29,29,0,17,38,0,0,0,1,0,16,4,11,0,0,0,0,0,0,0,0,0,0,0],"split_type":[0,0,0,0,0,0,0,0,0,0,0,0,0,0,0,0,0,0,0,0,0,0,0,0,0,0,0,0,0,0,0,0,0,0,0,0,0,0,0],"sum_hessian":[1.66E2,5.3E1,1.13E2,7E0,4.6E1,6.9E1,4.4E1,2E1,2.6E1,4.2E1,2.7E1,1.2E1,3.2E1,1.7E1,9E0,2.1E1,2.1E1,5E0,2.2E1,1.7E1,1.5E1,6E0,3E0,1.8E1,3E0,7E0,1.4E1,1.8E1,4E0,3E0,1.4E1,4E0,1.4E1,3E0,4E0,9E0,5E0,3E0,1.5E1],"tree_param":{"num_deleted":"0","num_feature":"40","num_nodes":"39","size_leaf_vector":"1"}},{"base_weights":[-2.4968803E-2,-6.2515384E-1,2.2897096E-1,-1.4592278E-1,-5.252471E-1,4.298978E-2,5.287918E-1,-6.5574504E-2,-3.5489082E-2,-5.2832976E-2,1.7939156E-1,4.0790036E-1,7.595002E-2,-9.9321604E-2,-2.026019E-3,2.135513E-1,2.6885169E-2,4.786298E-2,3.3799475E-1,-3.894933E-3,-1.1315908E-1,-1.4914227E-2,6.2921527E-3,6.550789E-3,2.3001315E-1,-2.7261258E-3,7.4310303E-3,1.804451E-2,3.6610436E-2,-1.2662048E-2,-5.0143055E-3,-5.263901E-3,-2.1930934E-4,1.0551119E-2,2.4341289E-2],"categories":[],"categories_nodes":[],"categories_segments":[],"categories_sizes":[],"default_left":[0,0,0,0,0,0,0,0,0,0,0,0,0,0,0,0,0,0,0,0,0,0,0,0,0,0,0,0,0,0,0,0,0,0,0],"id":29,"left_children":[1,3,5,-1,7,9,11,-1,-1,13,15,17,-1,19,21,23,25,-1,27,-1,29,31,-1,-1,33,-1,-1,-1,-1,-1,-1,-1,-1,-1,-1],"loss_changes":[2.6662628E1,3.5666847E0,6.835874E0,0E0,8.3437634E-1,1.0158982E0,1.0010605E0,0E0,0E0,1.0844827E-1,1.609652E-1,1.3904572E-3,0E0,1.5642151E-2,2.0190746E-2,4.8296094E-2,2.0001104E-2,0E0,2.2511244E-2,0E0,9.768248E-3,9.482598E-3,0E0,0E0,1.26879215E-2,0E0,0E0,0E0,0E0,0E0,0E0,0E0,0E0,0E0,0E0],"parents":[2147483647,0,0,1,1,2,2,4,4,5,5,6,6,9,9,10,10,11,11,13,13,14,14,15,15,16,16,18,18,20,20,21,21,24,24],"right_children":[2,4,6,-1,8,10,12,-1,-1,14,16,18,-1,20,22,24,26,-1,28,-1,30,32,-1,-1,34,-1,-1,-1,-1,-1,-1,-1,-1,-1,-1],"split_conditions":[2.349E1,8.54E0,3.25E1,-1.4592278E-1,1.623E1,2.674E1,3.651E1,-6.5574504E-2,-3.5489082E-2,2.507E1,1.549E2,4.4101395E4,7.595002E-2,3.7007E2,1.239E3,2.744E1,6.78E2,4.786298E-2,1.89E2,-3.894933E-3,1.041897E4,1.919E1,6.2921527E-3,6.550789E-3,3.787255E2,-2.7261258E-3,7.4310303E-3,1.804451E-2,3.6610436E-2,-1.2662048E-2,-5.0143055E-3,-5.263901E-3,-2.1930934E-4,1.0551119E-2,2.4341289E-2],"split_indices":[0,0,0,0,0,0,0,0,0,0,22,25,0,1,4,0,30,0,30,0,29,26,0,0,24,0,0,0,0,0,0,0,0,0,0],"split_type":[0,0,0,0,0,0,0,0,0,0,0,0,0,0,0,0,0,0,0,0,0,0,0,0,0,0,0,0,0,0,0,0,0,0,0],"sum_hessian":[1.73E2,5.1E1,1.22E2,4E0,4.7E1,7.6E1,4.6E1,2.5E1,2.2E1,4.5E1,3.1E1,3.2E1,1.4E1,2.3E1,2.2E1,2.5E1,6E0,1.3E1,1.9E1,5E0,1.8E1,1.9E1,3E0,3E0,2.2E1,3E0,3E0,4E0,1.5E1,1.4E1,4E0,4E0,1.5E1,3E0,1.9E1],"tree_param":{"num_deleted":"0","num_feature":"40","num_nodes":"35","size_leaf_vector":"1"}},{"base_weights":[-4.3134806E-3,-3.486252E-1,3.7056148E-1,-6.431862E-1,-1.4365867E-1,3.1684119E-1,1.1022537E-1,-9.6353434E-2,-5.286872E-2,-2.8718686E-1,-7.7709764E-2,1.204646E-1,3.8606057E-1,-3.1654418E-2,-1.1997891E-2,-1.4064493E-2,-5.5498518E-2,4.99835E-2,1.521349E-1,2.8432785E-2,4.3606994E-1,-1.5647888E-2,-7.2648905E-2,8.433009E-3,1.2509538E-3,1.6863094E-1,6.873703E-3,4.5926567E-2,2.47413E-2,1.244049E-3,-3.6446888E-3,-1.1244965E-2,-5.1885354E-3,8.489705E-3,1.8941903E-2],"categories":[],"categories_nodes":[],"categories_segments":[],"categories_sizes":[],"default_left":[0,0,0,0,0,0,0,0,0,0,0,0,0,0,0,0,0,0,0,0,0,0,0,0,0,0,0,0,0,0,0,0,0,0,0],"id":30,"left_children":[1,3,5,7,9,11,-1,-1,-1,13,15,17,19,-1,-1,-1,21,23,25,-1,27,29,31,-1,-1,33,-1,-1,-1,-1,-1,-1,-1,-1,-1],"loss_changes":[2.1297297E1,5.099864E0,2.755993E0,7.743759E-1,4.6989024E-1,9.7297287E-1,0E0,0E0,0E0,4.0561795E-2,4.3915525E-2,3.9271086E-2,1.5583038E-1,0E0,0E0,0E0,1.8683366E-2,9.241892E-3,7.669121E-3,0E0,3.953266E-2,6.2955194E-3,1.069361E-2,0E0,0E0,3.066212E-3,0E0,0E0,0E0,0E0,0E0,0E0,0E0,0E0,0E0],"parents":[2147483647,0,0,1,1,2,2,3,3,4,4,5,5,9,9,10,10,11,11,12,12,16,16,17,17,18,18,20,20,21,21,22,22,25,25],"right_children":[2,4,6,8,10,12,-1,-1,-1,14,16,18,20,-1,-1,-1,22,24,26,-1,28,30,32,-1,-1,34,-1,-1,-1,-1,-1,-1,-1,-1,-1],"split_conditions":[2.62E1,1.73E1,3.811E1,9.26E0,2.083E1,3.133E1,1.1022537E-1,-9.6353434E-2,-5.286872E-2,1.319152E4,2.405E1,2.744E1,3.363E1,-3.1654418E-2,-1.1997891E-2,-1.4064493E-2,9.79E1,2.49E2,6.99E2,2.8432785E-2,4.07E2,2.51E2,2.5879298E5,8.433009E-3,1.2509538E-3,1.78E2,6.873703E-3,4.5926567E-2,2.47413E-2,1.244049E-3,-3.6446888E-3,-1.1244965E-2,-5.1885354E-3,8.489705E-3,1.8941903E-2],"split_indices":[0,0,0,0,0,0,0,0,0,3,0,0,0,0,0,0,9,2,30,0,17,28,25,0,0,28,0,0,0,0,0,0,0,0,0],"split_type":[0,0,0,0,0,0,0,0,0,0,0,0,0,0,0,0,0,0,0,0,0,0,0,0,0,0,0,0,0,0,0,0,0,0,0],"sum_hessian":[1.63E2,8.5E1,7.8E1,3.4E1,5.1E1,7.4E1,4E0,7E0,2.7E1,1.5E1,3.6E1,2E1,5.4E1,1.2E1,3E0,8E0,2.8E1,7E0,1.3E1,2E1,3.4E1,9E0,1.9E1,3E0,4E0,1E1,3E0,2.9E1,5E0,4E0,5E0,5E0,1.4E1,3E0,7E0],"tree_param":{"num_deleted":"0","num_feature":"40","num_nodes":"35","size_leaf_vector":"1"}},{"base_weights":[4.12383E-3,-5.818521E-1,1.9941716E-1,-1.2594402E-1,-4.5955256E-1,1.6299296E-2,4.70259E-1,-5.525998E-2,-3.254668E-2,-6.3040264E-2,1.6022852E-1,3.836504E-1,9.722214E-2,-1.3710852E-1,-2.5263105E-2,1.8591781E-1,3.504817E-3,3.2713982E-1,4.6916153E-2,-1.5605423E-1,-3.6521435E-3,-4.642001E-2,9.787968E-3,2.0786922E-1,1.2867461E-2,4.3072682E-2,2.5730187E-1,-1.7360654E-2,-6.877184E-3,-1.1902762E-2,-2.869104E-3,-1.0028363E-3,1.6104091E-3,1.3874364E-2,2.5101114E-2,1.1159039E-2,2.7538765E-2],"categories":[],"categories_nodes":[],"categories_segments":[],"categories_sizes":[],"default_left":[0,0,0,0,0,0,0,0,0,0,0,0,0,0,0,0,0,0,0,0,0,0,0,0,0,0,0,0,0,0,0,0,0,0,0,0,0],"id":31,"left_children":[1,3,5,-1,7,9,11,-1,-1,13,15,17,-1,19,21,23,-1,25,-1,27,-1,29,31,33,-1,-1,35,-1,-1,-1,-1,-1,-1,-1,-1,-1,-1],"loss_changes":[1.968479E1,2.9845734E0,6.390217E0,0E0,2.9424763E-1,9.008049E-1,1.8876686E0,0E0,0E0,1.3923872E-1,8.3526134E-2,6.880331E-2,0E0,2.6697457E-2,2.6409384E-2,2.1535754E-3,0E0,1.1343694E-1,0E0,9.508878E-3,0E0,2.4904653E-2,1.9137709E-3,9.906948E-3,0E0,0E0,2.4610758E-2,0E0,0E0,0E0,0E0,0E0,0E0,0E0,0E0,0E0,0E0],"parents":[2147483647,0,0,1,1,2,2,4,4,5,5,6,6,9,9,10,10,11,11,13,13,14,14,15,15,17,17,19,19,21,21,22,22,23,23,26,26],"right_children":[2,4,6,-1,8,10,12,-1,-1,14,16,18,-1,20,22,24,-1,26,-1,28,-1,30,32,34,-1,-1,36,-1,-1,-1,-1,-1,-1,-1,-1,-1,-1],"split_conditions":[1.889E1,8.96E0,3.25E1,-1.2594402E-1,1.616E1,2.692E1,3.833E1,-5.525998E-2,-3.254668E-2,2.402E1,1.549E2,3.55E1,9.722214E-2,1.24606E3,2.571E1,9.8446E3,3.504817E-3,1.921E1,4.6916153E-2,1.798211E3,-3.6521435E-3,7.41E2,2.585E1,5.09019E3,1.2867461E-2,4.3072682E-2,2.64E2,-1.7360654E-2,-6.877184E-3,-1.1902762E-2,-2.869104E-3,-1.0028363E-3,1.6104091E-3,1.3874364E-2,2.5101114E-2,1.1159039E-2,2.7538765E-2],"split_indices":[0,0,0,0,0,0,0,0,0,0,22,0,0,27,0,3,0,26,0,11,0,4,0,3,0,0,4,0,0,0,0,0,0,0,0,0,0],"split_type":[0,0,0,0,0,0,0,0,0,0,0,0,0,0,0,0,0,0,0,0,0,0,0,0,0,0,0,0,0,0,0,0,0,0,0,0,0],"sum_hessian":[1.7E2,4.2E1,1.28E2,5E0,3.7E1,7.7E1,5.1E1,2E1,1.7E1,5E1,2.7E1,4.5E1,6E0,1.6E1,3.4E1,2.2E1,5E0,3E1,1.5E1,1.3E1,3E0,2.1E1,1.3E1,1.4E1,8E0,1E1,2E1,1E1,3E0,3E0,1.8E1,3E0,1E1,7E0,7E0,3E0,1.7E1],"tree_param":{"num_deleted":"0","num_feature":"40","num_nodes":"37","size_leaf_vector":"1"}},{"base_weights":[2.471906E-2,-3.8040107E-1,2.1284755E-1,-7.200078E-2,-2.9457223E-1,1.616374E-1,7.292694E-1,-3.437266E-1,-1.1586129E-1,7.926968E-3,2.3513356E-1,8.9947514E-2,3.791687E-2,-2.4471128E-1,-4.3982442E-2,-1.4821947E-2,-2.2179603E-3,-3.6053043E-2,2.7901763E-2,-1.857787E-2,2.8705075E-1,-2.6217742E-2,-1.1366892E-2,-1.929152E-2,-1.2356554E-2,3.3806086E-2,-8.532683E-3,3.7481222E-1,1.9569163E-1,3.719457E-3,-6.456443E-3,5.90004E-3,-6.138325E-4,1.8855095E-2,3.97072E-2,2.225112E-2,1.054092E-2],"categories":[],"categories_nodes":[],"categories_segments":[],"categories_sizes":[],"default_left":[0,0,0,0,0,0,0,0,0,0,0,0,0,0,0,0,0,0,0,0,0,0,0,0,0,0,0,0,0,0,0,0,0,0,0,0,0],"id":32,"left_children":[1,3,5,-1,7,9,11,13,15,17,19,-1,-1,21,-1,-1,-1,23,-1,25,27,-1,-1,-1,29,31,-1,33,35,-1,-1,-1,-1,-1,-1,-1,-1],"loss_changes":[1.2732598E1,1.3327513E0,2.8969717E0,0E0,3.4669018E-1,1.1843343E0,2.54838E-1,2.1588516E-1,3.005761E-2,4.273494E-1,9.405441E-1,0E0,0E0,1.36858225E-2,0E0,0E0,0E0,1.1284578E-1,0E0,4.8340034E-2,3.9970255E-1,0E0,0E0,0E0,7.483629E-2,8.413139E-3,0E0,4.5369625E-2,5.1606655E-2,0E0,0E0,0E0,0E0,0E0,0E0,0E0,0E0],"parents":[2147483647,0,0,1,1,2,2,4,4,5,5,6,6,7,7,8,8,9,9,10,10,13,13,17,17,19,19,20,20,24,24,25,25,27,27,28,28],"right_children":[2,4,6,-1,8,10,12,14,16,18,20,-1,-1,22,-1,-1,-1,24,-1,26,28,-1,-1,-1,30,32,-1,34,36,-1,-1,-1,-1,-1,-1,-1,-1],"split_conditions":[6.295E0,3.9125E0,4.928E2,-7.200078E-2,1.055589E3,1.514902E3,1.56499E3,9.07E1,1.24606E3,1.985E1,9.79E1,8.9947514E-2,3.791687E-2,3.25E2,-4.3982442E-2,-1.4821947E-2,-2.2179603E-3,2.17E1,2.7901763E-2,3.51E2,8.9833336E1,-2.6217742E-2,-1.1366892E-2,-1.929152E-2,3.3333334E-1,1.939837E3,-8.532683E-3,8.245E0,1.3315E2,3.719457E-3,-6.456443E-3,5.90004E-3,-6.138325E-4,1.8855095E-2,3.97072E-2,2.225112E-2,1.054092E-2],"split_indices":[13,13,8,0,11,11,1,21,27,26,9,0,0,2,0,0,0,9,0,2,21,0,0,0,20,11,0,13,22,0,0,0,0,0,0,0,0],"split_type":[0,0,0,0,0,0,0,0,0,0,0,0,0,0,0,0,0,0,0,0,0,0,0,0,0,0,0,0,0,0,0,0,0,0,0,0,0],"sum_hessian":[1.65E2,5.2E1,1.13E2,9E0,4.3E1,1.04E2,9E0,3.3E1,1E1,3.4E1,7E1,5E0,4E0,1.8E1,1.5E1,7E0,3E0,3E1,4E0,1.2E1,5.8E1,1.5E1,3E0,3E0,2.7E1,7E0,5E0,2.8E1,3E1,1.4E1,1.3E1,4E0,3E0,4E0,2.4E1,2.2E1,8E0],"tree_param":{"num_deleted":"0","num_feature":"40","num_nodes":"37","size_leaf_vector":"1"}},{"base_weights":[-9.007896E-3,-3.7701926E-1,1.7836402E-1,-5.6980837E-2,-2.395573E-1,8.3603054E-2,5.0478804E-1,-2.8314361E-2,-1.4401554E-1,-1.2733579E-2,1.943483E-1,3.855278E-2,8.181909E-2,-1.6818962E-1,-4.7576427E-3,-5.0327376E-2,3.031739E-2,4.0559005E-3,2.09878E-1,-1.932632E-2,-8.226347E-3,-8.8358745E-3,-3.4500025E-2,5.2632045E-2,-8.883524E-3,2.9294757E-2,1.7686062E-1,-4.1682944E-3,-1.0792733E-3,1.3014361E-3,9.09483E-3,1.0442843E-2,1.9121561E-2],"categories":[],"categories_nodes":[],"categories_segments":[],"categories_sizes":[],"default_left":[0,0,0,0,0,0,0,0,0,0,0,0,0,0,0,0,0,0,0,0,0,0,0,0,0,0,0,0,0,0,0,0,0],"id":33,"left_children":[1,3,5,-1,7,9,11,-1,13,15,17,-1,-1,19,-1,21,23,-1,25,-1,-1,-1,27,29,-1,-1,31,-1,-1,-1,-1,-1,-1],"loss_changes":[1.1651686E1,1.3740635E0,3.4222107E0,0E0,1.0497403E-1,9.413314E-1,6.1897755E-1,0E0,2.23054E-2,7.921136E-2,8.940792E-2,0E0,0E0,5.646229E-3,0E0,1.2601949E-2,6.582913E-2,0E0,4.9670458E-2,0E0,0E0,0E0,2.9558763E-3,2.9176384E-2,0E0,0E0,1.0184765E-2,0E0,0E0,0E0,0E0,0E0,0E0],"parents":[2147483647,0,0,1,1,2,2,4,4,5,5,6,6,8,8,9,9,10,10,13,13,15,15,16,16,18,18,22,22,23,23,26,26],"right_children":[2,4,6,-1,8,10,12,-1,14,16,18,-1,-1,20,-1,22,24,-1,26,-1,-1,-1,28,30,-1,-1,32,-1,-1,-1,-1,-1,-1],"split_conditions":[2.377E1,1.578E1,3.476E1,-5.6980837E-2,1.817E1,3.021E1,3.854E1,-2.8314361E-2,1.308148E4,2.584E1,1.514902E3,3.855278E-2,8.181909E-2,3.65E2,-4.7576427E-3,1.217112E3,5E-1,4.0559005E-3,8.185E1,-1.932632E-2,-8.226347E-3,-8.8358745E-3,4.01E2,2.674E1,-8.883524E-3,2.9294757E-2,3.117E1,-4.1682944E-3,-1.0792733E-3,1.3014361E-3,9.09483E-3,1.0442843E-2,1.9121561E-2],"split_indices":[0,0,0,0,0,0,0,0,3,0,11,0,0,2,0,11,20,0,21,0,0,0,2,0,0,0,0,0,0,0,0,0,0],"split_type":[0,0,0,0,0,0,0,0,0,0,0,0,0,0,0,0,0,0,0,0,0,0,0,0,0,0,0,0,0,0,0,0,0],"sum_hessian":[1.67E2,5.6E1,1.11E2,2.2E1,3.4E1,8.7E1,2.4E1,2.2E1,1.2E1,4.7E1,4E1,1.9E1,5E0,9E0,3E0,2.5E1,2.2E1,4E0,3.6E1,6E0,3E0,6E0,1.9E1,1.9E1,3E0,8E0,2.8E1,1.4E1,5E0,1E1,9E0,6E0,2.2E1],"tree_param":{"num_deleted":"0","num_feature":"40","num_nodes":"33","size_leaf_vector":"1"}},{"base_weights":[-3.9886165E-2,-3.9604753E-1,1.3239765E-1,-1.0470021E-1,-3.11699E-1,-1.041689E-2,2.8040597E-1,-4.1316813E-1,-1.9824146E-1,-5.238488E-2,5.9374437E-2,2.1877404E-1,4.7217768E-2,-4.3043654E-2,-2.1058274E-2,-2.093213E-1,-8.497191E-3,-7.854731E-2,-1.5446158E-2,8.103853E-2,-3.4823993E-3,1.5992853E-1,2.4878992E-1,-2.2616407E-2,-1.2390614E-2,-2.8317643E-3,-8.813625E-2,-6.078148E-3,8.508682E-3,2.2858048E-3,9.502945E-2,1.7251803E-1,7.2735786E-3,1.1402607E-2,2.6040053E-2,-1.03057455E-2,-2.872963E-3,-6.9652137E-4,4.1197776E-3,5.017243E-3,1.0677996E-2,8.735238E-3,1.9554624E-2],"categories":[],"categories_nodes":[],"categories_segments":[],"categories_sizes":[],"default_left":[0,0,0,0,0,0,0,0,0,0,0,0,0,0,0,0,0,0,0,0,0,0,0,0,0,0,0,0,0,0,0,0,0,0,0,0,0,0,0,0,0,0,0],"id":34,"left_children":[1,3,5,-1,7,9,11,13,15,17,19,21,-1,-1,-1,23,-1,25,27,29,-1,31,33,-1,-1,-1,35,-1,37,-1,39,41,-1,-1,-1,-1,-1,-1,-1,-1,-1,-1,-1],"loss_changes":[1.0545139E1,2.7484455E0,2.4548993E0,0E0,5.052271E-1,1.7885043E-1,5.703974E-1,3.142357E-4,1.48438215E-2,3.5510197E-2,4.9758725E-2,3.9694786E-2,0E0,0E0,0E0,5.065322E-3,0E0,8.100465E-3,1.8979175E-2,1.3293795E-2,0E0,7.2105825E-3,1.411891E-2,0E0,0E0,0E0,1.29947215E-2,0E0,6.356883E-3,0E0,2.5489777E-3,1.2336791E-2,0E0,0E0,0E0,0E0,0E0,0E0,0E0,0E0,0E0,0E0,0E0],"parents":[2147483647,0,0,1,1,2,2,4,4,5,5,6,6,7,7,8,8,9,9,10,10,11,11,15,15,17,17,18,18,19,19,21,21,22,22,26,26,28,28,30,30,31,31],"right_children":[2,4,6,-1,8,10,12,14,16,18,20,22,-1,-1,-1,24,-1,26,28,30,-1,32,34,-1,-1,-1,36,-1,38,-1,40,42,-1,-1,-1,-1,-1,-1,-1,-1,-1,-1,-1],"split_conditions":[2.368E1,8.96E0,3.143E1,-1.0470021E-1,1.623E1,2.616E1,3.635E1,1.042623E3,1.189925E4,2.505E1,1.48E2,3.313E1,4.7217768E-2,-4.3043654E-2,-2.1058274E-2,6.85083E2,-8.497191E-3,3.7288E2,2.33654E3,2.648E1,-3.4823993E-3,3.667E2,2.55E2,-2.2616407E-2,-1.2390614E-2,-2.8317643E-3,1.041897E4,-6.078148E-3,1.111E3,2.2858048E-3,6.0339E2,3.108E2,7.2735786E-3,1.1402607E-2,2.6040053E-2,-1.03057455E-2,-2.872963E-3,-6.9652137E-4,4.1197776E-3,5.017243E-3,1.0677996E-2,8.735238E-3,1.9554624E-2],"split_indices":[0,0,0,0,0,0,0,11,29,0,15,0,0,0,0,37,0,1,29,0,0,8,2,0,0,0,29,0,4,0,1,8,0,0,0,0,0,0,0,0,0,0,0],"split_type":[0,0,0,0,0,0,0,0,0,0,0,0,0,0,0,0,0,0,0,0,0,0,0,0,0,0,0,0,0,0,0,0,0,0,0,0,0,0,0,0,0,0,0],"sum_hessian":[1.7E2,5.5E1,1.15E2,5E0,5E1,5.9E1,5.6E1,2.5E1,2.5E1,3.7E1,2.2E1,4.4E1,1.2E1,2.2E1,3E0,2.2E1,3E0,2.1E1,1.6E1,1.8E1,4E0,1.7E1,2.7E1,1.7E1,5E0,4E0,1.7E1,5E0,1.1E1,4E0,1.4E1,1.4E1,3E0,3E0,2.4E1,1.3E1,4E0,8E0,3E0,4E0,1E1,4E0,1E1],"tree_param":{"num_deleted":"0","num_feature":"40","num_nodes":"43","size_leaf_vector":"1"}},{"base_weights":[-2.5842625E-3,-3.140603E-1,1.6182978E-1,-9.8977596E-2,-2.4438787E-1,9.746019E-2,5.006635E-1,-3.73328E-2,-1.5492937E-1,-9.07521E-3,1.8328424E-1,3.3894286E-2,7.4066095E-2,-2.0366745E-2,-1.0829775E-1,-2.5055436E-2,5.230289E-2,1.16922475E-1,2.1593845E-1,-1.4972687E-3,-1.24860406E-1,7.171631E-4,-4.3132115E-2,-3.3084394E-3,1.005106E-2,1.6912898E-2,7.981726E-2,2.9758722E-2,1.729207E-1,-1.581722E-2,-7.1777105E-3,4.4241715E-3,-1.9131921E-3,-5.8911187E-3,-5.4122385E-4,2.0474624E-3,1.03916805E-2,7.1724574E-3,1.9577628E-2],"categories":[],"categories_nodes":[],"categories_segments":[],"categories_sizes":[],"default_left":[0,0,0,0,0,0,0,0,0,0,0,0,0,0,0,0,0,0,0,0,0,0,0,0,0,0,0,0,0,0,0,0,0,0,0,0,0,0,0],"id":35,"left_children":[1,3,5,-1,7,9,11,-1,13,15,17,-1,-1,-1,19,21,23,25,27,-1,29,31,33,-1,-1,-1,35,-1,37,-1,-1,-1,-1,-1,-1,-1,-1,-1,-1],"loss_changes":[8.449434E0,2.4415998E0,2.3067493E0,0E0,5.535042E-1,8.428468E-1,4.087715E-1,0E0,5.2943587E-2,4.2505585E-2,8.52685E-2,0E0,0E0,0E0,2.749902E-2,1.5870953E-2,4.037226E-2,2.3306131E-2,6.444836E-2,0E0,1.6939625E-2,1.38052665E-2,1.1584852E-2,0E0,0E0,0E0,1.646404E-2,0E0,4.1467547E-2,0E0,0E0,0E0,0E0,0E0,0E0,0E0,0E0,0E0,0E0],"parents":[2147483647,0,0,1,1,2,2,4,4,5,5,6,6,8,8,9,9,10,10,14,14,15,15,16,16,17,17,18,18,20,20,21,21,22,22,26,26,28,28],"right_children":[2,4,6,-1,8,10,12,-1,14,16,18,-1,-1,-1,20,22,24,26,28,-1,30,32,34,-1,-1,-1,36,-1,38,-1,-1,-1,-1,-1,-1,-1,-1,-1,-1],"split_conditions":[2.402E1,8.96E0,3.645E1,-9.8977596E-2,1.623E1,3.021E1,3.861E1,-3.73328E-2,9.87E0,2.692E1,3.25E1,3.3894286E-2,7.4066095E-2,-2.0366745E-2,7.62E2,1.039E2,2.34E2,1.42E2,4.427785E2,-1.4972687E-3,3.65E2,1.06E2,2.547E1,-3.3084394E-3,1.005106E-2,1.6912898E-2,2.46E2,2.9758722E-2,8.83239E2,-1.581722E-2,-7.1777105E-3,4.4241715E-3,-1.9131921E-3,-5.8911187E-3,-5.4122385E-4,2.0474624E-3,1.03916805E-2,7.1724574E-3,1.9577628E-2],"split_indices":[0,0,0,0,0,0,0,0,26,0,0,0,0,0,4,9,28,30,24,0,2,15,0,0,0,0,17,0,37,0,0,0,0,0,0,0,0,0,0],"split_type":[0,0,0,0,0,0,0,0,0,0,0,0,0,0,0,0,0,0,0,0,0,0,0,0,0,0,0,0,0,0,0,0,0,0,0,0,0,0,0],"sum_hessian":[1.63E2,5.6E1,1.07E2,4E0,5.2E1,9.1E1,1.6E1,2E1,3.2E1,4.1E1,5E1,1.1E1,5E0,1.4E1,1.8E1,3.3E1,8E0,1.8E1,3.2E1,3E0,1.5E1,1.4E1,1.9E1,3E0,5E0,6E0,1.2E1,9E0,2.3E1,8E0,7E0,4E0,1E1,1.3E1,6E0,4E0,8E0,5E0,1.8E1],"tree_param":{"num_deleted":"0","num_feature":"40","num_nodes":"39","size_leaf_vector":"1"}},{"base_weights":[-9.077964E-3,-3.432843E-1,1.2411506E-1,-2.5882715E-1,-8.772703E-2,1.362348E-2,2.3069651E-1,-3.0942413E-1,-1.22155115E-1,-2.5564974E-2,1.2054026E-1,1.6040286E-1,5.2924067E-1,-3.2678217E-2,-1.1490154E-2,-1.4912014E-2,-2.4203777E-3,-1.09985925E-1,-7.142748E-4,1.4494593E-1,3.7858584E-3,-2.0745087E-2,2.0067303E-1,6.5087564E-2,2.5310365E-2,-1.5410003E-2,-5.4893177E-3,9.868288E-3,-1.3116598E-2,1.8368492E-2,1.0261583E-2,4.3595996E-2,-1.2815571E-2,2.7671373E-1,1.4616057E-1,8.37102E-3,-2.601972E-3,8.634949E-3,-1.0056496E-3,1.1825218E-2,3.196799E-2,1.7615128E-3,1.6873179E-2],"categories":[],"categories_nodes":[],"categories_segments":[],"categories_sizes":[],"default_left":[0,0,0,0,0,0,0,0,0,0,0,0,0,0,0,0,0,0,0,0,0,0,0,0,0,0,0,0,0,0,0,0,0,0,0,0,0,0,0,0,0,0,0],"id":36,"left_children":[1,3,5,7,-1,9,11,13,15,17,19,21,23,-1,-1,-1,-1,25,27,29,-1,31,33,-1,-1,-1,-1,-1,35,-1,-1,37,-1,39,41,-1,-1,-1,-1,-1,-1,-1,-1],"loss_changes":[7.342895E0,1.8925886E0,1.3864669E0,2.5264025E-1,0E0,2.502859E-1,1.174254E0,6.374812E-2,3.0727118E-2,9.22299E-2,2.6798993E-2,3.689059E-1,2.0472789E-1,0E0,0E0,0E0,0E0,1.5844636E-2,4.4440832E-2,8.289218E-4,0E0,7.469623E-2,1.295073E-1,0E0,0E0,0E0,0E0,0E0,4.2157896E-2,0E0,0E0,1.6925192E-2,0E0,7.11329E-2,7.2464764E-2,0E0,0E0,0E0,0E0,0E0,0E0,0E0,0E0],"parents":[2147483647,0,0,1,1,2,2,3,3,5,5,6,6,7,7,8,8,9,9,10,10,11,11,12,12,17,17,18,18,19,19,21,21,22,22,28,28,31,31,33,33,34,34],"right_children":[2,4,6,8,-1,10,12,14,16,18,20,22,24,-1,-1,-1,-1,26,28,30,-1,32,34,-1,-1,-1,-1,-1,36,-1,-1,38,-1,40,42,-1,-1,-1,-1,-1,-1,-1,-1],"split_conditions":[5.93E0,4.7833334E2,8.4075E0,9.52E0,-8.772703E-2,4.55E2,1.133029E4,1.95E2,1.112399E4,2.17E1,2.69E2,1E0,5.25E2,-3.2678217E-2,-1.1490154E-2,-1.4912014E-2,-2.4203777E-3,3.65E2,4.1E2,1.762E1,3.7858584E-3,3.51E2,5.3E2,6.5087564E-2,2.5310365E-2,-1.5410003E-2,-5.4893177E-3,9.868288E-3,1.24E2,1.8368492E-2,1.0261583E-2,1.039876E3,-1.2815571E-2,1E0,1E0,8.37102E-3,-2.601972E-3,8.634949E-3,-1.0056496E-3,1.1825218E-2,3.196799E-2,1.7615128E-3,1.6873179E-2],"split_indices":[13,17,13,26,0,2,3,28,29,9,28,6,2,0,0,0,0,2,4,26,0,2,4,0,0,0,0,0,28,0,0,24,0,7,7,0,0,0,0,0,0,0,0],"split_type":[0,0,0,0,0,0,0,0,0,0,0,0,0,0,0,0,0,0,0,0,0,0,0,0,0,0,0,0,0,0,0,0,0,0,0,0,0,0,0,0,0,0,0],"sum_hessian":[1.63E2,4.6E1,1.17E2,4.1E1,5E0,5.8E1,5.9E1,2.9E1,1.2E1,4.3E1,1.5E1,4.9E1,1E1,2.6E1,3E0,9E0,3E0,9E0,3.4E1,1.1E1,4E0,9E0,4E1,6E0,4E0,4E0,5E0,3E0,3.1E1,4E0,7E0,6E0,3E0,1.5E1,2.5E1,3E0,2.8E1,3E0,3E0,4E0,1.1E1,4E0,2.1E1],"tree_param":{"num_deleted":"0","num_feature":"40","num_nodes":"43","size_leaf_vector":"1"}},{"base_weights":[4.795168E-4,-2.0045443E-1,1.4641598E-1,-3.3127302E-1,-8.50163E-2,9.23156E-2,3.326594E-1,-3.9593562E-2,-2.1985428E-2,-1.1053387E-1,-3.8520433E-2,1.4148712E-2,1.3350315E-1,2.6566619E-2,4.286935E-2,-1.4259378E-2,-5.9681807E-2,-5.626043E-4,-5.4405024E-3,-6.2889373E-3,3.357574E-2,5.7095E-2,1.470195E-1,-7.630702E-3,-2.447014E-3,5.704562E-4,-1.3585832E-2,6.077862E-3,2.0631444E-2,2.315998E-3,9.372378E-3,1.8843527E-1,1.12976E-1,-2.918005E-3,-9.25382E-5,3.1137468E-5,2.8212548E-3,2.121475E-2,8.9096455E-3,6.4174444E-3,1.3216647E-2],"categories":[],"categories_nodes":[],"categories_segments":[],"categories_sizes":[],"default_left":[0,0,0,0,0,0,0,0,0,0,0,0,0,0,0,0,0,0,0,0,0,0,0,0,0,0,0,0,0,0,0,0,0,0,0,0,0,0,0,0,0],"id":37,"left_children":[1,3,5,7,9,11,13,-1,-1,15,17,19,21,-1,-1,-1,23,-1,-1,25,27,29,31,-1,-1,-1,33,-1,35,-1,-1,37,39,-1,-1,-1,-1,-1,-1,-1,-1],"loss_changes":[4.809095E0,1.0138366E0,9.264951E-1,1.4349985E-1,4.082772E-2,2.3957378E-1,2.121687E-2,0E0,0E0,3.0617267E-2,7.5316243E-3,1.0931309E-2,4.2211175E-2,0E0,0E0,0E0,4.5721717E-3,0E0,0E0,1.3027154E-3,3.6757607E-3,9.016344E-3,3.6518693E-2,0E0,0E0,0E0,1.7498657E-3,0E0,1.6857497E-3,0E0,0E0,2.1142721E-2,1.493144E-2,0E0,0E0,0E0,0E0,0E0,0E0,0E0,0E0],"parents":[2147483647,0,0,1,1,2,2,3,3,4,4,5,5,6,6,9,9,10,10,11,11,12,12,16,16,19,19,20,20,21,21,22,22,26,26,28,28,31,31,32,32],"right_children":[2,4,6,8,10,12,14,-1,-1,16,18,20,22,-1,-1,-1,24,-1,-1,26,28,30,32,-1,-1,-1,34,-1,36,-1,-1,38,40,-1,-1,-1,-1,-1,-1,-1,-1],"split_conditions":[2.541E1,1.73E1,3.622E1,1.578E1,1.336993E3,2.841E1,3.833E1,-3.9593562E-2,-2.1985428E-2,2.12136E3,3.7007E2,2.616E1,3.108E2,2.6566619E-2,4.286935E-2,-1.4259378E-2,7.78E2,-5.626043E-4,-5.4405024E-3,1.370678E3,1.01333336E2,1.8492744E5,2.3950076E3,-7.630702E-3,-2.447014E-3,5.704562E-4,1.029656E3,6.077862E-3,6.03E2,2.315998E-3,9.372378E-3,4.32E2,8.86776E3,-2.918005E-3,-9.25382E-5,3.1137468E-5,2.8212548E-3,2.121475E-2,8.9096455E-3,6.4174444E-3,1.3216647E-2],"split_indices":[0,0,0,0,11,0,0,0,0,1,1,0,8,0,0,0,4,0,0,11,15,25,16,0,0,0,37,0,4,0,0,17,29,0,0,0,0,0,0,0,0],"split_type":[0,0,0,0,0,0,0,0,0,0,0,0,0,0,0,0,0,0,0,0,0,0,0,0,0,0,0,0,0,0,0,0,0,0,0,0,0,0,0,0,0],"sum_hessian":[1.62E2,6.8E1,9.4E1,3.1E1,3.7E1,7.4E1,2E1,1.8E1,1.3E1,2.3E1,1.4E1,2.6E1,4.8E1,1.4E1,6E0,1.3E1,1E1,5E0,9E0,1.3E1,1.3E1,8E0,4E1,6E0,4E0,5E0,8E0,3E0,1E1,5E0,3E0,1.6E1,2.4E1,3E0,5E0,3E0,7E0,1.2E1,4E0,8E0,1.6E1],"tree_param":{"num_deleted":"0","num_feature":"40","num_nodes":"41","size_leaf_vector":"1"}},{"base_weights":[5.147302E-5,-2.479625E-1,1.1866641E-1,-8.675879E-2,-1.955305E-1,9.474907E-2,6.25898E-2,-2.750843E-1,-1.2295046E-1,4.3806664E-4,1.7490612E-1,-2.9208124E-2,-1.1707926E-2,-1.3421287E-1,-1.9007206E-3,1.1904758E-2,-7.4977055E-2,2.1229437E-1,1.3788258E-1,-1.445961E-2,-6.1684037E-3,-1.2331124E-2,6.818186E-2,-1.2153864E-2,-9.6712116E-4,5.6349947E-3,2.359372E-1,1.651434E-2,8.90898E-2,5.565834E-3,-2.098535E-3,1.00323E-2,3.1535625E-3,2.9994285E-2,1.8518794E-2,1.11399125E-2,4.0777526E-3],"categories":[],"categories_nodes":[],"categories_segments":[],"categories_sizes":[],"default_left":[0,0,0,0,0,0,0,0,0,0,0,0,0,0,0,0,0,0,0,0,0,0,0,0,0,0,0,0,0,0,0,0,0,0,0,0,0],"id":38,"left_children":[1,3,5,-1,7,9,-1,11,13,15,17,-1,-1,19,-1,21,23,25,27,-1,-1,29,31,-1,-1,-1,33,-1,35,-1,-1,-1,-1,-1,-1,-1,-1],"loss_changes":[5.0010943E0,1.6172113E0,1.335834E0,0E0,2.6642704E-1,8.390493E-1,0E0,3.0257702E-2,3.139788E-2,4.5860205E-2,5.378306E-2,0E0,0E0,1.0660917E-2,0E0,6.358131E-2,2.010978E-2,8.993995E-2,2.9181719E-2,0E0,0E0,2.058508E-2,1.33261755E-2,0E0,0E0,0E0,2.2411942E-2,0E0,1.0546811E-2,0E0,0E0,0E0,0E0,0E0,0E0,0E0,0E0],"parents":[2147483647,0,0,1,1,2,2,4,4,5,5,7,7,8,8,9,9,10,10,13,13,15,15,16,16,17,17,18,18,21,21,22,22,26,26,28,28],"right_children":[2,4,6,-1,8,10,-1,12,14,16,18,-1,-1,20,-1,22,24,26,28,-1,-1,30,32,-1,-1,-1,34,-1,36,-1,-1,-1,-1,-1,-1,-1,-1],"split_conditions":[2.377E1,8.96E0,3.833E1,-8.675879E-2,1.639E1,3.083E1,6.25898E-2,3.5219876E2,1.183234E4,1.887E2,4.52E2,-2.9208124E-2,-1.1707926E-2,3.65E2,-1.9007206E-3,2.692E1,3.7275E2,5.1325E1,1.6832842E5,-1.445961E-2,-6.1684037E-3,1.94E2,1.671628E3,-1.2153864E-2,-9.6712116E-4,5.6349947E-3,1.7916822E5,1.651434E-2,1.944419E3,5.565834E-3,-2.098535E-3,1.00323E-2,3.1535625E-3,2.9994285E-2,1.8518794E-2,1.11399125E-2,4.0777526E-3],"split_indices":[0,0,0,0,0,0,0,24,29,22,2,0,0,2,0,0,17,22,12,0,0,2,11,0,0,0,12,0,11,0,0,0,0,0,0,0,0],"split_type":[0,0,0,0,0,0,0,0,0,0,0,0,0,0,0,0,0,0,0,0,0,0,0,0,0,0,0,0,0,0,0,0,0,0,0,0,0],"sum_hessian":[1.68E2,5.4E1,1.14E2,3E0,5.1E1,1.1E2,4E0,2.3E1,2.8E1,5.1E1,5.9E1,2E1,3E0,2.5E1,3E0,4.5E1,6E0,2.7E1,3.2E1,2.1E1,4E0,3.2E1,1.3E1,3E0,3E0,4E0,2.3E1,1.9E1,1.3E1,3E0,2.9E1,6E0,7E0,8E0,1.5E1,8E0,5E0],"tree_param":{"num_deleted":"0","num_feature":"40","num_nodes":"37","size_leaf_vector":"1"}},{"base_weights":[1.1211065E-2,-1.9351475E-1,1.0952914E-1,-3.3433594E-2,-1.4995106E-1,7.471226E-2,4.2933655E-1,-1.9436896E-1,-7.842277E-2,1.4857089E-4,1.12583525E-1,2.6114926E-2,6.1633017E-2,-2.0766908E-2,-7.59511E-3,-1.1311976E-1,-3.501214E-2,-2.0792484E-2,1.5716935E-2,1.6860676E-1,5.3042054E-2,-1.5897943E-2,-6.369337E-3,-7.2119907E-3,9.098053E-4,-4.2500496E-2,4.421711E-2,2.1435674E-2,1.2111473E-1,8.360412E-2,-1.2904081E-2,-1.046251E-2,-8.7819103E-4,6.689978E-3,1.7227555E-3,1.4449428E-2,5.027326E-3,5.3856485E-3,1.1391564E-2,-3.239403E-3,2.8607505E-4],"categories":[],"categories_nodes":[],"categories_segments":[],"categories_sizes":[],"default_left":[0,0,0,0,0,0,0,0,0,0,0,0,0,0,0,0,0,0,0,0,0,0,0,0,0,0,0,0,0,0,0,0,0,0,0,0,0,0,0,0,0],"id":39,"left_children":[1,3,5,-1,7,9,11,13,15,17,19,-1,-1,-1,-1,21,23,25,-1,27,29,-1,-1,-1,-1,31,33,-1,35,37,39,-1,-1,-1,-1,-1,-1,-1,-1,-1,-1],"loss_changes":[3.1008172E0,2.5660038E-1,1.1259317E0,0E0,1.1184251E-1,2.6824623E-1,1.5354538E-1,2.2026658E-2,2.1645144E-2,1.117779E-1,2.0120627E-1,0E0,0E0,0E0,0E0,1.0274179E-2,1.5387627E-2,4.421612E-2,0E0,4.3566525E-2,6.557322E-2,0E0,0E0,0E0,0E0,4.726053E-2,3.7450418E-3,0E0,2.254814E-2,1.3702214E-2,3.472484E-3,0E0,0E0,0E0,0E0,0E0,0E0,0E0,0E0,0E0,0E0],"parents":[2147483647,0,0,1,1,2,2,4,4,5,5,6,6,7,7,8,8,9,9,10,10,15,15,16,16,17,17,19,19,20,20,25,25,26,26,28,28,29,29,30,30],"right_children":[2,4,6,-1,8,10,12,14,16,18,20,-1,-1,-1,-1,22,24,26,-1,28,30,-1,-1,-1,-1,32,34,-1,36,38,40,-1,-1,-1,-1,-1,-1,-1,-1,-1,-1],"split_conditions":[6.295E0,1.5E1,4.928E2,-3.3433594E-2,9.4E0,1.514902E3,9.68E0,1.0075E2,2.10679E3,1.985E1,9.1675E1,2.6114926E-2,6.1633017E-2,-2.0766908E-2,-7.59511E-3,1.4554347E5,1.041897E4,1.56532E3,1.5716935E-2,3.96E2,1.232E2,-1.5897943E-2,-6.369337E-3,-7.2119907E-3,9.098053E-4,3.65E2,2.6463E3,2.1435674E-2,3.241E2,2.029092E3,1.27E2,-1.046251E-2,-8.7819103E-4,6.689978E-3,1.7227555E-3,1.4449428E-2,5.027326E-3,5.3856485E-3,1.1391564E-2,-3.239403E-3,2.8607505E-4],"split_indices":[13,9,8,0,26,11,13,15,1,26,21,0,0,0,0,12,29,1,0,2,21,0,0,0,0,2,1,0,8,11,15,0,0,0,0,0,0,0,0,0,0],"split_type":[0,0,0,0,0,0,0,0,0,0,0,0,0,0,0,0,0,0,0,0,0,0,0,0,0,0,0,0,0,0,0,0,0,0,0,0,0,0,0,0,0],"sum_hessian":[1.52E2,4.9E1,1.03E2,1E1,3.9E1,9.4E1,9E0,2.3E1,1.6E1,3.2E1,6.2E1,6E0,3E0,2E1,3E0,8E0,8E0,2.9E1,3E0,3.1E1,3.1E1,3E0,5E0,4E0,4E0,2.2E1,7E0,1.4E1,1.7E1,2.1E1,1E1,7E0,1.5E1,3E0,4E0,1.2E1,5E0,1.2E1,9E0,4E0,6E0],"tree_param":{"num_deleted":"0","num_feature":"40","num_nodes":"41","size_leaf_vector":"1"}},{"base_weights":[-2.0822328E-2,-2.1028845E-1,9.305565E-2,-7.125833E-2,-1.6415688E-1,5.698005E-2,3.2347706E-1,-2.507784E-2,-1.09687656E-1,2.2689058E-3,1.19272545E-1,2.1824647E-2,5.3199198E-2,-1.1724178E-1,-1.6167164E-3,1.3865492E-2,-8.508365E-3,2.131908E-2,9.508869E-2,-1.4421872E-2,-7.165794E-2,-5.007195E-3,6.0706504E-2,6.552577E-2,1.4235188E-1,-1.061368E-2,-5.4193498E-3,4.9274922E-3,-1.2077903E-3,9.305458E-3,3.5990186E-3,6.2332154E-5,7.847509E-3,6.921387E-3,1.573719E-2],"categories":[],"categories_nodes":[],"categories_segments":[],"categories_sizes":[],"default_left":[0,0,0,0,0,0,0,0,0,0,0,0,0,0,0,0,0,0,0,0,0,0,0,0,0,0,0,0,0,0,0,0,0,0,0],"id":40,"left_children":[1,3,5,-1,7,9,11,-1,13,15,17,-1,-1,19,-1,21,-1,-1,23,-1,25,27,29,31,33,-1,-1,-1,-1,-1,-1,-1,-1,-1,-1],"loss_changes":[3.6227636E0,1.342838E0,8.543903E-1,0E0,2.50867E-1,3.1327394E-1,1.9108474E-1,0E0,2.4950176E-2,5.18293E-2,7.739407E-2,0E0,0E0,3.2705516E-2,0E0,4.008468E-2,0E0,0E0,4.097286E-2,0E0,3.2803863E-3,1.3260968E-2,7.0447773E-3,2.0121723E-2,3.3886135E-3,0E0,0E0,0E0,0E0,0E0,0E0,0E0,0E0,0E0,0E0],"parents":[2147483647,0,0,1,1,2,2,4,4,5,5,6,6,8,8,9,9,10,10,13,13,15,15,18,18,20,20,21,21,22,22,23,23,24,24],"right_children":[2,4,6,-1,8,10,12,-1,14,16,18,-1,-1,20,-1,22,-1,-1,24,-1,26,28,30,32,34,-1,-1,-1,-1,-1,-1,-1,-1,-1,-1],"split_conditions":[2.405E1,8.96E0,3.651E1,-7.125833E-2,1.598E1,3.083E1,3.863E1,-2.507784E-2,1.219752E4,1.887E2,1.36E2,2.1824647E-2,5.3199198E-2,6.85083E2,-1.6167164E-3,2.674E1,-8.508365E-3,2.131908E-2,3.413E1,-1.4421872E-2,1.65E1,1.94E2,4.09E2,1.89E2,8.4744E2,-1.061368E-2,-5.4193498E-3,4.9274922E-3,-1.2077903E-3,9.305458E-3,3.5990186E-3,6.2332154E-5,7.847509E-3,6.921387E-3,1.573719E-2],"split_indices":[0,0,0,0,0,0,0,0,29,22,30,0,0,37,0,0,0,0,0,0,0,2,2,30,37,0,0,0,0,0,0,0,0,0,0],"split_type":[0,0,0,0,0,0,0,0,0,0,0,0,0,0,0,0,0,0,0,0,0,0,0,0,0,0,0,0,0,0,0,0,0,0,0],"sum_hessian":[1.66E2,6.2E1,1.04E2,4E0,5.8E1,9.1E1,1.3E1,2.1E1,3.7E1,4.9E1,4.2E1,1E1,3E0,3.4E1,3E0,4.4E1,5E0,7E0,3.5E1,2E1,1.4E1,3.2E1,1.2E1,2.3E1,1.2E1,3E0,1.1E1,3E0,2.9E1,4E0,8E0,4E0,1.9E1,3E0,9E0],"tree_param":{"num_deleted":"0","num_feature":"40","num_nodes":"35","size_leaf_vector":"1"}},{"base_weights":[-9.469398E-3,-2.2527918E-1,7.374806E-2,-1.6472279E-1,-6.116275E-2,5.0827645E-2,3.5587904E-1,-1.7920859E-1,1.7694473E-3,-1.1156599E-2,9.447565E-2,1.8075753E-2,5.2959155E-2,-2.1176673E-2,-1.24617636E-1,-2.5960244E-2,1.5817357E-2,1.6864777E-1,5.6948207E-2,-1.50345415E-2,-7.688069E-2,-5.475194E-2,-1.2552619E-2,1.8913899E-2,8.248138E-3,8.059588E-2,-2.860478E-3,-3.9548874E-3,-1.0432529E-2,-8.618737E-3,-2.7711445E-3,1.5119807E-3,-3.4915607E-3,1.2122345E-2,6.7077777E-3,1.9204033E-3,-3.54805E-3],"categories":[],"categories_nodes":[],"categories_segments":[],"categories_sizes":[],"default_left":[0,0,0,0,0,0,0,0,0,0,0,0,0,0,0,0,0,0,0,0,0,0,0,0,0,0,0,0,0,0,0,0,0,0,0,0,0],"id":41,"left_children":[1,3,5,7,-1,9,11,13,-1,15,17,-1,-1,-1,19,21,-1,23,25,-1,27,29,31,-1,-1,33,35,-1,-1,-1,-1,-1,-1,-1,-1,-1,-1],"loss_changes":[3.0337496E0,9.988568E-1,7.7083164E-1,1.1415434E-1,0E0,3.094797E-1,1.7805946E-1,4.292798E-2,0E0,1.2442799E-1,1.768896E-1,0E0,0E0,0E0,9.32014E-3,1.6683994E-2,0E0,2.3243904E-2,6.529002E-2,0E0,4.070509E-3,9.512033E-3,2.0330736E-2,0E0,0E0,9.9924505E-3,1.07577965E-2,0E0,0E0,0E0,0E0,0E0,0E0,0E0,0E0,0E0,0E0],"parents":[2147483647,0,0,1,1,2,2,3,3,5,5,6,6,7,7,9,9,10,10,14,14,15,15,17,17,18,18,20,20,21,21,22,22,25,25,26,26],"right_children":[2,4,6,8,-1,10,12,14,-1,16,18,-1,-1,-1,20,22,-1,24,26,-1,28,30,32,-1,-1,34,36,-1,-1,-1,-1,-1,-1,-1,-1,-1,-1],"split_conditions":[1.057557E3,4.7833334E2,4.928E2,3.63E2,-6.116275E-2,1.514902E3,9.6575E0,3.04E2,1.7694473E-3,1.738E1,8.185E1,1.8075753E-2,5.2959155E-2,-2.1176673E-2,1.284E3,6.295E0,1.5817357E-2,5.01E2,1.232E2,-1.50345415E-2,3.27037E3,9.625E1,3.7032175E2,1.8913899E-2,8.248138E-3,3.92E2,2.947E2,-3.9548874E-3,-1.0432529E-2,-8.618737E-3,-2.7711445E-3,1.5119807E-3,-3.4915607E-3,1.2122345E-2,6.7077777E-3,1.9204033E-3,-3.54805E-3],"split_indices":[11,17,8,2,0,11,13,2,0,13,21,0,0,0,4,13,0,2,21,0,16,15,24,0,0,2,1,0,0,0,0,0,0,0,0,0,0],"split_type":[0,0,0,0,0,0,0,0,0,0,0,0,0,0,0,0,0,0,0,0,0,0,0,0,0,0,0,0,0,0,0,0,0,0,0,0,0],"sum_hessian":[1.67E2,4.6E1,1.21E2,4.1E1,5E0,1.13E2,8E0,3.8E1,3E0,4.7E1,6.6E1,5E0,3E0,2.2E1,1.6E1,4.4E1,3E0,2.1E1,4.5E1,9E0,7E0,1.3E1,3.1E1,1.6E1,5E0,3.2E1,1.3E1,4E0,3E0,5E0,8E0,1.4E1,1.7E1,6E0,2.6E1,8E0,5E0],"tree_param":{"num_deleted":"0","num_feature":"40","num_nodes":"37","size_leaf_vector":"1"}},{"base_weights":[-8.876565E-3,-1.8834434E-1,6.8765245E-2,-1.356872E-1,-5.606584E-2,4.198494E-2,5.5955663E-2,-2.2571608E-2,-9.72736E-2,-1.3642045E-2,9.618506E-2,-1.2579736E-1,-4.753985E-2,4.4258628E-2,-4.3120254E-2,-1.3442846E-2,1.1797158E-1,-1.4721043E-2,-8.752193E-2,-6.363713E-2,8.612633E-4,-1.7342567E-3,8.471918E-2,-1.1303807E-2,-1.9966125E-2,4.5812605E-3,-5.5142404E-3,1.9223303E-2,9.176108E-2,-1.1507797E-2,-3.6950302E-3,-8.221136E-3,-2.4905778E-3,2.1388244E-3,-3.020382E-3,1.1991501E-2,1.9544603E-3,-3.5150528E-3,7.5596705E-4,1.6909918E-3,-1.1129379E-3,1.293577E-2,6.396465E-3],"categories":[],"categories_nodes":[],"categories_segments":[],"categories_sizes":[],"default_left":[0,0,0,0,0,0,0,0,0,0,0,0,0,0,0,0,0,0,0,0,0,0,0,0,0,0,0,0,0,0,0,0,0,0,0,0,0,0,0,0,0,0,0],"id":42,"left_children":[1,3,5,7,-1,-1,9,-1,11,13,15,17,19,21,23,25,27,-1,29,31,-1,33,35,-1,37,39,-1,-1,41,-1,-1,-1,-1,-1,-1,-1,-1,-1,-1,-1,-1,-1,-1],"loss_changes":[2.3538978E0,9.2378056E-1,5.071815E-1,1.371271E-1,0E0,0E0,3.232976E-1,0E0,4.2251825E-2,7.5301185E-2,1.7593986E-1,4.327357E-3,1.3202712E-2,2.8060392E-2,4.4690754E-2,1.0023386E-2,1.01092756E-1,0E0,9.683371E-3,5.8659166E-3,0E0,5.9123063E-3,1.6007297E-2,0E0,9.878871E-3,2.1251077E-3,0E0,0E0,4.08431E-2,0E0,0E0,0E0,0E0,0E0,0E0,0E0,0E0,0E0,0E0,0E0,0E0,0E0,0E0],"parents":[2147483647,0,0,1,1,2,2,3,3,6,6,8,8,9,9,10,10,11,11,12,12,13,13,14,14,15,15,16,16,18,18,19,19,21,21,22,22,24,24,25,25,28,28],"right_children":[2,4,6,8,-1,-1,10,-1,12,14,16,18,20,22,24,26,28,-1,30,32,-1,34,36,-1,38,40,-1,-1,42,-1,-1,-1,-1,-1,-1,-1,-1,-1,-1,-1,-1,-1,-1],"split_conditions":[6.005E0,4.7833334E2,6.2E1,2.89E2,-5.606584E-2,4.198494E-2,1.52995E3,-2.2571608E-2,9.52E0,2.6775E2,9.79E1,3.4E2,1.112399E4,8.936382E4,3.65E2,4.9E2,9.097608E4,-1.4721043E-2,3.03E2,1.4554347E5,8.612633E-4,1.06E2,1.05729E3,-1.1303807E-2,5.661E2,3.3333334E-1,-5.5142404E-3,1.9223303E-2,2.38E2,-1.1507797E-2,-3.6950302E-3,-8.221136E-3,-2.4905778E-3,2.1388244E-3,-3.020382E-3,1.1991501E-2,1.9544603E-3,-3.5150528E-3,7.5596705E-4,1.6909918E-3,-1.1129379E-3,1.293577E-2,6.396465E-3],"split_indices":[13,17,28,2,0,0,11,0,26,17,9,17,29,38,2,17,38,0,2,38,0,15,3,0,9,20,0,0,28,0,0,0,0,0,0,0,0,0,0,0,0,0,0],"split_type":[0,0,0,0,0,0,0,0,0,0,0,0,0,0,0,0,0,0,0,0,0,0,0,0,0,0,0,0,0,0,0,0,0,0,0,0,0,0,0,0,0,0,0],"sum_hessian":[1.67E2,5E1,1.17E2,4.5E1,5E0,3E0,1.14E2,1.2E1,3.3E1,4.2E1,7.2E1,2E1,1.3E1,1.4E1,2.8E1,1.2E1,6E1,1.1E1,9E0,1E1,3E0,7E0,7E0,6E0,2.2E1,9E0,3E0,1.4E1,4.6E1,5E0,4E0,6E0,4E0,4E0,3E0,4E0,3E0,1.4E1,8E0,5E0,4E0,1.8E1,2.8E1],"tree_param":{"num_deleted":"0","num_feature":"40","num_nodes":"43","size_leaf_vector":"1"}},{"base_weights":[-1.5347749E-2,-2.03953E-1,4.8177943E-2,-6.209911E-2,-1.5335555E-1,-1.3852926E-2,1.2061119E-1,-2.0525567E-1,-1.04038514E-1,-4.3486632E-2,4.5542833E-3,1.977787E-2,9.2016995E-2,-9.784079E-3,-2.2128453E-2,-4.9159527E-3,-1.1811572E-2,-6.0421553E-2,-6.666607E-3,-7.3026023E-3,1.7357826E-2,1.1409601E-1,5.9284713E-2,-8.232832E-3,-3.685398E-2,2.5281429E-3,-2.6854197E-3,3.8967807E-2,-1.8785477E-3,5.960147E-3,1.2529975E-1,2.4924994E-2,7.72508E-2,-2.1097946E-3,-4.384168E-3,7.4811555E-3,2.2184225E-3,-3.9856434E-3,7.167928E-4,1.7925492E-2,9.896139E-3,-5.2261353E-6,4.9915314E-3,8.794149E-3,3.3884048E-3],"categories":[],"categories_nodes":[],"categories_segments":[],"categories_sizes":[],"default_left":[0,0,0,0,0,0,0,0,0,0,0,0,0,0,0,0,0,0,0,0,0,0,0,0,0,0,0,0,0,0,0,0,0,0,0,0,0,0,0,0,0,0,0,0,0],"id":43,"left_children":[1,3,5,-1,7,9,11,13,15,17,19,-1,21,-1,-1,-1,-1,23,25,-1,27,29,31,-1,33,-1,-1,35,37,-1,39,41,43,-1,-1,-1,-1,-1,-1,-1,-1,-1,-1,-1,-1],"loss_changes":[1.902868E0,7.4881005E-1,5.363494E-1,0E0,7.33493E-2,3.5653852E-2,1.031608E-1,7.618904E-3,1.0416895E-2,1.5185796E-2,4.1992985E-2,0E0,2.3589134E-2,0E0,0E0,0E0,0E0,5.7427958E-3,6.483497E-3,0E0,1.5038319E-2,7.1849525E-3,9.803407E-3,0E0,1.7601345E-4,0E0,0E0,8.567333E-3,7.157009E-3,0E0,9.2613995E-3,4.996126E-3,2.5836378E-3,0E0,0E0,0E0,0E0,0E0,0E0,0E0,0E0,0E0,0E0,0E0,0E0],"parents":[2147483647,0,0,1,1,2,2,4,4,5,5,6,6,7,7,8,8,9,9,10,10,12,12,17,17,18,18,20,20,21,21,22,22,24,24,27,27,28,28,30,30,31,31,32,32],"right_children":[2,4,6,-1,8,10,12,14,16,18,20,-1,22,-1,-1,-1,-1,24,26,-1,28,30,32,-1,34,-1,-1,36,38,-1,40,42,44,-1,-1,-1,-1,-1,-1,-1,-1,-1,-1,-1,-1],"split_conditions":[1.817E1,8.53E0,3.191E1,-6.209911E-2,1.578E1,2.472E1,8.928878E4,6.5506E2,1.23087E3,7.864483E4,9.69E1,1.977787E-2,9.1675E1,-9.784079E-3,-2.2128453E-2,-4.9159527E-3,-1.1811572E-2,3.65E2,6.69798E2,-7.3026023E-3,7.50712E2,1.52995E3,2.029092E3,-8.232832E-3,3.81E2,2.5281429E-3,-2.6854197E-3,1.01333336E2,2.571E1,5.960147E-3,8.27324E2,3.25E1,3.407E1,-2.1097946E-3,-4.384168E-3,7.4811555E-3,2.2184225E-3,-3.9856434E-3,7.167928E-4,1.7925492E-2,9.896139E-3,-5.2261353E-6,4.9915314E-3,8.794149E-3,3.3884048E-3],"split_indices":[0,0,0,0,0,0,12,1,1,12,34,0,21,0,0,0,0,2,37,0,37,11,11,0,2,0,0,15,0,0,37,0,0,0,0,0,0,0,0,0,0,0,0,0,0],"split_type":[0,0,0,0,0,0,0,0,0,0,0,0,0,0,0,0,0,0,0,0,0,0,0,0,0,0,0,0,0,0,0,0,0,0,0,0,0,0,0,0,0,0,0,0,0],"sum_hessian":[1.57E2,3.9E1,1.18E2,3E0,3.6E1,6.4E1,5.4E1,1.6E1,2E1,2.4E1,4E1,1.3E1,4.1E1,3E0,1.3E1,5E0,1.5E1,1.6E1,8E0,5E0,3.5E1,2.3E1,1.8E1,7E0,9E0,3E0,5E0,1.6E1,1.9E1,5E0,1.8E1,7E0,1.1E1,4E0,5E0,4E0,1.2E1,3E0,1.6E1,4E0,1.4E1,4E0,3E0,8E0,3E0],"tree_param":{"num_deleted":"0","num_feature":"40","num_nodes":"45","size_leaf_vector":"1"}},{"base_weights":[-1.2951108E-3,-1.8614602E-1,5.6767944E-2,-5.969893E-2,-1.3387404E-1,8.49553E-3,1.7050849E-1,-1.7525737E-1,-9.793958E-2,-2.2691846E-2,4.666216E-2,1.3079187E-1,4.555435E-2,-9.749584E-3,-1.9467102E-2,-1.05037846E-1,-4.151249E-3,-3.6356226E-2,7.779975E-5,5.8500625E-2,-2.8199514E-3,6.6951275E-2,1.4540467E-1,-1.12076E-2,-5.238533E-3,7.788086E-4,-4.34472E-2,-3.1696956E-3,1.3689995E-2,7.422038E-2,3.0742373E-2,1.1322976E-3,9.806367E-3,1.5546799E-1,7.2045135E-3,-7.3939897E-3,-2.2954603E-3,3.6906244E-3,4.003178E-4,2.642986E-3,9.15746E-3,4.270581E-3,1.643157E-3,1.640117E-2,7.6018334E-3],"categories":[],"categories_nodes":[],"categories_segments":[],"categories_sizes":[],"default_left":[0,0,0,0,0,0,0,0,0,0,0,0,0,0,0,0,0,0,0,0,0,0,0,0,0,0,0,0,0,0,0,0,0,0,0,0,0,0,0,0,0,0,0,0,0],"id":44,"left_children":[1,3,5,-1,7,9,11,13,15,17,19,21,-1,-1,-1,23,-1,25,27,29,-1,31,33,-1,-1,-1,35,-1,37,39,41,-1,-1,43,-1,-1,-1,-1,-1,-1,-1,-1,-1,-1,-1],"loss_changes":[1.7063825E0,7.3615086E-1,6.629057E-1,0E0,3.488344E-2,1.0342611E-1,3.479613E-1,3.6649108E-3,4.050821E-3,1.4937218E-2,3.6213346E-2,2.1050274E-2,0E0,0E0,0E0,7.992536E-4,0E0,9.729158E-3,8.651891E-3,1.2554288E-2,0E0,1.2735456E-2,7.993519E-3,0E0,0E0,0E0,1.4549471E-2,0E0,3.0007393E-3,1.4996409E-2,1.6951663E-3,0E0,0E0,2.4656653E-3,0E0,0E0,0E0,0E0,0E0,0E0,0E0,0E0,0E0,0E0,0E0],"parents":[2147483647,0,0,1,1,2,2,4,4,5,5,6,6,7,7,8,8,9,9,10,10,11,11,15,15,17,17,18,18,19,19,21,21,22,22,26,26,28,28,29,29,30,30,33,33],"right_children":[2,4,6,-1,8,10,12,14,16,18,20,22,-1,-1,-1,24,-1,26,28,30,-1,32,34,-1,-1,-1,36,-1,38,40,42,-1,-1,44,-1,-1,-1,-1,-1,-1,-1,-1,-1,-1,-1],"split_conditions":[1.817E1,8.96E0,3.363E1,-5.969893E-2,1.587E1,2.62E1,3.872E1,2.42E2,1.36E3,2.505E1,1.549E2,5.6666668E1,4.555435E-2,-9.749584E-3,-1.9467102E-2,7.52E2,-4.151249E-3,2.063E1,1.0767426E3,4.67E2,-2.8199514E-3,9.5777E2,4.07E2,-1.12076E-2,-5.238533E-3,7.788086E-4,3.8E2,-3.1696956E-3,2.523E1,2.744E1,2.69E2,1.1322976E-3,9.806367E-3,1.06748E3,7.2045135E-3,-7.3939897E-3,-2.2954603E-3,3.6906244E-3,4.003178E-4,2.642986E-3,9.15746E-3,4.270581E-3,1.643157E-3,1.640117E-2,7.6018334E-3],"split_indices":[0,0,0,0,0,0,0,2,4,0,22,21,0,0,0,30,0,0,16,2,0,3,17,0,0,0,2,0,0,0,28,0,0,27,0,0,0,0,0,0,0,0,0,0,0],"split_type":[0,0,0,0,0,0,0,0,0,0,0,0,0,0,0,0,0,0,0,0,0,0,0,0,0,0,0,0,0,0,0,0,0,0,0,0,0,0,0,0,0,0,0,0,0],"sum_hessian":[1.57E2,3.7E1,1.2E2,3E0,3.4E1,8.5E1,3.5E1,1.4E1,2E1,4.7E1,3.8E1,3.2E1,3E0,4E0,1E1,1.7E1,3E0,2.9E1,1.8E1,3.3E1,5E0,7E0,2.5E1,1.4E1,3E0,4E0,2.5E1,5E0,1.3E1,2E1,1.3E1,3E0,4E0,2.1E1,4E0,9E0,1.6E1,3E0,1E1,6E0,1.4E1,6E0,7E0,1.8E1,3E0],"tree_param":{"num_deleted":"0","num_feature":"40","num_nodes":"45","size_leaf_vector":"1"}},{"base_weights":[-1.5430114E-3,-5.665616E-2,1.3238801E-2,-4.5521796E-2,1.1300264E-1,-1.3060531E-1,-2.0293387E-2,9.0879016E-2,3.8342096E-2,-1.4411719E-1,-5.5841445E-3,-4.620428E-2,1.3073136E-2,1.3941626E-1,7.6679274E-2,-9.1785705E-3,-1.6263414E-2,-5.3963885E-2,-1.5201187E-2,2.9786723E-2,-5.5648804E-2,1.6764043E-2,7.20192E-3,4.3845493E-2,1.0221386E-1,-9.646362E-3,-4.1411673E-3,1.1658478E-3,-3.505071E-3,-6.75869E-4,3.8025235E-3,-9.320641E-3,-4.179001E-4,5.773264E-3,-1.2139892E-3,1.2370535E-2,7.041359E-3],"categories":[],"categories_nodes":[],"categories_segments":[],"categories_sizes":[],"default_left":[0,0,0,0,0,0,0,0,0,0,0,0,0,0,0,0,0,0,0,0,0,0,0,0,0,0,0,0,0,0,0,0,0,0,0,0,0],"id":45,"left_children":[1,-1,3,5,7,9,11,13,-1,15,-1,17,19,21,23,-1,-1,25,27,29,31,-1,-1,33,35,-1,-1,-1,-1,-1,-1,-1,-1,-1,-1,-1,-1],"loss_changes":[1.3104123E0,0E0,9.020581E-1,2.0556214E-1,3.0616516E-1,1.4176726E-2,6.6310324E-2,2.6527345E-2,0E0,2.5148392E-3,0E0,9.524271E-3,4.070966E-2,8.851141E-3,3.240785E-2,0E0,0E0,1.4143109E-2,5.740154E-3,8.687237E-3,1.3142066E-2,0E0,0E0,1.7027888E-2,7.69189E-3,0E0,0E0,0E0,0E0,0E0,0E0,0E0,0E0,0E0,0E0,0E0,0E0],"parents":[2147483647,0,0,2,2,3,3,4,4,5,5,6,6,7,7,9,9,11,11,12,12,13,13,14,14,17,17,18,18,19,19,20,20,23,23,24,24],"right_children":[2,-1,4,6,8,10,12,14,-1,16,-1,18,20,22,24,-1,-1,26,28,30,32,-1,-1,34,36,-1,-1,-1,-1,-1,-1,-1,-1,-1,-1,-1,-1],"split_conditions":[2.5475E0,-5.665616E-2,3.083E1,1.639E1,3.854E1,7.25032E2,2.507E1,7.51038E2,3.8342096E-2,4.4E2,-5.5841445E-3,1.319152E4,5E-1,4.67E2,3.407E1,-9.1785705E-3,-1.6263414E-2,6.18336E2,2.69284E3,2.4225E2,2.5853E2,1.6764043E-2,7.20192E-3,1.02446E4,1.850001E5,-9.646362E-3,-4.1411673E-3,1.1658478E-3,-3.505071E-3,-6.75869E-4,3.8025235E-3,-9.320641E-3,-4.179001E-4,5.773264E-3,-1.2139892E-3,1.2370535E-2,7.041359E-3],"split_indices":[13,0,0,0,0,37,0,37,0,4,0,3,20,2,0,0,0,37,1,17,1,0,0,3,25,0,0,0,0,0,0,0,0,0,0,0,0],