{"learner":{"attributes":{},"feature_names":["views.sum.view.throughput_fps","views.sum.view.avg_inference_time_ms","views.sum.view.inference_count","views.sum.view.avg_wait_to_preprocess_ms","views.sum.view.dropped_frames_due_to_full_queue","views.sum.view.exec_cpu","views.sum.view.exec_npu0","views.sum.view.exec_npu1","views.sum.view.static_infer_sel","views.sum.view.static_load_sel","views.sum.view.infps","views.sum.x.view_throughput__static_infer_sel","views.sum.x.view_wait__static_load_sel","views.mean.view.throughput_fps","views.mean.view.avg_inference_time_ms","views.mean.view.inference_count","views.mean.view.avg_wait_to_preprocess_ms","views.mean.view.dropped_frames_due_to_full_queue","views.mean.view.exec_cpu","views.mean.view.exec_npu0","views.mean.view.exec_npu1","views.mean.view.static_infer_sel","views.mean.view.static_load_sel","views.mean.view.infps","views.mean.x.view_throughput__static_infer_sel","views.mean.x.view_wait__static_load_sel","views.max.view.throughput_fps","views.max.view.avg_inference_time_ms","views.max.view.inference_count","views.max.view.avg_wait_to_preprocess_ms","views.max.view.dropped_frames_due_to_full_queue","views.max.view.exec_cpu","views.max.view.exec_npu0","views.max.view.exec_npu1","views.max.view.static_infer_sel","views.max.view.static_load_sel","views.max.view.infps","views.max.x.view_throughput__static_infer_sel","views.max.x.view_wait__static_load_sel","views.count.views"],"feature_types":[],"gradient_booster":{"model":{"gbtree_model_param":{"num_parallel_tree":"1","num_trees":"400"},"iteration_indptr":[0,1,2,3,4,5,6,7,8,9,10,11,12,13,14,15,16,17,18,19,20,21,22,23,24,25,26,27,28,29,30,31,32,33,34,35,36,37,38,39,40,41,42,43,44,45,46,47,48,49,50,51,52,53,54,55,56,57,58,59,60,61,62,63,64,65,66,67,68,69,70,71,72,73,74,75,76,77,78,79,80,81,82,83,84,85,86,87,88,89,90,91,92,93,94,95,96,97,98,99,100,101,102,103,104,105,106,107,108,109,110,111,112,113,114,115,116,117,118,119,120,121,122,123,124,125,126,127,128,129,130,131,132,133,134,135,136,137,138,139,140,141,142,143,144,145,146,147,148,149,150,151,152,153,154,155,156,157,158,159,160,161,162,163,164,165,166,167,168,169,170,171,172,173,174,175,176,177,178,179,180,181,182,183,184,185,186,187,188,189,190,191,192,193,194,195,196,197,198,199,200,201,202,203,204,205,206,207,208,209,210,211,212,213,214,215,216,217,218,219,220,221,222,223,224,225,226,227,228,229,230,231,232,233,234,235,236,237,238,239,240,241,242,243,244,245,246,247,248,249,250,251,252,253,254,255,256,257,258,259,260,261,262,263,264,265,266,267,268,269,270,271,272,273,274,275,276,277,278,279,280,281,282,283,284,285,286,287,288,289,290,291,292,293,294,295,296,297,298,299,300,301,302,303,304,305,306,307,308,309,310,311,312,313,314,315,316,317,318,319,320,321,322,323,324,325,326,327,328,329,330,331,332,333,334,335,336,337,338,339,340,341,342,343,344,345,346,347,348,349,350,351,352,353,354,355,356,357,358,359,360,361,362,363,364,365,366,367,368,369,370,371,372,373,374,375,376,377,378,379,380,381,382,383,384,385,386,387,388,389,390,391,392,393,394,395,396,397,398,399,400],"tree_info":[0,0,0,0,0,0,0,0,0,0,0,0,0,0,0,0,0,0,0,0,0,0,0,0,0,0,0,0,0,0,0,0,0,0,0,0,0,0,0,0,0,0,0,0,0,0,0,0,0,0,0,0,0,0,0,0,0,0,0,0,0,0,0,0,0,0,0,0,0,0,0,0,0,0,0,0,0,0,0,0,0,0,0,0,0,0,0,0,0,0,0,0,0,0,0,0,0,0,0,0,0,0,0,0,0,0,0,0,0,0,0,0,0,0,0,0,0,0,0,0,0,0,0,0,0,0,0,0,0,0,0,0,0,0,0,0,0,0,0,0,0,0,0,0,0,0,0,0,0,0,0,0,0,0,0,0,0,0,0,0,0,0,0,0,0,0,0,0,0,0,0,0,0,0,0,0,0,0,0,0,0,0,0,0,0,0,0,0,0,0,0,0,0,0,0,0,0,0,0,0,0,0,0,0,0,0,0,0,0,0,0,0,0,0,0,0,0,0,0,0,0,0,0,0,0,0,0,0,0,0,0,0,0,0,0,0,0,0,0,0,0,0,0,0,0,0,0,0,0,0,0,0,0,0,0,0,0,0,0,0,0,0,0,0,0,0,0,0,0,0,0,0,0,0,0,0,0,0,0,0,0,0,0,0,0,0,0,0,0,0,0,0,0,0,0,0,0,0,0,0,0,0,0,0,0,0,0,0,0,0,0,0,0,0,0,0,0,0,0,0,0,0,0,0,0,0,0,0,0,0,0,0,0,0,0,0,0,0,0,0,0,0,0,0,0,0,0,0,0,0,0,0,0,0,0,0,0,0,0,0,0,0,0,0,0,0,0,0,0,0,0,0,0,0,0,0,0,0,0,0,0,0,0,0,0,0,0,0,0,0,0,0,0,0,0,0,0,0,0,0],"trees":[{"base_weights":[2.5319937E-1,-1.4735184E1,1.1767923E1,-2.0535161E0,-8.536959E0,6.298718E0,1.5464357E1,-1.1443881E0,-5.180723E0,1.0838103E0,8.0008936E-1,1.3098291E0,1.8073351E0,-5.740646E-1,-1.6458511E-1,-6.5075554E-4,1.9934931E-1],"categories":[],"categories_nodes":[],"categories_segments":[],"categories_sizes":[],"default_left":[0,0,0,0,0,0,0,0,0,0,0,0,0,0,0,0,0],"id":0,"left_children":[1,3,5,-1,7,9,11,-1,13,15,-1,-1,-1,-1,-1,-1,-1],"loss_changes":[2.899545E4,2.4490088E3,1.823167E3,0E0,3.016963E2,3.4639624E2,1.0896094E2,0E0,2.8157623E1,1.0923248E1,0E0,0E0,0E0,0E0,0E0,0E0,0E0],"parents":[2147483647,0,0,1,1,2,2,4,4,5,5,6,6,8,8,9,9],"right_children":[2,4,6,-1,8,10,12,-1,14,16,-1,-1,-1,-1,-1,-1,-1],"split_conditions":[8.78E2,4.95E2,1.247E3,-2.0535161E0,6.89E2,1.071E3,1.383E3,-1.1443881E0,8.31E2,9.59E2,8.0008936E-1,1.3098291E0,1.8073351E0,-5.740646E-1,-1.6458511E-1,-6.5075554E-4,1.9934931E-1],"split_indices":[4,4,4,0,4,4,4,0,4,4,0,0,0,0,0,0,0],"split_type":[0,0,0,0,0,0,0,0,0,0,0,0,0,0,0,0,0],"sum_hessian":[1.66E2,7.2E1,9.4E1,3.6E1,3.6E1,3.9E1,5.5E1,1.8E1,1.8E1,1E1,2.9E1,3.2E1,2.3E1,1.5E1,3E0,5E0,5E0],"tree_param":{"num_deleted":"0","num_feature":"40","num_nodes":"17","size_leaf_vector":"1"}},{"base_weights":[7.903057E-2,-1.3861854E1,1.1199522E1,-1.9584855E0,-8.376489E0,6.0645914E0,1.4263577E1,-1.100353E0,-4.8462462E0,9.4707227E-1,7.3101473E0,1.2247607E0,1.6944312E0,-5.464183E-1,-2.146775E-1,-3.120389E-2,1.7649467E-1,5.5502826E-1,8.4653443E-1],"categories":[],"categories_nodes":[],"categories_segments":[],"categories_sizes":[],"default_left":[0,0,0,0,0,0,0,0,0,0,0,0,0,0,0,0,0,0,0],"id":1,"left_children":[1,3,5,-1,7,9,11,-1,13,15,17,-1,-1,-1,-1,-1,-1,-1,-1],"loss_changes":[2.4804934E4,2.064833E3,1.3137969E3,0E0,2.990896E2,2.1617224E2,8.970801E1,0E0,1.8295471E1,8.789091E0,9.938721E0,0E0,0E0,0E0,0E0,0E0,0E0,0E0,0E0],"parents":[2147483647,0,0,1,1,2,2,4,4,5,5,6,6,8,8,9,9,10,10],"right_children":[2,4,6,-1,8,10,12,-1,14,16,18,-1,-1,-1,-1,-1,-1,-1,-1],"split_conditions":[8.78E2,4.4E2,1.262E3,-1.9584855E0,6.45E2,1.03E3,1.431E3,-1.100353E0,7.88E2,9.26E2,1.155E3,1.2247607E0,1.6944312E0,-5.464183E-1,-2.146775E-1,-3.120389E-2,1.7649467E-1,5.5502826E-1,8.4653443E-1],"split_indices":[4,4,4,0,4,4,4,0,4,4,4,0,0,0,0,0,0,0,0],"split_type":[0,0,0,0,0,0,0,0,0,0,0,0,0,0,0,0,0,0,0],"sum_hessian":[1.58E2,7E1,8.8E1,3.3E1,3.7E1,3.4E1,5.4E1,2E1,1.7E1,7E0,2.7E1,3.4E1,2E1,1.3E1,4E0,3E0,4E0,1.3E1,1.4E1],"tree_param":{"num_deleted":"0","num_feature":"40","num_nodes":"19","size_leaf_vector":"1"}},{"base_weights":[1.7492066E-1,-1.2698753E1,9.719725E0,-1.7230104E1,-7.345752E0,5.9827256E0,1.2931879E1,-1.8990487E0,-1.2790191E0,-9.4538987E-1,-4.6467366E0,1.27351E0,7.022732E0,1.105717E0,1.5112653E0,-5.389917E-1,-2.9212305E-1,2.668087E-2,2.0255093E-1,5.180741E-1,7.875692E-1],"categories":[],"categories_nodes":[],"categories_segments":[],"categories_sizes":[],"default_left":[0,0,0,0,0,0,0,0,0,0,0,0,0,0,0,0,0,0,0,0,0],"id":2,"left_children":[1,3,5,7,9,11,13,-1,-1,-1,15,17,19,-1,-1,-1,-1,-1,-1,-1,-1],"loss_changes":[1.904644E4,1.4743506E3,9.909717E2,3.0666016E1,1.381477E2,2.0165381E2,2.5047363E1,0E0,0E0,0E0,4.7726135E0,6.2729244E0,1.418811E1,0E0,0E0,0E0,0E0,0E0,0E0,0E0,0E0],"parents":[2147483647,0,0,1,1,2,2,3,3,4,4,5,5,6,6,10,10,11,11,12,12],"right_children":[2,4,6,8,10,12,14,-1,-1,-1,16,18,20,-1,-1,-1,-1,-1,-1,-1,-1],"split_conditions":[8.56E2,4.95E2,1.282E3,3.28E2,6.89E2,1.087E3,1.397E3,-1.8990487E0,-1.2790191E0,-9.4538987E-1,7.52E2,9.59E2,1.156E3,1.105717E0,1.5112653E0,-5.389917E-1,-2.9212305E-1,2.668087E-2,2.0255093E-1,5.180741E-1,7.875692E-1],"split_indices":[4,4,4,4,4,4,4,0,0,0,4,4,4,0,0,0,0,0,0,0,0],"split_type":[0,0,0,0,0,0,0,0,0,0,0,0,0,0,0,0,0,0,0,0,0],"sum_hessian":[1.53E2,6.5E1,8.8E1,3.4E1,3.1E1,4.2E1,4.6E1,2.2E1,1.2E1,1.6E1,1.5E1,8E0,3.4E1,2.8E1,1.8E1,9E0,6E0,4E0,4E0,1.3E1,2.1E1],"tree_param":{"num_deleted":"0","num_feature":"40","num_nodes":"21","size_leaf_vector":"1"}},{"base_weights":[2.6434043E-1,-1.0956113E1,8.793806E0,-1.5354163E1,-6.5012193E0,4.1403E0,1.1055867E1,-1.7132664E0,-1.1722083E0,-8.8424504E-1,-3.6945972E0,7.20558E-1,5.39268E-1,8.591461E-1,1.2852334E0,-4.2511937E-1,-1.285889E-1,3.942919E-3,1.0068376E0,1.2286782E-1,5.3328753E-2],"categories":[],"categories_nodes":[],"categories_segments":[],"categories_sizes":[],"default_left":[0,0,0,0,0,0,0,0,0,0,0,0,0,0,0,0,0,0,0,0,0],"id":3,"left_children":[1,3,5,7,9,11,13,-1,-1,-1,15,17,-1,-1,-1,-1,-1,-1,19,-1,-1],"loss_changes":[1.6174696E4,1.330457E3,9.64771E2,3.1716797E1,2.1702673E2,1.3744714E2,1.7292188E2,0E0,0E0,0E0,2.0006317E1,1.910234E0,0E0,0E0,0E0,0E0,0E0,0E0,8.012962E-2,0E0,0E0],"parents":[2147483647,0,0,1,1,2,2,3,3,4,4,5,5,6,6,10,10,11,11,18,18],"right_children":[2,4,6,8,10,12,14,-1,-1,-1,16,18,-1,-1,-1,-1,-1,-1,20,-1,-1],"split_conditions":[9.07E2,4.95E2,1.221E3,3.28E2,6.06E2,1.03E3,1.355E3,-1.7132664E0,-1.1722083E0,-8.8424504E-1,8.31E2,9.39E2,5.39268E-1,8.591461E-1,1.2852334E0,-4.2511937E-1,-1.285889E-1,3.942919E-3,1.56532E3,1.2286782E-1,5.3328753E-2],"split_indices":[4,4,4,4,4,4,4,0,0,0,4,4,0,0,0,0,0,0,1,0,0],"split_type":[0,0,0,0,0,0,0,0,0,0,0,0,0,0,0,0,0,0,0,0,0],"sum_hessian":[1.67E2,7.2E1,9.5E1,3.5E1,3.7E1,3.2E1,6.3E1,2.1E1,1.4E1,1.9E1,1.8E1,9E0,2.3E1,2.9E1,3.4E1,1.4E1,4E0,3E0,6E0,3E0,3E0],"tree_param":{"num_deleted":"0","num_feature":"40","num_nodes":"21","size_leaf_vector":"1"}},{"base_weights":[-4.6043512E-1,-1.0479362E1,7.290904E0,-1.487291E0,-6.863862E0,3.1869726E0,9.660651E0,-8.483972E-1,-3.88699E0,7.11574E-1,4.662799E-1,7.5674814E-1,1.1207355E0,-4.5123172E-1,-2.3490492E-1,-3.8245168E-2,1.2968321E0,6.691669E-2,1.790664E-1],"categories":[],"categories_nodes":[],"categories_segments":[],"categories_sizes":[],"default_left":[0,0,0,0,0,0,0,0,0,0,0,0,0,0,0,0,0,0,0],"id":4,"left_children":[1,3,5,-1,7,9,11,-1,13,15,-1,-1,-1,-1,-1,-1,17,-1,-1],"loss_changes":[1.3356279E4,1.0892803E3,9.125635E2,0E0,1.7440588E2,1.3185266E2,1.12677734E2,0E0,5.7495117E0,1.01002865E1,0E0,0E0,0E0,0E0,0E0,0E0,1.9013577E0,0E0,0E0],"parents":[2147483647,0,0,1,1,2,2,4,4,5,5,6,6,8,8,9,9,16,16],"right_children":[2,4,6,-1,8,10,12,-1,14,16,-1,-1,-1,-1,-1,-1,18,-1,-1],"split_conditions":[8.56E2,3.96E2,1.201E3,-1.487291E0,6.45E2,1.03E3,1.336E3,-8.483972E-1,7.62E2,9.39E2,4.662799E-1,7.5674814E-1,1.1207355E0,-4.5123172E-1,-2.3490492E-1,-3.8245168E-2,9.84E2,6.691669E-2,1.790664E-1],"split_indices":[4,4,4,0,4,4,4,0,4,4,0,0,0,0,0,0,4,0,0],"split_type":[0,0,0,0,0,0,0,0,0,0,0,0,0,0,0,0,0,0,0],"sum_hessian":[1.7E2,7.4E1,9.6E1,3.2E1,4.2E1,3.6E1,6E1,2.6E1,1.6E1,1.4E1,2.2E1,2.8E1,3.2E1,1E1,6E0,5E0,9E0,5E0,4E0],"tree_param":{"num_deleted":"0","num_feature":"40","num_nodes":"19","size_leaf_vector":"1"}},{"base_weights":[-1.5933442E-1,-9.560681E0,6.916524E0,-1.3703368E0,-6.402311E0,4.135472E0,9.901113E0,-8.096493E-1,-3.657825E0,1.1079693E0,5.2714868E0,8.2049173E-1,1.1865541E0,-4.46174E-1,-2.2688377E-1,2.3463185E-1,1.9519778E-1,4.1764352E-1,6.0112244E-1,-2.4978638E-2,5.18472E-2],"categories":[],"categories_nodes":[],"categories_segments":[],"categories_sizes":[],"default_left":[0,0,0,0,0,0,0,0,0,0,0,0,0,0,0,0,0,0,0,0,0],"id":5,"left_children":[1,3,5,-1,7,9,11,-1,13,15,17,-1,-1,-1,-1,19,-1,-1,-1,-1,-1],"loss_changes":[1.1774104E4,9.066616E2,7.973843E2,0E0,1.7961914E2,1.7988074E2,6.258252E1,0E0,1.1092957E1,1.133567E1,6.4865723E0,0E0,0E0,0E0,0E0,1.3669833E0,0E0,0E0,0E0,0E0,0E0],"parents":[2147483647,0,0,1,1,2,2,4,4,5,5,6,6,8,8,9,9,10,10,15,15],"right_children":[2,4,6,-1,8,10,12,-1,14,16,18,-1,-1,-1,-1,20,-1,-1,-1,-1,-1],"split_conditions":[8.6E2,3.96E2,1.284E3,-1.3703368E0,5.96E2,1.102E3,1.444E3,-8.096493E-1,7.41E2,9.84E2,1.182E3,8.2049173E-1,1.1865541E0,-4.46174E-1,-2.2688377E-1,9.26E2,1.9519778E-1,4.1764352E-1,6.0112244E-1,-2.4978638E-2,5.18472E-2],"split_indices":[4,4,4,0,4,4,4,0,4,4,4,0,0,0,0,4,0,0,0,0,0],"split_type":[0,0,0,0,0,0,0,0,0,0,0,0,0,0,0,0,0,0,0,0,0],"sum_hessian":[1.75E2,7.5E1,1E2,3.1E1,4.4E1,5.3E1,4.7E1,2.6E1,1.8E1,1.5E1,3.8E1,2.8E1,1.9E1,1E1,8E0,8E0,7E0,1.8E1,2E1,3E0,5E0],"tree_param":{"num_deleted":"0","num_feature":"40","num_nodes":"21","size_leaf_vector":"1"}},{"base_weights":[1.8654759E-1,-8.506156E0,6.613583E0,-1.1182762E1,-4.691736E0,3.292388E0,8.465213E0,-1.2951361E0,-8.6781657E-1,-5.731569E-1,-1.9349308E0,9.2832303E-1,4.4357404E-1,7.167782E-1,1.0595187E0,-2.2600408E-1,-8.822556E-2,4.0887874E-1,1.6776581E-1,6.468296E-3,5.7019617E-2],"categories":[],"categories_nodes":[],"categories_segments":[],"categories_sizes":[],"default_left":[0,0,0,0,0,0,0,0,0,0,0,0,0,0,0,0,0,0,0,0,0],"id":6,"left_children":[1,3,5,7,9,11,13,-1,-1,-1,15,17,-1,-1,-1,-1,-1,19,-1,-1,-1],"loss_changes":[9.330396E3,6.7242236E2,5.6249316E2,6.92207E1,7.77749E1,9.318872E1,9.262891E1,0E0,0E0,0E0,1.428421E0,4.374133E0,0E0,0E0,0E0,0E0,0E0,4.6284103E-1,0E0,0E0,0E0],"parents":[2147483647,0,0,1,1,2,2,3,3,4,4,5,5,6,6,10,10,11,11,17,17],"right_children":[2,4,6,8,10,12,14,-1,-1,-1,16,18,-1,-1,-1,-1,-1,20,-1,-1,-1],"split_conditions":[9.07E2,5.15E2,1.236E3,2.82E2,7.41E2,1.087E3,1.431E3,-1.2951361E0,-8.6781657E-1,-5.731569E-1,8.31E2,9.84E2,4.4357404E-1,7.167782E-1,1.0595187E0,-2.2600408E-1,-8.822556E-2,9.39E2,1.6776581E-1,6.468296E-3,5.7019617E-2],"split_indices":[4,4,4,4,4,4,4,0,0,0,4,4,0,0,0,0,0,4,0,0,0],"split_type":[0,0,0,0,0,0,0,0,0,0,0,0,0,0,0,0,0,0,0,0,0],"sum_hessian":[1.65E2,7E1,9.5E1,4E1,3E1,3.5E1,6E1,2.1E1,1.9E1,2.1E1,9E0,1.2E1,2.3E1,4E1,2E1,6E0,3E0,8E0,4E0,3E0,5E0],"tree_param":{"num_deleted":"0","num_feature":"40","num_nodes":"21","size_leaf_vector":"1"}},{"base_weights":[-8.771643E-2,-7.7567344E0,5.7680683E0,-1.0826947E1,-4.471057E0,3.6407197E0,8.264594E0,-1.2148526E0,-7.8824294E-1,-6.088779E-1,-2.51507E0,1.4302946E0,4.5834007E0,6.8556684E-1,9.7622913E-1,-3.0362737E-1,-1.4840312E-1,4.9939156E-1,2.0319878E-1,3.3930388E-1,5.0372046E-1,1.4447547E-2,6.8344615E-2],"categories":[],"categories_nodes":[],"categories_segments":[],"categories_sizes":[],"default_left":[0,0,0,0,0,0,0,0,0,0,0,0,0,0,0,0,0,0,0,0,0,0,0],"id":7,"left_children":[1,3,5,7,9,11,13,-1,-1,-1,15,17,19,-1,-1,-1,-1,21,-1,-1,-1,-1,-1],"loss_changes":[7.364765E3,6.678208E2,4.6383228E2,4.4331055E1,9.859906E1,1.0179816E2,2.1698975E1,0E0,0E0,0E0,5.1669464E0,8.507248E0,2.3554077E0,0E0,0E0,0E0,0E0,4.2385042E-1,0E0,0E0,0E0,0E0,0E0],"parents":[2147483647,0,0,1,1,2,2,3,3,4,4,5,5,6,6,10,10,11,11,12,12,17,17],"right_children":[2,4,6,8,10,12,14,-1,-1,-1,16,18,20,-1,-1,-1,-1,22,-1,-1,-1,-1,-1],"split_conditions":[8.78E2,4.48E2,1.296E3,2.64E2,6.06E2,1.119E3,1.468E3,-1.2148526E0,-7.8824294E-1,-6.088779E-1,7.78E2,1.004E3,1.168E3,6.8556684E-1,9.7622913E-1,-3.0362737E-1,-1.4840312E-1,9.59E2,2.0319878E-1,3.3930388E-1,5.0372046E-1,1.4447547E-2,6.8344615E-2],"split_indices":[4,4,4,4,4,4,4,0,0,0,4,4,4,0,0,0,0,4,0,0,0,0,0],"split_type":[0,0,0,0,0,0,0,0,0,0,0,0,0,0,0,0,0,0,0,0,0,0,0],"sum_hessian":[1.62E2,7E1,9.2E1,3.5E1,3.5E1,5.1E1,4.1E1,2.2E1,1.3E1,1.8E1,1.7E1,1.6E1,3.5E1,2.4E1,1.7E1,1E1,7E0,7E0,9E0,1.2E1,2.3E1,3E0,4E0],"tree_param":{"num_deleted":"0","num_feature":"40","num_nodes":"23","size_leaf_vector":"1"}},{"base_weights":[1.6980322E-1,-6.9872556E0,5.134193E0,-1.0392116E0,-4.34405E0,2.2861557E0,6.611491E0,-5.650265E-1,-2.4336603E0,6.861772E-1,3.0910935E0,5.643448E-1,8.607203E-1,-2.9275644E-1,-1.4503346E-1,2.2064999E-1,1.05367914E-1,1.7571266E-1,3.2794484E-1,4.8995973E-3,3.3714153E-2],"categories":[],"categories_nodes":[],"categories_segments":[],"categories_sizes":[],"default_left":[0,0,0,0,0,0,0,0,0,0,0,0,0,0,0,0,0,0,0,0,0],"id":8,"left_children":[1,3,5,-1,7,9,11,-1,13,15,17,-1,-1,-1,-1,19,-1,-1,-1,-1,-1],"loss_changes":[5.8983945E3,5.668391E2,3.9721045E2,0E0,8.606445E1,4.295488E1,7.506958E1,0E0,4.4960938E0,1.9915724E0,1.6540527E-2,0E0,0E0,0E0,0E0,1.2345514E-1,0E0,0E0,0E0,0E0,0E0],"parents":[2147483647,0,0,1,1,2,2,4,4,5,5,6,6,8,8,9,9,10,10,15,15],"right_children":[2,4,6,-1,8,10,12,-1,14,16,18,-1,-1,-1,-1,20,-1,-1,-1,-1,-1],"split_conditions":[8.78E2,3.54E2,1.201E3,-1.0392116E0,6.89E2,1.071E3,1.431E3,-5.650265E-1,7.62E2,9.64E2,1.111E3,5.643448E-1,8.607203E-1,-2.9275644E-1,-1.4503346E-1,1.59832E3,1.05367914E-1,1.7571266E-1,3.2794484E-1,4.8995973E-3,3.3714153E-2],"split_indices":[4,4,4,0,4,4,4,0,4,4,4,0,0,0,0,1,0,0,0,0,0],"split_type":[0,0,0,0,0,0,0,0,0,0,0,0,0,0,0,0,0,0,0,0,0],"sum_hessian":[1.64E2,6.7E1,9.7E1,2.8E1,3.9E1,3.4E1,6.3E1,2.2E1,1.7E1,1.2E1,2.2E1,4.5E1,1.8E1,1E1,7E0,6E0,6E0,4E0,1.8E1,3E0,3E0],"tree_param":{"num_deleted":"0","num_feature":"40","num_nodes":"21","size_leaf_vector":"1"}},{"base_weights":[2.3114091E-1,-6.464772E0,4.8001666E0,-8.905113E0,-3.8448544E0,3.0384338E0,6.792221E0,-1.0539452E0,-6.8881017E-1,-5.0415546E-1,-2.5087779E0,1.1387236E0,3.8173425E0,5.729653E-1,7.9933333E-1,-2.9985964E-1,-1.6313577E-1,3.6600798E-1,1.8707716E-1,2.852301E-1,4.129064E-1,4.532099E-3,4.9697086E-2],"categories":[],"categories_nodes":[],"categories_segments":[],"categories_sizes":[],"default_left":[0,0,0,0,0,0,0,0,0,0,0,0,0,0,0,0,0,0,0,0,0,0,0],"id":9,"left_children":[1,3,5,7,9,11,13,-1,-1,-1,15,17,19,-1,-1,-1,-1,21,-1,-1,-1,-1,-1],"loss_changes":[5.354353E3,4.1969897E2,3.4434692E2,4.6076416E1,4.491162E1,7.999603E1,1.546167E1,0E0,0E0,0E0,3.2739716E0,9.49725E0,2.5561523E-1,0E0,0E0,0E0,0E0,3.9745772E-1,0E0,0E0,0E0,0E0,0E0],"parents":[2147483647,0,0,1,1,2,2,3,3,4,4,5,5,6,6,10,10,11,11,12,12,17,17],"right_children":[2,4,6,8,10,12,14,-1,-1,-1,16,18,20,-1,-1,-1,-1,22,-1,-1,-1,-1,-1],"split_conditions":[8.56E2,4.4E2,1.306E3,2.39E2,5.96E2,1.123E3,1.468E3,-1.0539452E0,-6.8881017E-1,-5.0415546E-1,7.41E2,1.004E3,1.182E3,5.729653E-1,7.9933333E-1,-2.9985964E-1,-1.6313577E-1,9.39E2,1.8707716E-1,2.852301E-1,4.129064E-1,4.532099E-3,4.9697086E-2],"split_indices":[4,4,4,4,4,4,4,0,0,0,4,4,4,0,0,0,0,4,0,0,0,0,0],"split_type":[0,0,0,0,0,0,0,0,0,0,0,0,0,0,0,0,0,0,0,0,0,0,0],"sum_hessian":[1.73E2,7E1,1.03E2,3.5E1,3.5E1,5.6E1,4.7E1,1.7E1,1.8E1,1.7E1,1.8E1,1.7E1,3.9E1,2.8E1,1.9E1,1E1,8E0,9E0,8E0,1.2E1,2.7E1,3E0,6E0],"tree_param":{"num_deleted":"0","num_feature":"40","num_nodes":"23","size_leaf_vector":"1"}},{"base_weights":[1.3905824E-2,-5.7139297E0,4.380534E0,-7.7959285E0,-3.2524197E0,2.6405401E0,6.102517E0,-9.2357105E-1,-5.984913E-1,-4.0047207E-1,-1.7304456E0,9.814311E-1,3.2866266E-1,5.1753986E-1,7.4632066E-1,-1.9559841E-1,-6.776037E-2,3.1257367E-1,1.4669232E-1,8.874397E-3,5.142174E-2],"categories":[],"categories_nodes":[],"categories_segments":[],"categories_sizes":[],"default_left":[0,0,0,0,0,0,0,0,0,0,0,0,0,0,0,0,0,0,0,0,0],"id":10,"left_children":[1,3,5,7,9,11,13,-1,-1,-1,15,17,-1,-1,-1,-1,-1,19,-1,-1,-1],"loss_changes":[4.452035E3,3.692583E2,2.8650623E2,5.1631348E1,3.5434387E1,5.2514618E1,2.445105E1,0E0,0E0,0E0,1.9990044E0,4.7370768E0,0E0,0E0,0E0,0E0,0E0,3.1543702E-1,0E0,0E0,0E0],"parents":[2147483647,0,0,1,1,2,2,3,3,4,4,5,5,6,6,10,10,11,11,17,17],"right_children":[2,4,6,8,10,12,14,-1,-1,-1,16,18,-1,-1,-1,-1,-1,20,-1,-1,-1],"split_conditions":[9.07E2,5.15E2,1.302E3,2.46E2,6.99E2,1.116E3,1.478E3,-9.2357105E-1,-5.984913E-1,-4.0047207E-1,8.31E2,1.004E3,3.2866266E-1,5.1753986E-1,7.4632066E-1,-1.9559841E-1,-6.776037E-2,9.4E2,1.4669232E-1,8.874397E-3,5.142174E-2],"split_indices":[4,4,4,4,4,4,4,0,0,0,4,4,0,0,0,0,0,4,0,0,0],"split_type":[0,0,0,0,0,0,0,0,0,0,0,0,0,0,0,0,0,0,0,0,0],"sum_hessian":[1.76E2,7.6E1,1E2,4E1,3.6E1,5.1E1,4.9E1,2E1,2E1,2.3E1,1.3E1,1.5E1,3.6E1,3.2E1,1.7E1,1E1,3E0,7E0,8E0,4E0,3E0],"tree_param":{"num_deleted":"0","num_feature":"40","num_nodes":"21","size_leaf_vector":"1"}},{"base_weights":[-3.292545E-1,-5.141851E0,3.2177038E0,-7.1515474E0,-2.5773146E0,-2.2128139E0,4.1511593E0,-8.4162486E-1,-5.510449E-1,-3.9978502E0,-5.6681794E-1,-2.4046253E-1,-1.1321292E-1,2.2612214E0,5.223547E0,-4.2605883E-1,-2.0131202E-1,-1.9575672E0,7.209399E-1,-1.83527E-2,2.6443955E-1,6.627435E-1,4.3420425E-1,-2.4258743E-1,-9.9986844E-2,2.5843669E-2,9.4675444E-2],"categories":[],"categories_nodes":[],"categories_segments":[],"categories_sizes":[],"default_left":[0,0,0,0,0,0,0,0,0,0,0,0,0,0,0,0,0,0,0,0,0,0,0,0,0,0,0],"id":11,"left_children":[1,3,5,7,9,11,13,-1,-1,15,17,-1,-1,19,21,-1,-1,23,25,-1,-1,-1,-1,-1,-1,-1,-1],"loss_changes":[2.6965474E3,3.2688208E2,4.7047815E2,3.0416138E1,8.626941E1,1.7967987E-1,1.4627466E2,0E0,0E0,8.092346E-1,2.6484566E1,0E0,0E0,2.8588226E1,3.1862427E1,0E0,0E0,7.139225E-1,5.908437E-1,0E0,0E0,0E0,0E0,0E0,0E0,0E0,0E0],"parents":[2147483647,0,0,1,1,2,2,3,3,4,4,5,5,6,6,9,9,10,10,13,13,14,14,17,17,18,18],"right_children":[2,4,6,8,10,12,14,-1,-1,16,18,-1,-1,20,22,-1,-1,24,26,-1,-1,-1,-1,-1,-1,-1,-1],"split_conditions":[2.8075E2,1.2925E2,3E0,1.89E2,1.066173E4,5.2293E2,6.59E2,-8.4162486E-1,-5.510449E-1,3.6105E2,2.15E2,-2.4046253E-1,-1.1321292E-1,5E2,9.79E1,-4.2605883E-1,-2.0131202E-1,1.86E2,2.46E2,-1.83527E-2,2.6443955E-1,6.627435E-1,4.3420425E-1,-2.4258743E-1,-9.9986844E-2,2.5843669E-2,9.4675444E-2],"split_indices":[17,17,39,30,3,1,30,0,0,1,17,0,0,30,9,0,0,17,17,0,0,0,0,0,0,0,0],"split_type":[0,0,0,0,0,0,0,0,0,0,0,0,0,0,0,0,0,0,0,0,0,0,0,0,0,0,0],"sum_hessian":[1.56E2,6.6E1,9E1,3.6E1,3E1,1.3E1,7.7E1,1.8E1,1.8E1,1.7E1,1.3E1,1E1,3E0,2.9E1,4.8E1,1.4E1,3E0,6E0,7E0,4E0,2.5E1,1.6E1,3.2E1,3E0,3E0,3E0,4E0],"tree_param":{"num_deleted":"0","num_feature":"40","num_nodes":"27","size_leaf_vector":"1"}},{"base_weights":[1.12405874E-1,-4.6278567E0,3.4629714E0,-6.22295E0,-2.4203866E0,2.1345773E0,5.1433315E0,-7.7743715E-1,-5.18803E-1,-2.8782886E-1,-1.1709636E-1,9.0859807E-1,2.772712E0,4.3609366E-1,5.9877175E-1,2.597046E-1,1.2879398E-1,2.0797649E-1,3.0614015E-1,1.6655922E-3,3.7845295E-2],"categories":[],"categories_nodes":[],"categories_segments":[],"categories_sizes":[],"default_left":[0,0,0,0,0,0,0,0,0,0,0,0,0,0,0,0,0,0,0,0,0],"id":12,"left_children":[1,3,5,7,9,11,13,-1,-1,-1,-1,15,17,-1,-1,19,-1,-1,-1,-1,-1],"loss_changes":[2.6842961E3,2.314165E2,2.1000708E2,2.3890259E1,1.4365128E1,4.2074097E1,2.2955322E0,0E0,0E0,0E0,0E0,4.834717E0,1.034729E0,0E0,0E0,2.5345117E-1,0E0,0E0,0E0,0E0,0E0],"parents":[2147483647,0,0,1,1,2,2,3,3,4,4,5,5,6,6,11,11,12,12,15,15],"right_children":[2,4,6,8,10,12,14,-1,-1,-1,-1,16,18,-1,-1,20,-1,-1,-1,-1,-1],"split_conditions":[8.6E2,5.21E2,1.312E3,2.23E2,7.41E2,1.134E3,1.478E3,-7.7743715E-1,-5.18803E-1,-2.8782886E-1,-1.1709636E-1,1.004E3,1.185E3,4.3609366E-1,5.9877175E-1,2.35E2,1.2879398E-1,2.0797649E-1,3.0614015E-1,1.6655922E-3,3.7845295E-2],"split_indices":[4,4,4,4,4,4,4,0,0,0,0,4,4,0,0,17,0,0,0,0,0],"split_type":[0,0,0,0,0,0,0,0,0,0,0,0,0,0,0,0,0,0,0,0,0],"sum_hessian":[1.67E2,6.9E1,9.8E1,3.9E1,3E1,5.6E1,4.2E1,1.3E1,2.6E1,2.1E1,9E0,2E1,3.6E1,2.5E1,1.7E1,8E0,1.2E1,1.3E1,2.3E1,3E0,5E0],"tree_param":{"num_deleted":"0","num_feature":"40","num_nodes":"21","size_leaf_vector":"1"}},{"base_weights":[-1.0977641E-1,-4.2451205E0,3.1374266E0,-6.1441965E0,-2.524778E0,1.9305027E0,4.7590523E0,-7.1981263E-1,-4.8074737E-1,-3.4145176E-1,-1.4643123E0,8.168269E-1,2.543551E0,3.925861E-1,5.6063664E-1,-1.7551132E-1,-8.087218E-2,2.1729936E-1,1.1690515E-1,1.8466143E-1,2.7860382E-1,1.5407086E-3,3.1567764E-2],"categories":[],"categories_nodes":[],"categories_segments":[],"categories_sizes":[],"default_left":[0,0,0,0,0,0,0,0,0,0,0,0,0,0,0,0,0,0,0,0,0,0,0],"id":13,"left_children":[1,3,5,7,9,11,13,-1,-1,-1,15,17,19,-1,-1,-1,-1,21,-1,-1,-1,-1,-1],"loss_changes":[2.2289888E3,2.2298279E2,1.728302E2,1.32948E1,3.2741608E1,3.5472885E1,5.5231323E0,0E0,0E0,0E0,2.393528E0,4.1805E0,7.7020264E-1,0E0,0E0,0E0,0E0,1.738927E-1,0E0,0E0,0E0,0E0,0E0],"parents":[2147483647,0,0,1,1,2,2,3,3,4,4,5,5,6,6,10,10,11,11,12,12,17,17],"right_children":[2,4,6,8,10,12,14,-1,-1,-1,16,18,20,-1,-1,-1,-1,22,-1,-1,-1,-1,-1],"split_conditions":[9.07E2,4.05E2,1.312E3,2.23E2,5.96E2,1.134E3,1.488E3,-7.1981263E-1,-4.8074737E-1,-3.4145176E-1,7.78E2,9.84E2,1.182E3,3.925861E-1,5.6063664E-1,-1.7551132E-1,-8.087218E-2,2.35E2,1.1690515E-1,1.8466143E-1,2.7860382E-1,1.5407086E-3,3.1567764E-2],"split_indices":[4,4,4,4,4,4,4,0,0,0,4,4,4,0,0,0,0,17,0,0,0,0,0],"split_type":[0,0,0,0,0,0,0,0,0,0,0,0,0,0,0,0,0,0,0,0,0,0,0],"sum_hessian":[1.64E2,7.2E1,9.2E1,3.3E1,3.9E1,5.4E1,3.8E1,1.6E1,1.7E1,2E1,1.9E1,2E1,3.4E1,2.2E1,1.6E1,1.2E1,7E0,8E0,1.2E1,1.1E1,2.3E1,3E0,5E0],"tree_param":{"num_deleted":"0","num_feature":"40","num_nodes":"23","size_leaf_vector":"1"}},{"base_weights":[-1.5348367E-1,-3.9529035E0,2.8455417E0,-6.0391295E-1,-2.7591045E0,1.3756868E0,3.7558913E0,-3.4609258E-1,-1.4361186E0,3.6452118E-1,1.8660812E-1,2.9405996E-1,4.5521554E-1,-1.6449396E-1,-7.443199E-2,7.2109546E-3,5.3826477E-2],"categories":[],"categories_nodes":[],"categories_segments":[],"categories_sizes":[],"default_left":[0,0,0,0,0,0,0,0,0,0,0,0,0,0,0,0,0],"id":14,"left_children":[1,3,5,-1,7,9,11,-1,13,15,-1,-1,-1,-1,-1,-1,-1],"loss_changes":[1.8343771E3,1.601654E2,1.1526044E2,0E0,3.866919E1,1.717109E1,2.2319214E1,0E0,1.3759613E0,6.216463E-1,0E0,0E0,0E0,0E0,0E0,0E0,0E0],"parents":[2147483647,0,0,1,1,2,2,4,4,5,5,6,6,8,8,9,9],"right_children":[2,4,6,-1,8,10,12,-1,14,16,-1,-1,-1,-1,-1,-1,-1],"split_conditions":[8.78E2,3.54E2,1.236E3,-6.0391295E-1,5.68E2,1.071E3,1.359E3,-3.4609258E-1,7.68E2,9.59E2,1.8660812E-1,2.9405996E-1,4.5521554E-1,-1.6449396E-1,-7.443199E-2,7.2109546E-3,5.3826477E-2],"split_indices":[4,4,4,0,4,4,4,0,4,4,0,0,0,0,0,0,0],"split_type":[0,0,0,0,0,0,0,0,0,0,0,0,0,0,0,0,0],"sum_hessian":[1.59E2,7E1,8.9E1,2.4E1,4.6E1,3.5E1,5.4E1,2.9E1,1.7E1,1.2E1,2.3E1,2.9E1,2.5E1,1.2E1,5E0,5E0,7E0],"tree_param":{"num_deleted":"0","num_feature":"40","num_nodes":"17","size_leaf_vector":"1"}},{"base_weights":[-2.0145369E-1,-3.5540292E0,2.4973729E0,-4.6511707E0,-1.6911829E0,1.6861966E0,3.7702546E-1,-6.030702E-1,-3.7143975E-1,-2.0566435E-1,-9.061888E-2,6.8684435E-1,2.118734E0,1.8003106E-1,9.6748285E-2,1.5666892E-1,2.3265079E-1,2.5663376E-4,2.8599663E-2],"categories":[],"categories_nodes":[],"categories_segments":[],"categories_sizes":[],"default_left":[0,0,0,0,0,0,0,0,0,0,0,0,0,0,0,0,0,0,0],"id":15,"left_children":[1,3,5,7,9,11,-1,-1,-1,-1,-1,13,15,17,-1,-1,-1,-1,-1],"loss_changes":[1.5017991E3,1.4337573E2,8.86355E1,3.7045837E1,6.455948E0,2.3615692E1,0E0,0E0,0E0,0E0,0E0,2.5282192E0,9.431E-1,1.4970723E-1,0E0,0E0,0E0,0E0,0E0],"parents":[2147483647,0,0,1,1,2,2,3,3,4,4,5,5,11,11,12,12,13,13],"right_children":[2,4,6,8,10,12,-1,-1,-1,-1,-1,14,16,18,-1,-1,-1,-1,-1],"split_conditions":[9.07E2,5.27E2,1.317E3,2.23E2,7E2,1.134E3,3.7702546E-1,-6.030702E-1,-3.7143975E-1,-2.0566435E-1,-9.061888E-2,9.84E2,1.19E3,9.39E2,9.6748285E-2,1.5666892E-1,2.3265079E-1,2.5663376E-4,2.8599663E-2],"split_indices":[4,4,4,4,4,4,0,0,0,0,0,4,4,4,0,0,0,0,0],"split_type":[0,0,0,0,0,0,0,0,0,0,0,0,0,0,0,0,0,0,0],"sum_hessian":[1.64E2,7.3E1,9.1E1,4.5E1,2.8E1,5.7E1,3.4E1,1.6E1,2.9E1,1.8E1,1E1,1.8E1,3.9E1,7E0,1.1E1,1.3E1,2.6E1,3E0,4E0],"tree_param":{"num_deleted":"0","num_feature":"40","num_nodes":"19","size_leaf_vector":"1"}},{"base_weights":[-2.4365272E-1,-2.9697738E0,1.9781163E0,-4.2871203E0,-1.529938E0,2.3080826E-1,2.7738197E0,-5.539364E-1,-3.592436E-1,-2.3731183E-1,-3.8034153E-1,1.7852803E-1,-8.80043E-1,2.3581464E0,4.2053613E-1,-9.810689E-1,3.430195E-1,1.659157E-2,-1.2146392E-1,1.3445663E-1,2.6231417E-1,-1.1444823E-1,-4.9068164E-2,6.8107606E-3,6.009045E-2],"categories":[],"categories_nodes":[],"categories_segments":[],"categories_sizes":[],"default_left":[0,0,0,0,0,0,0,0,0,0,0,0,0,0,0,0,0,0,0,0,0,0,0,0,0],"id":16,"left_children":[1,3,5,7,9,11,13,-1,-1,-1,15,-1,17,19,-1,21,23,-1,-1,-1,-1,-1,-1,-1,-1],"loss_changes":[9.446803E2,1.26214355E2,1.18928925E2,1.1417114E1,3.30235E1,4.9921165E1,2.5191315E1,0E0,0E0,0E0,7.2892103E0,0E0,6.151084E0,9.365509E0,0E0,1.5964603E-1,5.2623904E-1,0E0,0E0,0E0,0E0,0E0,0E0,0E0,0E0],"parents":[2147483647,0,0,1,1,2,2,3,3,4,4,5,5,6,6,10,10,12,12,13,13,15,15,16,16],"right_children":[2,4,6,8,10,12,14,-1,-1,-1,16,-1,18,20,-1,22,24,-1,-1,-1,-1,-1,-1,-1,-1],"split_conditions":[2.8425E2,1.375E2,2.695E2,4.5E1,1.43046E3,5.72E1,1.492974E4,-5.539364E-1,-3.592436E-1,-2.3731183E-1,2.2675E2,1.7852803E-1,1.24293335E2,6.56E2,4.2053613E-1,1.97E2,2.4225E2,1.659157E-2,-1.2146392E-1,1.3445663E-1,2.6231417E-1,-1.1444823E-1,-4.9068164E-2,6.8107606E-3,6.009045E-2],"split_indices":[17,17,8,17,1,21,3,0,0,0,17,0,14,30,0,17,17,0,0,0,0,0,0,0,0],"split_type":[0,0,0,0,0,0,0,0,0,0,0,0,0,0,0,0,0,0,0,0,0,0,0,0,0],"sum_hessian":[1.54E2,6.9E1,8.5E1,3.5E1,3.4E1,2.7E1,5.8E1,1E1,2.5E1,1.9E1,1.5E1,1.1E1,1.6E1,4.7E1,1.1E1,8E0,7E0,4E0,1.2E1,1.1E1,3.6E1,5E0,3E0,4E0,3E0],"tree_param":{"num_deleted":"0","num_feature":"40","num_nodes":"25","size_leaf_vector":"1"}},{"base_weights":[-1.7837305E-2,-2.7335525E0,2.0713704E0,-3.5627115E0,-1.2810876E0,1.3439726E0,3.0966544E0,-4.4142103E-1,-2.8630933E-1,-1.6209264E-1,-6.394199E-2,2.4218655E-1,1.6139148E0,2.7323595E-1,4.075679E-1,2.1170427E-3,3.500483E-2,1.14517406E-1,1.8666342E-1],"categories":[],"categories_nodes":[],"categories_segments":[],"categories_sizes":[],"default_left":[0,0,0,0,0,0,0,0,0,0,0,0,0,0,0,0,0,0,0],"id":17,"left_children":[1,3,5,7,9,11,13,-1,-1,-1,-1,15,17,-1,-1,-1,-1,-1,-1],"loss_changes":[9.13453E2,7.973859E1,6.3704987E1,1.3573547E1,4.851265E0,1.5967163E1,2.059967E0,0E0,0E0,0E0,0E0,2.7865958E-1,3.0746078E0,0E0,0E0,0E0,0E0,0E0,0E0],"parents":[2147483647,0,0,1,1,2,2,3,3,4,4,5,5,6,6,11,11,12,12],"right_children":[2,4,6,8,10,12,14,-1,-1,-1,-1,16,18,-1,-1,-1,-1,-1,-1],"split_conditions":[9.07E2,5.42E2,1.323E3,2.59E2,7.41E2,1.071E3,1.498E3,-4.4142103E-1,-2.8630933E-1,-1.6209264E-1,-6.394199E-2,9.59E2,1.185E3,2.7323595E-1,4.075679E-1,2.1170427E-3,3.500483E-2,1.14517406E-1,1.8666342E-1],"split_indices":[4,4,4,4,4,4,4,0,0,0,0,4,4,0,0,0,0,0,0],"split_type":[0,0,0,0,0,0,0,0,0,0,0,0,0,0,0,0,0,0,0],"sum_hessian":[1.59E2,6.9E1,9E1,4.3E1,2.6E1,5.4E1,3.6E1,1.7E1,2.6E1,1.6E1,1E1,1.1E1,4.3E1,2.9E1,7E0,4E0,7E0,1.7E1,2.6E1],"tree_param":{"num_deleted":"0","num_feature":"40","num_nodes":"19","size_leaf_vector":"1"}},{"base_weights":[-8.856781E-2,-2.3181725E0,1.7542422E0,-3.403385E0,-8.0097485E-1,-5.854098E-1,2.0792E0,-4.6932268E-1,-2.8312188E-1,-1.9434506E-1,-1.4139834E-1,-1.1334051E-1,7.93932E-2,1.7764391E0,3.672039E-1,-7.0894134E-1,2.3355062E-1,2.3678351E-2,1.8418448E0,-8.7312005E-2,-2.8543806E-2,-3.1431198E-2,4.362159E-2,1.3572539E0,2.154955E-1,-1.8072939E-2,1.2572479E-2,1.487572E-1,8.292222E-2],"categories":[],"categories_nodes":[],"categories_segments":[],"categories_sizes":[],"default_left":[0,0,0,0,0,0,0,0,0,0,0,0,0,0,0,0,0,0,0,0,0,0,0,0,0,0,0,0,0],"id":18,"left_children":[1,3,5,7,9,11,13,-1,-1,-1,15,-1,-1,17,-1,19,21,-1,23,-1,-1,25,-1,27,-1,-1,-1,-1,-1],"loss_changes":[6.902259E2,1.22406555E2,7.11637E1,1.91846E1,2.4592356E1,9.97032E0,3.2539032E1,0E0,0E0,0E0,4.847166E0,0E0,0E0,6.613037E0,0E0,3.765502E-1,7.655474E-1,0E0,7.2411194E0,0E0,0E0,1.869639E-1,0E0,7.620239E-1,0E0,0E0,0E0,0E0,0E0],"parents":[2147483647,0,0,1,1,2,2,3,3,4,4,5,5,6,6,10,10,13,13,15,15,16,16,18,18,21,21,23,23],"right_children":[2,4,6,8,10,12,14,-1,-1,-1,16,-1,-1,18,-1,20,22,-1,24,-1,-1,26,-1,28,-1,-1,-1,-1,-1],"split_conditions":[5.61E2,3.51E2,5.2293E2,1.42E2,3.6105E2,4.424E2,1.735819E4,-4.6932268E-1,-2.8312188E-1,-1.9434506E-1,4.63E2,-1.1334051E-1,7.93932E-2,8.71287E2,3.672039E-1,2.002962E3,4.99E2,2.3678351E-2,6.92E2,-8.7312005E-2,-2.8543806E-2,2.46E1,4.362159E-2,8.41383E3,2.154955E-1,-1.8072939E-2,1.2572479E-2,1.487572E-1,8.292222E-2],"split_indices":[30,30,1,30,1,9,3,0,0,0,30,0,0,11,0,11,30,0,30,0,0,0,0,29,0,0,0,0,0],"split_type":[0,0,0,0,0,0,0,0,0,0,0,0,0,0,0,0,0,0,0,0,0,0,0,0,0,0,0,0,0],"sum_hessian":[1.66E2,7.5E1,9.1E1,4.3E1,3.2E1,1.1E1,8E1,1.1E1,3.2E1,1.1E1,2.1E1,8E0,3E0,6.9E1,1.1E1,8E0,1.3E1,3E0,6.6E1,5E0,3E0,6E0,7E0,2.8E1,3.8E1,3E0,3E0,2.1E1,7E0],"tree_param":{"num_deleted":"0","num_feature":"40","num_nodes":"29","size_leaf_vector":"1"}},{"base_weights":[4.8237007E-2,-2.3358328E0,1.8295077E0,-3.4744387E0,-1.5581782E0,1.2273535E0,2.7004402E0,-4.1181636E-1,-2.8156662E-1,-2.0132494E-1,-9.638979E-1,6.0589296E-1,1.5145807E-1,2.3198786E-1,3.5340247E-1,-1.10992946E-1,-5.1327355E-2,2.513309E-1,8.213234E-2,1.2232018E-2,2.9544959E-2],"categories":[],"categories_nodes":[],"categories_segments":[],"categories_sizes":[],"default_left":[0,0,0,0,0,0,0,0,0,0,0,0,0,0,0,0,0,0,0,0,0],"id":19,"left_children":[1,3,5,7,9,11,13,-1,-1,-1,15,17,-1,-1,-1,-1,-1,19,-1,-1,-1],"loss_changes":[7.0497455E2,5.7452606E1,4.650702E1,2.7850342E-1,9.958786E0,9.435341E0,3.8562317E0,0E0,0E0,0E0,8.122158E-1,1.3212452E0,0E0,0E0,0E0,0E0,0E0,1.5086591E-2,0E0,0E0,0E0],"parents":[2147483647,0,0,1,1,2,2,3,3,4,4,5,5,6,6,10,10,11,11,17,17],"right_children":[2,4,6,8,10,12,14,-1,-1,-1,16,18,-1,-1,-1,-1,-1,20,-1,-1,-1],"split_conditions":[9.07E2,3.66E2,1.34E3,1.94E2,5.52E2,1.155E3,1.52E3,-4.1181636E-1,-2.8156662E-1,-2.0132494E-1,7.68E2,1.03E3,1.5145807E-1,2.3198786E-1,3.5340247E-1,-1.10992946E-1,-5.1327355E-2,9.64E2,8.213234E-2,1.2232018E-2,2.9544959E-2],"split_indices":[4,4,4,4,4,4,4,0,0,0,4,4,0,0,0,0,0,4,0,0,0],"split_type":[0,0,0,0,0,0,0,0,0,0,0,0,0,0,0,0,0,0,0,0,0],"sum_hessian":[1.64E2,7E1,9.4E1,2.7E1,4.3E1,5.7E1,3.7E1,1.1E1,1.6E1,2.3E1,2E1,1.9E1,3.8E1,2.8E1,9E0,1.4E1,6E0,8E0,1.1E1,3E0,5E0],"tree_param":{"num_deleted":"0","num_feature":"40","num_nodes":"21","size_leaf_vector":"1"}},{"base_weights":[-1.7866254E-1,-2.1424046E0,1.503413E0,-3.1825347E0,-1.2459635E0,8.1667703E-1,2.1720004E0,-3.968873E-1,-2.5997117E-1,-1.6126178E-1,-6.9794655E-1,1.9755627E-1,1.0293798E0,1.8615511E-1,3.0724183E-1,-8.197073E-2,-3.721128E-2,-4.0082457E-3,2.7285615E-2,7.300776E-2,1.2023874E-1],"categories":[],"categories_nodes":[],"categories_segments":[],"categories_sizes":[],"default_left":[0,0,0,0,0,0,0,0,0,0,0,0,0,0,0,0,0,0,0,0,0],"id":20,"left_children":[1,3,5,7,9,11,13,-1,-1,-1,15,17,19,-1,-1,-1,-1,-1,-1,-1,-1],"loss_changes":[5.5154584E2,6.783066E1,3.954904E1,5.7224426E0,7.5145874E0,5.8543224E0,6.8595734E0,0E0,0E0,0E0,4.487772E-1,2.4356091E-1,8.827324E-1,0E0,0E0,0E0,0E0,0E0,0E0,0E0,0E0],"parents":[2147483647,0,0,1,1,2,2,3,3,4,4,5,5,6,6,10,10,11,11,12,12],"right_children":[2,4,6,8,10,12,14,-1,-1,-1,16,18,20,-1,-1,-1,-1,-1,-1,-1,-1],"split_conditions":[9.07E2,4.05E2,1.291E3,1.8E2,6.89E2,1.071E3,1.492E3,-3.968873E-1,-2.5997117E-1,-1.6126178E-1,7.88E2,2.3975E2,1.16E3,1.8615511E-1,3.0724183E-1,-8.197073E-2,-3.721128E-2,-4.0082457E-3,2.7285615E-2,7.300776E-2,1.2023874E-1],"split_indices":[4,4,4,4,4,4,4,0,0,0,4,17,4,0,0,0,0,0,0,0,0],"split_type":[0,0,0,0,0,0,0,0,0,0,0,0,0,0,0,0,0,0,0,0,0],"sum_hessian":[1.65E2,7.6E1,8.9E1,3.4E1,4.2E1,4.5E1,4.4E1,1.2E1,2.2E1,2.4E1,1.8E1,1.2E1,3.3E1,3.5E1,9E0,1.2E1,6E0,3E0,9E0,1.4E1,1.9E1],"tree_param":{"num_deleted":"0","num_feature":"40","num_nodes":"21","size_leaf_vector":"1"}},{"base_weights":[-1.22725675E-2,-1.9341418E0,1.3665931E0,-3.0669928E-1,-1.2568728E0,8.257817E-1,2.1133835E0,-1.718164E-1,-8.8917613E-1,8.404703E-2,1.0308229E0,1.8271792E-1,2.958252E-1,-1.0292473E-1,-5.6213763E-2,-1.8069077E-2,1.8153743E-1,7.19482E-2,1.22620896E-1,7.133198E-3,2.1857807E-2],"categories":[],"categories_nodes":[],"categories_segments":[],"categories_sizes":[],"default_left":[0,0,0,0,0,0,0,0,0,0,0,0,0,0,0,0,0,0,0,0,0],"id":21,"left_children":[1,3,5,-1,7,9,11,-1,13,15,17,-1,-1,-1,-1,-1,19,-1,-1,-1,-1],"loss_changes":[4.1869308E2,4.6783356E1,3.5411102E1,0E0,5.7657013E0,8.278099E0,3.7833252E0,0E0,6.1244583E-1,3.683243E-1,1.7335281E0,0E0,0E0,0E0,0E0,0E0,2.5229156E-2,0E0,0E0,0E0,0E0],"parents":[2147483647,0,0,1,1,2,2,4,4,5,5,6,6,8,8,9,9,10,10,16,16],"right_children":[2,4,6,-1,8,10,12,-1,14,16,18,-1,-1,-1,-1,-1,20,-1,-1,-1,-1],"split_conditions":[8.31E2,3.54E2,1.328E3,-3.0669928E-1,5.44E2,1.071E3,1.52E3,-1.718164E-1,7E2,9.22E2,1.185E3,1.8271792E-1,2.958252E-1,-1.0292473E-1,-5.6213763E-2,-1.8069077E-2,9.59E2,7.19482E-2,1.22620896E-1,7.133198E-3,2.1857807E-2],"split_indices":[4,4,4,0,4,4,4,0,4,4,4,0,0,0,0,0,4,0,0,0,0],"split_type":[0,0,0,0,0,0,0,0,0,0,0,0,0,0,0,0,0,0,0,0,0],"sum_hessian":[1.56E2,6.5E1,9.1E1,2.3E1,4.2E1,5.4E1,3.7E1,1.7E1,2.5E1,1.2E1,4.2E1,3E1,7E0,1.6E1,9E0,3E0,9E0,1.8E1,2.4E1,3E0,6E0],"tree_param":{"num_deleted":"0","num_feature":"40","num_nodes":"21","size_leaf_vector":"1"}},{"base_weights":[1.7173033E-2,-1.7135012E0,1.3238335E0,-2.5004704E0,-1.0190997E0,8.078031E-1,1.9136512E0,-3.2958505E-1,-2.0822997E-1,-1.3478164E-1,-5.6754273E-1,4.4941568E-1,1.0592063E-1,1.6633971E-1,2.6232013E-1,-6.8337925E-2,-2.7134022E-2,2.1453787E-1,6.0186144E-2,9.63173E-3,2.4683094E-2],"categories":[],"categories_nodes":[],"categories_segments":[],"categories_sizes":[],"default_left":[0,0,0,0,0,0,0,0,0,0,0,0,0,0,0,0,0,0,0,0,0],"id":22,"left_children":[1,3,5,7,9,11,13,-1,-1,-1,15,17,-1,-1,-1,-1,-1,19,-1,-1,-1],"loss_changes":[3.8896838E2,3.7890747E1,2.82818E1,4.4456177E0,5.3208656E0,4.3893585E0,3.6271362E0,0E0,0E0,0E0,4.664817E-1,7.302246E-1,0E0,0E0,0E0,0E0,0E0,1.8220663E-2,0E0,0E0,0E0],"parents":[2147483647,0,0,1,1,2,2,3,3,4,4,5,5,6,6,10,10,11,11,17,17],"right_children":[2,4,6,8,10,12,14,-1,-1,-1,16,18,-1,-1,-1,-1,-1,20,-1,-1,-1],"split_conditions":[9.22E2,4.06E2,1.307E3,1.75E2,6.89E2,1.155E3,1.498E3,-3.2958505E-1,-2.0822997E-1,-1.3478164E-1,7.88E2,1.071E3,1.0592063E-1,1.6633971E-1,2.6232013E-1,-6.8337925E-2,-2.7134022E-2,9.64E2,6.0186144E-2,9.63173E-3,2.4683094E-2],"split_indices":[4,4,4,4,4,4,4,0,0,0,4,4,0,0,0,0,0,4,0,0,0],"split_type":[0,0,0,0,0,0,0,0,0,0,0,0,0,0,0,0,0,0,0,0,0],"sum_hessian":[1.7E2,7.3E1,9.7E1,3.3E1,4E1,5.3E1,4.4E1,9E0,2.4E1,2.2E1,1.8E1,2.3E1,3E1,3.5E1,9E0,1.2E1,6E0,1E1,1.3E1,3E0,7E0],"tree_param":{"num_deleted":"0","num_feature":"40","num_nodes":"21","size_leaf_vector":"1"}},{"base_weights":[4.578631E-2,-1.448698E0,1.1779662E0,-1.9629986E0,-6.63244E-1,8.5688704E-1,1.9156598E-1,-2.5440195E-1,-1.6264223E-1,-8.3599366E-2,-3.7303337E-1,4.926106E-1,1.09956525E-1,-4.1359138E-2,-1.7838001E-2,1.7112201E-1,6.069338E-2,8.842898E-3,1.9773038E-2],"categories":[],"categories_nodes":[],"categories_segments":[],"categories_sizes":[],"default_left":[0,0,0,0,0,0,0,0,0,0,0,0,0,0,0,0,0,0,0],"id":23,"left_children":[1,3,5,7,9,11,-1,-1,-1,-1,13,15,-1,-1,-1,17,-1,-1,-1],"loss_changes":[2.825827E2,2.7783142E1,2.086E1,4.271332E0,1.1921606E0,5.469681E0,0E0,0E0,0E0,0E0,2.8855324E-2,9.6199465E-1,0E0,0E0,0E0,2.3178458E-3,0E0,0E0,0E0],"parents":[2147483647,0,0,1,1,2,2,3,3,4,4,5,5,10,10,11,11,15,15],"right_children":[2,4,6,8,10,12,-1,-1,-1,-1,14,16,-1,-1,-1,18,-1,-1,-1],"split_conditions":[9.22E2,5.42E2,1.36E3,2.4E2,7.41E2,1.19E3,1.9156598E-1,-2.5440195E-1,-1.6264223E-1,-8.3599366E-2,1.91E1,1.071E3,1.09956525E-1,-4.1359138E-2,-1.7838001E-2,9.59E2,6.069338E-2,8.842898E-3,1.9773038E-2],"split_indices":[4,4,4,4,4,4,0,0,0,0,26,4,0,0,0,4,0,0,0],"split_type":[0,0,0,0,0,0,0,0,0,0,0,0,0,0,0,0,0,0,0],"sum_hessian":[1.65E2,7.1E1,9.4E1,4.2E1,2.9E1,6.7E1,2.7E1,1.3E1,2.9E1,1.7E1,1.2E1,2.8E1,3.9E1,9E0,3E0,8E0,2E1,3E0,5E0],"tree_param":{"num_deleted":"0","num_feature":"40","num_nodes":"19","size_leaf_vector":"1"}},{"base_weights":[-1.1928229E-2,-1.4409859E0,1.1164007E0,-2.3265347E0,-9.7863865E-1,7.6643145E-1,1.8141943E0,-2.9119045E-1,-1.8797782E-1,-1.3002203E-1,-5.9218484E-1,4.3175814E-1,9.928636E-2,1.5010524E-1,2.412869E-1,-6.763562E-2,-2.7912194E-2,1.913022E-1,5.183754E-2,7.972861E-3,2.338009E-2],"categories":[],"categories_nodes":[],"categories_segments":[],"categories_sizes":[],"default_left":[0,0,0,0,0,0,0,0,0,0,0,0,0,0,0,0,0,0,0,0,0],"id":24,"left_children":[1,3,5,7,9,11,13,-1,-1,-1,15,17,-1,-1,-1,-1,-1,19,-1,-1,-1],"loss_changes":[2.7411227E2,2.8430496E1,2.1809135E1,1.064209E0,5.5681343E0,4.497074E0,2.1897278E0,0E0,0E0,0E0,4.6998692E-1,4.8400688E-1,0E0,0E0,0E0,0E0,0E0,2.4035007E-2,0E0,0E0,0E0],"parents":[2147483647,0,0,1,1,2,2,3,3,4,4,5,5,6,6,10,10,11,11,17,17],"right_children":[2,4,6,8,10,12,14,-1,-1,-1,16,18,-1,-1,-1,-1,-1,20,-1,-1,-1],"split_conditions":[9.22E2,2.93E2,1.368E3,1.63E2,5.51E2,1.185E3,1.535E3,-2.9119045E-1,-1.8797782E-1,-1.3002203E-1,7.68E2,1.071E3,9.928636E-2,1.5010524E-1,2.412869E-1,-6.763562E-2,-2.7912194E-2,9.64E2,5.183754E-2,7.972861E-3,2.338009E-2],"split_indices":[4,4,4,4,4,4,4,0,0,0,4,4,0,0,0,0,0,4,0,0,0],"split_type":[0,0,0,0,0,0,0,0,0,0,0,0,0,0,0,0,0,0,0,0,0],"sum_hessian":[1.68E2,7.4E1,9.4E1,2.4E1,5E1,6.4E1,3E1,8E0,1.6E1,2.6E1,2.4E1,2.7E1,3.7E1,2.2E1,8E0,1.8E1,6E0,8E0,1.9E1,3E0,5E0],"tree_param":{"num_deleted":"0","num_feature":"40","num_nodes":"21","size_leaf_vector":"1"}},{"base_weights":[-8.262703E-2,-1.3901328E0,9.30524E-1,-2.1308153E0,-9.2516416E-1,4.23274E-1,1.3399597E0,-2.7864015E-1,-1.7081264E-1,-1.2009938E-1,-5.696684E-1,4.3605532E-2,5.863435E-1,1.14871025E-1,2.1048228E-1,-6.7314945E-2,-3.781763E-2,-1.548111E-2,1.3845329E-2,3.532548E-2,6.419247E-2],"categories":[],"categories_nodes":[],"categories_segments":[],"categories_sizes":[],"default_left":[0,0,0,0,0,0,0,0,0,0,0,0,0,0,0,0,0,0,0,0,0],"id":25,"left_children":[1,3,5,7,9,11,13,-1,-1,-1,15,17,19,-1,-1,-1,-1,-1,-1,-1,-1],"loss_changes":[2.185445E2,2.2825027E1,1.8747658E1,2.7224197E0,3.8264236E0,2.6366634E0,5.0424347E0,0E0,0E0,0E0,1.8137836E-1,2.849053E-1,1.618967E-1,0E0,0E0,0E0,0E0,0E0,0E0,0E0,0E0],"parents":[2147483647,0,0,1,1,2,2,3,3,4,4,5,5,6,6,10,10,11,11,12,12],"right_children":[2,4,6,8,10,12,14,-1,-1,-1,16,18,20,-1,-1,-1,-1,-1,-1,-1,-1],"split_conditions":[8.31E2,2.93E2,1.257E3,1.63E2,5.5E2,1.071E3,1.52E3,-2.7864015E-1,-1.7081264E-1,-1.2009938E-1,7E2,9.22E2,1.135E3,1.14871025E-1,2.1048228E-1,-6.7314945E-2,-3.781763E-2,-1.548111E-2,1.3845329E-2,3.532548E-2,6.419247E-2],"split_indices":[4,4,4,4,4,4,4,0,0,0,4,4,4,0,0,0,0,0,0,0,0],"split_type":[0,0,0,0,0,0,0,0,0,0,0,0,0,0,0,0,0,0,0,0,0],"sum_hessian":[1.63E2,7.1E1,9.2E1,2.6E1,4.5E1,4.2E1,5E1,8E0,1.8E1,2.4E1,2.1E1,1.3E1,2.9E1,4.2E1,8E0,1.2E1,9E0,4E0,9E0,7E0,2.2E1],"tree_param":{"num_deleted":"0","num_feature":"40","num_nodes":"21","size_leaf_vector":"1"}},{"base_weights":[-2.2492211E-2,-1.1329725E0,8.761265E-1,-1.7937912E0,-7.4330735E-1,6.197893E-1,1.4734133E0,-2.5051993E-1,-1.455109E-1,-9.866635E-2,-4.4647208E-1,2.5579E-1,7.7943015E-1,1.22495785E-1,1.9727986E-1,-5.3608384E-2,-2.9997895E-2,8.1578255E-2,3.3706885E-2,5.1266897E-2,8.333781E-2,3.576231E-3,1.01915365E-2],"categories":[],"categories_nodes":[],"categories_segments":[],"categories_sizes":[],"default_left":[0,0,0,0,0,0,0,0,0,0,0,0,0,0,0,0,0,0,0,0,0,0,0],"id":26,"left_children":[1,3,5,7,9,11,13,-1,-1,-1,15,17,19,-1,-1,-1,-1,21,-1,-1,-1,-1,-1],"loss_changes":[1.6065636E2,1.720652E1,1.2713303E1,2.619133E0,2.954605E0,3.5196152E0,8.0934906E-1,0E0,0E0,0E0,1.4111853E-1,2.698567E-1,2.0596695E-1,0E0,0E0,0E0,0E0,3.8093738E-3,0E0,0E0,0E0,0E0,0E0],"parents":[2147483647,0,0,1,1,2,2,3,3,4,4,5,5,6,6,10,10,11,11,12,12,17,17],"right_children":[2,4,6,8,10,12,14,-1,-1,-1,16,18,20,-1,-1,-1,-1,22,-1,-1,-1,-1,-1],"split_conditions":[9.07E2,3.66E2,1.368E3,1.63E2,5.57E2,1.155E3,1.535E3,-2.5051993E-1,-1.455109E-1,-9.866635E-2,7.41E2,9.84E2,1.221E3,1.22495785E-1,1.9727986E-1,-5.3608384E-2,-2.9997895E-2,2.3975E2,3.3706885E-2,5.1266897E-2,8.333781E-2,3.576231E-3,1.01915365E-2],"split_indices":[4,4,4,4,4,4,4,0,0,0,4,4,4,0,0,0,0,17,0,0,0,0,0],"split_type":[0,0,0,0,0,0,0,0,0,0,0,0,0,0,0,0,0,0,0,0,0,0,0],"sum_hessian":[1.59E2,7.1E1,8.8E1,2.5E1,4.6E1,6.3E1,2.5E1,6E0,1.9E1,2.4E1,2.2E1,2E1,4.3E1,1.9E1,6E0,1.2E1,1E1,7E0,1.3E1,9E0,3.4E1,3E0,4E0],"tree_param":{"num_deleted":"0","num_feature":"40","num_nodes":"23","size_leaf_vector":"1"}},{"base_weights":[-2.6122604E-2,-1.0065398E0,7.947279E-1,-1.7318586E0,-7.0361924E-1,5.7561934E-1,1.358914E0,-1.9844678E-1,-1.2302806E-1,-9.642955E-2,-4.2766908E-1,3.5040355E-1,7.5484335E-2,1.12703405E-1,1.7941721E-1,-5.393953E-2,-2.4866794E-1,7.889938E-2,4.1002375E-1,-2.7816145E-2,-1.1276722E-2,9.873295E-3,3.9340975E-3,2.2192001E-2,4.3413717E-2],"categories":[],"categories_nodes":[],"categories_segments":[],"categories_sizes":[],"default_left":[0,0,0,0,0,0,0,0,0,0,0,0,0,0,0,0,0,0,0,0,0,0,0,0,0],"id":27,"left_children":[1,3,5,7,9,11,13,-1,-1,-1,15,17,-1,-1,-1,-1,19,21,23,-1,-1,-1,-1,-1,-1],"loss_changes":[1.3600229E2,1.56994095E1,1.0590641E1,3.4601593E-1,3.6158848E0,2.480257E0,5.0109863E-1,0E0,0E0,0E0,4.458437E-1,4.8563766E-1,0E0,0E0,0E0,0E0,2.073896E-2,1.607839E-3,2.1587849E-2,0E0,0E0,0E0,0E0,0E0,0E0],"parents":[2147483647,0,0,1,1,2,2,3,3,4,4,5,5,6,6,10,10,11,11,16,16,17,17,18,18],"right_children":[2,4,6,8,10,12,14,-1,-1,-1,16,18,-1,-1,-1,-1,20,22,24,-1,-1,-1,-1,-1,-1],"split_conditions":[9.22E2,2.82E2,1.368E3,1.94E2,5.5E2,1.221E3,1.535E3,-1.9844678E-1,-1.2302806E-1,-9.642955E-2,7.06E2,1.004E3,7.5484335E-2,1.12703405E-1,1.7941721E-1,-5.393953E-2,1.91E1,2.01034E5,3.7007E2,-2.7816145E-2,-1.1276722E-2,9.873295E-3,3.9340975E-3,2.2192001E-2,4.3413717E-2],"split_indices":[4,4,4,4,4,4,4,0,0,0,4,4,0,0,0,0,26,25,1,0,0,0,0,0,0],"split_type":[0,0,0,0,0,0,0,0,0,0,0,0,0,0,0,0,0,0,0,0,0,0,0,0,0],"sum_hessian":[1.67E2,7.6E1,9.1E1,2.1E1,5.5E1,6.7E1,2.4E1,1.2E1,9E0,2.7E1,2.8E1,3.1E1,3.6E1,1.8E1,6E0,1.6E1,1.2E1,6E0,2.5E1,9E0,3E0,3E0,3E0,4E0,2.1E1],"tree_param":{"num_deleted":"0","num_feature":"40","num_nodes":"25","size_leaf_vector":"1"}},{"base_weights":[2.1939962E-3,-1.0013994E0,6.8461555E-1,-1.5816146E0,-6.6969794E-1,4.3209094E-1,1.1412444E0,-2.0870279E-1,-1.2971976E-1,-8.85854E-2,-4.776664E-1,8.313332E-2,5.713901E-1,9.630189E-2,1.7165725E-1,-5.264485E-2,-3.0210067E-2,-1.0950432E-2,1.3813674E-1,4.2327818E-2,6.412109E-2,8.819285E-2,2.0667775E-2,5.0210953E-3,1.1147595E-2],"categories":[],"categories_nodes":[],"categories_segments":[],"categories_sizes":[],"default_left":[0,0,0,0,0,0,0,0,0,0,0,0,0,0,0,0,0,0,0,0,0,0,0,0,0],"id":28,"left_children":[1,3,5,7,9,11,13,-1,-1,-1,15,17,19,-1,-1,-1,-1,-1,21,-1,-1,23,-1,-1,-1],"loss_changes":[1.15059494E2,1.2027954E1,1.1037888E1,7.4266815E-1,1.4447517E0,3.1607256E0,1.9357452E0,0E0,0E0,0E0,6.363487E-2,2.2704118E-1,2.1463013E-1,0E0,0E0,0E0,0E0,0E0,3.6543787E-2,0E0,0E0,4.130386E-3,0E0,0E0,0E0],"parents":[2147483647,0,0,1,1,2,2,3,3,4,4,5,5,6,6,10,10,11,11,12,12,18,18,21,21],"right_children":[2,4,6,8,10,12,14,-1,-1,-1,16,18,20,-1,-1,-1,-1,-1,22,-1,-1,24,-1,-1,-1],"split_conditions":[8.31E2,2.93E2,1.342E3,1.63E2,5.42E2,1.119E3,1.535E3,-2.0870279E-1,-1.2971976E-1,-8.85854E-2,7.06E2,9.22E2,1.221E3,9.630189E-2,1.7165725E-1,-5.264485E-2,-3.0210067E-2,-1.0950432E-2,3.2675E2,4.2327818E-2,6.412109E-2,2.51E2,2.0667775E-2,5.0210953E-3,1.1147595E-2],"split_indices":[4,4,4,4,4,4,4,0,0,0,4,4,4,0,0,0,0,0,17,0,0,28,0,0,0],"split_type":[0,0,0,0,0,0,0,0,0,0,0,0,0,0,0,0,0,0,0,0,0,0,0,0,0],"sum_hessian":[1.66E2,6.7E1,9.9E1,2.3E1,4.4E1,6.5E1,3.4E1,6E0,1.7E1,1.9E1,2.5E1,1.9E1,4.6E1,2.8E1,6E0,1.8E1,7E0,4E0,1.5E1,1.7E1,2.9E1,1E1,5E0,5E0,5E0],"tree_param":{"num_deleted":"0","num_feature":"40","num_nodes":"25","size_leaf_vector":"1"}},{"base_weights":[-4.115349E-2,-8.5423356E-1,6.283724E-1,-1.3257662E0,-5.384837E-1,3.811853E-1,9.649046E-1,-1.8202414E-1,-1.074634E-1,-7.092814E-2,-3.3101606E-1,1.9536336E-1,5.011424E-2,8.231207E-2,1.4291501E-1,-3.7000537E-2,-1.5238063E-2,9.7939126E-2,2.84626E-1,4.921668E-2,1.3267027E-1,1.5362779E-2,3.3092167E-2,7.278395E-3,1.3345241E-3,1.8763542E-2,4.4537545E-3],"categories":[],"categories_nodes":[],"categories_segments":[],"categories_sizes":[],"default_left":[0,0,0,0,0,0,0,0,0,0,0,0,0,0,0,0,0,0,0,0,0,0,0,0,0,0,0],"id":29,"left_children":[1,3,5,7,9,11,13,-1,-1,-1,15,17,-1,-1,-1,-1,-1,19,21,23,25,-1,-1,-1,-1,-1,-1],"loss_changes":[9.525857E1,1.1048119E1,7.618088E0,1.8934479E0,1.5015316E0,1.1726627E0,1.4565392E0,0E0,0E0,0E0,1.1077523E-1,1.8083626E-1,0E0,0E0,0E0,0E0,0E0,1.5468828E-2,2.1937013E-2,4.9464237E-3,2.5552787E-2,0E0,0E0,0E0,0E0,0E0,0E0],"parents":[2147483647,0,0,1,1,2,2,3,3,4,4,5,5,6,6,10,10,11,11,17,17,18,18,19,19,20,20],"right_children":[2,4,6,8,10,12,14,-1,-1,-1,16,18,-1,-1,-1,-1,-1,20,22,24,26,-1,-1,-1,-1,-1,-1],"split_conditions":[9.22E2,3.66E2,1.328E3,1.71E2,5.57E2,1.155E3,1.498E3,-1.8202414E-1,-1.074634E-1,-7.092814E-2,7.88E2,1.105E3,5.011424E-2,8.231207E-2,1.4291501E-1,-3.7000537E-2,-1.5238063E-2,9.69E2,6.097E2,1.285E2,1.03E3,1.5362779E-2,3.3092167E-2,7.278395E-3,1.3345241E-3,1.8763542E-2,4.4537545E-3],"split_indices":[4,4,4,4,4,4,4,0,0,0,4,4,0,0,0,0,0,4,1,15,4,0,0,0,0,0,0],"split_type":[0,0,0,0,0,0,0,0,0,0,0,0,0,0,0,0,0,0,0,0,0,0,0,0,0,0,0],"sum_hessian":[1.73E2,7.8E1,9.5E1,3E1,4.8E1,5.6E1,3.9E1,8E0,2.2E1,2.5E1,2.3E1,2.3E1,3.3E1,3.2E1,7E0,1.8E1,5E0,1.2E1,1.1E1,6E0,6E0,4E0,7E0,3E0,3E0,3E0,3E0],"tree_param":{"num_deleted":"0","num_feature":"40","num_nodes":"27","size_leaf_vector":"1"}},{"base_weights":[-4.969282E-2,-8.2603973E-1,4.9506268E-1,-1.6005846E0,-6.1386395E-1,-3.051888E-2,6.0096914E-1,-1.9235478E-1,-1.1179187E-1,-9.2274405E-2,-7.2772217E-1,1.2517378E-1,4.9887145E-1,-1.676879E-1,8.162118E-3,-7.9172504E-1,-2.6717457E-1,2.707663E-1,5.989437E-1,-2.9222298E-2,2.9902935E-3,-3.1287264E-2,-8.229385E-2,-3.6589194E-2,-1.0166359E-2,-1.9936373E-3,3.2708758E-1,4.8920345E-2,7.263531E-2,1.6727353E-2,3.4443032E-2],"categories":[],"categories_nodes":[],"categories_segments":[],"categories_sizes":[],"default_left":[0,0,0,0,0,0,0,0,0,0,0,0,0,0,0,0,0,0,0,0,0,0,0,0,0,0,0,0,0,0,0],"id":30,"left_children":[1,3,5,7,9,-1,11,-1,-1,13,15,-1,17,19,-1,21,23,25,27,-1,-1,-1,-1,-1,-1,-1,29,-1,-1,-1,-1],"loss_changes":[6.97677E1,1.0192558E1,8.404331E0,3.1993866E-2,3.19915E0,0E0,5.0895557E0,0E0,0E0,1.5794167E-1,1.1149063E0,0E0,1.5726776E0,2.0559427E-1,0E0,3.2544518E-1,7.717377E-2,4.158398E-1,3.7172508E-1,0E0,0E0,0E0,0E0,0E0,0E0,0E0,5.8960915E-4,0E0,0E0,0E0,0E0],"parents":[2147483647,0,0,1,1,2,2,3,3,4,4,6,6,9,9,10,10,12,12,13,13,15,15,16,16,17,17,18,18,26,26],"right_children":[2,4,6,8,10,-1,12,-1,-1,14,16,-1,18,20,-1,22,24,26,28,-1,-1,-1,-1,-1,-1,-1,30,-1,-1,-1,-1],"split_conditions":[2.7625E2,4.9E1,3E0,3.775E1,1.014E2,-3.051888E-2,1.533E1,-1.9235478E-1,-1.1179187E-1,3.797E1,5.35E2,1.2517378E-1,6.4E2,1.24606E3,8.162118E-3,1.12E2,4.23E2,5E2,9.91908E3,-2.9222298E-2,2.9902935E-3,-3.1287264E-2,-8.229385E-2,-3.6589194E-2,-1.0166359E-2,-1.9936373E-3,1.73E1,4.8920345E-2,7.263531E-2,1.6727353E-2,3.4443032E-2],"split_indices":[17,17,39,17,9,0,0,0,0,0,30,0,30,27,0,28,2,30,3,0,0,0,0,0,0,0,0,0,0,0,0],"split_type":[0,0,0,0,0,0,0,0,0,0,0,0,0,0,0,0,0,0,0,0,0,0,0,0,0,0,0,0,0,0,0],"sum_hessian":[1.63E2,6.7E1,9.6E1,1.3E1,5.4E1,1.1E1,8.5E1,6E0,7E0,1E1,4.4E1,1E1,7.5E1,7E0,3E0,3.8E1,6E0,2.4E1,5.1E1,4E0,3E0,3E0,3.5E1,3E0,3E0,4E0,2E1,3E1,2.1E1,3E0,1.7E1],"tree_param":{"num_deleted":"0","num_feature":"40","num_nodes":"31","size_leaf_vector":"1"}},{"base_weights":[-3.933275E-2,-7.936507E-1,5.172788E-1,-1.4455806E-1,-6.001243E-1,3.187079E-1,8.875258E-1,-7.4778214E-2,-3.5978484E-1,1.7732882E-1,4.6338167E-2,7.4328385E-2,1.2634015E-1,-4.2527508E-2,-2.5885502E-2,3.4469604E-3,2.3738612E-1,-8.902741E-3,5.5797033E-2,2.533775E-1,8.608914E-3,6.732893E-3,3.0315877E-3,2.8588777E-2,1.3822719E-2],"categories":[],"categories_nodes":[],"categories_segments":[],"categories_sizes":[],"default_left":[0,0,0,0,0,0,0,0,0,0,0,0,0,0,0,0,0,0,0,0,0,0,0,0,0],"id":31,"left_children":[1,3,5,-1,7,9,11,-1,13,15,-1,-1,-1,-1,-1,17,19,-1,21,23,-1,-1,-1,-1,-1],"loss_changes":[7.220695E1,8.342556E0,6.9956455E0,0E0,1.7892647E0,1.2677832E0,9.043102E-1,0E0,4.8553705E-2,3.6468244E-1,0E0,0E0,0E0,0E0,0E0,5.3377863E-2,4.1092515E-2,0E0,1.578778E-5,4.6584725E-2,0E0,0E0,0E0,0E0,0E0],"parents":[2147483647,0,0,1,1,2,2,4,4,5,5,6,6,8,8,9,9,15,15,16,16,18,18,19,19],"right_children":[2,4,6,-1,8,10,12,-1,14,16,-1,-1,-1,-1,-1,18,20,-1,22,24,-1,-1,-1,-1,-1],"split_conditions":[8.31E2,1.96E2,1.356E3,-1.4455806E-1,5.42E2,1.214E3,1.535E3,-7.4778214E-2,6.92E2,1.004E3,4.6338167E-2,7.4328385E-2,1.2634015E-1,-4.2527508E-2,-2.5885502E-2,9.22E2,6.56E2,-8.902741E-3,2.477E1,1.01097956E6,8.608914E-3,6.732893E-3,3.0315877E-3,2.8588777E-2,1.3822719E-2],"split_indices":[4,4,4,0,4,4,4,0,4,4,0,0,0,0,0,4,30,0,0,12,0,0,0,0,0],"split_type":[0,0,0,0,0,0,0,0,0,0,0,0,0,0,0,0,0,0,0,0,0,0,0,0,0],"sum_hessian":[1.7E2,7.2E1,9.8E1,1.5E1,5.7E1,6.5E1,3.3E1,3.4E1,2.3E1,3.4E1,3.1E1,2.6E1,7E0,1.2E1,1.1E1,9E0,2.5E1,3E0,6E0,2.2E1,3E0,3E0,3E0,1.6E1,6E0],"tree_param":{"num_deleted":"0","num_feature":"40","num_nodes":"25","size_leaf_vector":"1"}},{"base_weights":[-3.416346E-2,-6.6266197E-1,4.785708E-1,-1.0108781E0,-3.800156E-1,3.3344442E-1,8.758686E-1,-1.5801027E-1,-8.527986E-2,-4.7206426E-1,-1.7672056E-1,1.5857308E-1,4.2919922E-1,7.093309E-2,1.1789846E-1,-5.2706223E-2,-3.1486187E-2,-2.038662E-2,-1.020244E-2,7.537445E-2,2.1456045E-1,3.0840874E-2,4.6990465E-2,1.4398575E-3,9.4099894E-2,9.901962E-3,2.4757352E-2,4.0020943E-3,1.5169335E-2],"categories":[],"categories_nodes":[],"categories_segments":[],"categories_sizes":[],"default_left":[0,0,0,0,0,0,0,0,0,0,0,0,0,0,0,0,0,0,0,0,0,0,0,0,0,0,0,0,0],"id":32,"left_children":[1,3,5,7,9,11,13,-1,-1,15,17,19,21,-1,-1,-1,-1,-1,-1,23,25,-1,-1,-1,27,-1,-1,-1,-1],"loss_changes":[5.3811085E1,6.9975014E0,5.012518E0,1.6219215E0,7.212367E-1,1.0873299E0,3.752365E-1,0E0,0E0,8.477688E-2,9.615809E-3,1.0493755E-1,7.141781E-2,0E0,0E0,0E0,0E0,0E0,0E0,1.2346707E-2,3.2700658E-2,0E0,0E0,0E0,2.196043E-2,0E0,0E0,0E0,0E0],"parents":[2147483647,0,0,1,1,2,2,3,3,4,4,5,5,6,6,9,9,10,10,11,11,12,12,19,19,20,20,24,24],"right_children":[2,4,6,8,10,12,14,-1,-1,16,18,20,22,-1,-1,-1,-1,-1,-1,24,26,-1,-1,-1,28,-1,-1,-1,-1],"split_conditions":[9.22E2,4.05E2,1.369E3,1.51E2,6.92E2,1.16E3,1.535E3,-1.5801027E-1,-8.527986E-2,2.7175E2,7.88E2,1.071E3,1.257E3,7.093309E-2,1.1789846E-1,-5.2706223E-2,-3.1486187E-2,-2.038662E-2,-1.020244E-2,2.3975E2,6.097E2,3.0840874E-2,4.6990465E-2,1.4398575E-3,1.44285E3,9.901962E-3,2.4757352E-2,4.0020943E-3,1.5169335E-2],"split_indices":[4,4,4,4,4,4,4,0,0,17,4,4,4,0,0,0,0,0,0,17,1,0,0,0,11,0,0,0,0],"split_type":[0,0,0,0,0,0,0,0,0,0,0,0,0,0,0,0,0,0,0,0,0,0,0,0,0,0,0,0,0],"sum_hessian":[1.65E2,7.4E1,9.1E1,3.2E1,4.2E1,6.8E1,2.3E1,5E0,2.7E1,2.8E1,1.4E1,2.5E1,4.3E1,1.7E1,6E0,1.9E1,9E0,9E0,5E0,1.1E1,1.4E1,1.3E1,3E1,3E0,8E0,4E0,1E1,5E0,3E0],"tree_param":{"num_deleted":"0","num_feature":"40","num_nodes":"29","size_leaf_vector":"1"}},{"base_weights":[-1.4572456E-2,-5.549689E-1,4.378743E-1,-9.5022047E-1,-3.8978136E-1,3.023171E-1,7.703533E-1,-1.3619246E-1,-8.135343E-2,-5.2965622E-2,-2.309902E-1,1.4353807E-1,3.8205302E-1,9.8501705E-2,5.987657E-2,-2.8702438E-2,-1.4425659E-1,6.917624E-2,1.9171251E-1,2.9619172E-1,4.2053837E-2,-1.775074E-2,-7.587942E-3,9.907373E-3,2.774938E-3,1.2019094E-1,2.670428E-2,3.2440837E-2,1.2338543E-2,1.3873736E-2,6.232357E-3],"categories":[],"categories_nodes":[],"categories_segments":[],"categories_sizes":[],"default_left":[0,0,0,0,0,0,0,0,0,0,0,0,0,0,0,0,0,0,0,0,0,0,0,0,0,0,0,0,0,0,0],"id":33,"left_children":[1,3,5,7,9,11,13,-1,-1,-1,15,17,19,-1,-1,-1,21,23,25,27,-1,-1,-1,-1,-1,29,-1,-1,-1,-1,-1],"loss_changes":[4.1319107E1,4.6570015E0,3.9135418E0,1.300621E-1,1.1214647E0,7.9340744E-1,3.6787987E-1,0E0,0E0,0E0,9.467602E-2,7.271421E-2,2.0833492E-2,0E0,0E0,0E0,1.6087592E-2,1.0874912E-2,4.333222E-2,4.286492E-2,0E0,0E0,0E0,0E0,0E0,1.0124892E-3,0E0,0E0,0E0,0E0,0E0],"parents":[2147483647,0,0,1,1,2,2,3,3,4,4,5,5,6,6,10,10,11,11,12,12,16,16,17,17,18,18,19,19,25,25],"right_children":[2,4,6,8,10,12,14,-1,-1,-1,16,18,20,-1,-1,-1,22,24,26,28,-1,-1,-1,-1,-1,30,-1,-1,-1,-1,-1],"split_conditions":[9.07E2,2.93E2,1.369E3,1.51E2,5.44E2,1.16E3,2.7E2,-1.3619246E-1,-8.135343E-2,-5.2965622E-2,7.41E2,1.071E3,1.257E3,9.8501705E-2,5.987657E-2,-2.8702438E-2,2.425E1,1.713E1,1.120658E4,7.21E2,4.2053837E-2,-1.775074E-2,-7.587942E-3,9.907373E-3,2.774938E-3,1.712E1,2.670428E-2,3.2440837E-2,1.2338543E-2,1.3873736E-2,6.232357E-3],"split_indices":[4,4,4,4,4,4,2,0,0,0,4,4,4,0,0,0,0,26,3,30,0,0,0,0,0,26,0,0,0,0,0],"split_type":[0,0,0,0,0,0,0,0,0,0,0,0,0,0,0,0,0,0,0,0,0,0,0,0,0,0,0,0,0,0,0],"sum_hessian":[1.67E2,7.6E1,9.1E1,2.1E1,5.5E1,6.6E1,2.5E1,3E0,1.8E1,2.8E1,2.7E1,2.3E1,4.3E1,9E0,1.6E1,1.5E1,1.2E1,1E1,1.3E1,1.6E1,2.7E1,7E0,5E0,5E0,5E0,8E0,5E0,1.3E1,3E0,5E0,3E0],"tree_param":{"num_deleted":"0","num_feature":"40","num_nodes":"31","size_leaf_vector":"1"}},{"base_weights":[3.1570647E-2,-5.269712E-1,4.1457418E-1,-1.0630088E0,-4.090149E-1,2.873883E-1,7.1024066E-1,-1.3415323E-1,-7.560555E-2,-5.3120006E-2,-2.2159515E-1,1.7964417E-1,3.626365E-2,5.827554E-2,1.0458701E-1,-2.7461326E-1,-1.1460666E-1,6.9678046E-2,2.2646159E-1,-3.237551E-2,-1.6518021E-2,-1.3870457E-2,-4.3783667E-3,1.0176849E-1,1.0815811E-3,2.494252E-2,6.076908E-3,5.2446844E-3,1.2564803E-2],"categories":[],"categories_nodes":[],"categories_segments":[],"categories_sizes":[],"default_left":[0,0,0,0,0,0,0,0,0,0,0,0,0,0,0,0,0,0,0,0,0,0,0,0,0,0,0,0,0],"id":34,"left_children":[1,3,5,7,9,11,13,-1,-1,-1,15,17,-1,-1,-1,19,21,23,25,-1,-1,-1,-1,27,-1,-1,-1,-1,-1],"loss_changes":[3.679939E1,3.9912434E0,3.6315556E0,1.1651039E-2,1.2333841E0,5.2670527E-1,6.741476E-1,0E0,0E0,0E0,1.1033559E-1,1.4896715E-1,0E0,0E0,0E0,3.256595E-2,1.0993868E-2,1.967736E-2,6.855047E-2,0E0,0E0,0E0,0E0,1.6545951E-3,0E0,0E0,0E0,0E0,0E0],"parents":[2147483647,0,0,1,1,2,2,3,3,4,4,5,5,6,6,10,10,11,11,15,15,16,16,17,17,18,18,23,23],"right_children":[2,4,6,8,10,12,14,-1,-1,-1,16,18,-1,-1,-1,20,22,24,26,-1,-1,-1,-1,28,-1,-1,-1,-1,-1],"split_conditions":[9.22E2,1.99E2,1.369E3,1.51E2,5.42E2,1.221E3,1.538E3,-1.3415323E-1,-7.560555E-2,-5.3120006E-2,7.41E2,1.102E3,3.626365E-2,5.827554E-2,1.0458701E-1,3.0025E2,8.0725E0,5.15E2,6.92E2,-3.237551E-2,-1.6518021E-2,-1.3870457E-2,-4.3783667E-3,1.41161E3,1.0815811E-3,2.494252E-2,6.076908E-3,5.2446844E-3,1.2564803E-2],"split_indices":[4,4,4,4,4,4,4,0,0,0,4,4,0,0,0,17,13,30,30,0,0,0,0,11,0,0,0,0,0],"split_type":[0,0,0,0,0,0,0,0,0,0,0,0,0,0,0,0,0,0,0,0,0,0,0,0,0,0,0,0,0],"sum_hessian":[1.7E2,6.9E1,1.01E2,1.1E1,5.8E1,7.2E1,2.9E1,4E0,7E0,3.4E1,2.4E1,3.1E1,4.1E1,2.3E1,6E0,1.5E1,9E0,1E1,2.1E1,9E0,6E0,6E0,3E0,6E0,4E0,1.8E1,3E0,3E0,3E0],"tree_param":{"num_deleted":"0","num_feature":"40","num_nodes":"29","size_leaf_vector":"1"}},{"base_weights":[-1.0791244E-2,-5.399931E-1,3.42119E-1,-9.492825E-1,-3.7862164E-1,2.3336112E-1,6.23497E-1,-1.2842391E-1,-7.216655E-2,-4.625712E-2,-2.5456664E-1,1.9059862E-3,2.8347796E-1,5.146871E-2,9.185505E-2,-2.807965E-2,-1.3782089E-2,-6.615385E-3,4.706743E-2,2.0492633E-1,3.2676883E-2,7.9568485E-3,5.152893E-4,1.4713345E-1,2.504581E-2,6.957245E-3,1.7387476E-2],"categories":[],"categories_nodes":[],"categories_segments":[],"categories_sizes":[],"default_left":[0,0,0,0,0,0,0,0,0,0,0,0,0,0,0,0,0,0,0,0,0,0,0,0,0,0,0],"id":35,"left_children":[1,3,5,7,9,11,13,-1,-1,-1,15,17,19,-1,-1,-1,-1,-1,21,23,-1,-1,-1,25,-1,-1,-1],"loss_changes":[3.0813507E1,3.9997253E0,2.8841057E0,4.4556236E-1,3.9254856E-1,8.462455E-1,3.9406204E-1,0E0,0E0,0E0,2.8669357E-2,4.6145216E-2,1.3707066E-1,0E0,0E0,0E0,0E0,0E0,1.1850392E-2,2.6303172E-2,0E0,0E0,0E0,1.4866173E-2,0E0,0E0,0E0],"parents":[2147483647,0,0,1,1,2,2,3,3,4,4,5,5,6,6,10,10,11,11,12,12,18,18,19,19,23,23],"right_children":[2,4,6,8,10,12,14,-1,-1,-1,16,18,20,-1,-1,-1,-1,-1,22,24,-1,-1,-1,26,-1,-1,-1],"split_conditions":[7.88E2,2.23E2,1.368E3,1.51E2,5.42E2,1.071E3,1.538E3,-1.2842391E-1,-7.216655E-2,-4.625712E-2,7.06E2,9.22E2,1.214E3,5.146871E-2,9.185505E-2,-2.807965E-2,-1.3782089E-2,-6.615385E-3,5.07E2,1.31663E3,3.2676883E-2,7.9568485E-3,5.152893E-4,1.123E3,2.504581E-2,6.957245E-3,1.7387476E-2],"split_indices":[4,4,4,4,4,4,4,0,0,0,4,4,4,0,0,0,0,0,30,1,0,0,0,4,0,0,0],"split_type":[0,0,0,0,0,0,0,0,0,0,0,0,0,0,0,0,0,0,0,0,0,0,0,0,0,0,0],"sum_hessian":[1.63E2,6.5E1,9.8E1,1.7E1,4.8E1,7.2E1,2.6E1,5E0,1.2E1,2.7E1,2.1E1,1.3E1,5.9E1,2.1E1,5E0,1.6E1,5E0,5E0,8E0,2.3E1,3.6E1,4E0,4E0,1.2E1,1.1E1,4E0,8E0],"tree_param":{"num_deleted":"0","num_feature":"40","num_nodes":"27","size_leaf_vector":"1"}},{"base_weights":[-7.811843E-3,-4.6829987E-1,3.3157733E-1,-7.578866E-1,-3.1046194E-1,2.2571748E-1,6.0383165E-1,-1.0772195E-1,-6.1715584E-2,-1.8284142E-2,-3.645703E-2,9.815643E-2,2.9013726E-1,4.863948E-2,9.142221E-2,2.0448541E-2,4.544597E-2,1.0889912E-2,3.0024922E-1,-3.7567138E-3,7.184737E-2,3.208192E-2,1.8689388E-2,3.9640698E-3,9.104729E-3],"categories":[],"categories_nodes":[],"categories_segments":[],"categories_sizes":[],"default_left":[0,0,0,0,0,0,0,0,0,0,0,0,0,0,0,0,0,0,0,0,0,0,0,0,0],"id":36,"left_children":[1,3,5,7,9,11,13,-1,-1,-1,-1,15,17,-1,-1,-1,19,-1,21,-1,23,-1,-1,-1,-1],"loss_changes":[2.5785961E1,2.9642496E0,2.6016798E0,4.1374683E-1,2.5789213E-1,5.4674244E-1,5.030613E-1,0E0,0E0,0E0,0E0,1.308232E-1,5.160618E-2,0E0,0E0,0E0,4.2149015E-2,0E0,4.030466E-2,0E0,5.0479397E-3,0E0,0E0,0E0,0E0],"parents":[2147483647,0,0,1,1,2,2,3,3,4,4,5,5,6,6,11,11,12,12,16,16,18,18,20,20],"right_children":[2,4,6,8,10,12,14,-1,-1,-1,-1,16,18,-1,-1,-1,20,-1,22,-1,24,-1,-1,-1,-1],"split_conditions":[8.31E2,2.93E2,1.369E3,1.51E2,1.014E2,1.155E3,1.546E3,-1.0772195E-1,-6.1715584E-2,-1.8284142E-2,-3.645703E-2,1.13E2,3.015E2,4.863948E-2,9.142221E-2,2.0448541E-2,2.3975E2,1.0889912E-2,1.0723333E1,-3.7567138E-3,3.2675E2,3.208192E-2,1.8689388E-2,3.9640698E-3,9.104729E-3],"split_indices":[4,4,4,4,9,4,4,0,0,0,0,15,17,0,0,0,17,0,13,0,17,0,0,0,0],"split_type":[0,0,0,0,0,0,0,0,0,0,0,0,0,0,0,0,0,0,0,0,0,0,0,0,0],"sum_hessian":[1.63E2,6.9E1,9.4E1,2.3E1,4.6E1,6.9E1,2.5E1,5E0,1.8E1,1.5E1,3.1E1,2.4E1,4.5E1,2E1,5E0,7E0,1.7E1,3E0,4.2E1,4E0,1.3E1,3.4E1,8E0,6E0,7E0],"tree_param":{"num_deleted":"0","num_feature":"40","num_nodes":"25","size_leaf_vector":"1"}},{"base_weights":[1.0821143E-2,-3.62947E-1,2.9605466E-1,-5.8194625E-1,-2.0680918E-1,2.3100302E-1,6.466316E-2,-7.622869E-2,-4.469098E-2,-2.6362765E-1,-1.21163316E-1,1.443494E-1,3.2780726E-2,-2.7942419E-2,-1.1083985E-2,-1.3284815E-2,-4.413319E-3,4.9932957E-2,1.7430843E-1,-8.70657E-4,7.0446864E-2,1.989127E-1,7.255602E-3,1.023079E-2,2.4496461E-3,1.19984215E-2,2.1659203E-2],"categories":[],"categories_nodes":[],"categories_segments":[],"categories_sizes":[],"default_left":[0,0,0,0,0,0,0,0,0,0,0,0,0,0,0,0,0,0,0,0,0,0,0,0,0,0,0],"id":37,"left_children":[1,3,5,7,9,11,-1,-1,-1,13,15,17,-1,-1,-1,-1,-1,19,21,-1,23,25,-1,-1,-1,-1,-1],"loss_changes":[1.7485077E1,2.3074284E0,1.9715471E0,3.6555004E-1,1.7730749E-1,6.2375593E-1,0E0,0E0,0E0,2.9366612E-2,1.1238605E-2,1.157558E-1,0E0,0E0,0E0,0E0,0E0,1.5048459E-2,6.8184614E-2,0E0,1.0670062E-2,1.0292888E-2,0E0,0E0,0E0,0E0,0E0],"parents":[2147483647,0,0,1,1,2,2,3,3,4,4,5,5,9,9,10,10,11,11,17,17,18,18,20,20,21,21],"right_children":[2,4,6,8,10,12,-1,-1,-1,14,16,18,-1,-1,-1,-1,-1,20,22,-1,24,26,-1,-1,-1,-1,-1],"split_conditions":[9.39E2,4.1E2,1.468E3,1.94E2,6.92E2,1.268E3,6.466316E-2,-7.622869E-2,-4.469098E-2,3.0025E2,3.797E1,1.102E3,3.2780726E-2,-2.7942419E-2,-1.1083985E-2,-1.3284815E-2,-4.413319E-3,6.4275E0,6.59E2,-8.70657E-4,8.04136E5,1.135E3,7.255602E-3,1.023079E-2,2.4496461E-3,1.19984215E-2,2.1659203E-2],"split_indices":[4,4,4,4,4,4,0,0,0,17,0,4,0,0,0,0,0,13,30,0,38,4,0,0,0,0,0],"split_type":[0,0,0,0,0,0,0,0,0,0,0,0,0,0,0,0,0,0,0,0,0,0,0,0,0,0,0],"sum_hessian":[1.62E2,7E1,9.2E1,2.8E1,4.2E1,7.9E1,1.3E1,1E1,1.8E1,2.4E1,1.8E1,4.3E1,3.6E1,2.1E1,3E0,1.5E1,3E0,1.1E1,3.2E1,3E0,8E0,2.5E1,7E0,4E0,4E0,6E0,1.9E1],"tree_param":{"num_deleted":"0","num_feature":"40","num_nodes":"27","size_leaf_vector":"1"}},{"base_weights":[-2.7144836E-2,-3.8516927E-1,2.1771488E-1,-8.618663E-1,-2.8976527E-1,-1.578497E-2,2.7012637E-1,-9.99854E-2,-4.9631033E-2,-6.5855905E-2,-3.4553242E-1,2.3258464E-1,5.779881E-1,7.806444E-3,-1.16838455E-1,-4.036881E-1,-2.4683785E-1,2.681269E-1,1.4708652E-1,3.0161573E-2,6.65905E-2,-1.6018074E-2,-4.1460036E-3,-2.0673228E-2,-4.279002E-2,-3.1634044E-2,-1.4570121E-1,1.6458257E-1,2.8978035E-1,8.446639E-2,2.0320922E-1,-1.9437632E-2,-5.8150864E-3,9.473692E-3,2.1863874E-2,2.507926E-2,3.5103634E-2,2.5187493E-3,9.834359E-3,2.241478E-2,1.0006047E-2],"categories":[],"categories_nodes":[],"categories_segments":[],"categories_sizes":[],"default_left":[0,0,0,0,0,0,0,0,0,0,0,0,0,0,0,0,0,0,0,0,0,0,0,0,0,0,0,0,0,0,0,0,0,0,0,0,0,0,0,0,0],"id":38,"left_children":[1,3,5,7,9,-1,11,-1,-1,13,15,17,19,-1,21,23,25,27,29,-1,-1,-1,-1,-1,-1,-1,31,33,35,37,39,-1,-1,-1,-1,-1,-1,-1,-1,-1,-1],"loss_changes":[1.489937E1,2.888299E0,2.030714E0,5.8626175E-2,7.139659E-1,0E0,8.9420176E-1,0E0,0E0,1.04507476E-1,1.7011738E-1,2.0670462E-1,1.7832994E-2,0E0,2.6029617E-2,4.5063496E-2,9.4493985E-2,7.786417E-2,7.4210286E-2,0E0,0E0,0E0,0E0,0E0,0E0,0E0,3.1312063E-2,2.459392E-2,1.9433498E-2,9.039722E-3,5.648911E-3,0E0,0E0,0E0,0E0,0E0,0E0,0E0,0E0,0E0,0E0],"parents":[2147483647,0,0,1,1,2,2,3,3,4,4,6,6,9,9,10,10,11,11,12,12,14,14,15,15,16,16,17,17,18,18,26,26,27,27,28,28,29,29,30,30],"right_children":[2,4,6,8,10,-1,12,-1,-1,14,16,18,20,-1,22,24,26,28,30,-1,-1,-1,-1,-1,-1,-1,32,34,36,38,40,-1,-1,-1,-1,-1,-1,-1,-1,-1,-1],"split_conditions":[2.7625E2,4.375E1,3E0,3.151E2,1.014E2,-1.578497E-2,5.178775E3,-9.99854E-2,-4.9631033E-2,8.55E1,1.2375E2,1.4246666E2,2.315E0,7.806444E-3,4.36E2,1.59E1,1.438E2,6.7353E2,3.8933334E2,3.0161573E-2,6.65905E-2,-1.6018074E-2,-4.1460036E-3,-2.0673228E-2,-4.279002E-2,-3.1634044E-2,1.685E2,4.2733334E2,1.671628E3,6.664192E5,1.999412E3,-1.9437632E-2,-5.8150864E-3,9.473692E-3,2.1863874E-2,2.507926E-2,3.5103634E-2,2.5187493E-3,9.834359E-3,2.241478E-2,1.0006047E-2],"split_indices":[17,17,39,8,9,0,16,0,0,15,17,22,13,0,2,0,1,1,17,0,0,0,0,0,0,0,17,17,11,38,11,0,0,0,0,0,0,0,0,0,0],"split_type":[0,0,0,0,0,0,0,0,0,0,0,0,0,0,0,0,0,0,0,0,0,0,0,0,0,0,0,0,0,0,0,0,0,0,0,0,0,0,0,0,0],"sum_hessian":[1.68E2,6.8E1,1E2,1E1,5.8E1,1.2E1,8.8E1,6E0,4E0,1.2E1,4.6E1,8E1,8E0,3E0,9E0,2.7E1,1.9E1,5.5E1,2.5E1,3E0,5E0,5E0,4E0,4E0,2.3E1,1E1,9E0,1.1E1,4.4E1,1.3E1,1.2E1,5E0,4E0,6E0,5E0,3E1,1.4E1,3E0,1E1,9E0,3E0],"tree_param":{"num_deleted":"0","num_feature":"40","num_nodes":"41","size_leaf_vector":"1"}},{"base_weights":[-1.52371E-2,-2.8720766E-1,2.4315569E-1,-4.61464E-1,-1.8532752E-1,1.598078E-1,4.069107E-1,-5.7539273E-2,-3.6060046E-2,-2.3441283E-2,-8.776876E-2,4.9357034E-2,1.8080114E-1,3.248951E-2,5.8311082E-2,-1.017843E-2,-3.0971528E-3,6.639862E-4,7.67285E-3,1.4410077E-1,2.1947154E-1,1.6578348E-1,4.419454E-3,2.364893E-2,1.2112046E-2,1.8486833E-2,8.725992E-3],"categories":[],"categories_nodes":[],"categories_segments":[],"categories_sizes":[],"default_left":[0,0,0,0,0,0,0,0,0,0,0,0,0,0,0,0,0,0,0,0,0,0,0,0,0,0,0],"id":39,"left_children":[1,3,5,7,9,11,13,-1,-1,-1,15,17,19,-1,-1,-1,-1,-1,-1,21,23,25,-1,-1,-1,-1,-1],"loss_changes":[1.0821948E1,1.2459722E0,1.0132146E0,1.0277748E-1,2.1407223E-1,1.1628747E-1,1.8627977E-1,0E0,0E0,0E0,1.1176363E-2,1.1182852E-2,3.223884E-2,0E0,0E0,0E0,0E0,0E0,0E0,4.8995435E-2,4.830599E-3,1.5339196E-2,0E0,0E0,0E0,0E0,0E0],"parents":[2147483647,0,0,1,1,2,2,3,3,4,4,5,5,6,6,10,10,11,11,12,12,19,19,20,20,21,21],"right_children":[2,4,6,8,10,12,14,-1,-1,-1,16,18,20,-1,-1,-1,-1,-1,-1,22,24,26,-1,-1,-1,-1,-1],"split_conditions":[9.39E2,3.66E2,1.356E3,1.99E2,6.92E2,1.071E3,1.52E3,-5.7539273E-2,-3.6060046E-2,-2.3441283E-2,2.079752E3,1.426521E3,1.262E3,3.248951E-2,5.8311082E-2,-1.017843E-2,-3.0971528E-3,6.639862E-4,7.67285E-3,6.92E2,1.5266667E2,2.77E2,4.419454E-3,2.364893E-2,1.2112046E-2,1.8486833E-2,8.725992E-3],"split_indices":[4,4,4,4,4,4,4,0,0,0,11,11,4,0,0,0,0,0,0,30,15,28,0,0,0,0,0],"split_type":[0,0,0,0,0,0,0,0,0,0,0,0,0,0,0,0,0,0,0,0,0,0,0,0,0,0,0],"sum_hessian":[1.52E2,7.4E1,7.8E1,2.6E1,4.8E1,5.3E1,2.5E1,1E1,1.6E1,3.1E1,1.7E1,9E0,4.4E1,1.9E1,6E0,1.3E1,4E0,4E0,5E0,2.5E1,1.9E1,2E1,5E0,1.5E1,4E0,1.5E1,5E0],"tree_param":{"num_deleted":"0","num_feature":"40","num_nodes":"27","size_leaf_vector":"1"}},{"base_weights":[-7.623975E-3,-3.9774922E-1,1.3953492E-1,-8.648325E-2,-3.0606592E-1,-1.6500747E-1,2.1580048E-1,-3.6107773E-1,-1.7810985E-1,-2.065386E-2,-1.0280386E-1,1.27993E-1,3.5107562E-1,-1.9216642E-2,-3.8209856E-2,-2.0612832E-2,-8.645096E-3,-1.2133662E-2,-3.5404207E-3,-4.7148387E-3,1.6762331E-1,2.8280467E-1,5.7174113E-2,5.781784E-3,-3.271016E-2,8.95257E-2,1.7905226E-1,2.296877E-2,3.4776594E-2,-8.076224E-3,2.0793597E-3,1.1162872E-2,3.9515495E-3,1.4146976E-2,2.0631881E-2],"categories":[],"categories_nodes":[],"categories_segments":[],"categories_sizes":[],"default_left":[0,0,0,0,0,0,0,0,0,0,0,0,0,0,0,0,0,0,0,0,0,0,0,0,0,0,0,0,0,0,0,0,0,0,0],"id":40,"left_children":[1,3,5,-1,7,9,11,13,15,-1,17,19,21,-1,-1,-1,-1,-1,-1,23,25,27,-1,-1,29,31,33,-1,-1,-1,-1,-1,-1,-1,-1],"loss_changes":[9.643037E0,1.7051959E0,2.8691924E0,0E0,2.172525E-1,4.335165E-2,1.1191254E0,2.244091E-2,1.8133938E-2,0E0,1.0693386E-2,3.2160473E-1,4.1077995E-1,0E0,0E0,0E0,0E0,0E0,0E0,2.8150572E-2,2.5921226E-2,2.7089357E-2,0E0,0E0,2.9959965E-2,4.431948E-3,1.1801839E-2,0E0,0E0,0E0,0E0,0E0,0E0,0E0,0E0],"parents":[2147483647,0,0,1,1,2,2,4,4,5,5,6,6,7,7,8,8,10,10,11,11,12,12,19,19,20,20,21,21,24,24,25,25,26,26],"right_children":[2,4,6,-1,8,10,12,14,16,-1,18,20,22,-1,-1,-1,-1,-1,-1,24,26,28,-1,-1,30,32,34,-1,-1,-1,-1,-1,-1,-1,-1],"split_conditions":[4.01E2,1.29E2,3E0,-8.648325E-2,9.2175E1,2.14559E3,7.39E2,1.59E1,3.6E2,-2.065386E-2,1E0,5.21E2,7.62E2,-1.9216642E-2,-3.8209856E-2,-2.0612832E-2,-8.645096E-3,-1.2133662E-2,-3.5404207E-3,3.7288E2,3.3145126E2,5.975E0,5.7174113E-2,5.781784E-3,1.55049E3,1.30442E3,6.7353E2,2.296877E-2,3.4776594E-2,-8.076224E-3,2.0793597E-3,1.1162872E-2,3.9515495E-3,1.4146976E-2,2.0631881E-2],"split_indices":[30,30,39,0,21,3,30,0,30,0,6,30,30,0,0,0,0,0,0,1,24,13,0,0,1,1,1,0,0,0,0,0,0,0,0],"split_type":[0,0,0,0,0,0,0,0,0,0,0,0,0,0,0,0,0,0,0,0,0,0,0,0,0,0,0,0,0,0,0,0,0,0,0],"sum_hessian":[1.66E2,4.5E1,1.21E2,6E0,3.9E1,2.4E1,9.7E1,2.6E1,1.3E1,1.3E1,1.1E1,6E1,3.7E1,4E0,2.2E1,9E0,4E0,8E0,3E0,1.4E1,4.6E1,3E1,7E0,4E0,1E1,7E0,3.9E1,1.9E1,1.1E1,5E0,5E0,4E0,3E0,1.9E1,2E1],"tree_param":{"num_deleted":"0","num_feature":"40","num_nodes":"35","size_leaf_vector":"1"}},{"base_weights":[-1.690868E-2,-2.773644E-1,2.0126523E-1,-5.9764266E-1,-1.9023833E-1,1.665549E-1,5.9895433E-2,-8.757635E-2,-4.3195546E-2,-2.662478E-1,-1.15374014E-1,9.765931E-2,2.3009934E-1,-3.3674356E-2,-2.0771112E-2,-1.3644332E-1,-6.713247E-2,1.684955E-2,6.804389E-2,1.6495777E-2,2.4937248E-2,-1.699702E-2,-8.746459E-2,-9.170469E-3,4.9381255E-4,1.2326956E-2,8.315155E-2,-4.3296437E-3,-1.0651833E-2,3.7325383E-3,-1.0137176E-3,8.6956023E-4,1.01330755E-2],"categories":[],"categories_nodes":[],"categories_segments":[],"categories_sizes":[],"default_left":[0,0,0,0,0,0,0,0,0,0,0,0,0,0,0,0,0,0,0,0,0,0,0,0,0,0,0,0,0,0,0,0,0],"id":41,"left_children":[1,3,5,7,9,11,-1,-1,-1,13,15,17,19,-1,-1,21,23,-1,25,-1,-1,-1,27,-1,-1,29,31,-1,-1,-1,-1,-1,-1],"loss_changes":[9.602365E0,2.0349584E0,1.170202E0,3.5900688E-1,3.2208657E-1,3.5403085E-1,0E0,0E0,0E0,5.385208E-2,2.4381906E-2,7.874218E-2,1.410532E-2,0E0,0E0,2.1259934E-2,2.170406E-2,0E0,2.5911078E-2,0E0,0E0,0E0,4.6453923E-3,0E0,0E0,4.8709176E-3,3.2957643E-2,0E0,0E0,0E0,0E0,0E0,0E0],"parents":[2147483647,0,0,1,1,2,2,3,3,4,4,5,5,9,9,10,10,11,11,12,12,15,15,16,16,18,18,22,22,25,25,26,26],"right_children":[2,4,6,8,10,12,-1,-1,-1,14,16,18,20,-1,-1,22,24,-1,26,-1,-1,-1,28,-1,-1,30,32,-1,-1,-1,-1,-1,-1],"split_conditions":[9.07E2,1.99E2,1.538E3,1.33E2,5.3E2,1.268E3,5.9895433E-2,-8.757635E-2,-4.3195546E-2,3.233E2,7.52E2,1.67E2,1.328E3,-3.3674356E-2,-2.0771112E-2,1.16833336E2,8.0875E0,1.684955E-2,1.004E3,1.6495777E-2,2.4937248E-2,-1.699702E-2,1.896374E3,-9.170469E-3,4.9381255E-4,1.713E1,1.01333336E2,-4.3296437E-3,-1.0651833E-2,3.7325383E-3,-1.0137176E-3,8.6956023E-4,1.01330755E-2],"split_indices":[4,4,4,4,4,4,0,0,0,8,4,28,4,0,0,21,13,0,4,0,0,0,11,0,0,26,15,0,0,0,0,0,0],"split_type":[0,0,0,0,0,0,0,0,0,0,0,0,0,0,0,0,0,0,0,0,0,0,0,0,0,0,0,0,0,0,0,0,0],"sum_hessian":[1.67E2,7.6E1,9.1E1,1.5E1,6.1E1,8.5E1,6E0,4E0,1.1E1,2.9E1,3.2E1,4.2E1,4.3E1,1.1E1,1.8E1,2.1E1,1.1E1,1.1E1,3.1E1,1.2E1,3.1E1,1.1E1,1E1,8E0,3E0,7E0,2.4E1,4E0,6E0,3E0,4E0,5E0,1.9E1],"tree_param":{"num_deleted":"0","num_feature":"40","num_nodes":"33","size_leaf_vector":"1"}},{"base_weights":[2.2826365E-3,-2.311192E-1,1.7135659E-1,-5.706616E-2,-1.7262657E-1,4.493384E-1,1.3466163E-1,-2.3063023E-1,-7.117784E-2,2.2483675E-2,5.4550555E-2,-8.88898E-3,1.5210308E-1,-2.6489657E-1,-8.6976156E-2,-9.653768E-2,7.975578E-3,9.711021E-2,1.8362598E-1,-3.218326E-1,-1.9907674E-1,-1.152738E-2,-2.2785664E-3,-1.4837997E-2,-5.3220894E-2,-2.2581737E-3,1.2011175E-1,2.3677444E-2,1.2341499E-1,-3.7128907E-2,-2.1226965E-2,-2.2703461E-2,-1.0998154E-2,-1.04335025E-2,-1.8910727E-3,1.3339715E-2,3.497658E-3,5.2608014E-3,1.4673293E-2],"categories":[],"categories_nodes":[],"categories_segments":[],"categories_sizes":[],"default_left":[0,0,0,0,0,0,0,0,0,0,0,0,0,0,0,0,0,0,0,0,0,0,0,0,0,0,0,0,0,0,0,0,0,0,0,0,0,0,0],"id":42,"left_children":[1,3,5,-1,7,9,11,13,15,-1,-1,-1,17,19,21,23,-1,25,27,29,31,-1,-1,-1,33,-1,35,-1,37,-1,-1,-1,-1,-1,-1,-1,-1,-1,-1],"loss_changes":[6.6692486E0,1.3116002E0,9.391434E-1,0E0,3.4841704E-1,1.1483693E-1,3.5663772E-1,1.6893768E-1,9.95631E-2,0E0,0E0,0E0,1.24317884E-1,5.2103758E-2,1.3721354E-2,3.926155E-2,0E0,9.081146E-2,1.3398468E-1,2.4654865E-3,1.7375886E-2,0E0,0E0,0E0,2.0825494E-2,0E0,2.5872707E-2,0E0,3.5208553E-2,0E0,0E0,0E0,0E0,0E0,0E0,0E0,0E0,0E0,0E0],"parents":[2147483647,0,0,1,1,2,2,4,4,5,5,6,6,7,7,8,8,12,12,13,13,14,14,15,15,17,17,18,18,19,19,20,20,24,24,26,26,28,28],"right_children":[2,4,6,-1,8,10,12,14,16,-1,-1,-1,18,20,22,24,-1,26,28,30,32,-1,-1,-1,34,-1,36,-1,38,-1,-1,-1,-1,-1,-1,-1,-1,-1,-1],"split_conditions":[2.8425E2,4.375E1,4.4275E0,-5.706616E-2,8.9833336E1,7.7E2,3.26797E3,5.3E2,1.056992E3,2.2483675E-2,5.4550555E-2,-8.88898E-3,6.84114E2,2.93E2,4.1E2,1.86E2,7.975578E-3,6.7353E2,3.3333334E-1,1.3075E2,8.95E1,-1.152738E-2,-2.2785664E-3,-1.4837997E-2,1.57E2,-2.2581737E-3,1.21333336E2,2.3677444E-2,3.9666666E2,-3.7128907E-2,-2.1226965E-2,-2.2703461E-2,-1.0998154E-2,-1.04335025E-2,-1.8910727E-3,1.3339715E-2,3.497658E-3,5.2608014E-3,1.4673293E-2],"split_indices":[17,17,13,0,21,30,3,30,37,0,0,0,37,8,2,17,0,1,19,15,17,0,0,0,28,0,15,0,17,0,0,0,0,0,0,0,0,0,0],"split_type":[0,0,0,0,0,0,0,0,0,0,0,0,0,0,0,0,0,0,0,0,0,0,0,0,0,0,0,0,0,0,0,0,0,0,0,0,0,0,0],"sum_hessian":[1.67E2,7E1,9.7E1,9E0,6.1E1,1E1,8.7E1,3.8E1,2.3E1,4E0,6E0,6E0,8.1E1,3E1,8E0,2E1,3E0,3.1E1,5E1,1.4E1,1.6E1,5E0,3E0,8E0,1.2E1,5E0,2.6E1,2.5E1,2.5E1,8E0,6E0,1.1E1,5E0,4E0,8E0,2.2E1,4E0,7E0,1.8E1],"tree_param":{"num_deleted":"0","num_feature":"40","num_nodes":"39","size_leaf_vector":"1"}},{"base_weights":[-1.9632699E-2,-2.0912239E-1,1.3347413E-1,-4.6860003E-1,-1.537415E-1,6.2075663E-2,2.69442E-1,-6.611667E-2,-3.309482E-2,-1.9726965E-1,-7.5141E-2,-8.815495E-2,9.834007E-2,2.1740215E-1,5.5335045E-2,-2.8218294E-2,-1.6899301E-1,-1.4965688E-2,1.9754237E-2,-1.0753695E-2,-5.8948244E-3,2.4758251E-2,1.17052175E-1,2.4175176E-1,9.188652E-3,-1.8447143E-1,-5.161095E-3,3.68433E-2,-1.936245E-3,-1.9194413E-3,5.261612E-2,3.029709E-3,1.2636757E-1,9.000587E-3,2.609745E-1,-7.842732E-3,-1.9445915E-2,5.362587E-3,6.6542625E-4,6.840706E-3,2.367115E-3,1.3416918E-2,3.4313202E-3,1.2981988E-2,2.7745223E-2],"categories":[],"categories_nodes":[],"categories_segments":[],"categories_sizes":[],"default_left":[0,0,0,0,0,0,0,0,0,0,0,0,0,0,0,0,0,0,0,0,0,0,0,0,0,0,0,0,0,0,0,0,0,0,0,0,0,0,0,0,0,0,0,0,0],"id":43,"left_children":[1,3,5,7,9,11,13,-1,-1,15,17,19,21,23,-1,-1,25,-1,27,-1,-1,29,31,33,-1,35,-1,37,-1,-1,39,-1,41,-1,43,-1,-1,-1,-1,-1,-1,-1,-1,-1,-1],"loss_changes":[4.611835E0,9.482343E-1,8.375695E-1,9.927392E-2,1.904571E-1,3.3010262E-1,3.2293677E-1,0E0,0E0,4.3553352E-2,1.6559403E-1,4.5389682E-4,6.31918E-2,6.0305238E-2,0E0,0E0,4.680282E-2,0E0,8.066518E-3,0E0,0E0,1.447864E-2,2.6881397E-2,4.0683985E-2,0E0,1.3345838E-2,0E0,3.696357E-3,0E0,0E0,1.580203E-3,0E0,1.9814074E-2,0E0,5.0427914E-3,0E0,0E0,0E0,0E0,0E0,0E0,0E0,0E0,0E0,0E0],"parents":[2147483647,0,0,1,1,2,2,3,3,4,4,5,5,6,6,9,9,10,10,11,11,12,12,13,13,16,16,18,18,21,21,22,22,23,23,25,25,27,27,30,30,32,32,34,34],"right_children":[2,4,6,8,10,12,14,-1,-1,16,18,20,22,24,-1,-1,26,-1,28,-1,-1,30,32,34,-1,36,-1,38,-1,-1,40,-1,42,-1,44,-1,-1,-1,-1,-1,-1,-1,-1,-1,-1],"split_conditions":[2.8425E2,4.975E1,1.079643E4,3.375E1,2.0775E2,3E0,5.16E2,-6.611667E-2,-3.309482E-2,2.93E2,7.3171E2,1.8E2,5.3527E2,3.3333334E-1,5.5335045E-2,-2.8218294E-2,1.8E2,-1.4965688E-2,3.191E1,-1.0753695E-2,-5.8948244E-3,1.433343E3,1.587E1,2.03E2,9.188652E-3,1.04497E3,-5.161095E-3,8.04136E5,-1.936245E-3,-1.9194413E-3,3.226E1,3.029709E-3,3.4481733E3,9.000587E-3,3.071E2,-7.842732E-3,-1.9445915E-2,5.362587E-3,6.6542625E-4,6.840706E-3,2.367115E-3,1.3416918E-2,3.4313202E-3,1.2981988E-2,2.7745223E-2],"split_indices":[17,17,3,17,17,39,17,0,0,8,27,28,1,19,0,0,17,0,0,0,0,11,0,2,0,27,0,12,0,0,0,0,16,0,8,0,0,0,0,0,0,0,0,0,0],"split_type":[0,0,0,0,0,0,0,0,0,0,0,0,0,0,0,0,0,0,0,0,0,0,0,0,0,0,0,0,0,0,0,0,0,0,0,0,0,0,0,0,0,0,0,0,0],"sum_hessian":[1.57E2,7E1,8.7E1,1.1E1,5.9E1,5.8E1,2.9E1,3E0,8E0,3.7E1,2.2E1,1.1E1,4.7E1,2.6E1,3E0,7E0,3E1,1.2E1,1E1,5E0,6E0,1E1,3.7E1,2.1E1,5E0,2.6E1,4E0,7E0,3E0,4E0,6E0,4E0,3.3E1,3E0,1.8E1,3E0,2.3E1,4E0,3E0,3E0,3E0,3E1,3E0,3E0,1.5E1],"tree_param":{"num_deleted":"0","num_feature":"40","num_nodes":"45","size_leaf_vector":"1"}},{"base_weights":[-7.147611E-3,-1.9026233E-1,1.4067389E-1,-3.2960722E-1,-1.291544E-1,8.1613995E-2,2.127847E-1,-4.6425473E-2,-2.8137404E-2,-1.7085427E-1,-8.575991E-2,1.6182633E-2,6.0059432E-2,1.6709793E-1,2.7474364E-2,-1.0144591E-2,-1.922105E-2,-2.3954774E-3,-9.546711E-2,3.7485335E-2,9.6688844E-2,1.8128048E-1,4.7319415E-3,-1.0570767E-1,-3.7459563E-3,-1.9602776E-3,5.1389314E-2,1.2422508E-2,6.452857E-2,8.612252E-3,1.9177265E-2,-5.4429243E-3,-1.157533E-2,-5.373669E-3,3.985291E-3,7.2249E-3,2.3286002E-4,2.257843E-3,9.3573E-3],"categories":[],"categories_nodes":[],"categories_segments":[],"categories_sizes":[],"default_left":[0,0,0,0,0,0,0,0,0,0,0,0,0,0,0,0,0,0,0,0,0,0,0,0,0,0,0,0,0,0,0,0,0,0,0,0,0,0,0],"id":44,"left_children":[1,3,5,7,9,11,13,-1,-1,15,17,-1,19,21,-1,-1,-1,-1,23,25,27,29,-1,31,-1,33,35,-1,37,-1,-1,-1,-1,-1,-1,-1,-1,-1,-1],"loss_changes":[4.3035555E0,5.620005E-1,3.5741305E-1,5.7547092E-3,7.7634275E-2,7.67279E-2,6.448841E-2,0E0,0E0,1.7558515E-2,1.3911918E-2,0E0,3.027749E-2,3.3891022E-2,0E0,0E0,0E0,0E0,9.702906E-3,1.4908917E-2,5.2675307E-3,5.449116E-3,0E0,3.486976E-3,0E0,1.9461054E-2,2.0299584E-2,0E0,8.853033E-3,0E0,0E0,0E0,0E0,0E0,0E0,0E0,0E0,0E0,0E0],"parents":[2147483647,0,0,1,1,2,2,3,3,4,4,5,5,6,6,9,9,10,10,12,12,13,13,18,18,19,19,20,20,21,21,23,23,25,25,26,26,28,28],"right_children":[2,4,6,8,10,12,14,-1,-1,16,18,-1,20,22,-1,-1,-1,-1,24,26,28,30,-1,32,-1,34,36,-1,38,-1,-1,-1,-1,-1,-1,-1,-1,-1,-1],"split_conditions":[9.22E2,2.93E2,1.323E3,1.51E2,5.5E2,1.48E2,1.47E3,-4.6425473E-2,-2.8137404E-2,2.603E1,1.3E2,1.6182633E-2,3.9666666E2,1.431E3,2.7474364E-2,-1.0144591E-2,-1.922105E-2,-2.3954774E-3,3.634E1,1.06E2,3.208E1,1.16E2,4.7319415E-3,2.377E1,-3.7459563E-3,3.695E2,8.245E0,1.2422508E-2,5.569E2,8.612252E-3,1.9177265E-2,-5.4429243E-3,-1.157533E-2,-5.373669E-3,3.985291E-3,7.2249E-3,2.3286002E-4,2.257843E-3,9.3573E-3],"split_indices":[4,4,4,4,4,28,4,0,0,0,28,0,17,4,0,0,0,0,0,15,0,28,0,0,0,17,13,0,1,0,0,0,0,0,0,0,0,0,0],"split_type":[0,0,0,0,0,0,0,0,0,0,0,0,0,0,0,0,0,0,0,0,0,0,0,0,0,0,0,0,0,0,0,0,0,0,0,0,0,0,0],"sum_hessian":[1.57E2,7E1,8.7E1,2E1,5E1,4.9E1,3.8E1,3E0,1.7E1,2.4E1,2.6E1,9E0,4E1,2.4E1,1.4E1,7E0,1.7E1,4E0,2.2E1,2.6E1,1.4E1,2.1E1,3E0,1.8E1,4E0,7E0,1.9E1,6E0,8E0,3E0,1.8E1,4E0,1.4E1,3E0,4E0,1.3E1,6E0,4E0,4E0],"tree_param":{"num_deleted":"0","num_feature":"40","num_nodes":"39","size_leaf_vector":"1"}},{"base_weights":[-1.1729448E-2,-1.9809453E-1,1.3835429E-1,-6.7001596E-2,-1.5934148E-1,1.17209375E-1,4.61689E-2,-2.3566066E-1,-9.69047E-2,6.51689E-2,1.7152366E-1,-1.4226873E-1,-2.5383815E-2,-1.1872546E-2,-6.606356E-2,9.281054E-2,3.589564E-2,1.3630429E-2,1.9689815E-1,-1.9090628E-2,-5.8063986E-3,-8.597628E-2,-2.248982E-2,2.2863008E-3,1.07084274E-1,1.3795217E-2,6.874127E-2,1.2938118E-1,2.367541E-2,-1.016407E-2,-4.371796E-3,1.4275551E-3,-5.363274E-3,1.2284292E-2,2.1218301E-3,-1.5180861E-3,3.4799364E-3,3.035164E-3,8.287748E-3,6.319555E-3,1.829277E-2],"categories":[],"categories_nodes":[],"categories_segments":[],"categories_sizes":[],"default_left":[0,0,0,0,0,0,0,0,0,0,0,0,0,0,0,0,0,0,0,0,0,0,0,0,0,0,0,0,0,0,0,0,0,0,0,0,0,0,0,0,0],"id":45,"left_children":[1,3,5,-1,7,9,-1,11,13,15,17,19,-1,-1,21,23,25,-1,27,-1,-1,29,31,-1,33,35,37,39,-1,-1,-1,-1,-1,-1,-1,-1,-1,-1,-1,-1,-1],"loss_changes":[4.3907847E0,1.1734262E0,5.406947E-1,0E0,2.916615E-1,2.2342503E-1,0E0,1.3118148E-2,1.77297E-2,3.2271594E-2,8.908749E-3,1.7583817E-2,0E0,0E0,1.3684504E-2,1.951681E-2,1.5747448E-2,0E0,2.5878549E-2,0E0,0E0,3.4999028E-3,8.780503E-3,0E0,2.174984E-2,9.657552E-3,2.3686886E-3,2.3879886E-2,0E0,0E0,0E0,0E0,0E0,0E0,0E0,0E0,0E0,0E0,0E0,0E0,0E0],"parents":[2147483647,0,0,1,1,2,2,4,4,5,5,7,7,8,8,9,9,10,10,11,11,14,14,15,15,16,16,18,18,21,21,22,22,24,24,25,25,26,26,27,27],"right_children":[2,4,6,-1,8,10,-1,12,14,16,18,20,-1,-1,22,24,26,-1,28,-1,-1,30,32,-1,34,36,38,40,-1,-1,-1,-1,-1,-1,-1,-1,-1,-1,-1,-1,-1],"split_conditions":[9.22E2,1.33E2,1.538E3,-6.7001596E-2,4.1E2,1.302E3,4.61689E-2,7.8E1,5.96E2,3.94E2,1.368E3,2.99E2,-2.5383815E-2,-1.1872546E-2,2.674E1,1.658E1,1.214E3,1.3630429E-2,1E0,-1.9090628E-2,-5.8063986E-3,1.5166667E2,3.371E1,2.2863008E-3,1.34947E3,2.55E2,5.5695E2,1.496E3,2.367541E-2,-1.016407E-2,-4.371796E-3,1.4275551E-3,-5.363274E-3,1.2284292E-2,2.1218301E-3,-1.5180861E-3,3.4799364E-3,3.035164E-3,8.287748E-3,6.319555E-3,1.829277E-2],"split_indices":[4,4,4,0,4,4,0,15,4,2,4,4,0,0,0,0,4,0,7,0,0,15,0,0,1,28,1,4,0,0,0,0,0,0,0,0,0,0,0,0,0],"split_type":[0,0,0,0,0,0,0,0,0,0,0,0,0,0,0,0,0,0,0,0,0,0,0,0,0,0,0,0,0,0,0,0,0,0,0,0,0,0,0,0,0],"sum_hessian":[1.55E2,6.9E1,8.6E1,4E0,6.5E1,8.2E1,4E0,2.8E1,3.7E1,4.3E1,3.9E1,6E0,2.2E1,2E1,1.7E1,2.1E1,2.2E1,1.9E1,2E1,3E0,3E0,1.1E1,6E0,4E0,1.7E1,1.4E1,8E0,9E0,1.1E1,7E0,4E0,3E0,3E0,1.4E1,3E0,6E0,8E0,3E0,5E0,5E0,4E0],"tree_param":{"num_deleted":"0","num_feature":"40","num_nodes":"41","size_leaf_vector":"1"}},{"base_weights":[-1.7880527E-2,-1.827733E-1,1.22114226E-1,-5.758815E-2,-1.4795929E-1,6.2104627E-2,1.7582917E-1,-1.991264E-1,-7.990444E-2,2.3825645E-2,8.044993E-2,1.4329875E-1,2.2672003E-2,-2.3677051E-2,-1.5585327E-1,-9.270833E-2,-4.9771946E-2,3.441444E-3,8.411789E-3,9.913843E-2,2.5828043E-2,1.5161738E-1,4.7163963E-3,-8.250019E-3,-1.7820442E-2,-1.2758128E-2,-7.49468E-3,-6.76057E-2,-2.0670572E-3,-3.932476E-3,2.020378E-2,2.2562982E-3,1.1004177E-1,4.3296814E-4,4.21608E-3,1.2727411E-2,1.91572E-2,-9.220744E-3,-2.6102543E-3,4.385071E-3,-2.8692881E-4,1.311812E-2,7.1977824E-3],"categories":[],"categories_nodes":[],"categories_segments":[],"categories_sizes":[],"default_left":[0,0,0,0,0,0,0,0,0,0,0,0,0,0,0,0,0,0,0,0,0,0,0,0,0,0,0,0,0,0,0,0,0,0,0,0,0,0,0,0,0,0,0],"id":46,"left_children":[1,3,5,-1,7,9,11,13,15,17,19,21,-1,-1,23,25,27,29,-1,31,33,35,-1,-1,-1,-1,-1,37,-1,-1,39,-1,41,-1,-1,-1,-1,-1,-1,-1,-1,-1,-1],"loss_changes":[3.923536E0,9.8227525E-1,2.8563416E-1,0E0,2.3828721E-1,2.9684007E-2,4.6975255E-2,2.9886723E-2,8.117557E-3,1.9374661E-2,2.8063491E-2,1.8439889E-2,0E0,0E0,2.136767E-2,4.0649176E-3,4.830392E-3,1.0113709E-2,0E0,1.5885547E-2,2.977605E-3,3.8239956E-3,0E0,0E0,0E0,0E0,0E0,4.740499E-3,0E0,0E0,5.5818926E-3,0E0,5.8462173E-3,0E0,0E0,0E0,0E0,0E0,0E0,0E0,0E0,0E0,0E0],"parents":[2147483647,0,0,1,1,2,2,4,4,5,5,6,6,7,7,8,8,9,9,10,10,11,11,14,14,15,15,16,16,17,17,19,19,20,20,21,21,27,27,30,30,32,32],"right_children":[2,4,6,-1,8,10,12,14,16,18,20,22,-1,-1,24,26,28,30,-1,32,34,36,-1,-1,-1,-1,-1,38,-1,-1,40,-1,42,-1,-1,-1,-1,-1,-1,-1,-1,-1,-1],"split_conditions":[9.39E2,1.35E2,1.291E3,-5.758815E-2,5.25E2,1.135E3,1.47E3,2.99E2,7.52E2,8.35E0,1.708274E3,1.435E3,2.2672003E-2,-2.3677051E-2,3.087275E2,2.541E1,1.28E2,1.06E2,8.411789E-3,9.635975E2,1.236E3,7.5613194E5,4.7163963E-3,-8.250019E-3,-1.7820442E-2,-1.2758128E-2,-7.49468E-3,7.33533E2,-2.0670572E-3,-3.932476E-3,8.04136E5,2.2562982E-3,6.0497E3,4.3296814E-4,4.21608E-3,1.2727411E-2,1.91572E-2,-9.220744E-3,-2.6102543E-3,4.385071E-3,-2.8692881E-4,1.311812E-2,7.1977824E-3],"split_indices":[4,4,4,0,4,4,4,4,4,13,11,4,0,0,24,0,15,15,0,16,4,12,0,0,0,0,0,37,0,0,12,0,29,0,0,0,0,0,0,0,0,0,0],"split_type":[0,0,0,0,0,0,0,0,0,0,0,0,0,0,0,0,0,0,0,0,0,0,0,0,0,0,0,0,0,0,0,0,0,0,0,0,0,0,0,0,0,0,0],"sum_hessian":[1.68E2,7.7E1,9.1E1,5E0,7.2E1,4.4E1,4.7E1,4E1,3.2E1,1.5E1,2.9E1,3.1E1,1.6E1,1.9E1,2.1E1,2.1E1,1.1E1,1.2E1,3E0,2.1E1,8E0,2.8E1,3E0,6E0,1.5E1,5E0,1.6E1,6E0,5E0,3E0,9E0,3E0,1.8E1,4E0,4E0,2E1,8E0,3E0,3E0,4E0,5E0,1E1,8E0],"tree_param":{"num_deleted":"0","num_feature":"40","num_nodes":"43","size_leaf_vector":"1"}},{"base_weights":[6.984682E-3,-1.572847E-1,1.2498055E-1,-3.0554473E-1,-1.0676197E-1,1.04163684E-1,4.1987292E-2,-4.9372207E-2,-2.2995517E-2,-1.525552E-1,-5.333996E-2,7.070594E-2,1.4896774E-1,-1.7321084E-1,-6.584386E-2,-7.251148E-2,-3.8924947E-2,1.12950325E-1,5.727249E-2,1.7778833E-1,1.0706774E-1,-6.899667E-3,-1.860343E-1,-1.0012341E-2,-1.5103341E-3,-8.357839E-3,-3.5016537E-3,1.1005879E-3,-5.0410543E-2,7.532835E-3,1.5055542E-2,9.608137E-3,3.91503E-2,2.081656E-2,1.3124848E-2,1.2880883E-1,4.211744E-3,-9.46889E-3,-1.9724352E-2,-1.976242E-3,-6.069355E-3,1.0223242E-3,5.6881956E-3,5.901909E-3,1.4384384E-2],"categories":[],"categories_nodes":[],"categories_segments":[],"categories_sizes":[],"default_left":[0,0,0,0,0,0,0,0,0,0,0,0,0,0,0,0,0,0,0,0,0,0,0,0,0,0,0,0,0,0,0,0,0,0,0,0,0,0,0,0,0,0,0,0,0],"id":47,"left_children":[1,3,5,7,9,11,-1,-1,-1,13,15,17,19,21,23,25,27,29,31,33,35,-1,37,-1,-1,-1,-1,-1,39,-1,-1,-1,41,-1,-1,43,-1,-1,-1,-1,-1,-1,-1,-1,-1],"loss_changes":[3.1984873E0,4.842242E-1,5.4558325E-1,1.2827826E-1,1.215201E-1,1.2588E-1,0E0,0E0,0E0,3.8745344E-2,4.362799E-3,2.4175406E-2,2.6852787E-2,1.6564727E-2,1.0663336E-2,1.222901E-3,1.0304067E-2,5.636245E-3,2.6480362E-2,2.367437E-3,1.999253E-2,0E0,7.77483E-4,0E0,0E0,0E0,0E0,0E0,3.2127164E-3,0E0,0E0,0E0,1.5319146E-2,0E0,0E0,5.151257E-3,0E0,0E0,0E0,0E0,0E0,0E0,0E0,0E0,0E0],"parents":[2147483647,0,0,1,1,2,2,3,3,4,4,5,5,9,9,10,10,11,11,12,12,13,13,14,14,15,15,16,16,17,17,18,18,19,19,20,20,22,22,28,28,32,32,35,35],"right_children":[2,4,6,8,10,12,-1,-1,-1,14,16,18,20,22,24,26,28,30,32,34,36,-1,38,-1,-1,-1,-1,-1,40,-1,-1,-1,42,-1,-1,44,-1,-1,-1,-1,-1,-1,-1,-1,-1],"split_conditions":[9.22E2,2.4E2,1.546E3,1.35E2,5.3E2,1.307E3,4.1987292E-2,-4.9372207E-2,-2.2995517E-2,3.505E2,1E0,1.67E2,4.0940332E2,9.04504E2,3.313E1,2.34E2,2.7E2,6.76362E2,1.5182014E5,3.94E2,3.16E2,-6.899667E-3,7.8E1,-1.0012341E-2,-1.5103341E-3,-8.357839E-3,-3.5016537E-3,1.1005879E-3,1.408795E3,7.532835E-3,1.5055542E-2,9.608137E-3,1.123E3,2.081656E-2,1.3124848E-2,8.49116E3,4.211744E-3,-9.46889E-3,-1.9724352E-2,-1.976242E-3,-6.069355E-3,1.0223242E-3,5.6881956E-3,5.901909E-3,1.4384384E-2],"split_indices":[4,4,4,4,4,4,0,0,0,8,6,28,14,11,0,28,2,37,12,2,2,0,15,0,0,0,0,0,11,0,0,0,4,0,0,29,0,0,0,0,0,0,0,0,0],"split_type":[0,0,0,0,0,0,0,0,0,0,0,0,0,0,0,0,0,0,0,0,0,0,0,0,0,0,0,0,0,0,0,0,0,0,0,0,0,0,0,0,0,0,0,0,0],"sum_hessian":[1.63E2,6.8E1,9.5E1,1.6E1,5.2E1,9E1,5E0,3E0,1.3E1,2.7E1,2.5E1,5.3E1,3.7E1,2.1E1,6E0,9E0,1.6E1,1.1E1,4.2E1,2E1,1.7E1,3E0,1.8E1,3E0,3E0,6E0,3E0,3E0,1.3E1,7E0,4E0,1.2E1,3E1,1E1,1E1,1.2E1,5E0,3E0,1.5E1,4E0,9E0,1.2E1,1.8E1,3E0,9E0],"tree_param":{"num_deleted":"0","num_feature":"40","num_nodes":"45","size_leaf_vector":"1"}},{"base_weights":[-1.4561047E-3,-1.3881704E-1,1.01949506E-1,-2.3325267E-1,-7.409577E-2,8.4451355E-2,3.9302673E-2,-4.0499546E-2,-1.9644374E-1,-1.0476838E-2,-5.0011046E-2,4.9318437E-2,1.20888464E-1,-2.3565646E-2,-1.4880112E-1,-6.81748E-2,-2.9572487E-2,1.1393908E-1,3.3141404E-2,1.0413118E-1,1.6017047E-1,-8.155209E-2,-2.0439986E-2,-2.2364806E-3,-8.6049825E-2,1.0297298E-3,-4.1382182E-2,1.3076337E-2,6.021786E-3,2.1881219E-2,8.149065E-2,5.9541322E-2,1.1837149E-1,1.7865801E-2,8.315277E-3,-1.5610576E-3,-1.1799488E-2,-1.0352326E-2,-5.1366426E-3,-5.068534E-3,-2.008133E-3,-1.3756991E-3,3.2005236E-3,1.0128594E-2,4.132271E-3,8.597129E-3,-1.5964509E-4,4.6858788E-3,1.2635621E-2],"categories":[],"categories_nodes":[],"categories_segments":[],"categories_sizes":[],"default_left":[0,0,0,0,0,0,0,0,0,0,0,0,0,0,0,0,0,0,0,0,0,0,0,0,0,0,0,0,0,0,0,0,0,0,0,0,0,0,0,0,0,0,0,0,0,0,0,0,0],"id":48,"left_children":[1,3,5,7,9,11,-1,-1,13,-1,15,17,19,-1,21,23,25,27,29,31,33,35,-1,-1,37,-1,39,-1,-1,41,43,45,47,-1,-1,-1,-1,-1,-1,-1,-1,-1,-1,-1,-1,-1,-1,-1,-1],"loss_changes":[2.3151827E0,4.1055667E-1,4.4048667E-1,9.744799E-2,2.6526287E-2,1.07970655E-1,0E0,0E0,1.1638999E-2,0E0,7.636167E-3,4.535628E-2,1.1626363E-2,0E0,3.567624E-2,8.720618E-3,7.018024E-3,2.6009977E-4,1.9449327E-2,1.3906121E-2,8.0665946E-4,1.738277E-2,0E0,0E0,1.367256E-4,0E0,1.161987E-3,0E0,0E0,1.2346758E-2,1.3805404E-3,1.6295943E-2,7.7833235E-3,0E0,0E0,0E0,0E0,0E0,0E0,0E0,0E0,0E0,0E0,0E0,0E0,0E0,0E0,0E0,0E0],"parents":[2147483647,0,0,1,1,2,2,3,3,4,4,5,5,8,8,10,10,11,11,12,12,14,14,15,15,16,16,17,17,18,18,19,19,20,20,21,21,24,24,26,26,29,29,30,30,31,31,32,32],"right_children":[2,4,6,8,10,12,-1,-1,14,-1,16,18,20,-1,22,24,26,28,30,32,34,36,-1,-1,38,-1,40,-1,-1,42,44,46,48,-1,-1,-1,-1,-1,-1,-1,-1,-1,-1,-1,-1,-1,-1,-1,-1],"split_conditions":[9.22E2,3.66E2,1.538E3,1.3317268E4,5.44E2,1.302E3,3.9302673E-2,-4.0499546E-2,2.61268E3,-1.0476838E-2,5.287785E2,1.48E2,1.47E3,-2.3565646E-2,1.43515E3,2.87018E2,1.3E2,2.9627722E5,1.046272E3,1.189E2,4.9833334E2,2.64E2,-2.0439986E-2,-2.2364806E-3,2.505E1,1.0297298E-3,2.744E1,1.3076337E-2,6.021786E-3,2.72E2,6.58E2,3.12E2,1.16E2,1.7865801E-2,8.315277E-3,-1.5610576E-3,-1.1799488E-2,-1.0352326E-2,-5.1366426E-3,-5.068534E-3,-2.008133E-3,-1.3756991E-3,3.2005236E-3,1.0128594E-2,4.132271E-3,8.597129E-3,-1.5964509E-4,4.6858788E-3,1.2635621E-2],"split_indices":[4,4,4,25,4,4,0,0,16,0,24,28,4,0,27,24,28,25,37,9,17,4,0,0,0,0,0,0,0,17,30,2,28,0,0,0,0,0,0,0,0,0,0,0,0,0,0,0,0],"split_type":[0,0,0,0,0,0,0,0,0,0,0,0,0,0,0,0,0,0,0,0,0,0,0,0,0,0,0,0,0,0,0,0,0,0,0,0,0,0,0,0,0,0,0,0,0,0,0,0,0],"sum_hessian":[1.61E2,6.9E1,9.2E1,2.7E1,4.2E1,8.8E1,4E0,3E0,2.4E1,1.7E1,2.5E1,4.6E1,4.2E1,1.1E1,1.3E1,1.2E1,1.3E1,8E0,3.8E1,3.2E1,1E1,7E0,6E0,4E0,8E0,3E0,1E1,5E0,3E0,3.2E1,6E0,9E0,2.3E1,7E0,3E0,3E0,4E0,4E0,4E0,6E0,4E0,7E0,2.5E1,3E0,3E0,6E0,3E0,3E0,2E1],"tree_param":{"num_deleted":"0","num_feature":"40","num_nodes":"49","size_leaf_vector":"1"}},{"base_weights":[-5.454281E-3,-1.2024493E-1,1.0412133E-1,-4.9646854E-2,-9.993069E-2,8.470456E-2,3.5213027E-2,-1.6204208E-1,-5.0499607E-2,5.564855E-2,1.1688393E-1,-1.9980738E-2,-1.3064408E-1,-5.709278E-2,1.4982986E-3,2.6642936E-3,6.3731655E-2,8.104019E-2,1.2521335E-1,-4.606419E-3,-1.468805E-1,-8.701463E-3,-4.5022994E-2,3.6462785E-3,-3.180027E-3,9.107946E-2,4.4773713E-2,1.0578995E-2,4.6908697E-3,6.3632205E-3,1.32521065E-2,-1.7741526E-2,-7.3552267E-3,-6.0045295E-3,-2.3994702E-3,4.987653E-3,1.0669327E-2,7.4530713E-4,6.189795E-3],"categories":[],"categories_nodes":[],"categories_segments":[],"categories_sizes":[],"default_left":[0,0,0,0,0,0,0,0,0,0,0,0,0,0,0,0,0,0,0,0,0,0,0,0,0,0,0,0,0,0,0,0,0,0,0,0,0,0,0],"id":49,"left_children":[1,3,5,-1,7,9,-1,11,13,15,17,-1,19,21,-1,23,25,27,29,-1,31,-1,33,-1,-1,35,37,-1,-1,-1,-1,-1,-1,-1,-1,-1,-1,-1,-1],"loss_changes":[2.138245E0,5.847316E-1,3.8912427E-1,0E0,2.3743564E-1,7.016593E-2,0E0,1.53977275E-2,2.0715378E-2,1.9102693E-2,1.1978745E-3,0E0,2.3446113E-2,1.1250645E-2,0E0,9.313478E-3,1.6141906E-2,3.4849942E-3,4.61787E-3,0E0,2.7253777E-2,0E0,8.667819E-3,0E0,0E0,4.328534E-3,1.551586E-2,0E0,0E0,0E0,0E0,0E0,0E0,0E0,0E0,0E0,0E0,0E0,0E0],"parents":[2147483647,0,0,1,1,2,2,4,4,5,5,7,7,8,8,9,9,10,10,12,12,13,13,15,15,16,16,17,17,18,18,20,20,22,22,25,25,26,26],"right_children":[2,4,6,-1,8,10,-1,12,14,16,18,-1,20,22,-1,24,26,28,30,-1,32,-1,34,-1,-1,36,38,-1,-1,-1,-1,-1,-1,-1,-1,-1,-1,-1,-1],"split_conditions":[1.071E3,1.33E2,1.546E3,-4.9646854E-2,4.1E2,1.307E3,3.5213027E-2,1.034452E4,8.729833E5,1.658E1,1.203E3,-1.9980738E-2,1.104391E4,2.14559E3,1.4982986E-3,2.85E2,2.13E2,7.32E2,7.37E2,-4.606419E-3,2.1E2,-8.701463E-3,2.596E1,3.6462785E-3,-3.180027E-3,1.34226E3,1.16E3,1.0578995E-2,4.6908697E-3,6.3632205E-3,1.32521065E-2,-1.7741526E-2,-7.3552267E-3,-6.0045295E-3,-2.3994702E-3,4.987653E-3,1.0669327E-2,7.4530713E-4,6.189795E-3],"split_indices":[4,4,4,0,4,4,0,3,12,0,1,0,3,3,0,2,28,30,30,0,30,0,0,0,0,11,4,0,0,0,0,0,0,0,0,0,0,0,0],"split_type":[0,0,0,0,0,0,0,0,0,0,0,0,0,0,0,0,0,0,0,0,0,0,0,0,0,0,0,0,0,0,0,0,0,0,0,0,0,0,0],"sum_hessian":[1.68E2,8.2E1,8.6E1,3E0,7.9E1,8.1E1,5E0,3.4E1,4.5E1,4.4E1,3.7E1,1.3E1,2.1E1,4.1E1,4E0,6E0,3.8E1,9E0,2.8E1,4E0,1.7E1,1E1,3.1E1,3E0,3E0,1.4E1,2.4E1,4E0,5E0,4E0,2.4E1,1.1E1,6E0,1.7E1,1.4E1,5E0,9E0,8E0,1.6E1],"tree_param":{"num_deleted":"0","num_feature":"40","num_nodes":"39","size_leaf_vector":"1"}},{"base_weights":[-1.5781816E-2,-1.3652027E-1,6.608947E-2,-4.5872897E-2,-1.0878116E-1,3.299371E-2,1.1021959E-1,-1.4903046E-1,-6.513244E-2,-1.3667424E-2,5.2674364E-2,8.847414E-2,1.4739092E-1,-5.0377967E-3,-1.5749872E-1,-1.0474904E-2,-4.756236E-2,-4.5419056E-3,2.0385156E-3,7.697857E-2,3.4040526E-2,5.7156034E-2,9.768314E-3,1.8313048E-2,6.921641E-3,-1.7749336E-1,-1.01759575E-1,-3.276189E-2,-7.882609E-3,1.9920621E-2,-1.6134808E-2,2.0361328E-3,9.2833005E-2,4.787019E-2,4.1355556E-3,7.5282417E-3,1.5677452E-3,-8.793354E-3,-1.8812548E-2,-1.5118437E-2,-4.3612323E-3,-4.4091227E-3,-8.6599076E-4,3.24893E-3,2.371788E-4,-1.8172264E-4,-2.6418685E-3,1.2751388E-2,5.5218223E-3,-1.7356873E-4,5.8623995E-3,2.8687478E-3,-1.2921651E-3],"categories":[],"categories_nodes":[],"categories_segments":[],"categories_sizes":[],"default_left":[0,0,0,0,0,0,0,0,0,0,0,0,0,0,0,0,0,0,0,0,0,0,0,0,0,0,0,0,0,0,0,0,0,0,0,0,0,0,0,0,0,0,0,0,0,0,0,0,0,0,0,0,0],"id":50,"left_children":[1,3,5,-1,7,9,11,13,15,17,19,21,23,-1,25,-1,27,-1,29,31,33,35,-1,-1,-1,37,39,41,-1,43,45,-1,47,49,51,-1,-1,-1,-1,-1,-1,-1,-1,-1,-1,-1,-1,-1,-1,-1,-1,-1,-1],"loss_changes":[1.6400497E0,5.489303E-1,1.4095494E-1,0E0,1.00973606E-1,5.398257E-2,2.0908594E-2,1.8798769E-2,1.7292038E-2,9.068994E-3,1.5947714E-2,2.780676E-3,2.643928E-2,0E0,1.4258444E-2,0E0,8.522734E-3,0E0,4.54612E-3,1.3369575E-2,1.0141421E-2,5.5864714E-3,0E0,0E0,0E0,2.5016665E-3,2.2145651E-2,4.5332424E-3,0E0,1.466902E-3,9.826733E-4,0E0,9.9175945E-3,9.170435E-3,4.1397745E-3,0E0,0E0,0E0,0E0,0E0,0E0,0E0,0E0,0E0,0E0,0E0,0E0,0E0,0E0,0E0,0E0,0E0,0E0],"parents":[2147483647,0,0,1,1,2,2,4,4,5,5,6,6,7,7,8,8,9,9,10,10,11,11,12,12,14,14,16,16,18,18,19,19,20,20,21,21,25,25,26,26,27,27,29,29,30,30,32,32,33,33,34,34],"right_children":[2,4,6,-1,8,10,12,14,16,18,20,22,24,-1,26,-1,28,-1,30,32,34,36,-1,-1,-1,38,40,42,-1,44,46,-1,48,50,52,-1,-1,-1,-1,-1,-1,-1,-1,-1,-1,-1,-1,-1,-1,-1,-1,-1,-1],"split_conditions":[7.52E2,1.33E2,1.302E3,-4.5872897E-2,4.1E2,1.004E3,1.444E3,1.598E1,8.21332E2,2.425E1,6.29E2,1.189E2,2.22324E3,-5.0377967E-3,1.756616E3,-1.0474904E-2,2.079752E3,-4.5419056E-3,3.191E1,3.568E2,3.231E2,1.03333336E2,9.768314E-3,1.8313048E-2,6.921641E-3,7.5E1,2.59E2,5.57E2,-7.882609E-3,1.56532E3,8.78E2,2.0361328E-3,1.21333336E2,1.137E3,6.99E2,7.5282417E-3,1.5677452E-3,-8.793354E-3,-1.8812548E-2,-1.5118437E-2,-4.3612323E-3,-4.4091227E-3,-8.6599076E-4,3.24893E-3,2.371788E-4,-1.8172264E-4,-2.6418685E-3,1.2751388E-2,5.5218223E-3,-1.7356873E-4,5.8623995E-3,2.8687478E-3,-1.2921651E-3],"split_indices":[4,4,4,0,4,4,4,0,37,0,30,9,1,0,11,0,11,0,0,24,8,15,0,0,0,15,4,4,0,1,4,0,15,4,30,0,0,0,0,0,0,0,0,0,0,0,0,0,0,0,0,0,0],"split_type":[0,0,0,0,0,0,0,0,0,0,0,0,0,0,0,0,0,0,0,0,0,0,0,0,0,0,0,0,0,0,0,0,0,0,0,0,0,0,0,0,0,0,0,0,0,0,0,0,0,0,0,0,0],"sum_hessian":[1.64E2,6.6E1,9.8E1,4E0,6.2E1,5.7E1,4.1E1,3.1E1,3.1E1,1.7E1,4E1,2.8E1,1.3E1,3E0,2.8E1,8E0,2.3E1,5E0,1.2E1,1.6E1,2.4E1,8E0,2E1,8E0,5E0,1.9E1,9E0,1.7E1,6E0,6E0,6E0,4E0,1.2E1,1.6E1,8E0,5E0,3E0,3E0,1.6E1,4E0,5E0,1.1E1,6E0,3E0,3E0,3E0,3E0,5E0,7E0,3E0,1.3E1,3E0,5E0],"tree_param":{"num_deleted":"0","num_feature":"40","num_nodes":"53","size_leaf_vector":"1"}},{"base_weights":[-3.686484E-4,2.158959E-1,-1.5234533E-2,7.768707E-3,2.8377423E-2,-1.0744995E-1,1.0311934E-3,-1.3513556E-1,-5.5176546E-3,4.30019E-2,-4.7513552E-2,-1.9148072E-2,-8.7814905E-2,-3.5416707E-2,5.3043805E-2,-2.5306702E-1,-2.1886175E-2,-1.1149569E-2,-2.4419785E-3,-4.2930287E-3,-1.5292168E-3,4.3347336E-2,1.2857874E-2,-3.0953586E-2,-1.3333142E-2,-5.6248367E-2,3.689961E-2,-6.3366294E-3,5.0075534E-3,-2.7644634E-4,-9.258902E-3,3.9824573E-4,6.39987E-3],"categories":[],"categories_nodes":[],"categories_segments":[],"categories_sizes":[],"default_left":[0,0,0,0,0,0,0,0,0,0,0,0,0,0,0,0,0,0,0,0,0,0,0,0,0,0,0,0,0,0,0,0,0],"id":51,"left_children":[1,3,5,-1,-1,7,9,11,-1,13,15,-1,17,19,21,23,25,-1,-1,-1,-1,27,-1,-1,-1,29,31,-1,-1,-1,-1,-1,-1],"loss_changes":[5.4983294E-1,8.11497E-2,2.4010292E-1,0E0,0E0,2.7276993E-2,2.8117484E-1,2.3179471E-2,0E0,6.0151577E-2,3.3160025E-1,0E0,1.228977E-2,7.0436765E-4,4.2766318E-2,6.0584843E-3,1.1923604E-1,0E0,0E0,0E0,0E0,4.625251E-2,0E0,0E0,0E0,7.1658716E-2,1.9369675E-2,0E0,0E0,0E0,0E0,0E0,0E0],"parents":[2147483647,0,0,1,1,2,2,5,5,6,6,7,7,9,9,10,10,12,12,13,13,14,14,15,15,16,16,21,21,25,25,26,26],"right_children":[2,4,6,-1,-1,8,10,12,-1,14,16,-1,18,20,22,24,26,-1,-1,-1,-1,28,-1,-1,-1,30,32,-1,-1,-1,-1,-1,-1],"split_conditions":[1.12E1,2.315E0,2.35408E3,7.768707E-3,2.8377423E-2,1.05729E3,1.33753E3,2.62E2,-5.5176546E-3,3E0,1.034452E4,-1.9148072E-2,1.814E2,2.571E1,1.079643E4,3.4215397E5,2.64E2,-1.1149569E-2,-2.4419785E-3,-4.2930287E-3,-1.5292168E-3,3.941367E4,1.2857874E-2,-3.0953586E-2,-1.3333142E-2,2.06963E3,3.34991E3,-6.3366294E-3,5.0075534E-3,-2.7644634E-4,-9.258902E-3,3.9824573E-4,6.39987E-3],"split_indices":[0,13,3,0,0,3,1,2,0,39,3,0,9,0,3,12,28,0,0,0,0,25,0,0,0,1,16,0,0,0,0,0,0],"split_type":[0,0,0,0,0,0,0,0,0,0,0,0,0,0,0,0,0,0,0,0,0,0,0,0,0,0,0,0,0,0,0,0,0],"sum_hessian":[1.69E2,1E1,1.59E2,4E0,6E0,2.3E1,1.36E2,1.4E1,9E0,7.3E1,6.3E1,5E0,9E0,8E0,6.5E1,6E0,5.7E1,6E0,3E0,5E0,3E0,5.9E1,6E0,3E0,3E0,3.6E1,2.1E1,3E0,5.6E1,1.5E1,2.1E1,1E1,1.1E1],"tree_param":{"num_deleted":"0","num_feature":"40","num_nodes":"33","size_leaf_vector":"1"}},{"base_weights":[-2.2464497E-3,-1.0197869E-1,7.887918E-2,-4.0219147E-2,-7.907808E-2,6.491036E-2,3.0616075E-2,-1.3646325E-1,-5.9547972E-2,3.610211E-2,8.86599E-2,-1.5471729E-2,-6.171007E-3,-7.259437E-2,-2.688262E-2,5.9802714E-4,5.077283E-2,9.6821904E-2,4.3440077E-2,-8.00844E-2,-1.9300142E-3,3.7662507E-4,-3.6602754E-2,3.3023834E-2,-3.1913213E-2,6.874004E-2,1.5122847E-2,7.196236E-2,1.2805986E-1,5.667038E-3,2.1521759E-3,-9.3289465E-3,-5.259279E-3,-4.2690467E-3,-1.2232781E-3,6.322861E-4,5.146885E-3,-4.288292E-3,-1.2965202E-3,8.163238E-3,-1.4305115E-6,3.79591E-3,1.8143654E-4,8.299294E-3,1.344757E-3,1.501812E-2,7.81637E-3],"categories":[],"categories_nodes":[],"categories_segments":[],"categories_sizes":[],"default_left":[0,0,0,0,0,0,0,0,0,0,0,0,0,0,0,0,0,0,0,0,0,0,0,0,0,0,0,0,0,0,0,0,0,0,0,0,0,0,0,0,0,0,0,0,0,0,0],"id":52,"left_children":[1,3,5,-1,7,9,-1,11,13,15,17,-1,-1,19,21,23,25,27,29,31,-1,-1,33,35,37,39,41,43,45,-1,-1,-1,-1,-1,-1,-1,-1,-1,-1,-1,-1,-1,-1,-1,-1,-1,-1],"loss_changes":[1.3349417E0,4.7694957E-1,2.6903874E-1,0E0,7.032561E-2,5.632311E-2,0E0,1.3649732E-2,2.1061406E-2,2.1325324E-2,1.3141006E-2,0E0,0E0,1.3623014E-2,5.2023446E-3,1.4758538E-2,1.753585E-2,2.107042E-2,1.3902262E-3,7.073596E-3,0E0,0E0,1.4064237E-3,3.1220694E-3,8.989922E-4,1.6842842E-2,3.2742026E-3,1.43748075E-2,5.9216022E-3,0E0,0E0,0E0,0E0,0E0,0E0,0E0,0E0,0E0,0E0,0E0,0E0,0E0,0E0,0E0,0E0,0E0,0E0],"parents":[2147483647,0,0,1,1,2,2,4,4,5,5,7,7,8,8,9,9,10,10,13,13,14,14,15,15,16,16,17,17,18,18,19,19,22,22,23,23,24,24,25,25,26,26,27,27,28,28],"right_children":[2,4,6,-1,8,10,-1,12,14,16,18,-1,-1,20,22,24,26,28,30,32,-1,-1,34,36,38,40,42,44,46,-1,-1,-1,-1,-1,-1,-1,-1,-1,-1,-1,-1,-1,-1,-1,-1,-1,-1],"split_conditions":[9.39E2,1.33E2,1.546E3,-4.0219147E-2,2.93E2,1.262E3,3.0616075E-2,3.92E2,6.92E2,6.4275E0,6.01192E2,-1.5471729E-2,-6.171007E-3,1.053103E4,6.93788E2,1.7E2,4.52E2,6.015E0,1.306E3,2.65E2,-1.9300142E-3,3.7662507E-4,1.056992E3,1.41525E2,3.3333334E-1,2.77E2,6.0466667E1,5.886667E0,8.875E0,5.667038E-3,2.1521759E-3,-9.3289465E-3,-5.259279E-3,-4.2690467E-3,-1.2232781E-3,6.322861E-4,5.146885E-3,-4.288292E-3,-1.2965202E-3,8.163238E-3,-1.4305115E-6,3.79591E-3,1.8143654E-4,8.299294E-3,1.344757E-3,1.501812E-2,7.81637E-3],"split_indices":[4,4,4,0,4,4,0,2,4,13,24,0,0,29,37,28,2,13,4,17,0,0,37,22,20,28,22,13,13,0,0,0,0,0,0,0,0,0,0,0,0,0,0,0,0,0,0],"split_type":[0,0,0,0,0,0,0,0,0,0,0,0,0,0,0,0,0,0,0,0,0,0,0,0,0,0,0,0,0,0,0,0,0,0,0,0,0,0,0,0,0,0,0,0,0,0,0],"sum_hessian":[1.63E2,7.3E1,9E1,4E0,6.9E1,8.6E1,4E0,1.6E1,5.3E1,4E1,4.6E1,1.2E1,4E0,3.7E1,1.6E1,1.2E1,2.8E1,3.8E1,8E0,3.2E1,5E0,4E0,1.2E1,6E0,6E0,1.8E1,1E1,2.3E1,1.5E1,4E0,4E0,2E1,1.2E1,9E0,3E0,3E0,3E0,3E0,3E0,1.5E1,3E0,3E0,7E0,1.9E1,4E0,9E0,6E0],"tree_param":{"num_deleted":"0","num_feature":"40","num_nodes":"47","size_leaf_vector":"1"}},{"base_weights":[-2.8076908E-3,-9.479977E-2,6.821672E-2,-3.7001602E-2,-7.284633E-2,5.4057218E-2,2.6215998E-2,-1.1359005E-1,-3.876322E-2,3.386494E-2,8.770442E-2,-1.4456661E-2,-8.490753E-2,-4.905466E-2,-1.519856E-2,7.110596E-2,2.5220789E-2,2.6291849E-3,9.315083E-2,-1.4312983E-3,-9.8072246E-2,-6.0124848E-2,-1.6631126E-2,-2.6884556E-2,1.7816067E-3,2.448082E-3,8.75909E-3,7.3163607E-3,1.9059515E-2,6.084315E-2,1.0951424E-1,-1.4730294E-2,-5.87266E-3,-8.162989E-3,-4.3920223E-3,-3.2025527E-3,6.7696575E-4,-8.7503437E-4,-3.751564E-3,4.2128325E-3,5.1966397E-4,2.1507263E-3,9.65945E-3,1.2678771E-2,7.2073936E-3],"categories":[],"categories_nodes":[],"categories_segments":[],"categories_sizes":[],"default_left":[0,0,0,0,0,0,0,0,0,0,0,0,0,0,0,0,0,0,0,0,0,0,0,0,0,0,0,0,0,0,0,0,0,0,0,0,0,0,0,0,0,0,0,0,0],"id":53,"left_children":[1,3,5,-1,7,9,-1,11,13,15,17,-1,19,21,23,25,27,-1,29,-1,31,33,35,37,-1,-1,-1,-1,39,41,43,-1,-1,-1,-1,-1,-1,-1,-1,-1,-1,-1,-1,-1,-1],"loss_changes":[1.0649236E0,4.020238E-1,2.3847318E-1,0E0,8.863798E-2,5.6138873E-2,0E0,1.437977E-2,8.46998E-3,